#ifndef LENET_WEIGHTS_H
#define LENET_WEIGHTS_H

// This file was generated by an automated Python script.
// It contains the weights and biases for the LeNet-5 model.

// Layer: C1 - Weights
const float C1_weights[] = {
    -0.058893f, -0.067287f, -0.239791f, 0.273120f, 0.081439f, 0.075590f, -0.075294f, -0.221981f, -0.558609f, 0.345701f, -0.088615f, 0.334886f, 
    -0.019415f, -0.377945f, -0.451701f, 0.301813f, -0.197805f, 0.014030f, -0.352245f, -0.392328f, -0.204246f, 0.255650f, -0.250524f, 0.003856f, 
    -0.257912f, -0.151472f, -0.167265f, 0.225638f, -0.119650f, 0.100250f, -0.127918f, -0.094182f, -0.378118f, -0.169937f, 0.228933f, 0.143811f, 
    -0.160284f, -0.574247f, -0.682068f, 0.077235f, -0.244654f, 0.094288f, -0.649831f, -0.551185f, -0.315754f, 0.003100f, 0.142135f, -0.235727f, 
    -0.553138f, -0.311954f, -0.285318f, -0.150846f, 0.359703f, -0.415209f, -0.329979f, 0.128434f, 0.026102f, -0.174083f, 0.331709f, -0.387237f, 
    0.213941f, -0.071092f, 0.028925f, -0.131607f, -0.113259f, 0.165371f, -0.049693f, -0.256078f, 0.044376f, -0.310675f, -0.054370f, -0.021684f, 
    -0.390961f, -0.373857f, 0.103265f, -0.617283f, -0.067832f, -0.197368f, -0.082374f, -0.140199f, 0.166756f, -0.474687f, 0.353254f, -0.506561f, 
    -0.136901f, 0.311809f, 0.259658f, -0.506595f, 0.424615f, -0.328328f, 0.299726f, 0.210198f, 0.233608f, -0.267590f, -0.216606f, 0.252448f, 
    0.075721f, 0.127743f, 0.268772f, -0.621940f, -0.192857f, 0.113601f, -0.215512f, 0.188652f, 0.471969f, -0.461640f, 0.242623f, -0.305064f, 
    0.063014f, 0.285265f, 0.183553f, -0.277346f, 0.605023f, -0.420125f, 0.368660f, 0.245847f, 0.219562f, -0.265720f, 0.249425f, -0.302455f, 
    0.368921f, 0.398397f, 0.256121f, -0.254733f, -0.287674f, 0.372657f, -0.080402f, 0.191044f, 0.428813f, -0.017270f, -0.359364f, 0.232584f, 
    0.026293f, 0.253901f, 0.098777f, -0.099800f, -0.152821f, -0.205818f, 0.267353f, 0.248792f, 0.051586f, 0.128911f, 0.264576f, -0.337113f, 
    0.293389f, 0.234856f, -0.046667f, 0.152141f, 0.114305f, 0.009916f, 
};

// Layer: C1 - Biases
const float C1_biases[] = {
    0.112315f, 0.076584f, 0.065398f, 0.095407f, -0.046433f, 0.003021f, 
};

// Layer: C3 - Weights
const float C3_weights[] = {
    -0.162049f, 0.080775f, -0.178474f, 0.216296f, -0.017508f, -0.107330f, 0.074016f, 0.084174f, 0.084849f, -0.146146f, -0.200192f, 0.167226f, 
    0.064270f, -0.037287f, -0.026143f, 0.006388f, 0.041183f, 0.167131f, -0.000292f, 0.182985f, 0.146516f, -0.029159f, 0.190637f, -0.045355f, 
    0.123734f, 0.028356f, -0.054468f, 0.262965f, 0.026756f, -0.130226f, -0.028282f, 0.136881f, 0.076256f, 0.049618f, 0.007464f, 0.086282f, 
    0.072901f, -0.145086f, 0.066747f, -0.010992f, 0.072928f, 0.093291f, -0.022432f, 0.326395f, 0.069706f, -0.137716f, 0.037306f, 0.057753f, 
    0.199317f, -0.156387f, -0.127315f, -0.026759f, -0.100838f, -0.108530f, 0.161838f, 0.086397f, -0.051027f, -0.008801f, -0.107324f, 0.009531f, 
    0.012576f, -0.049865f, 0.033933f, -0.069142f, 0.114444f, 0.115401f, 0.154286f, -0.264327f, 0.186008f, -0.111935f, -0.084982f, -0.027390f, 
    -0.125406f, -0.020593f, 0.221997f, -0.067985f, -0.124192f, -0.015586f, -0.185902f, -0.004142f, 0.051903f, -0.270439f, -0.122480f, 0.184831f, 
    0.018832f, -0.042372f, 0.149758f, 0.037416f, 0.123511f, 0.016574f, -0.200876f, 0.187467f, 0.109463f, 0.002712f, 0.047897f, -0.084982f, 
    -0.056195f, -0.058400f, -0.123328f, 0.088672f, -0.318932f, -0.223121f, 0.013149f, 0.097578f, 0.178914f, -0.169807f, -0.142488f, 0.284840f, 
    -0.027395f, -0.130979f, 0.056048f, 0.098250f, -0.108157f, 0.018404f, 0.013686f, 0.128025f, -0.191107f, -0.109604f, -0.067784f, -0.091468f, 
    0.169819f, -0.081802f, -0.069927f, 0.355705f, 0.087753f, 0.082743f, -0.041769f, 0.142508f, -0.084734f, 0.169015f, -0.071372f, 0.187116f, 
    -0.028069f, -0.153576f, -0.032728f, -0.078464f, 0.034061f, -0.030471f, -0.086924f, 0.392920f, -0.038672f, 0.126176f, -0.138742f, 0.075301f, 
    0.066137f, -0.087917f, 0.046526f, -0.017938f, 0.038461f, 0.035160f, 0.130076f, 0.011131f, 0.134826f, 0.009186f, -0.175248f, 0.135326f, 
    0.066360f, -0.099547f, 0.019138f, -0.056550f, 0.109397f, 0.273854f, 0.034644f, -0.089721f, 0.145587f, -0.046539f, -0.125582f, -0.192057f, 
    -0.324060f, 0.156225f, 0.108659f, -0.083349f, -0.133621f, 0.189096f, 0.110267f, 0.437612f, -0.085612f, -0.162135f, -0.137218f, -0.000858f, 
    -0.197659f, 0.112083f, 0.237003f, 0.194229f, 0.235787f, -0.025904f, -0.149102f, 0.162921f, 0.223827f, -0.093518f, 0.072194f, -0.524761f, 
    -0.172082f, -0.025223f, -0.075249f, 0.258801f, -0.354374f, 0.040046f, -0.017005f, 0.080252f, 0.201852f, -0.112432f, -0.173210f, 0.055527f, 
    0.062354f, 0.006665f, -0.055378f, -0.160440f, -0.224520f, -0.090879f, -0.041489f, 0.364985f, -0.409201f, -0.053895f, -0.193450f, -0.133270f, 
    0.170241f, -0.232147f, -0.148883f, 0.098264f, 0.063677f, 0.083173f, 0.146839f, -0.042052f, -0.036593f, 0.141448f, -0.022294f, 0.244743f, 
    -0.227568f, -0.094181f, -0.180178f, -0.122494f, 0.081502f, -0.135980f, -0.168098f, 0.276056f, -0.045357f, 0.018066f, 0.133711f, 0.093623f, 
    0.000512f, -0.110735f, 0.038201f, 0.194514f, 0.144805f, 0.024391f, 0.003581f, 0.235846f, 0.212841f, -0.209114f, -0.226544f, 0.184387f, 
    -0.041466f, 0.017307f, -0.090680f, -0.025256f, 0.291486f, 0.172400f, 0.053487f, -0.147282f, -0.129248f, 0.220437f, -0.072401f, -0.082099f, 
    -0.350710f, 0.216281f, -0.111804f, -0.061162f, -0.122840f, 0.105037f, 0.382986f, 0.043873f, -0.256253f, -0.152577f, -0.092205f, 0.035011f, 
    0.041454f, -0.190849f, 0.118612f, 0.064111f, 0.228485f, -0.057210f, 0.172063f, 0.120323f, 0.151990f, -0.173307f, -0.218749f, -0.306186f, 
    -0.175465f, -0.038655f, -0.059567f, 0.106582f, -0.256426f, -0.116453f, -0.082713f, -0.101451f, 0.136180f, -0.066889f, -0.015759f, -0.019527f, 
    0.118985f, 0.096965f, -0.105708f, 0.022004f, 0.048620f, -0.055158f, 0.009822f, 0.354336f, -0.349613f, -0.029220f, -0.054794f, -0.104300f, 
    -0.009628f, -0.135401f, -0.256110f, 0.164697f, 0.043985f, 0.003659f, -0.067120f, -0.198541f, -0.001307f, 0.145769f, 0.020089f, 0.191276f, 
    -0.405446f, 0.143479f, -0.093710f, -0.069589f, 0.051892f, 0.068260f, -0.171519f, 0.181830f, 0.102679f, 0.005858f, 0.056047f, -0.046699f, 
    -0.186857f, -0.059439f, 0.023003f, 0.011890f, 0.134044f, -0.044010f, -0.074303f, 0.031143f, 0.084644f, -0.290438f, 0.003210f, 0.117647f, 
    0.009043f, 0.146910f, -0.289835f, 0.032248f, 0.275170f, 0.207658f, 0.021741f, -0.058623f, 0.210869f, 0.100037f, 0.092094f, 0.198944f, 
    -0.022096f, -0.002334f, -0.091460f, -0.051755f, -0.042597f, 0.135238f, -0.222035f, -0.143389f, -0.300649f, 0.000980f, 0.064054f, 0.069296f, 
    -0.016751f, -0.203333f, -0.033047f, 0.002824f, 0.024060f, 0.008952f, 0.240134f, 0.120915f, 0.181102f, -0.169937f, 0.004140f, 0.003055f, 
    0.060998f, -0.028460f, 0.098213f, 0.039930f, -0.240919f, 0.024815f, -0.220815f, -0.102115f, 0.038775f, -0.105951f, -0.006721f, -0.100224f, 
    0.060669f, 0.044206f, 0.010974f, -0.092780f, -0.085335f, 0.151482f, 0.055433f, 0.003332f, -0.253551f, -0.018877f, -0.231672f, -0.154176f, 
    -0.014491f, -0.183354f, 0.035020f, -0.041957f, 0.137733f, 0.011410f, -0.166904f, -0.012510f, 0.140353f, 0.080892f, 0.143632f, 0.019193f, 
    -0.168542f, 0.074193f, -0.152886f, -0.007225f, -0.018959f, 0.037001f, -0.154500f, 0.069739f, 0.162397f, -0.010880f, -0.251459f, -0.169787f, 
    -0.043025f, -0.054553f, -0.053337f, -0.085272f, 0.004799f, 0.027684f, -0.238885f, 0.045599f, 0.199126f, -0.176290f, 0.003196f, 0.041889f, 
    -0.031119f, 0.199086f, -0.170822f, -0.021893f, 0.080987f, 0.140578f, 0.054866f, -0.148001f, 0.330889f, -0.204995f, 0.038057f, 0.113071f, 
    0.156939f, 0.170525f, 0.263560f, 0.040773f, 0.063851f, 0.128209f, -0.228945f, 0.158318f, -0.106343f, 0.115003f, -0.032748f, 0.087209f, 
    -0.109119f, 0.022392f, -0.051328f, -0.202928f, 0.034779f, 0.043210f, -0.216602f, 0.028003f, 0.154113f, -0.071755f, 0.310300f, -0.009595f, 
    -0.005666f, -0.203865f, -0.098880f, 0.126526f, 0.094980f, 0.082783f, 0.284736f, 0.013828f, -0.019315f, -0.103034f, -0.048438f, 0.051924f, 
    -0.066312f, -0.042385f, 0.104052f, 0.076046f, 0.040602f, -0.229970f, 0.015137f, 0.186716f, -0.124202f, 0.110488f, 0.042752f, -0.094904f, 
    0.057611f, -0.016543f, 0.116489f, 0.101304f, -0.094248f, 0.132640f, -0.018842f, 0.243093f, 0.150881f, -0.083679f, 0.005151f, 0.131258f, 
    -0.138776f, 0.001336f, 0.118717f, -0.034483f, -0.092915f, -0.064880f, 0.091030f, 0.079329f, -0.209295f, -0.065428f, -0.148189f, 0.093449f, 
    0.140379f, 0.158635f, -0.071461f, 0.029973f, 0.017361f, 0.008950f, -0.107331f, -0.063842f, 0.090407f, 0.067746f, 0.012995f, 0.000139f, 
    -0.107931f, -0.041931f, 0.021967f, -0.086489f, -0.207823f, 0.017586f, 0.155945f, -0.125111f, 0.065353f, -0.072601f, -0.303169f, 0.072894f, 
    0.003415f, -0.366850f, 0.342023f, 0.085974f, -0.312626f, 0.136838f, -0.162503f, -0.000605f, 0.171126f, -0.129104f, -0.053623f, -0.095939f, 
    0.073162f, 0.117109f, 0.144836f, 0.029295f, -0.042248f, 0.263380f, -0.249233f, -0.049421f, 0.322493f, 0.027718f, 0.239146f, -0.055746f, 
    -0.011434f, -0.155636f, -0.179828f, 0.153411f, -0.123326f, 0.145347f, 0.184499f, 0.202765f, 0.096966f, 0.125283f, -0.174784f, 0.105119f, 
    -0.019945f, -0.023150f, 0.013431f, 0.002889f, 0.088809f, -0.354023f, -0.074506f, 0.244479f, -0.215285f, 0.280096f, 0.221329f, 0.009922f, 
    0.097564f, 0.015062f, -0.124753f, 0.187395f, -0.015041f, 0.084056f, 0.114942f, 0.125424f, 0.081229f, -0.413376f, 0.206502f, 0.430834f, 
    -0.346835f, 0.215160f, -0.026202f, 0.082707f, -0.014183f, -0.098445f, 0.081027f, 0.132117f, -0.156810f, 0.165846f, 0.080035f, 0.301876f, 
    0.155179f, 0.225362f, -0.122622f, -0.060311f, 0.239926f, 0.057389f, -0.092694f, -0.085985f, 0.035520f, 0.066744f, -0.254301f, 0.010565f, 
    0.104195f, -0.056422f, 0.044388f, -0.048533f, -0.211083f, -0.185230f, 0.116760f, 0.297355f, 0.067494f, -0.002196f, -0.314320f, 0.009972f, 
    -0.171573f, -0.001452f, 0.086726f, -0.089559f, -0.193274f, 0.140469f, 0.263559f, 0.662073f, 0.167037f, 0.101702f, -0.073213f, -0.201160f, 
    0.047997f, -0.090991f, 0.162848f, 0.126453f, 0.128191f, 0.172999f, -0.154874f, 0.092747f, 0.096798f, 0.005723f, -0.095308f, -0.658815f, 
    -0.320824f, -0.218000f, -0.036073f, 0.194500f, 0.062455f, 0.007004f, -0.006018f, 0.151481f, 0.237547f, -0.178273f, -0.141643f, 0.217210f, 
    -0.038572f, 0.060374f, -0.344207f, -0.041529f, -0.231136f, -0.480371f, -0.068978f, 0.295168f, 0.002973f, 0.361018f, 0.141902f, 0.120683f, 
    0.228269f, -0.203090f, -0.329768f, 0.134503f, 0.027123f, 0.149977f, -0.080762f, -0.226798f, -0.076918f, -0.582678f, -0.091701f, 0.483494f, 
    -0.286327f, 0.208090f, -0.013106f, 0.032093f, 0.167795f, -0.226150f, -0.165362f, 0.177512f, 0.049532f, 0.035645f, 0.181164f, 0.040017f, 
    0.113354f, 0.255469f, 0.077183f, -0.264853f, 0.408793f, 0.009632f, 0.028260f, 0.033442f, 0.033572f, 0.119855f, -0.125677f, 0.054413f, 
    -0.006835f, -0.017972f, -0.255531f, -0.155849f, 0.234994f, 0.053693f, -0.021529f, 0.169102f, -0.392064f, 0.156204f, -0.325627f, 0.025384f, 
    -0.218994f, -0.140690f, -0.420800f, 0.026292f, -0.331709f, 0.134639f, 0.233074f, -0.132179f, -0.033689f, 0.099094f, 0.053559f, -0.224686f, 
    0.386709f, -0.154298f, 0.130486f, 0.028270f, 0.271817f, 0.096595f, 0.316339f, 0.061478f, 0.204240f, -0.044537f, -0.276688f, 0.022042f, 
    -0.167319f, -0.195503f, -0.040529f, 0.106388f, 0.019537f, -0.011852f, -0.049765f, -0.032166f, 0.173169f, -0.157045f, 0.129377f, 0.145534f, 
    0.127448f, -0.105268f, -0.196318f, 0.057640f, -0.201849f, -0.363777f, -0.236975f, 0.043005f, 0.006105f, 0.069880f, -0.109037f, 0.171816f, 
    0.454225f, -0.328713f, -0.072072f, 0.113003f, 0.139496f, -0.072202f, -0.286352f, 0.021140f, -0.323160f, -0.423708f, -0.178722f, 0.281708f, 
    -0.176760f, 0.249750f, -0.131185f, 0.038525f, 0.332294f, -0.334481f, -0.163376f, 0.181221f, 0.084399f, -0.061003f, -0.122309f, -0.230316f, 
    -0.034734f, 0.212941f, 0.031036f, -0.115066f, 0.464071f, 0.053364f, 0.048816f, 0.053087f, 0.064169f, 0.151127f, 0.072837f, -0.025289f, 
    0.044051f, -0.015103f, -0.108371f, 0.005154f, 0.481940f, 0.239349f, 0.116610f, -0.145229f, -0.004427f, 0.097273f, 0.032041f, 0.087120f, 
    -0.183259f, -0.095830f, 0.021999f, -0.218058f, 0.072426f, 0.250910f, -0.248696f, -0.210901f, -0.243122f, -0.131443f, -0.075584f, 0.099714f, 
    0.061310f, -0.182245f, 0.205406f, -0.138494f, 0.243222f, 0.225865f, 0.072229f, 0.163575f, 0.003144f, -0.127218f, 0.159375f, 0.099164f, 
    -0.238777f, 0.007053f, -0.173909f, 0.051085f, 0.114243f, -0.042068f, -0.061803f, -0.021648f, 0.193971f, -0.223944f, -0.145376f, 0.108499f, 
    0.069221f, -0.053152f, -0.033550f, -0.096011f, -0.121784f, -0.265234f, -0.208485f, -0.124054f, 0.152347f, 0.059944f, -0.234378f, -0.124721f, 
    0.118616f, -0.152912f, 0.047905f, 0.071710f, 0.085147f, 0.032093f, -0.181613f, -0.010574f, -0.202991f, -0.318577f, -0.140289f, -0.092867f, 
    0.034168f, -0.063779f, -0.233237f, 0.019826f, 0.260509f, -0.254449f, 0.123330f, 0.042650f, 0.147302f, 0.038465f, -0.025587f, -0.022227f, 
    -0.088264f, 0.034326f, 0.094301f, -0.106691f, 0.228912f, -0.024821f, -0.072818f, -0.086153f, 0.203264f, 0.127560f, -0.183271f, 0.116470f, 
    -0.012287f, 0.085530f, 0.124321f, 0.101011f, 0.352360f, 0.136562f, 0.133463f, -0.001733f, 0.080686f, -0.204192f, -0.107212f, 0.164080f, 
    -0.173607f, 0.006243f, 0.167057f, -0.095804f, 0.080369f, 0.025130f, -0.116940f, 0.024195f, -0.309883f, 0.056770f, -0.016290f, 0.080643f, 
    -0.107827f, 0.037312f, 0.146521f, -0.096963f, 0.045354f, 0.073508f, -0.231220f, 0.192211f, -0.018623f, -0.171335f, 0.242589f, -0.087197f, 
    0.055290f, 0.019858f, -0.232029f, 0.183338f, 0.186002f, 0.058312f, -0.125003f, -0.051170f, -0.087906f, 0.084168f, 0.009004f, -0.127964f, 
    0.166828f, -0.086139f, -0.002284f, -0.039774f, 0.112141f, -0.021685f, -0.389140f, 0.105908f, 0.174627f, -0.038691f, -0.109276f, -0.062809f, 
    0.055763f, -0.025970f, 0.158097f, -0.165869f, 0.163330f, 0.047146f, 0.127085f, 0.214294f, -0.062610f, -0.287399f, -0.300100f, 0.170910f, 
    0.007898f, 0.031213f, -0.017248f, -0.099405f, 0.048568f, -0.166593f, 0.054633f, -0.306530f, 0.064481f, 0.127702f, 0.037627f, -0.011054f, 
    0.005508f, 0.244706f, 0.097548f, -0.066668f, 0.155765f, 0.052623f, -0.060210f, -0.011663f, -0.093639f, 0.130881f, -0.218655f, -0.078969f, 
    -0.271735f, 0.034298f, -0.057174f, -0.155065f, -0.178890f, -0.159663f, 0.035966f, 0.007327f, 0.020292f, 0.185918f, 0.123402f, -0.059759f, 
    0.025230f, -0.384695f, 0.366896f, 0.027775f, 0.028810f, -0.044389f, 0.057550f, 0.186990f, 0.141338f, 0.162906f, 0.039091f, -0.108620f, 
    0.095891f, -0.024354f, -0.064882f, -0.032034f, -0.091805f, 0.243022f, -0.294488f, 0.089458f, 0.031909f, -0.008293f, -0.069672f, -0.142465f, 
    0.121567f, 0.301434f, -0.127618f, -0.105702f, 0.168530f, 0.166251f, 0.030117f, -0.178891f, 0.117967f, 0.136461f, -0.287020f, -0.091106f, 
    0.246573f, 0.008373f, -0.091444f, -0.376357f, 0.148616f, 0.189895f, -0.429913f, 0.071508f, 0.229948f, 0.266518f, 0.109384f, -0.050233f, 
    0.185374f, 0.327099f, -0.225436f, -0.178258f, 0.291991f, -0.121484f, -0.045086f, -0.074748f, 0.087644f, 0.010064f, -0.405205f, 0.250731f, 
    0.066937f, 0.288153f, -0.044760f, -0.091363f, 0.009760f, 0.076954f, 0.023639f, -0.280916f, 0.266728f, 0.109337f, 0.249008f, -0.008667f, 
    0.165697f, 0.296329f, 0.302247f, -0.137321f, 0.075841f, -0.110569f, -0.185400f, -0.158298f, -0.259628f, 0.157743f, -0.140838f, -0.095937f, 
    -0.209088f, -0.035812f, -0.281437f, -0.110541f, -0.333366f, -0.162793f, -0.293669f, 0.118569f, 0.123582f, 0.165707f, 0.096409f, -0.050833f, 
    0.248739f, 0.071318f, -0.014010f, -0.032803f, 0.052563f, -0.213193f, 0.104930f, 0.494723f, 0.265025f, 0.151257f, 0.186726f, -0.080943f, 
    -0.252090f, -0.222090f, -0.013368f, -0.040602f, -0.270217f, 0.053245f, -0.089883f, 0.079514f, -0.063686f, 0.057276f, -0.204898f, -0.542908f, 
    0.198292f, 0.353699f, -0.066872f, -0.203751f, 0.333134f, 0.037003f, 0.054097f, -0.194853f, 0.046615f, 0.205247f, 0.104460f, 0.031738f, 
    0.145586f, 0.044639f, -0.274660f, 0.065133f, 0.176952f, 0.346444f, -0.116424f, -0.266788f, 0.382141f, 0.144682f, 0.277197f, -0.309095f, 
    0.185510f, 0.285630f, -0.167952f, -0.014343f, 0.422718f, -0.016604f, -0.434665f, -0.348022f, 0.107045f, 0.318403f, -0.512519f, -0.118992f, 
    0.386404f, 0.179558f, 0.181485f, -0.221752f, 0.345572f, 0.331727f, -0.285859f, 0.072602f, 0.348175f, -0.128478f, -0.331063f, -0.157643f, 
    0.124698f, 0.310734f, 0.306520f, 0.023678f, 0.117840f, -0.054096f, -0.079711f, -0.211575f, -0.244399f, 0.128269f, -0.013178f, -0.116296f, 
    -0.214734f, 0.046881f, -0.125385f, -0.124150f, -0.332334f, -0.258746f, -0.123676f, 0.038541f, -0.203415f, -0.074049f, -0.241301f, 0.017637f, 
    0.093262f, -0.067441f, -0.382899f, 0.017892f, -0.455386f, -0.217146f, -0.189241f, -0.216945f, 0.326617f, 0.193313f, 0.207018f, 0.045557f, 
    0.248212f, -0.016104f, 0.262964f, -0.023546f, -0.185724f, -0.066323f, 0.258766f, 0.114876f, 0.171185f, 0.077437f, 0.168686f, 0.123909f, 
    0.043853f, 0.305408f, 0.017337f, -0.173313f, 0.410246f, -0.078770f, 0.118384f, -0.237694f, 0.071621f, 0.296804f, 0.129652f, 0.031860f, 
    0.227490f, -0.121355f, -0.016780f, 0.203977f, 0.116587f, 0.340742f, -0.062324f, -0.227119f, 0.452652f, -0.119793f, 0.322475f, -0.264526f, 
    0.270995f, 0.269450f, 0.074040f, -0.171229f, 0.285194f, 0.009934f, -0.386573f, 0.264578f, -0.062194f, 0.158598f, -0.278418f, -0.209214f, 
    0.346280f, 0.026466f, 0.291186f, -0.177750f, 0.467543f, 0.229489f, 0.032067f, -0.015581f, 0.287323f, -0.109273f, -0.410036f, 0.070208f, 
    0.268914f, 0.333270f, 0.518693f, -0.032449f, 0.173597f, 0.160458f, 0.060499f, -0.161957f, -0.023053f, -0.061149f, -0.023566f, 0.108966f, 
    -0.213493f, -0.012458f, 0.065748f, 0.163365f, 0.052487f, -0.123340f, -0.045544f, 0.046435f, -0.089224f, 0.009504f, -0.208748f, 0.041740f, 
    0.001524f, -0.161030f, 0.037600f, -0.298121f, -0.097872f, 0.050139f, -0.066121f, -0.064831f, -0.053053f, 0.154520f, 0.084048f, 0.119884f, 
    0.087614f, -0.054765f, 0.218387f, -0.074238f, 0.033863f, 0.226634f, -0.080322f, 0.304071f, 0.068691f, -0.100083f, 0.229083f, 0.074847f, 
    -0.244247f, 0.165025f, -0.020200f, -0.052429f, 0.014994f, 0.043770f, 0.028517f, -0.038587f, 0.180767f, 0.081049f, -0.056776f, 0.326227f, 
    0.008067f, -0.044767f, 0.075784f, 0.030966f, -0.122883f, 0.063941f, -0.054806f, -0.158140f, 0.316178f, 0.101765f, 0.133473f, -0.116471f, 
    0.259263f, 0.223950f, -0.139209f, 0.129077f, 0.136725f, 0.044578f, -0.022723f, 0.333051f, -0.214012f, 0.115606f, -0.294212f, -0.234132f, 
    0.364233f, 0.047003f, 0.066606f, 0.016629f, 0.364745f, 0.361222f, 0.115486f, 0.020304f, 0.180568f, -0.068221f, 0.029039f, 0.399823f, 
    0.043038f, 0.271542f, 0.422226f, -0.013021f, 0.020915f, -0.012197f, 0.082412f, -0.019773f, 0.081751f, -0.122151f, 0.096485f, 0.079587f, 
    -0.044379f, 0.042828f, 0.257675f, 0.087121f, 0.418797f, 0.004996f, -0.004363f, -0.029547f, 0.150643f, 0.107349f, -0.173397f, 0.302513f, 
    -0.197731f, -0.084142f, 0.199743f, -0.075512f, 0.070123f, -0.035069f, 0.082416f, 0.021331f, -0.346474f, 0.052817f, -0.022923f, 0.032229f, 
    -0.169136f, 0.122711f, 0.146501f, -0.184593f, -0.020208f, -0.000982f, -0.162368f, 0.220579f, -0.099173f, 0.193216f, 0.023300f, -0.226333f, 
    0.113300f, 0.145988f, -0.052036f, -0.160039f, 0.049442f, -0.021822f, -0.290757f, -0.134113f, -0.085652f, 0.298430f, -0.305327f, -0.068242f, 
    -0.258271f, 0.116247f, -0.214158f, 0.012774f, 0.054814f, 0.052457f, -0.284243f, 0.010153f, 0.073707f, 0.072619f, -0.221599f, -0.268606f, 
    -0.178634f, 0.226588f, -0.047476f, 0.052503f, -0.276940f, 0.143907f, -0.078528f, -0.028376f, -0.087469f, 0.112358f, -0.481954f, 0.054491f, 
    -0.028696f, 0.130131f, -0.256550f, -0.284604f, -0.204203f, 0.018237f, 0.094673f, 0.035737f, -0.194947f, 0.181338f, -0.021714f, 0.030933f, 
    -0.163896f, 0.142628f, 0.285661f, 0.002789f, -0.089649f, -0.039900f, -0.107757f, -0.003984f, 0.063324f, 0.114569f, -0.170253f, -0.091770f, 
    -0.254401f, 0.003777f, -0.061583f, -0.105875f, -0.070957f, 0.073627f, 0.006570f, 0.067582f, -0.137553f, 0.050522f, 0.130787f, -0.142611f, 
    0.072219f, -0.273501f, 0.214383f, -0.019701f, 0.108458f, -0.071239f, 0.018606f, 0.464161f, 0.071262f, -0.165067f, 0.173339f, -0.180338f, 
    0.149173f, -0.148134f, -0.030950f, 0.186721f, 0.122377f, 0.351848f, -0.282453f, 0.162192f, -0.058960f, 0.141714f, 0.095985f, -0.208150f, 
    0.155642f, 0.129005f, 0.417248f, -0.069546f, 0.023794f, 0.050030f, -0.284613f, -0.221912f, -0.207325f, 0.143000f, -0.170769f, -0.125051f, 
    -0.273066f, -0.089642f, -0.175594f, -0.336069f, 0.023212f, 0.317071f, 0.157834f, -0.077678f, -0.046148f, -0.057196f, -0.132040f, -0.314159f, 
    -0.327989f, 0.384793f, -0.421809f, 0.034629f, -0.189452f, 0.044873f, -0.412787f, -0.261166f, -0.046040f, 0.270875f, -0.082744f, -0.051625f, 
    -0.056522f, 0.001976f, -0.304224f, -0.379450f, -0.240875f, 0.326555f, -0.165454f, -0.092660f, -0.247464f, -0.092304f, -0.393646f, -0.112149f, 
    -0.028976f, 0.035485f, 0.367080f, -0.047760f, -0.010336f, -0.116428f, -0.308256f, -0.049537f, -0.024759f, 0.043711f, -0.070632f, -0.156248f, 
    -0.246045f, -0.059658f, 0.102755f, -0.115101f, -0.116395f, 0.208109f, -0.189560f, -0.189479f, 0.153228f, -0.148531f, 0.230371f, -0.151205f, 
    0.111853f, 0.134462f, -0.261395f, 0.148302f, 0.297750f, -0.203586f, -0.193287f, 0.419066f, 0.040243f, -0.194311f, 0.216651f, 0.126497f, 
    -0.099413f, 0.053586f, -0.194369f, 0.168667f, -0.160673f, -0.138210f, 0.020621f, -0.083263f, -0.375223f, 0.206818f, 0.055606f, -0.514458f, 
    0.205769f, 0.242798f, 0.447943f, -0.143163f, -0.100382f, 0.085451f, 0.001013f, -0.052550f, -0.217679f, 0.100685f, 0.124196f, -0.027456f, 
    -0.263448f, 0.167494f, 0.011948f, -0.055714f, 0.100268f, 0.270509f, 0.365558f, -0.186028f, 0.012150f, -0.166935f, -0.016326f, -0.254843f, 
    -0.327834f, 0.183429f, -0.066561f, -0.015377f, -0.241181f, 0.043577f, -0.203199f, -0.104554f, 0.210792f, 0.388490f, 0.431505f, -0.019087f, 
    -0.083779f, -0.185213f, -0.160361f, -0.304054f, -0.344340f, 0.326685f, -0.195875f, -0.014394f, -0.106863f, 0.066110f, -0.391172f, -0.282419f, 
    0.158660f, -0.033743f, 0.326093f, 0.050124f, -0.093276f, 0.131502f, -0.303965f, 0.029227f, -0.185000f, -0.033376f, -0.004748f, -0.203197f, 
    -0.342066f, 0.001217f, 0.190292f, -0.026773f, -0.359678f, 0.012978f, -0.051857f, -0.016423f, 0.074395f, -0.049342f, 0.273712f, -0.155935f, 
    0.244226f, 0.124316f, -0.161397f, 0.091732f, 0.064723f, -0.233570f, -0.086126f, -0.164507f, 0.313099f, 0.036129f, 0.048098f, -0.019169f, 
    -0.022585f, 0.164109f, -0.209827f, 0.152688f, -0.227642f, -0.182992f, 0.264058f, 0.039020f, 0.056480f, 0.147015f, 0.073847f, 0.090006f, 
    0.220683f, 0.153469f, 0.424838f, 0.097884f, 0.005885f, 0.082863f, 0.155407f, -0.151961f, -0.103479f, -0.197511f, 0.060192f, 0.096310f, 
    -0.036403f, 0.044072f, 0.175111f, 0.092429f, 0.190373f, 0.241442f, 0.468783f, -0.038813f, 0.066743f, 0.192545f, 0.228614f, -0.078261f, 
    -0.312064f, -0.120553f, 0.091155f, -0.231843f, -0.205448f, 0.116962f, 0.226608f, 0.106833f, 0.020481f, 0.087910f, 0.505238f, 0.025961f, 
    0.166222f, -0.024143f, 0.332429f, -0.115665f, -0.131801f, 0.032997f, 0.316914f, -0.049219f, -0.053352f, 0.014247f, 0.024299f, 0.237758f, 
    0.209662f, 0.023197f, 0.095172f, -0.000668f, -0.091740f, -0.040791f, -0.053536f, 0.047108f, -0.173365f, -0.254227f, 0.204913f, 0.081810f, 
    -0.330509f, -0.175698f, 0.097816f, 0.045294f, 0.024187f, -0.023816f, 0.011023f, 0.061725f, -0.028526f, 0.035238f, -0.203210f, 0.152036f, 
    0.201319f, 0.027904f, -0.071855f, -0.505251f, 0.068805f, 0.058204f, 0.299908f, 0.161095f, 0.065181f, -0.002340f, -0.082833f, 0.084514f, 
    -0.011407f, -0.009204f, 0.034321f, -0.070896f, -0.068825f, -0.002258f, 0.138490f, 0.463964f, 0.096712f, -0.057168f, -0.207463f, -0.117586f, 
    -0.165921f, 0.202812f, 0.357559f, -0.117989f, -0.104297f, 0.067623f, 0.173514f, -0.111758f, 0.006396f, -0.303117f, 0.114654f, 0.333473f, 
    -0.203116f, 0.099145f, 0.272284f, 0.066553f, 0.032188f, 0.063213f, 0.480816f, -0.109349f, -0.058785f, 0.147982f, 0.260772f, -0.122899f, 
    0.066693f, -0.300075f, 0.025659f, 0.317936f, -0.196950f, -0.007897f, 0.240695f, -0.029433f, -0.069014f, 0.126410f, 0.336072f, 0.012672f, 
    -0.048955f, 0.243724f, 0.371130f, 0.027270f, 0.028634f, -0.155874f, -0.021468f, 0.077006f, -0.010089f, -0.055356f, 0.359887f, 0.115317f, 
    0.007824f, 0.147485f, 0.202794f, 0.008925f, 0.076163f, -0.042822f, -0.074413f, 0.034669f, -0.034812f, -0.169889f, 0.102849f, -0.021225f, 
    -0.197604f, -0.026067f, 0.049613f, 0.035802f, 0.399999f, 0.078210f, -0.013662f, 0.110844f, -0.096588f, 0.137624f, -0.245606f, 0.145172f, 
    0.040131f, 0.090814f, 0.018150f, -0.222590f, -0.026137f, -0.155570f, 0.157209f, 0.084874f, -0.376740f, -0.038734f, -0.104533f, -0.085242f, 
    0.150353f, -0.093624f, 0.142238f, -0.160857f, 0.144418f, -0.094500f, -0.140794f, 0.390933f, -0.119535f, 0.180022f, -0.210120f, -0.069696f, 
    -0.145853f, 0.075929f, 0.106483f, -0.185760f, 0.130750f, -0.047497f, -0.067551f, -0.083257f, -0.015733f, 0.194682f, -0.221648f, 0.077556f, 
    -0.082662f, 0.080137f, -0.055012f, -0.138007f, 0.051044f, 0.113640f, 0.118424f, -0.213702f, -0.095751f, -0.096024f, 0.153436f, -0.188858f, 
    -0.013905f, 0.154729f, -0.305900f, -0.047003f, -0.074953f, 0.158595f, -0.288787f, 0.037554f, -0.021850f, 0.138665f, 0.216998f, -0.343059f, 
    -0.043203f, -0.123018f, 0.065217f, -0.104953f, -0.131425f, 0.012825f, -0.163127f, 0.007754f, -0.240030f, 0.016600f, -0.317541f, -0.068145f, 
    0.050491f, 0.032883f, -0.023488f, -0.010094f, -0.061029f, -0.150318f, -0.101777f, -0.091032f, 0.139504f, 0.022982f, -0.217552f, 0.020294f, 
    0.108308f, 0.022806f, 0.015679f, -0.024265f, 0.121216f, -0.128271f, 0.147996f, -0.045947f, -0.100235f, -0.087155f, -0.143612f, -0.163375f, 
    -0.030321f, -0.185680f, 0.086758f, 0.120750f, -0.045524f, -0.038384f, -0.358177f, 0.274835f, -0.021851f, 0.046492f, -0.090547f, -0.059099f, 
    0.200614f, -0.000826f, 0.004038f, 0.136049f, 0.194800f, 0.177102f, -0.158451f, 0.013900f, 0.110272f, 0.043572f, 0.285449f, -0.334593f, 
    -0.121621f, 0.036310f, 0.131403f, -0.032403f, -0.080016f, 0.132375f, -0.169315f, -0.034746f, -0.114661f, 0.027793f, -0.139266f, -0.087072f, 
    -0.174578f, 0.027513f, 0.025489f, -0.244368f, -0.075621f, -0.112263f, 0.151136f, -0.093354f, 0.115371f, -0.049271f, -0.050386f, -0.023818f, 
    -0.100710f, -0.061627f, -0.166677f, -0.014351f, -0.068487f, -0.121718f, 0.046534f, -0.167012f, -0.142565f, -0.162122f, 0.282313f, -0.159519f, 
    -0.032517f, -0.000816f, -0.045116f, -0.035469f, 0.038069f, -0.053299f, -0.243720f, 0.005071f, -0.225910f, -0.018057f, -0.071713f, -0.121054f, 
    0.007024f, 0.169058f, 0.017860f, 0.166960f, -0.059216f, 0.033441f, -0.211618f, 0.010353f, -0.012366f, 0.148519f, -0.053298f, -0.061396f, 
    0.073315f, -0.134661f, 0.181265f, -0.106335f, 0.016341f, 0.013848f, 0.088734f, 0.131828f, -0.099094f, -0.032275f, 0.086649f, 0.016211f, 
    -0.061255f, 0.057136f, -0.262825f, 0.081484f, -0.092894f, -0.050788f, -0.227984f, 0.206260f, -0.010467f, 0.036974f, -0.048164f, -0.052097f, 
    0.081256f, 0.089790f, -0.091521f, -0.048683f, -0.001973f, 0.090139f, 0.155417f, -0.133490f, 0.093988f, 0.157107f, 0.240412f, -0.255993f, 
    0.145343f, 0.095820f, 0.012146f, -0.011248f, -0.135557f, 0.055776f, -0.205408f, 0.012059f, -0.138002f, -0.153914f, 0.173888f, -0.195705f, 
    -0.116867f, 0.050047f, 0.038553f, -0.066775f, -0.115464f, -0.186329f, 0.148757f, 0.012169f, 0.018395f, 0.065592f, -0.146678f, 0.050403f, 
    -0.117025f, -0.227013f, 0.059023f, -0.057019f, -0.106997f, 0.042472f, 0.188208f, -0.276425f, -0.121174f, -0.213701f, 0.194764f, -0.055151f, 
    -0.072566f, 0.106788f, -0.159095f, -0.070183f, -0.237104f, -0.395643f, 0.124361f, -0.130750f, -0.237899f, 0.070952f, 0.171758f, -0.322006f, 
    0.260084f, 0.121155f, -0.023255f, 0.068277f, 0.060928f, 0.079021f, -0.231812f, -0.072595f, 0.030267f, 0.103669f, 0.183360f, -0.271754f, 
    0.045358f, 0.044156f, 0.088903f, 0.009258f, -0.355219f, -0.035281f, 0.035807f, 0.145664f, 0.012117f, 0.107217f, 0.241972f, -0.005969f, 
    0.102286f, 0.101242f, -0.169658f, 0.104890f, -0.253341f, -0.021604f, 0.243582f, 0.013431f, 0.287690f, 0.061946f, -0.184986f, -0.001679f, 
    -0.055228f, -0.023105f, -0.102996f, 0.043007f, 0.056195f, 0.065663f, 0.040356f, 0.026773f, 0.237862f, 0.053642f, -0.049393f, 0.046328f, 
    0.363082f, 0.030134f, 0.021138f, -0.064994f, 0.016369f, -0.064023f, -0.046385f, 0.026425f, -0.200880f, -0.287479f, 0.114360f, 0.119174f, 
    -0.131783f, -0.133280f, -0.130000f, -0.103915f, 0.439594f, -0.028497f, -0.108341f, -0.098911f, -0.068419f, 0.102797f, -0.109415f, 0.130133f, 
    -0.212503f, -0.229105f, 0.230946f, -0.209902f, -0.016779f, 0.067089f, -0.050738f, 0.082988f, 0.190552f, -0.057290f, -0.116752f, 0.064877f, 
    -0.068529f, 0.225462f, 0.025929f, 0.193249f, -0.183863f, -0.451578f, 0.238608f, -0.151521f, -0.179061f, -0.068096f, 0.033722f, 0.020285f, 
    0.200862f, 0.114746f, -0.015186f, 0.039230f, -0.038180f, -0.066637f, -0.188714f, 0.011968f, -0.104551f, -0.016820f, 0.137887f, 0.025799f, 
    0.023049f, -0.164152f, -0.164327f, 0.126186f, 0.010454f, -0.038178f, -0.051602f, -0.038671f, -0.054471f, 0.105887f, 0.069846f, 0.044938f, 
    0.291583f, 0.016487f, -0.239138f, -0.516942f, -0.176895f, 0.110078f, 0.156522f, -0.078945f, 0.035725f, 0.022975f, -0.044137f, -0.071276f, 
    0.241295f, -0.177922f, 0.109440f, -0.236640f, -0.142203f, 0.091318f, 0.091932f, 0.447705f, 0.207697f, -0.115879f, -0.141360f, -0.009868f, 
    -0.027970f, -0.038374f, 0.005941f, 0.032628f, 0.053521f, -0.166361f, 0.223962f, -0.169879f, -0.212977f, -0.232872f, 0.066092f, 0.248158f, 
    -0.123142f, 0.079791f, -0.068192f, 0.044757f, 0.201409f, -0.000596f, -0.036257f, -0.039244f, -0.033313f, -0.186458f, 0.064594f, -0.090772f, 
    -0.169475f, -0.202286f, 0.199953f, 0.242964f, 0.051314f, -0.027217f, -0.214769f, 0.087693f, 0.133112f, 0.089331f, -0.084523f, 0.060835f, 
    -0.051507f, 0.033780f, 0.249554f, 0.115718f, -0.147669f, -0.347598f, 0.163467f, 0.120213f, -0.044296f, -0.058407f, -0.234640f, 0.063368f, 
    0.087871f, 0.042407f, -0.046917f, 0.062037f, -0.022069f, -0.019557f, -0.153966f, 0.089246f, -0.196974f, 0.035830f, 0.015027f, -0.019229f, 
    0.052151f, -0.040648f, -0.097835f, 0.207068f, 0.207970f, 0.051589f, -0.182625f, 0.015762f, -0.089556f, -0.235880f, -0.252168f, -0.054869f, 
    0.297948f, 0.030462f, 0.032816f, -0.208324f, 0.142132f, -0.137502f, -0.120311f, -0.124718f, -0.333998f, 0.062779f, 0.101057f, -0.093204f, 
    0.101863f, 0.068656f, 0.227644f, -0.108086f, -0.191456f, -0.058979f, 0.031465f, 0.330463f, -0.146295f, 0.053580f, 0.107505f, 0.085365f, 
    
};

// Layer: C3 - Biases
const float C3_biases[] = {
    -0.027363f, -0.067918f, -0.099868f, 0.017395f, -0.066070f, 0.090811f, 0.057483f, -0.186595f, -0.119732f, 0.002059f, 0.027943f, 0.018888f, 
    -0.006777f, 0.026416f, 0.030111f, 0.043829f, 
};

// Layer: C5_FC1 - Weights
const float C5_FC1_weights[] = {
    0.194607f, 0.016292f, 0.015657f, 0.011961f, -0.082036f, -0.289783f, 0.070625f, 0.049558f, 0.008553f, 0.094722f, 0.126259f, 0.139589f, 
    -0.183906f, -0.047870f, -0.077146f, -0.133058f, -0.178168f, -0.038118f, -0.053220f, 0.025689f, 0.009787f, 0.260945f, -0.024309f, 0.047788f, 
    -0.003791f, 0.171935f, 0.022388f, 0.013815f, -0.065659f, -0.050996f, 0.105479f, -0.071573f, -0.146546f, 0.018074f, -0.033526f, -0.003791f, 
    -0.000452f, 0.042067f, -0.227709f, 0.004627f, 0.076126f, -0.097262f, -0.033987f, 0.042175f, -0.175465f, 0.074387f, 0.138885f, -0.063838f, 
    0.070403f, -0.057708f, 0.099772f, 0.015332f, 0.060838f, 0.010530f, 0.231810f, -0.075387f, -0.161830f, 0.088538f, -0.041571f, 0.023656f, 
    0.070602f, -0.068596f, -0.107248f, 0.135027f, -0.052107f, -0.066143f, 0.295542f, 0.012318f, 0.054643f, -0.006398f, 0.060913f, 0.006009f, 
    0.025350f, -0.055260f, -0.029340f, 0.198185f, -0.089309f, -0.077051f, -0.028518f, -0.134363f, -0.046888f, 0.045638f, -0.082830f, -0.109501f, 
    0.030872f, -0.120650f, -0.020518f, -0.091619f, 0.071472f, -0.009079f, -0.112309f, 0.075326f, -0.011490f, -0.151267f, -0.262244f, 0.037497f, 
    0.061388f, -0.061294f, 0.108184f, 0.190657f, -0.084738f, 0.008780f, -0.065862f, -0.040084f, 0.212152f, 0.090017f, -0.002974f, 0.057787f, 
    -0.050284f, -0.042522f, -0.091237f, -0.072724f, -0.020153f, -0.010147f, 0.149653f, -0.082595f, 0.142164f, -0.119413f, 0.122265f, 0.097133f, 
    0.072382f, 0.130904f, -0.095903f, 0.194809f, -0.167148f, -0.070241f, 0.094158f, -0.024602f, -0.055025f, -0.134320f, 0.053227f, 0.097372f, 
    -0.134891f, -0.068831f, 0.011790f, 0.044828f, -0.047466f, -0.168918f, -0.026611f, -0.038032f, 0.085701f, 0.050485f, -0.024863f, 0.074655f, 
    0.150164f, 0.030207f, -0.091623f, -0.021022f, -0.003473f, -0.130194f, 0.086222f, -0.103352f, 0.118188f, 0.149453f, 0.030061f, 0.028293f, 
    -0.074412f, 0.030636f, 0.056187f, -0.175640f, 0.207251f, -0.109140f, -0.020935f, 0.293964f, -0.133697f, -0.090343f, 0.161153f, 0.049205f, 
    0.136762f, -0.159691f, -0.090248f, -0.256672f, -0.008900f, -0.165309f, 0.139037f, 0.083819f, -0.251734f, 0.124172f, -0.134455f, -0.147926f, 
    0.037320f, -0.124512f, -0.154560f, 0.092202f, -0.089231f, -0.098146f, -0.021077f, 0.032300f, -0.002044f, 0.022915f, 0.093563f, 0.036078f, 
    -0.019204f, 0.015476f, 0.145216f, 0.009038f, 0.013367f, -0.083988f, -0.003656f, -0.112866f, 0.003006f, 0.104298f, -0.080908f, 0.003202f, 
    0.051356f, 0.125236f, -0.048590f, -0.039624f, -0.074477f, -0.095305f, -0.146694f, 0.026578f, -0.107821f, -0.086475f, 0.168944f, -0.017018f, 
    0.115679f, 0.005750f, -0.198738f, 0.189990f, 0.224138f, -0.178601f, -0.025366f, -0.101657f, -0.059359f, 0.089612f, -0.109496f, 0.114722f, 
    -0.041075f, 0.000769f, 0.086981f, -0.114443f, 0.147228f, 0.001891f, 0.045810f, -0.076823f, -0.083403f, 0.095882f, -0.040387f, 0.221963f, 
    0.010056f, 0.067833f, -0.015761f, 0.107253f, -0.182363f, -0.104739f, 0.077983f, -0.148451f, 0.069023f, -0.138955f, 0.145190f, -0.065739f, 
    -0.240224f, -0.151014f, -0.127702f, -0.005995f, -0.118360f, 0.072958f, -0.103707f, -0.021561f, -0.065889f, -0.059383f, -0.073018f, 0.022855f, 
    0.085346f, 0.163401f, -0.173846f, 0.124108f, -0.016966f, -0.187487f, -0.088792f, -0.097518f, 0.178841f, 0.005583f, -0.026137f, 0.068570f, 
    0.149449f, 0.215044f, -0.091269f, -0.068748f, 0.198330f, -0.099199f, 0.125517f, 0.288823f, -0.268690f, -0.167614f, -0.022276f, 0.096281f, 
    0.013224f, -0.075244f, -0.161471f, -0.155753f, 0.081389f, -0.267401f, 0.076691f, 0.008174f, -0.188612f, 0.101338f, -0.104541f, -0.113907f, 
    -0.243243f, 0.034295f, -0.008446f, 0.006318f, -0.128572f, -0.080150f, -0.054659f, -0.061412f, -0.034466f, 0.156790f, 0.034155f, 0.247833f, 
    0.035365f, -0.106905f, 0.180478f, 0.083190f, 0.110119f, -0.063693f, -0.154244f, -0.005337f, 0.127163f, 0.200857f, 0.005601f, 0.040956f, 
    0.065675f, 0.153159f, -0.014151f, 0.113200f, 0.068167f, -0.046101f, -0.135547f, 0.144525f, -0.009347f, -0.222994f, -0.063589f, -0.045395f, 
    0.038142f, -0.065471f, -0.163692f, 0.098533f, 0.267137f, -0.232118f, 0.007240f, 0.174816f, -0.049871f, -0.050079f, -0.096167f, 0.288504f, 
    -0.004267f, 0.158120f, -0.013270f, -0.304683f, 0.197259f, -0.092638f, 0.182144f, -0.181300f, -0.019752f, 0.056671f, 0.029753f, 0.028261f, 
    0.085648f, -0.166223f, 0.024184f, -0.036822f, 0.232303f, 0.087294f, -0.019077f, -0.027720f, 0.143185f, -0.106505f, -0.091740f, -0.164907f, 
    -0.005197f, 0.168697f, -0.012562f, -0.100770f, -0.167072f, -0.042546f, 0.052230f, 0.288853f, -0.107924f, -0.054779f, 0.060211f, -0.037074f, 
    -0.298634f, 0.121556f, -0.002773f, -0.008859f, 0.202165f, -0.113651f, -0.135765f, 0.000888f, -0.085638f, -0.178025f, 0.123978f, -0.069840f, 
    0.143239f, -0.086807f, -0.096502f, -0.072266f, -0.191211f, 0.174737f, 0.032208f, -0.084714f, 0.075568f, 0.189592f, -0.103901f, 0.131603f, 
    -0.034129f, -0.006892f, -0.060405f, 0.096369f, -0.098235f, -0.092928f, -0.108208f, 0.062942f, 0.147993f, -0.229156f, 0.061384f, 0.041463f, 
    0.023857f, 0.085852f, 0.037681f, 0.079424f, 0.030918f, 0.034849f, -0.072760f, -0.001929f, 0.138461f, -0.133720f, -0.019873f, -0.101709f, 
    -0.170286f, -0.242920f, -0.009656f, -0.007379f, 0.202145f, 0.043511f, 0.082182f, 0.152249f, -0.069943f, -0.131720f, -0.026552f, 0.079482f, 
    -0.024789f, 0.106989f, 0.167362f, -0.009350f, -0.145437f, -0.071828f, -0.017975f, -0.036215f, 0.026837f, -0.038300f, -0.221472f, 0.111732f, 
    -0.026373f, -0.120746f, 0.152515f, 0.022389f, -0.201823f, 0.052904f, 0.113961f, 0.016669f, 0.122474f, -0.085686f, 0.005992f, -0.040495f, 
    -0.020095f, -0.002988f, -0.071666f, 0.164945f, -0.119124f, 0.013036f, -0.116997f, 0.100060f, 0.195420f, 0.045545f, -0.047519f, -0.010742f, 
    -0.161143f, 0.072595f, -0.013214f, 0.016954f, -0.008857f, -0.197437f, -0.020614f, -0.041705f, -0.121611f, 0.129932f, -0.062031f, 0.111806f, 
    -0.060869f, 0.098187f, 0.194632f, 0.060962f, 0.025987f, -0.223618f, 0.062316f, -0.231886f, 0.018809f, 0.048739f, -0.037273f, -0.162529f, 
    0.240563f, 0.039514f, 0.041630f, 0.009166f, -0.151379f, 0.024229f, 0.209900f, -0.114721f, 0.123087f, -0.009887f, 0.128688f, 0.138477f, 
    -0.025478f, -0.142700f, 0.087279f, -0.050044f, 0.164948f, 0.065070f, -0.201218f, -0.134141f, 0.096243f, -0.150204f, 0.050391f, -0.084065f, 
    -0.061260f, 0.087836f, 0.158530f, 0.076932f, 0.003593f, 0.252553f, 0.198841f, 0.094330f, 0.063562f, -0.084754f, 0.140157f, -0.086148f, 
    0.059500f, -0.055216f, 0.051312f, 0.012129f, 0.046033f, 0.002488f, -0.032149f, -0.029237f, -0.070351f, -0.028206f, -0.037694f, -0.101968f, 
    -0.002481f, 0.088562f, -0.107816f, 0.097681f, -0.004234f, -0.102206f, -0.040770f, -0.144728f, 0.067093f, -0.108900f, -0.083301f, -0.251328f, 
    0.000283f, -0.105905f, 0.015846f, -0.174068f, -0.065665f, 0.060825f, 0.048026f, -0.047020f, 0.083482f, -0.008760f, -0.061694f, -0.081780f, 
    -0.026741f, 0.071499f, 0.003768f, -0.000895f, 0.066451f, -0.051257f, 0.113562f, -0.048135f, -0.114013f, 0.110862f, 0.066948f, 0.020913f, 
    0.068635f, 0.025424f, 0.011755f, 0.042756f, -0.144126f, 0.033135f, 0.041785f, -0.110838f, -0.111644f, 0.069358f, 0.124105f, 0.088495f, 
    -0.072214f, 0.045888f, 0.038231f, 0.063318f, 0.053158f, 0.038389f, 0.048896f, 0.003763f, -0.066493f, -0.076266f, -0.083203f, -0.006500f, 
    0.033907f, 0.222287f, 0.069891f, -0.059197f, -0.072551f, -0.070053f, 0.098510f, 0.024864f, -0.209729f, -0.071513f, 0.032640f, 0.053245f, 
    0.125407f, 0.050804f, 0.066764f, 0.076879f, -0.077708f, 0.021058f, 0.225197f, -0.042285f, -0.014087f, -0.038404f, 0.083791f, 0.191423f, 
    -0.055317f, -0.055168f, 0.086788f, -0.043753f, -0.012130f, -0.024595f, -0.028180f, -0.095918f, -0.092814f, 0.083240f, 0.043163f, -0.113318f, 
    -0.128538f, -0.069100f, 0.026355f, 0.199109f, -0.163703f, 0.182403f, -0.157969f, 0.142773f, 0.054650f, -0.030126f, 0.064097f, -0.093084f, 
    0.083309f, 0.080019f, 0.104697f, 0.178395f, 0.175798f, 0.028629f, 0.083257f, -0.016985f, 0.094410f, -0.153655f, 0.060423f, -0.101729f, 
    0.041456f, -0.104398f, -0.018649f, 0.003681f, 0.147012f, -0.104168f, 0.027739f, -0.112737f, 0.028182f, 0.103144f, -0.032279f, -0.137427f, 
    -0.207662f, 0.057213f, 0.005219f, -0.162220f, 0.067012f, -0.034895f, 0.093424f, -0.112465f, -0.100991f, 0.119054f, -0.136351f, 0.112355f, 
    0.137867f, -0.068345f, -0.086129f, 0.013725f, -0.049030f, 0.010573f, 0.167122f, -0.072548f, -0.055228f, 0.200041f, -0.043249f, 0.062451f, 
    -0.013648f, -0.121487f, -0.068591f, 0.100462f, -0.017792f, -0.058148f, 0.045232f, 0.065396f, -0.065108f, 0.102763f, 0.129594f, 0.179862f, 
    0.087302f, 0.042344f, 0.050525f, 0.063235f, -0.076530f, 0.054112f, -0.161713f, -0.052467f, -0.065150f, -0.125190f, -0.005717f, 0.046847f, 
    -0.096194f, -0.004883f, -0.150263f, -0.051052f, 0.005638f, -0.139770f, 0.020492f, 0.027828f, -0.159080f, -0.170821f, -0.148333f, -0.006055f, 
    0.285729f, -0.008926f, -0.033718f, 0.040434f, -0.112097f, 0.125151f, -0.084620f, -0.159941f, 0.035941f, -0.015369f, 0.079181f, -0.054660f, 
    -0.160801f, 0.164666f, 0.113330f, -0.001135f, 0.005217f, -0.116148f, 0.042102f, 0.213034f, 0.034265f, -0.093140f, -0.131399f, 0.090651f, 
    -0.143515f, 0.008341f, -0.167647f, -0.047537f, 0.115492f, -0.199786f, 0.020441f, 0.034067f, -0.085593f, 0.094900f, -0.079064f, -0.113094f, 
    -0.102455f, -0.146155f, -0.238878f, -0.027890f, 0.032758f, -0.040788f, -0.068339f, 0.033273f, -0.041425f, 0.192724f, -0.000376f, 0.118606f, 
    -0.119808f, 0.099201f, -0.016232f, -0.146227f, -0.037772f, 0.168374f, -0.133549f, 0.088287f, 0.010723f, 0.172040f, 0.017863f, 0.097821f, 
    -0.010427f, 0.164519f, -0.040483f, 0.136674f, 0.045915f, -0.186946f, -0.129351f, -0.019301f, -0.129045f, -0.022510f, 0.156198f, -0.067718f, 
    0.061602f, -0.029923f, -0.069524f, -0.066258f, -0.062748f, -0.221965f, 0.116526f, -0.033139f, -0.038107f, -0.004184f, -0.015370f, 0.076572f, 
    -0.099201f, 0.049009f, 0.026178f, -0.279899f, 0.090596f, 0.000566f, -0.034331f, -0.006785f, -0.088591f, 0.140371f, 0.039275f, -0.077249f, 
    0.105449f, -0.114910f, -0.040127f, -0.214735f, 0.044104f, -0.013677f, 0.107701f, 0.049679f, 0.029688f, 0.201849f, -0.035916f, 0.026011f, 
    -0.192367f, 0.013499f, 0.042494f, -0.127673f, -0.051957f, 0.151147f, -0.197654f, -0.050793f, 0.001701f, -0.053309f, 0.186843f, -0.033497f, 
    -0.155024f, -0.101402f, 0.014849f, 0.072474f, 0.185235f, -0.022627f, -0.217994f, 0.011488f, 0.167698f, -0.086703f, -0.112741f, -0.322657f, 
    0.082570f, -0.026092f, -0.174377f, 0.066731f, -0.039741f, 0.200005f, 0.144267f, -0.167437f, -0.104962f, 0.090468f, -0.029568f, -0.017737f, 
    0.052237f, 0.083822f, 0.165660f, -0.141126f, 0.018850f, 0.069153f, 0.022164f, -0.083874f, 0.089882f, 0.028278f, -0.166135f, 0.127400f, 
    -0.081751f, -0.158120f, 0.080602f, 0.018166f, 0.052917f, 0.072696f, 0.133794f, -0.032894f, 0.039576f, 0.039128f, 0.074784f, -0.018191f, 
    -0.016220f, -0.155297f, -0.000555f, 0.097883f, -0.152756f, -0.045174f, 0.037282f, 0.021753f, -0.086799f, -0.088963f, 0.005927f, 0.120131f, 
    -0.024800f, -0.281364f, -0.080760f, 0.215388f, -0.102657f, 0.058687f, -0.015976f, 0.055727f, 0.067824f, -0.007555f, -0.069699f, 0.149913f, 
    0.083917f, 0.077887f, 0.012810f, -0.053353f, -0.040213f, 0.190116f, -0.232446f, 0.025361f, -0.056370f, -0.092280f, 0.162464f, -0.153906f, 
    0.118178f, 0.318486f, 0.020911f, 0.102134f, 0.001621f, -0.136108f, 0.071565f, 0.031148f, 0.315917f, -0.017544f, -0.059083f, 0.055604f, 
    -0.086178f, 0.032286f, 0.015930f, -0.107683f, 0.186830f, 0.030475f, -0.078405f, 0.159373f, 0.190537f, 0.139003f, -0.099480f, 0.070907f, 
    0.090658f, 0.052371f, -0.058259f, 0.021867f, 0.052436f, -0.028499f, 0.077548f, -0.001605f, -0.017063f, 0.163136f, -0.088034f, 0.023065f, 
    0.115291f, 0.102342f, -0.014993f, -0.142143f, -0.044524f, 0.007803f, 0.136091f, -0.026992f, -0.027372f, -0.096063f, -0.110335f, 0.008807f, 
    0.148215f, -0.057006f, -0.011224f, 0.135190f, 0.151954f, 0.182736f, -0.032080f, 0.039861f, -0.130373f, 0.022179f, -0.073762f, 0.098947f, 
    0.009058f, 0.066266f, 0.023576f, 0.043039f, -0.000184f, 0.066386f, -0.060093f, 0.043071f, 0.034573f, -0.151363f, 0.013548f, -0.132293f, 
    0.102857f, 0.008722f, -0.046871f, -0.053172f, 0.063972f, 0.171764f, 0.069929f, -0.086242f, 0.033638f, -0.032307f, 0.004197f, -0.021109f, 
    0.080131f, -0.081514f, 0.082533f, 0.037315f, -0.017003f, -0.089691f, 0.100819f, 0.066230f, -0.118716f, -0.054887f, -0.027765f, 0.063998f, 
    -0.039207f, 0.036679f, 0.011598f, -0.005599f, 0.082890f, 0.014718f, 0.095064f, 0.109619f, 0.102660f, 0.043508f, 0.038405f, 0.082517f, 
    0.027168f, 0.155058f, -0.169070f, 0.002645f, 0.007131f, 0.097158f, -0.110691f, -0.034751f, -0.169811f, -0.115277f, 0.057414f, 0.008098f, 
    0.003314f, -0.129633f, 0.063833f, 0.027502f, 0.069627f, 0.035667f, -0.204355f, -0.042271f, -0.158993f, 0.022550f, -0.074036f, 0.063772f, 
    -0.157592f, -0.035701f, 0.059647f, 0.068560f, 0.114503f, 0.031106f, -0.076065f, -0.033715f, 0.063855f, 0.113022f, 0.043529f, 0.186771f, 
    0.093713f, -0.030448f, -0.013220f, 0.009930f, 0.086562f, -0.048216f, 0.060882f, -0.178026f, 0.133187f, 0.056364f, -0.084958f, -0.125743f, 
    0.123219f, -0.060587f, 0.041005f, -0.103106f, -0.033592f, 0.046282f, 0.079222f, 0.026594f, -0.097264f, -0.093992f, -0.018531f, -0.086573f, 
    0.008987f, -0.150777f, -0.038619f, 0.052556f, 0.214068f, -0.063956f, -0.008579f, -0.043669f, -0.056079f, 0.071295f, -0.123021f, 0.014535f, 
    0.041668f, 0.071098f, 0.127877f, -0.070739f, -0.072875f, 0.136992f, 0.058117f, 0.137670f, 0.032134f, 0.062504f, 0.078064f, 0.188971f, 
    0.078899f, -0.164088f, 0.137233f, -0.197187f, 0.046318f, 0.183058f, 0.017588f, -0.026412f, 0.012438f, -0.171112f, 0.160082f, 0.000163f, 
    0.035225f, 0.068561f, -0.071265f, -0.008958f, 0.047126f, -0.168947f, 0.054155f, -0.023184f, -0.004849f, -0.072055f, 0.006872f, -0.073359f, 
    0.067372f, -0.078096f, 0.000968f, -0.022246f, 0.055321f, 0.095502f, 0.095884f, -0.022397f, 0.109908f, 0.042569f, 0.080405f, 0.053018f, 
    -0.128730f, 0.013579f, 0.042781f, -0.000420f, 0.023079f, -0.031633f, 0.073372f, -0.083840f, -0.031748f, 0.000776f, 0.004462f, -0.124456f, 
    0.064251f, -0.161989f, 0.147324f, 0.133093f, -0.055727f, -0.031951f, 0.081283f, 0.010413f, -0.162333f, -0.075379f, -0.033165f, -0.124638f, 
    0.178491f, 0.067495f, 0.007636f, -0.025090f, -0.095886f, -0.204565f, -0.016647f, 0.086078f, 0.055019f, -0.014792f, 0.179584f, 0.108045f, 
    -0.082499f, -0.065530f, -0.184811f, -0.180398f, 0.048963f, 0.013904f, -0.110843f, 0.046346f, 0.027339f, 0.046226f, -0.078403f, 0.104654f, 
    -0.164190f, -0.079538f, -0.196429f, -0.013999f, -0.088455f, 0.065967f, -0.160025f, -0.010033f, 0.008051f, -0.010778f, 0.007841f, -0.180237f, 
    -0.092127f, 0.146534f, -0.145687f, 0.061430f, 0.022794f, -0.135097f, 0.163200f, -0.087549f, -0.041700f, 0.157897f, 0.145766f, 0.105331f, 
    -0.070035f, 0.103505f, 0.016698f, -0.191733f, 0.232156f, -0.064828f, 0.092972f, -0.091559f, -0.046617f, -0.027980f, -0.105506f, 0.097196f, 
    0.059157f, 0.072907f, -0.115608f, -0.061503f, -0.037338f, -0.272185f, -0.066577f, 0.055703f, -0.096305f, 0.062278f, -0.091348f, 0.061621f, 
    0.002450f, -0.066429f, -0.028854f, 0.122803f, -0.198741f, 0.015330f, -0.013496f, 0.050500f, 0.030995f, 0.061189f, -0.017350f, -0.048116f, 
    0.013219f, -0.019505f, -0.068623f, 0.165140f, 0.059665f, 0.040186f, -0.157956f, 0.076950f, -0.160380f, -0.091694f, -0.075402f, 0.090103f, 
    0.066711f, 0.009715f, 0.086512f, 0.120144f, -0.076382f, 0.031309f, -0.185228f, 0.026467f, 0.000457f, -0.040230f, 0.054412f, 0.009586f, 
    -0.064290f, 0.018435f, 0.012585f, 0.000617f, 0.162163f, 0.048182f, 0.076670f, -0.047156f, 0.121944f, -0.020753f, -0.033181f, -0.113701f, 
    0.111405f, 0.134531f, -0.067283f, 0.165151f, -0.174199f, -0.140788f, 0.018419f, 0.225612f, -0.252853f, -0.063814f, -0.023103f, 0.029468f, 
    0.035810f, -0.195462f, -0.152252f, -0.024332f, -0.052365f, 0.165226f, 0.149704f, -0.140855f, 0.017645f, 0.083065f, -0.032429f, 0.064842f, 
    -0.046773f, -0.058168f, -0.314321f, 0.146517f, -0.129706f, 0.235786f, -0.096878f, -0.304001f, -0.203498f, -0.095224f, -0.113692f, 0.004062f, 
    -0.074614f, 0.060039f, 0.033275f, -0.108864f, -0.066292f, -0.122376f, -0.077684f, 0.196611f, 0.033057f, 0.138831f, 0.017077f, -0.155397f, 
    0.032472f, -0.158469f, 0.121288f, 0.070605f, 0.213353f, -0.203408f, 0.181606f, -0.207665f, 0.036951f, -0.047924f, 0.053534f, -0.001518f, 
    0.264594f, 0.110621f, -0.039421f, 0.088538f, -0.165649f, -0.170101f, 0.198228f, -0.133984f, -0.161473f, 0.249135f, -0.121155f, 0.031357f, 
    0.086523f, 0.120477f, -0.051106f, 0.171453f, 0.083728f, 0.160213f, -0.242451f, -0.023860f, -0.070270f, 0.085314f, 0.001651f, -0.115353f, 
    0.054608f, -0.063759f, -0.016143f, -0.016408f, 0.048232f, 0.201505f, -0.126581f, 0.074487f, -0.126210f, -0.137168f, 0.079187f, -0.101086f, 
    -0.095439f, -0.207812f, 0.019443f, 0.103179f, -0.204478f, 0.197492f, -0.045318f, -0.073864f, 0.364232f, 0.143425f, 0.009129f, 0.048668f, 
    -0.079081f, -0.287259f, -0.071949f, -0.108104f, 0.036404f, 0.115532f, 0.107696f, 0.063891f, 0.126325f, -0.067415f, -0.186281f, -0.085379f, 
    -0.201929f, -0.075673f, -0.062281f, -0.067565f, 0.018587f, 0.180289f, 0.076606f, 0.069084f, 0.095330f, 0.114657f, 0.057442f, -0.018234f, 
    0.049628f, -0.030265f, -0.081310f, 0.012890f, 0.039524f, -0.166816f, 0.129407f, -0.160227f, 0.070385f, 0.005365f, -0.087383f, -0.078044f, 
    -0.074449f, 0.014339f, 0.169795f, -0.176943f, -0.097054f, -0.035411f, 0.070035f, -0.141281f, -0.151312f, -0.047611f, 0.049369f, -0.007531f, 
    -0.110510f, 0.028490f, -0.085654f, 0.119502f, -0.002902f, 0.176114f, -0.043560f, -0.273294f, 0.060275f, -0.117699f, 0.072186f, -0.056612f, 
    0.044247f, 0.114792f, 0.176804f, 0.069912f, -0.139898f, 0.296757f, 0.142328f, 0.067868f, 0.022368f, 0.164595f, -0.062809f, 0.015225f, 
    0.213170f, -0.070983f, 0.134153f, -0.138028f, 0.126165f, 0.198454f, 0.156840f, -0.006883f, 0.083732f, -0.242154f, 0.170802f, -0.053396f, 
    0.083599f, 0.166326f, -0.039208f, -0.029410f, -0.108125f, -0.039214f, 0.069234f, -0.006201f, -0.067178f, -0.126098f, -0.111151f, -0.219156f, 
    0.038008f, -0.023340f, -0.080656f, -0.042593f, 0.188430f, 0.142453f, 0.114101f, -0.002749f, 0.103062f, 0.078880f, 0.015852f, -0.087203f, 
    -0.070969f, 0.262557f, -0.146032f, -0.033404f, -0.018544f, 0.133250f, -0.006895f, -0.134994f, -0.147075f, -0.183026f, 0.168399f, -0.097195f, 
    0.077299f, -0.013054f, 0.173974f, 0.184749f, -0.110216f, 0.137619f, -0.023422f, -0.070501f, -0.167605f, -0.086727f, -0.070610f, -0.174661f, 
    -0.107846f, 0.148457f, 0.129132f, -0.025507f, -0.025057f, -0.112482f, -0.002428f, 0.102526f, -0.014569f, 0.137784f, 0.075062f, 0.085533f, 
    0.001643f, -0.256098f, 0.016149f, 0.079471f, -0.142714f, 0.280612f, -0.038792f, 0.055469f, 0.130993f, -0.013267f, 0.064902f, -0.071770f, 
    -0.127858f, 0.053061f, -0.023022f, 0.274183f, -0.237550f, 0.068247f, -0.125536f, 0.147652f, -0.221993f, -0.010589f, -0.166349f, 0.016635f, 
    -0.006092f, 0.002541f, -0.120757f, 0.131499f, 0.024351f, -0.190168f, 0.102679f, -0.015997f, -0.134244f, 0.062979f, -0.102268f, -0.244862f, 
    0.100647f, 0.032205f, 0.074548f, -0.113484f, 0.213484f, -0.085180f, 0.032066f, 0.017906f, 0.077434f, -0.022902f, 0.046930f, 0.071069f, 
    -0.025834f, 0.138478f, 0.199478f, 0.128491f, -0.035871f, -0.047616f, 0.149184f, 0.007878f, -0.191403f, 0.282947f, -0.140021f, 0.004791f, 
    -0.017827f, -0.005391f, -0.024609f, 0.152361f, 0.009813f, -0.287503f, -0.069892f, -0.029974f, -0.050208f, -0.049093f, 0.043583f, -0.073338f, 
    -0.061502f, -0.055887f, 0.042245f, -0.184836f, -0.012833f, 0.085799f, -0.062617f, 0.085181f, 0.007406f, 0.098973f, -0.150572f, 0.305348f, 
    -0.083299f, -0.157101f, 0.280565f, 0.177528f, -0.144438f, 0.058666f, 0.009082f, 0.055315f, 0.040362f, 0.130008f, 0.074215f, 0.189679f, 
    0.007051f, 0.025087f, -0.035737f, -0.202470f, 0.020429f, -0.196908f, 0.045188f, 0.136278f, 0.222554f, 0.073644f, -0.087841f, 0.088773f, 
    -0.001126f, -0.135998f, 0.059795f, -0.053531f, 0.084046f, -0.012889f, 0.018778f, -0.071584f, 0.053905f, 0.101799f, 0.136639f, -0.002969f, 
    -0.155931f, -0.141114f, -0.262149f, -0.057974f, 0.097045f, -0.035478f, -0.262215f, -0.110047f, 0.049329f, 0.001861f, 0.050311f, 0.061123f, 
    0.027293f, 0.149472f, -0.039443f, -0.087119f, -0.029475f, 0.091978f, -0.037180f, 0.114378f, 0.280386f, 0.013133f, 0.198243f, -0.207843f, 
    0.000556f, 0.232904f, -0.202062f, 0.126944f, 0.104178f, -0.029533f, 0.117468f, -0.006494f, -0.182823f, -0.013601f, -0.015123f, 0.107666f, 
    -0.077422f, 0.006367f, 0.032291f, -0.142285f, -0.001421f, -0.187488f, -0.088777f, -0.046874f, -0.114711f, 0.057094f, -0.027464f, -0.002208f, 
    -0.113558f, -0.141314f, -0.237508f, 0.056529f, 0.041285f, -0.098373f, 0.080834f, -0.051366f, 0.096080f, -0.020577f, -0.031642f, 0.134255f, 
    0.019256f, -0.129095f, 0.032897f, -0.090401f, -0.168083f, -0.111312f, 0.004815f, -0.046385f, 0.033652f, 0.080082f, -0.043303f, 0.012332f, 
    -0.108581f, -0.022274f, -0.102335f, 0.071993f, 0.072568f, -0.274806f, -0.073193f, 0.070393f, 0.097676f, -0.149628f, 0.040876f, 0.242891f, 
    0.077589f, -0.016498f, -0.270128f, 0.113062f, 0.105417f, -0.093280f, -0.171467f, -0.145702f, 0.115853f, -0.088443f, 0.017833f, -0.010205f, 
    0.030297f, 0.119572f, -0.053917f, -0.098181f, 0.225787f, -0.102663f, 0.107112f, -0.015071f, 0.052924f, 0.168742f, -0.102296f, 0.174811f, 
    0.224599f, -0.059907f, -0.166321f, -0.061643f, -0.038348f, 0.082289f, -0.112639f, -0.188483f, 0.122097f, -0.103589f, 0.067746f, -0.046294f, 
    -0.276923f, -0.025549f, -0.040415f, -0.116561f, -0.001084f, -0.148694f, -0.103435f, -0.084292f, 0.048115f, -0.131773f, -0.137496f, 0.112731f, 
    0.001955f, -0.109305f, -0.079679f, -0.105801f, 0.129468f, 0.163757f, -0.038856f, 0.036605f, 0.415935f, -0.019058f, -0.002488f, -0.177705f, 
    -0.184960f, 0.040346f, 0.143360f, 0.074915f, 0.126042f, -0.022218f, -0.153908f, 0.098729f, -0.020430f, -0.069639f, -0.017486f, 0.164875f, 
    -0.077566f, 0.027547f, 0.096277f, -0.044954f, 0.202762f, 0.043317f, 0.027060f, 0.161853f, 0.170847f, 0.207335f, 0.079197f, 0.093825f, 
    -0.110494f, -0.148669f, -0.188554f, -0.027104f, 0.019692f, -0.082028f, -0.108131f, -0.013986f, -0.025204f, -0.260213f, 0.036846f, -0.077004f, 
    0.018599f, 0.092721f, -0.111691f, -0.133442f, 0.013397f, 0.303510f, -0.076842f, -0.071444f, 0.119843f, -0.229179f, 0.078735f, 0.088405f, 
    -0.005775f, 0.111935f, 0.024357f, 0.086317f, 0.012962f, -0.306798f, 0.079915f, -0.189276f, -0.237217f, -0.006993f, 0.137732f, -0.225189f, 
    0.127592f, 0.048629f, -0.308809f, -0.001036f, -0.108162f, -0.023062f, -0.040194f, 0.076402f, -0.049308f, -0.148033f, 0.179877f, 0.004134f, 
    -0.059085f, 0.251249f, 0.028111f, 0.048172f, -0.148696f, 0.015782f, -0.184645f, 0.082971f, -0.040054f, 0.173713f, -0.138606f, 0.086486f, 
    0.172608f, 0.149547f, 0.136594f, 0.016031f, -0.262532f, -0.148973f, 0.145057f, -0.140861f, -0.162109f, -0.164064f, -0.058951f, 0.116552f, 
    -0.031499f, -0.238212f, -0.055150f, 0.009299f, -0.251803f, 0.144495f, -0.107311f, -0.092488f, -0.132584f, -0.025198f, 0.097222f, 0.002823f, 
    0.045569f, -0.164359f, 0.002303f, 0.125737f, 0.059671f, 0.131766f, -0.093987f, -0.011219f, 0.005386f, 0.054995f, 0.084310f, -0.087837f, 
    -0.321908f, 0.090590f, 0.096916f, -0.164879f, -0.092388f, -0.005202f, -0.058623f, 0.130698f, 0.194797f, 0.115388f, 0.011817f, -0.226669f, 
    -0.020438f, 0.063326f, -0.050969f, 0.029438f, 0.006686f, -0.198824f, 0.135434f, -0.030556f, 0.145952f, 0.196924f, -0.025093f, 0.082517f, 
    -0.072789f, -0.041352f, -0.010608f, 0.143944f, -0.025741f, -0.094573f, -0.059642f, -0.034488f, 0.038325f, 0.226066f, -0.030497f, 0.079230f, 
    -0.154986f, 0.100826f, -0.322073f, -0.023639f, 0.092548f, 0.242021f, -0.120409f, 0.028633f, 0.043638f, 0.026672f, -0.083269f, 0.136954f, 
    -0.050599f, -0.097687f, 0.001578f, -0.059807f, -0.051207f, 0.019560f, -0.100137f, -0.066061f, -0.356901f, -0.066220f, -0.117088f, -0.025850f, 
    -0.041094f, -0.093622f, 0.257901f, -0.073617f, 0.001815f, -0.110811f, 0.206697f, 0.161743f, 0.273386f, 0.269130f, -0.110303f, 0.215170f, 
    -0.136104f, 0.136027f, -0.322493f, -0.091344f, -0.060977f, -0.053823f, 0.080178f, 0.084205f, 0.157446f, 0.226793f, -0.001669f, -0.147221f, 
    -0.003615f, -0.025314f, -0.127900f, 0.156369f, -0.006928f, -0.010922f, -0.102106f, 0.092229f, 0.051813f, 0.082247f, 0.100367f, -0.032346f, 
    -0.108047f, 0.008365f, -0.147741f, 0.098739f, -0.070393f, 0.055263f, 0.069120f, -0.065537f, -0.093377f, -0.091922f, -0.071336f, 0.041497f, 
    0.172519f, 0.032409f, 0.027398f, -0.032378f, -0.106561f, -0.159171f, 0.109860f, -0.105381f, 0.120287f, -0.005562f, 0.033000f, 0.021696f, 
    0.025930f, 0.297143f, -0.072258f, -0.057022f, 0.173401f, -0.145940f, -0.030193f, 0.249130f, -0.127629f, -0.052505f, -0.132963f, 0.006910f, 
    -0.010438f, -0.153865f, -0.040522f, -0.187658f, -0.008690f, -0.071134f, -0.053584f, -0.054963f, -0.203660f, 0.100867f, -0.010181f, -0.092102f, 
    -0.133196f, -0.052546f, 0.031611f, 0.170446f, 0.083537f, 0.044755f, 0.064198f, 0.121070f, 0.262514f, 0.040972f, 0.143472f, 0.063936f, 
    -0.086691f, 0.043501f, 0.045266f, -0.044192f, 0.024298f, -0.058365f, -0.219942f, -0.051410f, 0.208031f, 0.133994f, -0.188562f, -0.004663f, 
    0.037092f, -0.013037f, -0.111228f, 0.076648f, -0.034002f, -0.147151f, -0.125126f, -0.064849f, -0.106770f, 0.126678f, 0.010794f, -0.156982f, 
    0.052256f, 0.055108f, -0.018560f, 0.065532f, 0.145492f, -0.117629f, 0.166853f, -0.026911f, -0.026651f, -0.025047f, -0.149833f, -0.015268f, 
    0.106467f, -0.013211f, 0.059996f, -0.194419f, -0.004678f, -0.135859f, 0.205610f, -0.132438f, -0.049364f, 0.075819f, -0.022255f, -0.032399f, 
    -0.088329f, 0.063926f, 0.015231f, -0.041959f, -0.050350f, 0.022145f, -0.225742f, 0.095170f, 0.201470f, 0.009199f, 0.124715f, 0.139608f, 
    0.063320f, -0.047071f, -0.148931f, 0.095879f, 0.114468f, -0.046104f, -0.058405f, 0.067659f, 0.040955f, 0.069580f, -0.105863f, 0.011646f, 
    0.225531f, -0.149646f, 0.060250f, 0.021209f, 0.040073f, -0.087369f, -0.032039f, -0.082585f, 0.076979f, 0.091255f, 0.028374f, -0.193395f, 
    -0.022165f, 0.290754f, -0.113920f, -0.126739f, 0.138615f, -0.163518f, -0.144908f, 0.162384f, -0.203979f, -0.117236f, -0.029975f, 0.125390f, 
    -0.115033f, -0.026496f, -0.149591f, -0.180073f, -0.005004f, -0.173129f, -0.158849f, -0.095266f, -0.313569f, -0.030513f, -0.045791f, -0.137951f, 
    -0.211288f, -0.034797f, -0.057407f, 0.021939f, -0.019208f, -0.013807f, 0.024196f, -0.030182f, 0.037404f, 0.028243f, 0.104558f, 0.042975f, 
    -0.037650f, 0.092255f, 0.063560f, -0.014457f, -0.023314f, -0.012161f, -0.017023f, -0.142851f, 0.231564f, 0.240748f, -0.115702f, 0.146090f, 
    0.051548f, 0.097473f, 0.027742f, -0.029789f, 0.042187f, -0.144518f, -0.090198f, -0.051108f, 0.101943f, -0.000036f, 0.076551f, -0.006718f, 
    0.014999f, 0.106169f, -0.106855f, 0.102090f, 0.072927f, -0.105590f, 0.036985f, 0.178165f, 0.007217f, 0.065538f, 0.008500f, 0.166483f, 
    0.015687f, 0.040428f, -0.027769f, -0.268241f, 0.204581f, -0.094651f, 0.180346f, -0.119896f, -0.063600f, 0.060601f, 0.059593f, -0.091278f, 
    -0.169477f, -0.189798f, -0.004759f, -0.112955f, 0.049597f, 0.157147f, 0.142561f, -0.094065f, 0.100156f, -0.011324f, -0.021170f, 0.038642f, 
    0.145598f, -0.089188f, 0.148907f, -0.061198f, -0.052776f, 0.069172f, -0.003300f, -0.019286f, 0.046813f, 0.062275f, 0.119538f, -0.070225f, 
    -0.010444f, -0.055557f, 0.048131f, -0.076591f, 0.028178f, -0.098848f, 0.087513f, 0.194575f, -0.038171f, 0.134999f, 0.088779f, 0.113720f, 
    0.013303f, -0.042236f, 0.084248f, -0.053720f, -0.036368f, 0.099837f, 0.027768f, -0.209698f, 0.035507f, -0.118085f, -0.045378f, -0.071601f, 
    -0.014351f, -0.071384f, 0.048939f, -0.070284f, -0.020785f, 0.139317f, -0.171255f, 0.143701f, 0.214253f, -0.032145f, 0.114050f, -0.008445f, 
    -0.112684f, -0.007623f, 0.108433f, -0.142778f, -0.078465f, 0.151953f, -0.063537f, -0.043177f, -0.019332f, -0.032466f, -0.096015f, -0.134281f, 
    -0.000156f, -0.093374f, -0.042243f, 0.071227f, 0.168532f, -0.077513f, -0.038400f, -0.019042f, -0.205205f, -0.134493f, -0.018744f, 0.072357f, 
    0.073385f, -0.106569f, 0.163514f, -0.037964f, -0.046604f, 0.181934f, 0.239420f, -0.113263f, -0.102343f, -0.032211f, 0.096375f, -0.099136f, 
    -0.231248f, 0.022583f, 0.164828f, -0.136936f, -0.149651f, -0.009066f, 0.056560f, 0.045962f, -0.120049f, 0.021334f, 0.118509f, -0.101711f, 
    0.022839f, 0.071742f, 0.053124f, 0.202170f, -0.175366f, 0.057090f, -0.217197f, -0.094682f, 0.154798f, -0.048029f, 0.110853f, 0.055758f, 
    0.091291f, -0.016937f, 0.023609f, 0.024551f, -0.089529f, -0.114258f, -0.029177f, 0.119588f, -0.158502f, -0.006753f, 0.030785f, 0.026958f, 
    0.024343f, 0.154282f, -0.134085f, 0.203559f, -0.057861f, -0.238997f, 0.139181f, -0.020922f, -0.044959f, 0.214144f, -0.036226f, -0.011594f, 
    0.163135f, 0.260892f, 0.078904f, -0.082894f, -0.252535f, 0.045511f, 0.068898f, -0.052169f, 0.041832f, 0.015966f, 0.020083f, -0.069534f, 
    -0.126556f, -0.156795f, 0.000197f, 0.115103f, -0.007574f, -0.103436f, -0.048037f, -0.106913f, -0.018692f, 0.057722f, -0.018524f, 0.040329f, 
    0.040438f, -0.093091f, 0.183850f, 0.057977f, 0.190585f, 0.045119f, -0.037464f, -0.007571f, -0.068470f, -0.045586f, -0.122630f, 0.151277f, 
    0.051555f, 0.057903f, -0.048231f, 0.131920f, 0.131527f, -0.125809f, 0.222611f, -0.077918f, 0.004091f, -0.048647f, 0.046081f, -0.127845f, 
    0.095256f, 0.061778f, -0.077879f, -0.061622f, -0.075097f, 0.025442f, -0.007017f, 0.046387f, 0.006457f, -0.098212f, -0.112492f, -0.151644f, 
    -0.082664f, 0.174735f, -0.167738f, -0.066367f, 0.075331f, -0.183030f, -0.089065f, -0.007859f, -0.046714f, 0.156454f, -0.099482f, -0.066518f, 
    0.238881f, -0.020868f, 0.014023f, -0.070048f, 0.140983f, 0.003344f, 0.015734f, -0.007539f, 0.199368f, 0.031729f, -0.320918f, 0.013238f, 
    -0.116628f, -0.314287f, 0.107378f, 0.149774f, -0.016410f, 0.011578f, -0.014382f, 0.057556f, -0.201540f, 0.019684f, 0.142629f, -0.005056f, 
    0.055268f, 0.152932f, -0.133479f, 0.076863f, 0.029103f, 0.019578f, -0.032539f, 0.003256f, 0.027268f, -0.012969f, -0.030579f, -0.078710f, 
    0.127530f, 0.020110f, -0.000622f, 0.087785f, -0.024305f, -0.004488f, 0.194824f, -0.088945f, -0.137180f, -0.022631f, -0.006318f, -0.100938f, 
    0.044049f, -0.039074f, 0.121496f, -0.044171f, -0.002114f, -0.120461f, 0.169416f, -0.100109f, -0.148029f, -0.023157f, 0.074026f, 0.205488f, 
    -0.058848f, -0.128778f, 0.073164f, 0.055222f, -0.084500f, 0.056665f, 0.033530f, -0.014468f, -0.014350f, 0.061642f, 0.033379f, -0.179431f, 
    0.103828f, -0.238645f, 0.096611f, 0.129349f, -0.124180f, 0.201085f, -0.098718f, 0.020274f, 0.072370f, 0.087388f, 0.029753f, -0.077560f, 
    0.027751f, 0.090569f, 0.085926f, 0.003759f, 0.011623f, 0.042429f, 0.132539f, 0.010277f, 0.024142f, 0.056577f, 0.030518f, 0.010221f, 
    0.037840f, -0.051574f, -0.125671f, 0.038074f, 0.237350f, 0.045928f, -0.004558f, -0.084221f, 0.098554f, -0.060091f, -0.077391f, -0.193870f, 
    -0.139408f, 0.111505f, -0.101446f, -0.231381f, 0.061589f, 0.108866f, 0.155231f, 0.050695f, -0.126749f, 0.225797f, -0.101579f, -0.129489f, 
    0.034697f, 0.080442f, 0.112647f, 0.012893f, -0.084398f, 0.025816f, 0.092649f, -0.170802f, -0.096853f, 0.127983f, -0.010545f, 0.061902f, 
    -0.094376f, -0.136962f, -0.062796f, -0.006239f, -0.183700f, 0.099306f, 0.101539f, -0.014746f, 0.027716f, -0.165252f, 0.121277f, 0.000642f, 
    -0.154174f, -0.190014f, -0.008826f, 0.001192f, 0.053791f, -0.035147f, -0.157097f, 0.090757f, -0.027718f, 0.124146f, 0.074088f, -0.148478f, 
    0.009332f, 0.219292f, 0.064678f, 0.049449f, -0.070925f, -0.104700f, 0.113865f, 0.156375f, 0.088761f, 0.083528f, 0.094862f, 0.232814f, 
    0.023966f, 0.053138f, -0.005730f, -0.109212f, -0.069636f, 0.020458f, 0.091388f, -0.019022f, 0.080465f, -0.048804f, -0.183960f, 0.009143f, 
    -0.086169f, 0.026467f, 0.010160f, -0.056134f, 0.007877f, -0.129648f, -0.003157f, -0.175423f, 0.030430f, 0.086927f, 0.005603f, 0.125218f, 
    -0.004320f, 0.011032f, 0.094692f, 0.210919f, -0.145337f, -0.174566f, -0.234407f, 0.031029f, -0.121470f, -0.121292f, -0.003430f, 0.099844f, 
    0.150139f, -0.151409f, 0.003362f, 0.055074f, 0.133569f, -0.082542f, -0.040685f, 0.114340f, -0.011539f, -0.024599f, -0.054886f, 0.010608f, 
    0.077551f, -0.006577f, 0.044961f, -0.294118f, 0.040507f, 0.050272f, 0.070328f, 0.041721f, 0.025393f, -0.262999f, 0.123881f, 0.003286f, 
    0.099378f, 0.080779f, -0.122625f, -0.034029f, 0.076500f, -0.222407f, -0.109603f, 0.016789f, 0.000474f, 0.132572f, -0.042066f, 0.039913f, 
    0.017011f, -0.188047f, 0.142728f, -0.110873f, -0.122650f, 0.022107f, 0.030974f, -0.235932f, -0.103993f, -0.208407f, 0.048233f, -0.103617f, 
    -0.067321f, -0.269723f, -0.043445f, 0.158160f, 0.026825f, 0.008738f, 0.065904f, 0.173608f, -0.301549f, 0.084536f, 0.055439f, -0.066723f, 
    0.092472f, -0.052933f, 0.111791f, -0.050563f, 0.073114f, 0.144059f, 0.160717f, 0.048161f, -0.041843f, -0.184283f, -0.042028f, -0.186415f, 
    0.001790f, -0.043031f, -0.032929f, -0.126278f, 0.033417f, 0.100356f, -0.096957f, -0.065741f, 0.065819f, 0.090609f, -0.006584f, 0.074639f, 
    -0.190685f, -0.108831f, -0.111357f, -0.112301f, 0.164009f, -0.113801f, -0.051146f, 0.098046f, -0.172013f, -0.080988f, 0.015074f, -0.169538f, 
    0.159548f, 0.114863f, -0.031103f, 0.125705f, -0.050619f, 0.092667f, 0.089006f, 0.008036f, 0.189574f, -0.018002f, -0.130401f, -0.002212f, 
    0.096185f, 0.069364f, -0.009711f, -0.075160f, 0.047277f, -0.031642f, -0.049804f, -0.134264f, -0.037599f, -0.109181f, -0.062630f, -0.047856f, 
    -0.090735f, 0.072544f, 0.070937f, -0.028457f, -0.182267f, 0.010544f, -0.019108f, -0.156946f, -0.058754f, 0.052588f, 0.096221f, 0.112065f, 
    -0.027918f, -0.054826f, -0.056300f, -0.023428f, -0.010088f, 0.013387f, -0.014010f, 0.074741f, -0.174889f, -0.001204f, 0.097644f, 0.153874f, 
    0.051670f, 0.008745f, 0.079316f, 0.068264f, 0.026464f, 0.209625f, 0.125641f, -0.038008f, -0.014317f, -0.016778f, -0.164301f, -0.115825f, 
    -0.044303f, 0.070400f, 0.054814f, -0.052280f, -0.150145f, 0.015486f, -0.067706f, 0.117337f, 0.036297f, -0.148799f, -0.045842f, 0.008428f, 
    -0.017692f, 0.088721f, -0.013015f, -0.027217f, -0.039110f, -0.103891f, -0.074691f, 0.004513f, 0.048643f, -0.175796f, -0.138570f, -0.072855f, 
    0.050373f, 0.171388f, 0.038174f, 0.045789f, -0.023420f, 0.074885f, -0.053076f, 0.156393f, -0.034580f, 0.091267f, -0.060358f, 0.108566f, 
    -0.010100f, 0.033961f, -0.042688f, 0.083526f, 0.050276f, -0.125484f, 0.035067f, 0.054467f, -0.065344f, 0.126571f, -0.151720f, 0.216039f, 
    -0.114316f, -0.045803f, -0.089518f, -0.094009f, -0.102775f, -0.064324f, 0.114070f, -0.151950f, -0.125548f, -0.028782f, -0.070416f, 0.002510f, 
    0.168731f, -0.035689f, 0.041357f, -0.040591f, 0.079749f, -0.036982f, 0.181386f, 0.096157f, -0.105527f, 0.087244f, 0.153161f, -0.051270f, 
    0.064145f, -0.155848f, 0.049881f, 0.170063f, 0.078756f, -0.114201f, 0.020791f, -0.015117f, 0.102648f, -0.132121f, -0.219255f, 0.070560f, 
    0.191409f, 0.118237f, 0.034341f, 0.129230f, 0.001494f, 0.094153f, 0.050865f, -0.042146f, -0.125620f, -0.121845f, -0.119584f, 0.146900f, 
    0.020690f, -0.199742f, -0.079586f, 0.219778f, 0.074229f, -0.120696f, 0.173997f, -0.007239f, -0.263864f, -0.101247f, -0.048339f, -0.171373f, 
    0.040289f, -0.063399f, -0.050612f, 0.053966f, 0.187367f, 0.133047f, -0.161960f, 0.004459f, 0.007131f, -0.017265f, -0.003946f, -0.066661f, 
    -0.166751f, 0.107597f, -0.106633f, 0.015256f, 0.002599f, 0.056019f, -0.135440f, -0.072568f, 0.053104f, 0.001415f, 0.022858f, -0.105101f, 
    -0.049947f, -0.086010f, 0.121332f, 0.007792f, -0.017570f, -0.001194f, 0.022270f, 0.086783f, -0.027892f, -0.156791f, -0.025585f, -0.100587f, 
    0.070343f, 0.110650f, 0.055257f, 0.019723f, 0.074391f, 0.084318f, -0.099062f, -0.040576f, -0.002493f, 0.134144f, 0.010731f, 0.103693f, 
    -0.147034f, 0.026391f, -0.021575f, 0.125645f, 0.105158f, -0.013685f, 0.190821f, -0.056168f, 0.004817f, 0.208961f, -0.113329f, -0.038263f, 
    0.037654f, 0.105361f, 0.044613f, 0.101011f, -0.265700f, 0.141745f, 0.032861f, 0.001547f, 0.117900f, -0.197564f, 0.035272f, -0.004458f, 
    -0.004384f, -0.150168f, 0.012455f, 0.027052f, 0.025262f, 0.087666f, 0.115719f, -0.063230f, -0.116716f, 0.092825f, 0.226036f, 0.090513f, 
    -0.096273f, -0.027354f, 0.206941f, 0.061909f, 0.143840f, 0.042305f, 0.148222f, 0.007129f, 0.026803f, 0.085223f, -0.086710f, 0.169305f, 
    0.171262f, 0.068496f, -0.094416f, -0.068519f, 0.020563f, -0.142671f, 0.165275f, -0.131990f, -0.095448f, -0.075675f, -0.017681f, 0.157228f, 
    0.063028f, -0.004771f, -0.167858f, -0.062952f, 0.074249f, 0.045507f, 0.138257f, -0.064628f, 0.035960f, 0.031060f, -0.112351f, -0.235386f, 
    0.024912f, 0.152737f, -0.107832f, 0.004137f, 0.154179f, 0.084554f, 0.021305f, 0.091306f, 0.001241f, -0.115151f, -0.056076f, 0.091078f, 
    0.047801f, -0.017051f, 0.061174f, 0.150292f, -0.099480f, 0.093807f, -0.119017f, 0.035428f, 0.220296f, 0.037497f, -0.057192f, 0.021951f, 
    -0.114406f, -0.153693f, 0.064562f, 0.088617f, 0.043149f, 0.089292f, 0.103418f, 0.108247f, 0.097548f, -0.018496f, 0.057855f, 0.062962f, 
    0.092102f, -0.105847f, 0.077808f, -0.102696f, -0.048723f, 0.064215f, -0.057008f, 0.093375f, 0.004241f, -0.022121f, 0.016411f, 0.077437f, 
    -0.062471f, -0.091723f, -0.105676f, 0.020646f, 0.099944f, 0.166036f, 0.074054f, -0.029864f, 0.080510f, 0.066231f, 0.002811f, 0.117703f, 
    0.030113f, -0.161733f, -0.265797f, 0.095609f, -0.086301f, 0.194013f, -0.143507f, -0.151089f, -0.065816f, -0.162825f, -0.206445f, -0.081030f, 
    -0.081371f, 0.040469f, 0.065371f, -0.056869f, -0.008285f, -0.051613f, -0.017155f, 0.108095f, 0.112791f, 0.093898f, -0.041042f, 0.139085f, 
    0.010070f, -0.007685f, -0.078579f, 0.008483f, 0.098176f, -0.114001f, 0.017289f, -0.065832f, -0.012143f, -0.083471f, -0.028197f, -0.037762f, 
    0.037365f, 0.034968f, 0.009678f, -0.052558f, -0.020765f, 0.011486f, 0.062576f, -0.092039f, -0.068345f, 0.184955f, -0.167484f, -0.025477f, 
    0.101520f, 0.111131f, -0.085374f, 0.098914f, 0.055315f, 0.239341f, -0.098421f, -0.131762f, -0.035113f, -0.175612f, -0.053257f, -0.008404f, 
    -0.109518f, -0.011440f, -0.032419f, 0.064741f, 0.068038f, 0.042690f, -0.162565f, 0.008395f, -0.245743f, 0.045746f, 0.171170f, 0.131490f, 
    -0.137698f, 0.033802f, 0.048950f, 0.075649f, -0.076535f, 0.131518f, 0.031565f, -0.051821f, 0.069631f, 0.070201f, 0.166768f, -0.028584f, 
    0.091302f, 0.009993f, -0.070225f, 0.080989f, -0.087823f, 0.054072f, -0.059518f, 0.104898f, 0.068130f, 0.093250f, -0.066194f, -0.122466f, 
    0.075571f, 0.065999f, -0.233279f, 0.063576f, 0.093222f, -0.175386f, 0.025146f, 0.102316f, -0.271400f, 0.228229f, 0.028615f, 0.044483f, 
    -0.031434f, 0.137395f, -0.036145f, 0.075124f, -0.128074f, 0.077045f, 0.181137f, -0.154036f, -0.102416f, 0.057224f, 0.028694f, 0.084689f, 
    -0.166500f, -0.015357f, 0.053109f, 0.050795f, -0.209600f, 0.387644f, -0.013107f, -0.214550f, -0.148983f, 0.019918f, -0.315372f, 0.157686f, 
    -0.332605f, -0.198110f, 0.037713f, -0.018063f, -0.175386f, 0.084263f, -0.069202f, -0.124308f, 0.234143f, 0.306590f, 0.209831f, -0.131762f, 
    -0.051433f, -0.011585f, 0.375223f, 0.085555f, 0.128571f, -0.022613f, 0.179002f, 0.004356f, 0.019233f, -0.086988f, 0.153990f, 0.085887f, 
    0.240759f, 0.020037f, 0.066707f, 0.043815f, 0.148763f, -0.037133f, 0.379740f, -0.075687f, -0.102793f, -0.066153f, -0.142193f, -0.036495f, 
    0.187809f, 0.230374f, -0.091725f, 0.146414f, 0.059819f, 0.027170f, 0.226973f, -0.078349f, 0.157384f, -0.292759f, 0.214075f, -0.025702f, 
    -0.079228f, -0.040445f, 0.052905f, -0.216930f, -0.043840f, 0.187253f, 0.030117f, 0.002153f, -0.261553f, 0.181042f, 0.039205f, 0.313418f, 
    0.097780f, -0.368304f, 0.179583f, 0.025691f, -0.223061f, 0.174401f, 0.023818f, -0.022296f, 0.061360f, 0.124009f, 0.178926f, -0.218531f, 
    -0.119529f, -0.246942f, -0.114264f, 0.261511f, -0.082053f, 0.111764f, 0.029123f, 0.154436f, -0.056762f, 0.021633f, -0.103742f, -0.053644f, 
    0.062524f, -0.035631f, -0.101342f, -0.187607f, 0.091167f, -0.081757f, 0.137374f, 0.106596f, -0.092887f, 0.022737f, -0.073458f, 0.156219f, 
    0.031282f, -0.075814f, 0.004447f, -0.128157f, 0.012577f, 0.001720f, 0.111688f, -0.187410f, -0.069492f, -0.080156f, 0.013235f, 0.067768f, 
    -0.102558f, 0.126080f, -0.048513f, -0.053678f, -0.053694f, 0.117398f, 0.022981f, -0.153913f, 0.095033f, -0.109231f, 0.061989f, 0.029760f, 
    -0.035885f, -0.058314f, -0.017053f, 0.125359f, 0.122029f, 0.174552f, 0.086724f, -0.068591f, 0.072954f, 0.004440f, -0.011195f, 0.091240f, 
    -0.004730f, 0.054174f, 0.068933f, -0.002482f, 0.098226f, 0.044524f, 0.167465f, -0.053324f, 0.169515f, -0.009650f, -0.155198f, 0.155759f, 
    0.081382f, 0.038630f, -0.036707f, -0.015166f, -0.167579f, 0.075989f, -0.061445f, -0.148892f, -0.001390f, -0.035159f, -0.181819f, -0.009900f, 
    -0.034640f, -0.176267f, -0.180533f, 0.007844f, -0.029389f, -0.039784f, 0.088343f, 0.103081f, -0.127922f, -0.140211f, 0.003194f, -0.119777f, 
    -0.163610f, -0.079534f, -0.000403f, 0.100079f, 0.088389f, 0.159476f, 0.040988f, -0.114823f, 0.031057f, -0.060907f, -0.008454f, 0.090933f, 
    -0.054176f, 0.017607f, -0.003193f, -0.011193f, 0.058633f, 0.197285f, -0.134810f, -0.121102f, 0.210490f, -0.109204f, 0.102226f, -0.025258f, 
    -0.085932f, -0.214742f, -0.077893f, 0.157516f, -0.068794f, -0.015384f, -0.045653f, -0.011529f, 0.101955f, -0.084348f, 0.004408f, -0.054667f, 
    0.026340f, -0.009216f, 0.146487f, 0.026068f, -0.106841f, -0.144226f, -0.123620f, -0.097216f, -0.277260f, -0.077473f, 0.043581f, -0.075817f, 
    -0.094741f, -0.115061f, -0.138284f, 0.000046f, -0.148127f, 0.131907f, -0.033856f, -0.101070f, -0.033136f, 0.006934f, 0.093487f, -0.100481f, 
    -0.007923f, -0.160529f, -0.105691f, 0.056119f, -0.124078f, 0.078323f, -0.046676f, 0.031255f, -0.202200f, 0.143797f, 0.128624f, -0.098107f, 
    -0.111013f, 0.113581f, 0.153704f, -0.099199f, 0.048900f, -0.147141f, -0.009300f, 0.094195f, 0.106485f, 0.060067f, 0.032536f, -0.007326f, 
    -0.003787f, 0.062372f, -0.142955f, 0.065093f, -0.003836f, -0.077776f, 0.069873f, 0.082754f, -0.035840f, 0.114768f, 0.030411f, 0.000722f, 
    0.134119f, 0.130234f, 0.041020f, 0.008596f, -0.161289f, -0.221537f, -0.020160f, 0.056828f, -0.076830f, 0.050537f, -0.214759f, -0.020121f, 
    0.147127f, 0.063466f, 0.036449f, 0.153667f, 0.052795f, 0.184021f, -0.134037f, -0.147335f, 0.094813f, 0.197953f, 0.161458f, 0.058208f, 
    -0.183238f, -0.064326f, -0.165856f, -0.162260f, -0.045455f, 0.077328f, -0.143790f, 0.091470f, -0.166173f, -0.029215f, 0.045168f, -0.021757f, 
    0.037605f, -0.158842f, 0.216394f, -0.062046f, -0.167503f, -0.048631f, -0.097952f, 0.007419f, 0.084924f, 0.109805f, 0.060120f, -0.048423f, 
    -0.157780f, -0.111757f, 0.098102f, -0.128447f, -0.052281f, -0.025652f, -0.150497f, -0.000877f, -0.072208f, -0.139547f, -0.004321f, 0.043444f, 
    -0.091110f, -0.165294f, 0.049670f, 0.113156f, 0.072729f, 0.065675f, -0.169512f, 0.087519f, 0.311421f, 0.206897f, 0.255029f, 0.076831f, 
    0.111699f, -0.139180f, -0.237767f, 0.059608f, 0.190333f, 0.157497f, -0.071755f, -0.014142f, 0.267485f, -0.140343f, -0.198215f, -0.037896f, 
    -0.016376f, -0.009531f, -0.158292f, -0.039857f, -0.034462f, -0.136431f, -0.120357f, -0.191087f, -0.120719f, 0.067039f, 0.087872f, -0.244978f, 
    0.235568f, 0.144796f, -0.047636f, -0.088804f, 0.153909f, -0.071269f, 0.098764f, 0.306828f, -0.174426f, -0.097578f, -0.157710f, 0.105659f, 
    0.137266f, -0.076337f, -0.239253f, -0.046677f, -0.265129f, -0.191434f, -0.124781f, -0.072022f, -0.475753f, -0.108323f, -0.199519f, -0.090935f, 
    -0.095776f, -0.006846f, -0.058047f, -0.018264f, -0.316806f, 0.063519f, -0.002497f, 0.139837f, 0.077284f, 0.120180f, -0.016400f, 0.154907f, 
    0.138982f, 0.023251f, 0.259521f, 0.134881f, -0.164880f, -0.388199f, 0.094394f, -0.036010f, -0.045899f, 0.203139f, -0.307547f, 0.068702f, 
    -0.063996f, -0.053167f, -0.198761f, 0.249811f, -0.082281f, 0.073035f, -0.281610f, -0.075320f, 0.131297f, -0.070697f, -0.130606f, -0.153529f, 
    -0.160377f, 0.315160f, -0.083259f, 0.081143f, -0.001870f, -0.076669f, -0.112907f, -0.057467f, 0.010753f, -0.101943f, 0.071384f, 0.023205f, 
    0.014087f, 0.094619f, -0.030984f, -0.316954f, 0.079611f, -0.107610f, 0.082578f, 0.054909f, -0.056054f, -0.206492f, -0.093239f, -0.168152f, 
    -0.227351f, -0.123048f, 0.059458f, 0.059932f, 0.158332f, 0.304105f, -0.166601f, 0.046585f, 0.045458f, 0.119356f, 0.000725f, -0.156151f, 
    0.130755f, -0.019408f, 0.246948f, 0.067281f, 0.168002f, -0.137599f, 0.164742f, 0.098783f, -0.001450f, -0.003863f, -0.134384f, -0.010044f, 
    0.083408f, 0.121822f, 0.083077f, 0.035840f, 0.078153f, -0.146527f, 0.066659f, 0.104912f, 0.145420f, -0.059389f, -0.101862f, 0.022804f, 
    0.113949f, -0.056663f, 0.074836f, 0.180394f, 0.036607f, 0.118952f, -0.108393f, -0.170903f, 0.035791f, 0.199122f, -0.080912f, 0.073895f, 
    0.123042f, 0.086666f, -0.120910f, 0.235618f, -0.249833f, -0.016851f, -0.191310f, 0.001434f, 0.021656f, -0.134641f, 0.045682f, 0.102364f, 
    -0.001119f, -0.148079f, 0.092384f, -0.067687f, 0.143476f, 0.241378f, -0.127408f, -0.055007f, 0.235026f, -0.089039f, -0.059581f, -0.050895f, 
    -0.063477f, -0.148174f, 0.224191f, -0.206523f, 0.113133f, -0.232821f, -0.041643f, -0.008794f, 0.077823f, -0.074993f, 0.007440f, 0.162072f, 
    -0.018174f, -0.010274f, -0.039956f, 0.069709f, -0.030994f, -0.180067f, -0.221907f, -0.048369f, 0.074718f, 0.109985f, 0.130078f, 0.022214f, 
    -0.259560f, 0.281925f, -0.055387f, -0.200725f, 0.135847f, 0.078936f, 0.030406f, -0.007980f, -0.247217f, -0.007745f, 0.018340f, 0.029185f, 
    -0.004916f, -0.104281f, -0.022607f, 0.074539f, 0.093776f, -0.004918f, -0.206287f, 0.082604f, -0.270737f, 0.164778f, -0.038056f, 0.095850f, 
    -0.002252f, -0.082405f, -0.042878f, -0.125488f, -0.099122f, -0.078613f, 0.045086f, -0.024702f, -0.211952f, 0.153874f, 0.041508f, -0.034569f, 
    -0.155268f, -0.096347f, 0.014298f, 0.031646f, -0.044016f, -0.084262f, -0.151418f, 0.066013f, 0.087681f, -0.160798f, 0.208372f, -0.034073f, 
    -0.249295f, 0.008222f, 0.006794f, -0.001043f, -0.011100f, 0.263796f, -0.093808f, -0.013436f, 0.086126f, 0.251242f, 0.001633f, -0.113401f, 
    -0.291803f, -0.044460f, -0.030938f, -0.067356f, -0.230434f, 0.185243f, -0.044101f, -0.204205f, 0.105972f, 0.044950f, -0.051499f, -0.062356f, 
    -0.076982f, 0.003291f, 0.027963f, 0.088611f, -0.041489f, 0.061278f, 0.073312f, -0.011977f, 0.000460f, 0.117205f, 0.196520f, -0.065339f, 
    0.075817f, -0.067277f, -0.094099f, 0.136986f, 0.186505f, -0.027094f, -0.171059f, 0.133097f, 0.042677f, 0.141998f, 0.027147f, -0.093630f, 
    -0.096679f, 0.210761f, 0.051072f, -0.079329f, -0.089959f, 0.137604f, 0.096207f, -0.018913f, 0.262672f, -0.129537f, 0.031974f, 0.123846f, 
    0.017313f, -0.088286f, -0.016887f, -0.169720f, -0.045179f, -0.115575f, 0.046316f, -0.128357f, -0.104690f, 0.070617f, 0.057534f, 0.095548f, 
    0.026380f, -0.161777f, 0.104944f, -0.197482f, -0.107584f, 0.031255f, 0.141238f, 0.072109f, 0.010849f, 0.153270f, 0.084082f, -0.141388f, 
    0.059972f, 0.150618f, -0.058088f, 0.191448f, -0.111291f, 0.081145f, 0.150945f, -0.112682f, 0.161611f, 0.063078f, 0.064474f, -0.003426f, 
    0.136967f, 0.065547f, -0.006105f, 0.222766f, -0.140411f, 0.022576f, -0.317918f, 0.082404f, 0.027614f, 0.023752f, 0.055905f, -0.009404f, 
    -0.072867f, -0.045087f, -0.096740f, 0.300175f, -0.084895f, 0.002034f, 0.100579f, 0.000548f, 0.003108f, 0.065711f, -0.131682f, -0.063510f, 
    0.080893f, 0.037583f, -0.035573f, -0.090428f, -0.092562f, -0.138274f, 0.112635f, -0.159480f, -0.024415f, 0.009574f, -0.047765f, 0.080194f, 
    -0.155729f, 0.135524f, 0.058616f, -0.003266f, 0.045988f, -0.102364f, -0.231667f, 0.131665f, -0.145746f, 0.021465f, 0.089709f, -0.029147f, 
    -0.209530f, -0.054617f, 0.067390f, -0.121142f, -0.048280f, -0.093912f, -0.122460f, 0.008293f, -0.214261f, -0.030312f, -0.046145f, 0.186149f, 
    -0.142747f, -0.060290f, 0.009923f, 0.140535f, 0.115138f, -0.096209f, 0.161116f, -0.030669f, 0.151477f, -0.168000f, 0.114797f, 0.055646f, 
    0.029110f, 0.334377f, -0.083046f, -0.144997f, -0.071997f, -0.052161f, -0.059398f, -0.098654f, 0.432626f, 0.020910f, -0.165091f, 0.005657f, 
    0.000480f, 0.037998f, 0.090537f, -0.115968f, -0.064314f, -0.151308f, -0.090981f, -0.217850f, 0.002643f, 0.115288f, 0.098191f, 0.062833f, 
    0.019516f, 0.074086f, -0.080261f, 0.090319f, 0.024946f, 0.003448f, 0.123038f, -0.049125f, 0.039964f, -0.017235f, -0.095947f, 0.146889f, 
    0.059804f, -0.180636f, 0.104562f, -0.153637f, -0.010227f, -0.043133f, 0.209653f, 0.045612f, -0.160905f, 0.159205f, -0.093894f, 0.030335f, 
    0.085113f, 0.007170f, 0.028077f, 0.141164f, -0.048527f, 0.033288f, -0.155065f, 0.076048f, -0.071197f, 0.109864f, -0.062724f, -0.015767f, 
    -0.092882f, -0.121251f, -0.112554f, 0.164623f, 0.086121f, 0.279119f, 0.013818f, -0.017353f, 0.198319f, -0.076783f, 0.096308f, -0.094332f, 
    0.058430f, -0.065349f, -0.105902f, 0.073478f, -0.181957f, 0.041779f, 0.037403f, -0.163156f, -0.007413f, -0.124485f, -0.109773f, 0.010657f, 
    -0.000764f, 0.084594f, -0.120587f, -0.187702f, -0.047573f, -0.118327f, -0.103516f, 0.069747f, -0.194254f, -0.088149f, -0.001036f, 0.174493f, 
    -0.061829f, -0.037220f, 0.012995f, -0.026296f, -0.117889f, -0.011670f, 0.036417f, 0.008153f, -0.066493f, 0.048844f, 0.052761f, 0.083969f, 
    -0.106440f, -0.053494f, 0.051961f, -0.016779f, -0.035563f, -0.126460f, -0.057618f, -0.049471f, 0.038681f, -0.052666f, 0.054583f, 0.134718f, 
    0.043327f, 0.136711f, 0.124493f, -0.085063f, -0.001500f, -0.044634f, -0.132313f, -0.163421f, 0.175985f, -0.045789f, -0.082399f, 0.130401f, 
    0.043005f, -0.020523f, 0.047327f, 0.104804f, -0.009907f, -0.043060f, -0.180865f, -0.127186f, -0.138454f, 0.096107f, 0.196726f, 0.155137f, 
    0.001124f, 0.109208f, -0.075583f, 0.094057f, -0.028692f, -0.057787f, 0.066202f, 0.165427f, 0.115290f, 0.049710f, 0.135978f, 0.146462f, 
    -0.022561f, 0.043957f, -0.061205f, -0.128903f, -0.022959f, 0.009819f, -0.006064f, 0.063552f, 0.140504f, 0.074501f, -0.104659f, -0.144711f, 
    -0.015979f, 0.040645f, 0.023302f, -0.030325f, 0.082806f, 0.115813f, 0.056273f, -0.193554f, -0.011822f, -0.088956f, -0.013796f, -0.102105f, 
    0.106471f, -0.068442f, 0.209638f, -0.103830f, 0.110028f, -0.165073f, -0.179967f, 0.156510f, -0.140559f, 0.071935f, 0.053663f, -0.081685f, 
    -0.127027f, 0.032809f, 0.246467f, -0.001059f, 0.191669f, 0.024260f, 0.139351f, 0.122327f, 0.028344f, 0.137709f, 0.201455f, 0.003295f, 
    0.178940f, -0.057812f, 0.068342f, 0.127521f, 0.036659f, 0.163253f, 0.036972f, -0.203605f, 0.109078f, 0.062175f, -0.026282f, -0.071003f, 
    0.099627f, 0.162217f, 0.009081f, 0.077963f, 0.003202f, 0.216852f, -0.090864f, 0.144232f, 0.194700f, 0.046822f, 0.088428f, -0.102613f, 
    0.035174f, 0.164848f, -0.144722f, -0.150995f, 0.167785f, 0.195934f, -0.048166f, -0.082751f, 0.075806f, -0.197652f, -0.010466f, -0.053876f, 
    -0.151611f, -0.162859f, -0.013382f, -0.015052f, 0.148197f, -0.093628f, -0.074140f, 0.120074f, -0.114592f, 0.094151f, 0.059793f, 0.065039f, 
    -0.138511f, 0.107174f, 0.184533f, -0.028401f, -0.049956f, 0.185426f, 0.216682f, 0.076339f, 0.179276f, -0.148819f, -0.131825f, 0.050621f, 
    -0.022251f, -0.056737f, -0.023630f, -0.038011f, 0.071519f, 0.044223f, -0.054679f, 0.038495f, -0.160019f, -0.065946f, -0.078987f, 0.060420f, 
    0.023299f, -0.001402f, -0.006914f, 0.111036f, 0.066801f, -0.015411f, -0.304842f, -0.148146f, 0.064600f, -0.109294f, 0.232919f, 0.166181f, 
    -0.037512f, -0.119098f, -0.110519f, 0.178480f, 0.028216f, 0.104483f, -0.078106f, 0.175220f, -0.096461f, 0.108294f, 0.010138f, 0.051979f, 
    -0.112598f, 0.107277f, 0.132973f, 0.259387f, -0.188399f, -0.119213f, 0.157535f, 0.063487f, 0.024592f, -0.007659f, 0.113584f, 0.176046f, 
    0.020988f, 0.177046f, -0.060958f, 0.048474f, -0.146666f, -0.065587f, -0.113192f, -0.123952f, 0.201477f, -0.070929f, -0.295084f, 0.064778f, 
    0.072364f, -0.011413f, 0.069332f, -0.098715f, -0.025640f, -0.037540f, -0.026245f, 0.096696f, -0.134178f, 0.135959f, 0.041381f, 0.107467f, 
    -0.165685f, 0.028327f, 0.036778f, 0.036253f, 0.129721f, -0.254881f, -0.055868f, -0.099541f, -0.152132f, -0.071692f, 0.016187f, 0.282397f, 
    0.073809f, -0.265203f, 0.142128f, 0.196049f, 0.123585f, -0.103381f, 0.162306f, 0.053612f, 0.062673f, -0.177096f, -0.014437f, -0.169458f, 
    0.154164f, 0.047142f, -0.056932f, -0.133166f, -0.077907f, -0.092148f, 0.175927f, -0.067291f, 0.105008f, -0.046232f, 0.028067f, -0.052852f, 
    0.156814f, 0.077982f, -0.047561f, 0.120832f, 0.122026f, -0.042886f, -0.017180f, 0.109686f, 0.018865f, 0.098182f, 0.095590f, -0.021433f, 
    0.132843f, 0.097316f, 0.035384f, 0.227133f, 0.035860f, 0.092591f, -0.098739f, -0.283524f, -0.065142f, -0.088313f, -0.253102f, -0.176259f, 
    -0.091292f, -0.171130f, 0.002894f, 0.022568f, -0.098464f, 0.002723f, 0.181144f, 0.054337f, -0.024038f, 0.210497f, -0.271458f, 0.014778f, 
    0.140133f, 0.148913f, -0.075785f, -0.035573f, -0.085705f, -0.162779f, 0.125328f, 0.034812f, -0.177327f, -0.036738f, -0.223885f, -0.070253f, 
    0.017814f, 0.237047f, 0.149628f, -0.021449f, -0.034483f, -0.133650f, 0.184342f, 0.039703f, -0.052147f, 0.010054f, -0.014816f, 0.055343f, 
    0.090946f, -0.079058f, 0.171084f, -0.042624f, -0.012428f, 0.035274f, 0.087365f, -0.073326f, -0.114586f, -0.037459f, 0.032765f, 0.181454f, 
    -0.039693f, -0.128934f, 0.106913f, 0.052521f, -0.066045f, 0.096440f, -0.094872f, -0.126836f, 0.108740f, 0.101651f, -0.009185f, -0.120098f, 
    -0.101581f, -0.116867f, 0.188195f, 0.103619f, 0.016667f, 0.029251f, -0.028131f, 0.081731f, 0.009559f, -0.071060f, 0.060487f, -0.039102f, 
    0.083888f, 0.048869f, -0.023120f, 0.063107f, 0.114724f, -0.083571f, 0.205011f, 0.020299f, 0.044728f, 0.051611f, 0.155143f, -0.082061f, 
    -0.018206f, -0.035039f, -0.121310f, -0.093870f, 0.193817f, 0.110650f, -0.042828f, -0.014581f, -0.027146f, -0.092192f, -0.010783f, -0.233468f, 
    -0.038459f, 0.093231f, 0.096413f, -0.069377f, 0.132284f, 0.040025f, 0.089992f, 0.098756f, -0.092785f, 0.190554f, 0.032322f, -0.117119f, 
    0.013112f, -0.136534f, 0.116995f, -0.128157f, -0.053236f, -0.009292f, -0.010813f, 0.065499f, -0.056464f, 0.057562f, -0.149734f, -0.106722f, 
    0.044493f, -0.286761f, 0.088698f, 0.123028f, -0.221098f, 0.024519f, -0.100037f, 0.018701f, 0.025968f, 0.123699f, -0.003607f, -0.008092f, 
    0.197548f, 0.263938f, -0.140270f, -0.028379f, -0.029415f, -0.048327f, -0.127146f, 0.076321f, 0.038988f, 0.118803f, -0.163178f, -0.037492f, 
    0.063432f, 0.019533f, 0.059666f, 0.068534f, -0.082578f, -0.074529f, 0.104673f, -0.067295f, -0.046567f, 0.062450f, 0.163195f, 0.204536f, 
    -0.186371f, 0.116758f, 0.044847f, -0.011438f, -0.228722f, -0.043909f, -0.054915f, 0.000183f, -0.003034f, -0.020269f, -0.069813f, 0.370889f, 
    0.100003f, -0.292688f, -0.064583f, -0.073970f, 0.017226f, -0.051165f, 0.099770f, -0.106957f, 0.048676f, 0.049933f, 0.130525f, 0.188005f, 
    0.022546f, 0.132056f, 0.024978f, 0.213377f, 0.146918f, -0.008885f, -0.004663f, -0.016297f, 0.198045f, -0.039762f, -0.041855f, 0.310825f, 
    0.058244f, 0.168846f, 0.097672f, 0.070298f, 0.081915f, 0.021911f, -0.091894f, -0.084219f, -0.079437f, -0.035033f, -0.186801f, 0.050912f, 
    -0.060213f, -0.008843f, -0.135891f, 0.136040f, 0.045599f, 0.095668f, 0.149200f, 0.002885f, -0.116077f, -0.171151f, 0.091291f, -0.263693f, 
    0.075097f, -0.057010f, 0.038023f, -0.145800f, 0.096905f, 0.076697f, 0.059776f, 0.004886f, -0.165572f, 0.134575f, 0.032528f, 0.041656f, 
    0.215135f, -0.143254f, 0.127726f, -0.045653f, -0.059990f, 0.184075f, 0.163486f, -0.117863f, 0.051032f, -0.000700f, 0.021025f, -0.165773f, 
    -0.177372f, -0.073931f, -0.213211f, 0.178015f, -0.183952f, -0.041713f, 0.115735f, 0.040800f, -0.085184f, -0.088641f, 0.065578f, 0.023308f, 
    -0.019250f, -0.180517f, -0.016072f, -0.053784f, 0.019970f, 0.161493f, 0.098989f, 0.055107f, 0.013289f, -0.061264f, -0.024638f, -0.071698f, 
    -0.073607f, 0.118457f, 0.113928f, -0.174759f, 0.134658f, 0.070646f, 0.063868f, -0.065468f, 0.084887f, 0.212654f, -0.152867f, -0.189768f, 
    -0.131410f, -0.008494f, -0.045826f, -0.052627f, 0.095314f, -0.045810f, 0.005595f, 0.263482f, -0.122426f, 0.206729f, -0.114642f, -0.044204f, 
    -0.056187f, 0.090319f, -0.033018f, 0.073069f, -0.044770f, -0.052334f, 0.023079f, 0.064293f, 0.024169f, -0.154040f, -0.075939f, 0.084050f, 
    0.081797f, 0.052708f, 0.192205f, -0.062902f, 0.071082f, -0.042617f, 0.050598f, 0.024898f, -0.086370f, -0.104631f, -0.009502f, 0.019948f, 
    -0.012504f, -0.088966f, 0.054989f, -0.138492f, 0.212684f, 0.096859f, 0.032233f, -0.087087f, -0.119096f, -0.127450f, 0.010786f, 0.062824f, 
    -0.012221f, -0.176232f, 0.151649f, -0.055709f, 0.027941f, -0.007513f, -0.041556f, 0.228101f, -0.245038f, 0.007046f, 0.044550f, 0.024675f, 
    -0.015268f, -0.192702f, 0.144216f, 0.223072f, 0.175762f, -0.055158f, 0.047688f, 0.117943f, 0.195109f, -0.002070f, 0.083414f, 0.148498f, 
    -0.038515f, 0.050385f, -0.011231f, -0.049874f, -0.015840f, 0.002616f, 0.000409f, 0.047309f, -0.090231f, -0.033259f, 0.166602f, 0.006177f, 
    0.032489f, -0.185950f, 0.127680f, 0.078750f, 0.055579f, 0.054046f, -0.179800f, -0.017295f, -0.071509f, 0.007031f, 0.094317f, -0.021097f, 
    -0.001713f, 0.129090f, -0.032987f, -0.083596f, 0.071825f, -0.024795f, 0.132802f, -0.051494f, -0.108715f, -0.151227f, -0.019893f, -0.018496f, 
    0.109107f, 0.035681f, -0.028606f, -0.161284f, 0.032930f, 0.079173f, 0.092855f, -0.020908f, -0.024951f, 0.097199f, 0.067010f, 0.053788f, 
    0.016771f, 0.157785f, -0.115410f, -0.041649f, -0.168350f, 0.084090f, -0.139212f, 0.074590f, -0.096045f, -0.088707f, -0.015170f, 0.193134f, 
    0.038081f, -0.054205f, -0.098901f, -0.099339f, 0.045671f, -0.052423f, -0.005526f, 0.023183f, 0.034129f, 0.010256f, 0.103396f, -0.090920f, 
    -0.040432f, -0.061642f, -0.050109f, 0.039789f, -0.042362f, -0.108279f, 0.130051f, 0.105427f, 0.015663f, -0.071787f, -0.235852f, 0.007489f, 
    0.119862f, 0.080346f, 0.028918f, 0.092210f, -0.101868f, 0.067187f, 0.073415f, -0.127748f, -0.061446f, 0.031920f, -0.073181f, 0.042294f, 
    0.110028f, -0.036423f, -0.122702f, 0.164528f, -0.045689f, 0.076044f, 0.101286f, 0.018572f, -0.350520f, 0.022363f, 0.027498f, -0.152725f, 
    0.015542f, -0.074588f, -0.004051f, 0.044181f, 0.147016f, 0.181510f, -0.059201f, 0.118366f, 0.126404f, -0.128462f, -0.168569f, -0.000962f, 
    -0.135879f, 0.102473f, -0.025805f, -0.045633f, -0.031329f, 0.183481f, -0.074591f, -0.176063f, 0.006157f, -0.147540f, 0.018350f, -0.040256f, 
    -0.116267f, 0.034501f, -0.106846f, 0.034351f, 0.027158f, 0.098378f, 0.091450f, 0.098163f, 0.086928f, -0.142683f, -0.005941f, -0.091948f, 
    0.063557f, 0.108384f, -0.067520f, 0.185625f, -0.051469f, 0.063334f, -0.045122f, 0.250400f, -0.044289f, -0.184321f, 0.078601f, 0.067670f, 
    0.040582f, -0.215727f, -0.058986f, 0.062307f, -0.235301f, 0.047507f, 0.282899f, 0.074764f, -0.090578f, 0.203541f, -0.028761f, 0.288804f, 
    0.044647f, 0.032252f, -0.261179f, -0.071051f, -0.128702f, 0.181932f, -0.132069f, -0.092335f, -0.137942f, -0.265382f, -0.152022f, 0.034175f, 
    -0.076321f, 0.118199f, 0.029027f, -0.071455f, -0.072454f, -0.000566f, 0.069360f, 0.154664f, 0.079327f, 0.103074f, 0.068096f, -0.002293f, 
    -0.161581f, -0.220410f, 0.101867f, 0.088057f, 0.066550f, -0.270899f, 0.138381f, -0.040071f, 0.072409f, 0.035519f, -0.286269f, 0.223554f, 
    0.026858f, 0.020522f, 0.132689f, 0.400263f, -0.136922f, -0.086821f, 0.045073f, -0.030413f, -0.067828f, 0.030396f, -0.179352f, 0.091344f, 
    -0.025181f, 0.064950f, -0.405204f, 0.051837f, -0.036691f, 0.191735f, -0.027921f, 0.029667f, 0.061905f, -0.290736f, -0.080610f, -0.049601f, 
    0.012346f, 0.115146f, -0.161879f, 0.185361f, 0.049702f, 0.147439f, -0.047453f, -0.126474f, -0.056163f, 0.142043f, -0.059696f, 0.016938f, 
    0.125717f, -0.000605f, -0.045564f, 0.251519f, -0.336193f, 0.110279f, 0.097659f, 0.056658f, 0.127830f, 0.105420f, -0.019194f, -0.007109f, 
    -0.379814f, -0.141207f, -0.057165f, -0.043198f, -0.033122f, 0.042602f, 0.117742f, 0.164600f, 0.020439f, 0.229209f, -0.242370f, -0.040705f, 
    0.040400f, -0.111498f, -0.340165f, -0.055509f, 0.095786f, -0.046046f, 0.117375f, 0.030432f, 0.035080f, 0.123169f, 0.142123f, -0.052434f, 
    0.010628f, 0.038791f, -0.026782f, -0.073714f, 0.145369f, -0.010372f, 0.036277f, -0.074846f, 0.146064f, 0.046443f, -0.065093f, -0.057979f, 
    -0.172868f, 0.053823f, 0.082635f, 0.039495f, -0.134528f, 0.094886f, -0.120597f, -0.076248f, -0.110259f, 0.134888f, -0.270440f, 0.138025f, 
    0.043799f, -0.002327f, 0.029495f, 0.079035f, 0.025532f, 0.035415f, 0.141935f, 0.052895f, -0.135181f, 0.222441f, 0.193895f, 0.104043f, 
    0.097378f, 0.110633f, 0.348695f, 0.119739f, 0.178799f, -0.058949f, -0.007032f, -0.050561f, -0.055577f, 0.114030f, 0.075532f, -0.008556f, 
    0.259259f, 0.068426f, 0.040424f, -0.031225f, -0.038521f, 0.076035f, 0.345316f, -0.152596f, -0.003276f, -0.078773f, -0.053402f, 0.129301f, 
    0.238013f, 0.104522f, 0.235367f, 0.115052f, -0.132903f, -0.053266f, 0.176763f, -0.191756f, -0.041265f, 0.046674f, -0.012059f, -0.267225f, 
    0.034599f, -0.088490f, -0.190652f, -0.046392f, 0.098093f, 0.042670f, -0.040626f, -0.110862f, -0.033060f, -0.055481f, 0.132555f, 0.108824f, 
    0.012816f, 0.117854f, -0.123629f, 0.132015f, 0.074194f, 0.096487f, 0.050718f, -0.088036f, 0.138637f, -0.140040f, 0.270294f, -0.162426f, 
    0.114680f, -0.186712f, 0.061863f, 0.064059f, -0.132442f, -0.037291f, -0.017415f, 0.125469f, -0.061009f, -0.107056f, -0.024945f, -0.116227f, 
    0.020158f, 0.170296f, -0.120687f, -0.027945f, -0.083165f, 0.123308f, -0.144054f, 0.171286f, -0.077219f, 0.152698f, -0.087291f, 0.317486f, 
    -0.065494f, -0.067374f, 0.044213f, 0.006185f, -0.093454f, -0.037898f, 0.229287f, 0.093239f, 0.016997f, 0.054155f, 0.053646f, -0.045218f, 
    -0.372126f, -0.086219f, 0.018164f, 0.159628f, -0.398231f, 0.108054f, -0.035512f, -0.145225f, 0.114057f, -0.081275f, 0.082804f, 0.308875f, 
    0.138923f, -0.358277f, -0.049363f, -0.061862f, -0.016736f, 0.132484f, -0.008005f, 0.020953f, 0.106357f, 0.110510f, 0.281956f, -0.015356f, 
    0.165731f, -0.089966f, 0.102095f, 0.138203f, 0.059521f, 0.151108f, 0.122997f, -0.022097f, 0.094584f, 0.016495f, -0.093360f, 0.183799f, 
    0.216126f, 0.220386f, 0.128786f, -0.165526f, 0.005903f, -0.087726f, 0.017622f, -0.107428f, -0.076619f, 0.035333f, -0.235455f, 0.049011f, 
    0.070867f, 0.013769f, 0.226206f, 0.470543f, 0.058599f, -0.103946f, -0.115077f, 0.031358f, -0.013982f, 0.047276f, 0.247753f, -0.347842f, 
    0.084844f, -0.232186f, -0.043790f, -0.045501f, -0.109243f, 0.378809f, -0.116670f, 0.083561f, -0.104128f, -0.039895f, -0.078703f, -0.065817f, 
    0.133350f, -0.067968f, -0.057600f, 0.041571f, -0.053096f, 0.342051f, 0.081150f, -0.052622f, 0.055321f, -0.052950f, 0.101135f, -0.544217f, 
    -0.152860f, -0.063690f, 0.004168f, 0.127919f, -0.063269f, -0.070934f, -0.010023f, 0.047943f, -0.089192f, -0.320952f, -0.092808f, -0.039797f, 
    0.112139f, 0.109035f, -0.032991f, 0.089659f, 0.009701f, 0.124974f, 0.156549f, 0.065053f, -0.101125f, -0.100114f, 0.025832f, -0.010467f, 
    -0.017910f, 0.005511f, 0.029799f, -0.052315f, -0.023648f, 0.020588f, -0.093116f, -0.053204f, 0.026304f, -0.120646f, -0.155652f, 0.129690f, 
    -0.150238f, 0.184587f, 0.002234f, -0.046861f, -0.070926f, -0.059692f, 0.024662f, 0.069890f, 0.012806f, 0.012374f, 0.128233f, -0.001154f, 
    0.132608f, 0.007937f, 0.011318f, 0.134767f, 0.038355f, 0.036412f, 0.155393f, 0.035564f, 0.102907f, 0.084680f, 0.039467f, -0.113099f, 
    0.100606f, 0.012295f, 0.026879f, 0.097750f, 0.194259f, -0.167821f, 0.111292f, 0.136969f, 0.074809f, 0.052884f, -0.110099f, 0.145073f, 
    0.198638f, -0.087222f, -0.065405f, -0.054473f, -0.019779f, 0.004524f, 0.018450f, 0.059967f, -0.142158f, -0.082445f, 0.016193f, -0.025846f, 
    0.117476f, -0.129889f, -0.100019f, 0.184002f, -0.117192f, -0.042974f, 0.061976f, 0.037444f, -0.235998f, 0.024675f, 0.021730f, -0.005579f, 
    -0.069458f, -0.011722f, -0.082068f, -0.017127f, -0.028779f, 0.031756f, 0.028283f, 0.063375f, 0.087240f, -0.071783f, -0.150143f, -0.147311f, 
    -0.041346f, 0.119810f, 0.036823f, -0.002946f, -0.018276f, 0.250423f, -0.219778f, -0.121956f, -0.003163f, -0.131266f, 0.108800f, -0.211802f, 
    -0.251827f, 0.112608f, 0.040027f, 0.105242f, -0.058188f, -0.035360f, 0.104241f, -0.043718f, -0.028214f, -0.295098f, -0.092579f, -0.146588f, 
    0.039618f, -0.115354f, -0.099184f, 0.084799f, -0.070849f, -0.218992f, -0.086440f, 0.127035f, -0.204518f, 0.128069f, -0.066478f, 0.114671f, 
    -0.118207f, 0.091952f, -0.043938f, -0.084320f, 0.039447f, 0.170595f, 0.040870f, 0.047406f, 0.159254f, 0.116026f, 0.073331f, 0.037283f, 
    -0.027987f, -0.016938f, -0.126767f, 0.041206f, -0.022043f, 0.143262f, -0.008966f, -0.101701f, -0.043019f, 0.065205f, 0.014036f, 0.065661f, 
    -0.360344f, -0.224632f, 0.051998f, -0.181239f, -0.063404f, -0.084469f, -0.090782f, -0.142145f, 0.077976f, 0.075482f, 0.050985f, -0.024411f, 
    -0.105588f, 0.100122f, 0.095481f, 0.070818f, -0.093085f, -0.100316f, 0.134805f, -0.051657f, 0.031520f, -0.197188f, 0.213870f, 0.133450f, 
    0.027400f, -0.187341f, -0.128723f, -0.066952f, 0.175969f, -0.063677f, 0.081781f, 0.044916f, 0.010337f, 0.075670f, 0.057625f, 0.044004f, 
    -0.014806f, 0.062414f, -0.104005f, -0.168898f, 0.026312f, 0.116745f, 0.165239f, -0.017588f, 0.074221f, -0.292108f, 0.071845f, -0.031893f, 
    -0.197977f, 0.003155f, 0.124588f, -0.120145f, 0.057520f, -0.112582f, -0.170880f, 0.075114f, -0.059669f, -0.015301f, 0.095400f, 0.217645f, 
    -0.062688f, -0.438128f, 0.200845f, -0.037890f, -0.106551f, -0.156771f, 0.119122f, -0.074122f, -0.086925f, -0.057806f, 0.228944f, -0.084679f, 
    0.072284f, -0.280249f, 0.062958f, 0.304448f, -0.102885f, 0.048869f, -0.180775f, -0.047350f, -0.047094f, 0.292705f, -0.095290f, 0.006688f, 
    -0.067807f, -0.172204f, -0.132341f, 0.040007f, 0.125335f, 0.014955f, -0.022500f, 0.156257f, -0.010825f, 0.074235f, 0.294405f, 0.254804f, 
    -0.061287f, -0.285018f, -0.030906f, 0.016875f, 0.075972f, 0.126724f, 0.013854f, -0.073734f, 0.335753f, -0.015629f, -0.003395f, -0.069358f, 
    -0.105337f, -0.131555f, -0.224958f, 0.064073f, -0.052331f, -0.042059f, 0.040093f, 0.028264f, 0.063527f, 0.087511f, -0.046230f, -0.058331f, 
    0.117814f, 0.016448f, -0.016584f, -0.164370f, 0.065615f, -0.173098f, -0.158115f, 0.049802f, -0.174032f, -0.062107f, 0.114117f, 0.150427f, 
    0.177643f, 0.162775f, 0.024583f, -0.032628f, 0.045577f, 0.053407f, 0.004946f, 0.047731f, -0.145625f, 0.050556f, 0.071352f, -0.037928f, 
    0.163098f, -0.135437f, 0.021371f, -0.031976f, -0.122333f, -0.076100f, 0.101417f, 0.043718f, -0.130894f, -0.018998f, -0.032356f, 0.146335f, 
    0.304955f, 0.053881f, 0.145913f, 0.002946f, -0.240759f, -0.118098f, -0.100937f, -0.087874f, -0.263151f, -0.012249f, -0.149911f, -0.223376f, 
    -0.046781f, -0.238465f, -0.206777f, 0.162949f, -0.002683f, 0.094589f, -0.072814f, -0.010742f, -0.036723f, -0.065270f, 0.344169f, -0.013981f, 
    -0.219106f, 0.018800f, -0.051026f, 0.132528f, 0.042387f, 0.039289f, -0.295213f, -0.015048f, -0.032358f, -0.055029f, 0.187964f, 0.077808f, 
    0.076476f, -0.090965f, 0.173001f, -0.058775f, 0.008184f, -0.175235f, -0.055199f, 0.069979f, 0.115000f, -0.163820f, -0.235586f, 0.072935f, 
    -0.053000f, -0.062528f, -0.179142f, -0.075932f, 0.011476f, 0.078051f, -0.186109f, -0.111558f, 0.186591f, 0.023073f, 0.154466f, 0.001757f, 
    -0.037909f, 0.227615f, -0.024979f, 0.180562f, 0.027180f, -0.177590f, -0.054308f, 0.134273f, 0.132045f, 0.039411f, -0.104665f, -0.072839f, 
    0.040898f, 0.181026f, 0.163188f, -0.104023f, 0.153037f, -0.234063f, 0.245976f, 0.108295f, 0.245977f, 0.034430f, 0.156749f, 0.096610f, 
    0.342407f, 0.042799f, -0.079171f, 0.088295f, 0.068479f, -0.006665f, -0.045919f, 0.096380f, -0.253724f, -0.196422f, 0.067843f, 0.282395f, 
    0.097516f, 0.022835f, -0.062008f, -0.130502f, -0.106024f, 0.131833f, -0.308541f, 0.133418f, -0.135546f, -0.125825f, -0.109577f, -0.017830f, 
    -0.126296f, -0.020422f, -0.021403f, -0.115277f, 0.074429f, 0.154700f, -0.027401f, 0.037685f, 0.054049f, -0.255723f, 0.125029f, -0.057374f, 
    -0.064689f, 0.011524f, 0.242144f, -0.018110f, -0.148978f, -0.200622f, 0.059545f, 0.142739f, -0.026252f, 0.266514f, -0.198903f, -0.070504f, 
    0.202503f, 0.209679f, -0.055096f, 0.160943f, 0.074980f, 0.072890f, 0.210550f, 0.040802f, 0.250063f, 0.084037f, 0.060826f, -0.267263f, 
    0.115371f, 0.471519f, -0.227311f, 0.200299f, 0.228882f, -0.141378f, -0.042601f, -0.155365f, -0.223460f, -0.094112f, -0.177992f, -0.002005f, 
    -0.008643f, -0.012473f, 0.241404f, -0.123278f, 0.091798f, -0.099430f, -0.070072f, -0.137927f, -0.285229f, -0.349037f, 0.097739f, 0.001444f, 
    -0.075615f, -0.029583f, 0.047133f, -0.069928f, 0.023337f, -0.104607f, 0.139338f, -0.218521f, 0.047575f, 0.121311f, 0.068790f, 0.118948f, 
