#include "lenet5_model.h"

// ________________________________________________________________________
// Model Weights
// ________________________________________________________________________
static const float conv1_weight[6][1][5][5] = {
    -0.18481407, -0.037770763, -0.10952882, -0.18402958, 0.10862117, 0.011066489, 0.11565068, 0.22686103, 0.2470737, 0.15354325, -0.19253854, 0.15711845, 0.20685211, 0.033568352, 0.069519095, 0.12738515, 0.034205183, 0.3286685, 0.28965127, 0.069859535, 0.10956163, -0.12494082, -0.12538679, -0.15303572, -0.2730738, 0.11328835, 0.020723188, -0.13846369, -0.12683989, 0.26739746, -0.29365003, -0.34486234, 0.03695741, -0.026924638, 0.07442421, -0.4540079, -0.3930565, -0.015441783, 0.28165317, 0.42266604, -0.38198963, -0.30809408, 0.15348828, 0.3396647, 0.3706436, -0.07035575, 0.13276488, 0.08453877, 0.13168886, 0.20940198, -0.28892913, -0.23398204, 0.10360504, -0.11769512, -0.16762754, -0.12779576, -0.21196477, -0.1600097, -0.012650167, -0.20257543, -0.14415929, -0.09835945, -0.097674355, 0.09655503, -0.18285888, -0.07533692, -0.13206655, -0.14497216, -0.19696881, -0.25451818, 0.06782206, 0.09330257, -0.07553375, -0.06719833, -0.36015788, 0.07040362, 0.048404977, -0.22608823, -0.10524168, -0.26281816, 0.21295215, 0.11641446, 0.014078836, -0.086841576, -0.15795982, 0.14832745, -0.22891627, -0.122293755, -0.07891798, -0.25327572, -0.23031339, -0.15586244, -0.13149211, -0.026555367, 0.088100806, -0.28269437, -0.16897215, 0.06320445, -0.16616242, -0.09000176, 0.18420982, 0.028624581, 0.20296986, -0.23428524, -0.22762497, 0.1489135, 0.36445913, 0.16209187, 0.18202539, -0.390499, 0.17432442, 0.22079502, 0.30873725, 0.21361567, -0.34028733, 0.037615065, -0.057642035, 0.3328331, -0.05012138, 0.10380736, 0.06030882, 0.15384589, 0.015688626, -0.06605613, -0.13558072, -0.30425847, -0.31391072, -0.614448, -0.46600965, -0.3860876, -0.31215554, -0.46455887, -0.12459317, -0.04949508, -0.08734673, 0.36097524, 0.23365007, 0.0994704, 0.30144536, 0.23701563, 0.24311058, 0.1748591, 0.26471794, 0.13975449, 0.17227168, 0.22412784, 0.27892205, 0.21101642, 0.046058867, 0.18400346
};

static const float conv1_bias[6] = {
    0.0812205, -0.010756665, -0.05396106, -0.07752443, -0.13816449, 0.06363547
};

static const float conv2_weight[16][6][5][5] = {
    -0.10272422, -0.087123886, -0.2075694, 0.009623077, 0.06078299, -0.14437826, -0.30276042, -0.20131265, 0.08511446, 0.07061704, -0.14503609, -0.2112753, -0.021751717, 0.10468659, -0.111631475, -0.062151626, 0.0033012081, 0.15536736, 0.0017343279, -0.21070312, -0.058817137, 0.16840945, 0.07897765, -0.10424403, -0.15075266, -0.30855182, -0.22147954, -0.09515584, 0.02243742, 0.17634478, -0.36225322, -0.21992779, 0.030043893, 0.23902762, 0.13732515, -0.33161217, 0.02476418, 0.112914, 0.15548408, -0.17113884, -0.009788699, 0.18933022, 0.16733877, -0.0641291, -0.13640139, 0.14195274, 0.254015, 0.097773716, -0.10700305, -0.19287542, 0.07319515, 0.07620633, 0.09429723, 0.060168125, -0.09440148, 0.09085948, 0.19048491, 0.05133267, -0.12866764, -0.0983209, 0.08269485, 0.07910197, -0.019160409, -0.1139812, -0.14370051, 0.09086366, -0.05127204, -0.19483577, -0.13533407, -0.14157154, 0.07387637, -0.11052028, -0.17629622, -0.19828822, -0.039696336, 0.0767567, 0.15640604, 0.13376294, -0.028604353, 0.031632375, 0.050540905, 0.18581332, 0.110031165, -0.13304429, 0.015391037, 0.077197894, 0.15044756, 0.05357399, -0.16794616, 0.023997318, 0.099285156, 0.03999994, -0.065275334, -0.062316127, 0.12525074, -0.03330843, 0.0088627795, -0.18023652, 0.022264233, 0.0068199374, 0.038856, -0.040255696, -0.19436514, -0.071055666, 0.14204705, 0.005897436, -0.14269273, -0.22044937, -0.13081156, 0.08097043, 0.06351011, -0.18025371, -0.077445276, -0.013453057, -0.09884343, 0.05440706, -0.046600487, 0.086228415, 0.05429013, -0.034855112, -0.05769788, 0.04433793, 0.14180596, 0.029549563, -0.10871878, -0.018875355, -0.1943968, -0.22687238, -0.26755157, -0.21849704, 0.04139435, -0.20067699, -0.042891607, -0.1378084, -0.29862368, -0.03279606, 0.0025219128, 0.16375145, -0.011838549, -0.3576655, -0.037464812, 0.10985093, -0.038773604, -0.27945673, -0.5418386, 0.07332985, 0.06838432, -0.24954079, -0.35506624, -0.09734978, -0.0071824812, 0.18957531, 0.10679875, 0.03133972, -0.0029425272, -0.07871874, -0.10800947, -0.08851137, -0.068192564, -0.0174319, -0.18432838, -0.08754603, 0.07501853, 0.04756572, 0.10307494, 0.10804039, 0.05956346, 0.10951367, 0.007005458, -0.1506871, 0.10970124, 0.11439818, -0.097011074, -0.13716228, -0.16266616, 0.21070744, 0.17554796, -0.008585551, -0.028873382, 0.06913014, -0.21368057, -0.16266848, -0.07961133, 0.18904568, 0.115659535, -0.29060405, -0.12706164, 0.028356543, 0.13455644, -0.09642456, -0.15281907, 0.0039582327, -0.026178885, -0.17847158, -0.22728443, -0.08281002, -0.053424157, -0.20877847, -0.14157318, 0.1035715, 0.08490632, 0.011861705, -0.09683106, 0.021657275, 0.07521888, 0.18340202, 0.077749304, -0.025466545, 0.012463343, 0.08023793, 0.16326532, 0.11513877, -0.12058032, -0.1964232, -0.042573333, -0.007174803, -0.10176703, -0.25760952, -0.22145948, -0.0795173, -0.08858765, -0.20003495, -0.15160693, -0.042252094, 0.13442315, 0.124181926, 0.018116562, 0.015897606, 0.036725704, 0.12778454, 0.13636392, 0.17316285, 0.14373009, 0.11086214, 0.014445414, 0.15501864, 0.030306218, -0.04356674, 0.0039616777, -0.023137085, -0.0110126715, -0.19873498, -0.21704683, -0.012010653, 0.061848972, -0.063141435, -0.15893821, -0.06261287, -0.0013529912, 0.11779913, -0.018895466, 0.079881266, 0.22703613, 0.021037398, -0.03605674, -0.27523014, -0.12867638, -0.037527747, -0.17923631, -0.09193359, -0.08684943, -0.08471184, -0.1118054, -0.10276069, 0.03729462, 0.055979073, -0.06458052, -0.042768393, 0.00082110247, -0.11867734, 0.12786013, 0.08481881, -0.03305482, -0.17469522, -0.17306992, -0.09989794, -0.07819809, -0.052397385, -0.2929231, -0.057725225, -0.030919172, -0.18115418, -0.20574948, 0.014259256, 0.15826437, 0.18027928, 0.04155077, 0.15562837, 0.10168989, 0.101667486, 0.33622572, 0.32996276, 0.22121225, 0.16943139, 0.07441836, 0.04247599, 0.08055315, -0.12883666, -0.043265115, 0.15170325, 0.05302816, -0.06869449, -0.107489325, -0.035939954, 0.036963947, 0.08935147, 0.112525985, 0.14964205, -0.024836171, -0.086410895, 0.0988928, 0.10229589, 0.2152796, 0.23365948, 0.058009192, -0.051200498, 0.046464074, -0.033375144, -0.006017873, 0.108340956, -0.18884167, -0.18302964, -0.06818535, -0.06511455, -0.09342125, 0.12293404, -0.0055430015, -0.11117464, -0.16001141, 0.11115198, 0.005279074, -0.0072708637, -0.15645374, -0.30723238, -0.077204525, -0.06380632, -0.014400026, -0.08508978, -0.2861969, -0.27188832, -0.07166825, -0.30464593, -0.21454144, -0.060449217, -0.17095917, -0.13975531, -0.16603978, -0.052275553, 0.1327123, 0.14559014, 0.15036847, 0.13753591, 0.09605832, 0.15376925, 0.046341203, 0.13120762, 0.10910169, 0.060723454, -0.04870231, 0.101516195, 0.098891325, -0.14816496, -0.32746515, -0.3878503, -0.2735545, 0.17331687, 0.15181185, -0.32804397, -0.20935152, -0.15106976, 0.27576196, 0.16207948, 0.12943703, 0.025767297, 0.014916798, 0.14437345, 0.11152058, 0.1655273, 0.13156566, 0.08616452, 0.063004754, 0.055731494, -0.18845248, -0.11366982, -0.015526995, 0.09078921, -0.3439793, -0.53404486, -0.37500417, -0.14502938, 0.1922932, -0.12831128, -0.30731967, -0.06963764, -0.0038672474, 0.23698023, 0.08651554, 0.0043530194, 0.05689223, 0.1618844, 0.026211178, 0.05949397, -0.06549245, -0.2089365, -0.16719557, -0.018139886, 0.16492258, 0.08721116, 0.08533513, -0.14302817, 0.07823172, 0.107458495, 0.25234896, 0.22770298, 0.1507905, -0.01832137, -0.015786938, -0.004406058, 0.03449403, 0.19511124, -0.060627557, 0.0052703638, -0.1566769, -0.19853471, 0.0539406, 0.04810037, 0.018560171, -0.05830715, -0.22124022, -0.32300243, 0.0040741004, 0.12382014, 0.22306399, 0.20247494, -0.0070384624, 0.003117223, 0.03135075, 0.19027393, 0.07180421, 0.23833868, -0.17878146, -0.14962548, -0.03648192, 0.0070128264, 0.0056787077, -0.14519478, 0.025029998, 0.16282237, -0.16849293, -0.21159258, 0.021939501, 0.044990502, 0.09977752, 0.10419273, 0.061027803, 0.10452091, 0.05555081, 0.118050635, 0.057162784, 0.19007017, -0.14467904, -0.18805759, -0.091254696, -0.11609395, 0.045596793, -0.36724094, -0.21974589, -0.18874247, -0.138379, -0.12794471, -0.045269992, 0.080933735, -0.03475638, -0.04643457, -0.08186981, -0.08572265, 0.10592863, 0.09599997, 0.020441733, 0.033505287, -0.11598147, -0.12501651, 0.013460998, 0.059968777, -0.008508056, -0.28168577, -0.1758021, -0.121990405, -0.1377276, -0.064330526, -0.02317857, -0.06807043, 0.019002123, -0.056186784, -0.13727534, 0.20870815, 0.0636226, 0.028221741, 0.009725471, -0.23092222, 0.017408712, -0.12274769, -0.16006008, -0.07750723, -0.0629874, -0.03519454, -0.016965874, -0.07006502, -0.109123066, -0.0474525, 0.060327563, -0.03430271, -0.01425085, 0.14779922, 0.13864625, 0.1409876, 0.04987939, 0.11716444, 0.11472092, 0.1342685, 0.028668925, -0.07623974, -0.08850785, 0.08523746, 0.047819898, 0.0077773547, -0.053997364, -0.02299477, -0.02256664, 0.002077567, -0.04041096, -0.027712304, 0.006700563, 0.03277677, 0.055307627, 0.13064304, 0.08716351, 0.062036093, 0.036218554, 0.120902844, 0.0808595, 0.10787744, 0.068981156, 0.14312087, 0.20559789, -0.014927673, -0.054965433, -0.011726369, -0.06112043, 0.04470589, 0.023496775, -0.07392908, 0.08506599, -0.035964485, -0.050879266, 0.0791258, 0.040678613, 0.061059862, 0.09818071, 0.0631096, -0.21600622, -0.07906409, -0.02765705, -0.07955854, 0.0543623, -0.3951713, -0.35467064, -0.21335441, -0.2608764, -0.12220831, -0.18622881, -0.088418394, 0.0046528103, -0.008889961, -0.0076956283, 0.12558499, 0.06658703, 0.21181764, 0.1355092, 0.11381067, 0.11665506, 0.15551814, 0.15681164, 0.14755917, 0.10992188, -0.34243873, -0.4937139, -0.63025635, -0.49542138, -0.5052895, 0.1479642, 0.315538, 0.22106338, 0.19143829, 0.018570812, 0.1677352, 0.18937798, 0.23429766, 0.2690199, 0.0877654, -0.07186446, -0.047112714, -0.04767015, -0.09391292, 0.005293548, 0.0845814, -0.038020775, -0.30962297, -0.0999976, 0.014905916, 0.06678579, -0.09407182, -0.22536398, -0.048284225, 0.008161522, 0.17875624, -0.0059511485, -0.045118574, 0.06491447, 0.036687907, 0.060711708, -0.045993876, 0.047109578, 0.042170823, 0.106856465, 0.051615614, -0.050874874, -0.15815288, 0.17780656, 0.08682898, 0.23443927, -0.23901835, -0.09159121, 0.20981693, 0.10370607, 0.2958941, -0.2875785, 0.016339198, 0.22525924, -0.04741727, 0.21544465, -0.3151921, -0.02335326, 0.19959001, -0.07909928, 0.10944269, -0.18760394, 0.121123336, 0.083063275, 0.028132673, -0.09343861, 0.03021008, 0.23714222, 0.14770788, -0.008755435, -0.17022966, 0.028569227, 0.19843662, -0.014971218, -0.041802857, -0.17666931, 0.05926555, 0.05924133, -0.043936875, -0.042358868, -0.19604877, 0.0010377245, 0.10624189, -0.012567134, -0.00993329, -0.25391573, 0.02800001, 0.05745683, -0.1106241, -0.07843034, -0.13014896, -0.019324748, 0.15736952, 0.012463934, 0.07859335, -0.15435158, 0.07131154, 0.16768843, 0.08985248, -0.06615946, -0.13447042, 0.008466516, 0.124517925, 0.0031874687, -0.08915794, -0.14051045, 0.027002225, 0.09391671, -0.011628997, -0.13187082, -0.11124571, 0.0040611876, 0.06321666, -0.07858999, -0.07277981, 0.013979771, 0.010857342, -0.06995665, -0.18449768, 0.0884016, 0.15881388, 0.0191482, -0.15877472, -0.2861052, 0.16826715, 0.2020452, 0.13781086, -0.05867609, -0.18624255, 0.20022276, 0.10888606, 0.22151926, -0.07665253, -0.11164483, 0.1299925, 0.16149577, 0.09025883, -0.074728064, -0.002264642, 0.07241958, 0.06214985, -0.025865264, -0.34826708, -0.29190242, -0.014369631, -0.009960601, -0.14663011, -0.29542747, -0.04509791, 0.041634027, -0.07448927, -0.14685658, -0.18532805, -0.042491734, -0.13252833, -0.068441615, -0.20848355, -0.07871138, -0.11841959, -0.12252486, -0.19333462, 0.019916682, -0.0035585926, 0.0055161905, 0.066308536, -0.08736983, -0.2197742, -0.24286799, -0.19224338, -0.16238764, 0.007897596, -0.14109215, -0.18629126, 0.06197174, 0.056537177, -0.100900196, 0.030160032, 0.0053291405, 0.023092227, -0.055698648, 0.15978917, 0.13984907, 0.12861803, -0.094652526, -0.22449152, 0.28236166, 0.1986872, 0.22602983, -0.06434213, -0.018943092, -0.31167594, -0.22038414, -0.10038126, -0.07511406, 0.06498379, -0.092782944, -0.18252261, -0.0018720113, 0.16583946, -0.11768485, -0.014530496, -0.037188105, 0.1318004, -0.10712343, -0.3345453, 0.065435834, 0.13742171, -0.07150112, -0.4175845, 0.032952953, 0.15142761, 0.11381319, -0.1543533, -0.09265868, -0.017178625, 0.05689401, 0.11668577, -0.039473016, -0.028040672, -0.10658261, 0.070677385, 0.2235714, 0.04618586, 0.024026176, 0.018338112, 0.012875771, 0.021328468, -0.0350829, -0.005664279, -0.08310392, -0.027855385, -0.12855427, 0.011250056, 0.031704035, 0.023750098, -0.2965186, -0.0775173, 0.057993602, -0.067853816, 0.019413592, 0.010615985, 0.019658197, -0.017249348, 0.0431587, -0.018730111, -0.09429766, -0.09342919, 0.029802788, -0.044469573, -0.08698343, -0.012123417, -0.035477925, -0.001490875, -0.055968437, -0.05938055, -0.10584245, 0.11415139, 0.036115, 0.02049206, 0.015533066, -0.06276406, 0.1361021, 0.022198312, -0.058040045, -0.064517975, -0.054177817, -0.10646662, -0.20074695, -0.19911434, -0.061390374, -0.06768292, -0.0055273953, -0.08736804, -0.019404788, -0.0040582856, -0.06255037, 0.08872617, 0.13566081, 0.042428672, 0.017027503, 0.11608172, 0.12804899, 0.15979196, 0.11057373, -0.07002386, 0.2104981, 0.19942325, 0.23431608, 0.14091197, 0.015050383, 0.04727457, -0.06404176, -0.04666666, -0.021365399, -0.1632558, 0.0068638357, 0.0075134286, -0.02900339, 0.08479226, 0.024137331, -0.14468117, -0.11768554, 0.014761599, -0.06671147, -0.0076854583, 0.020932008, 0.012311934, -0.12784606, -0.33231255, -0.26517686, -0.13983934, -0.23030187, -0.47715008, -0.2955758, -0.13173719, 0.14338005, 0.0026614377, 0.037101008, -0.038706366, -0.00050336926, 0.042716693, 0.184523, 0.13944083, -0.019994408, -0.14110173, -0.034636136, 0.03241296, -0.010607018, 0.035300154, -0.05762418, -0.16079943, -0.14724045, -0.04746539, 0.023651231, -0.0014946691, -0.025198398, 0.063605085, -0.03178224, 0.077205725, 0.038281567, 0.038315736, -0.06330861, -0.07379051, -0.17089483, -0.20176353, 0.13483413, 0.010314716, -0.067869745, -0.20604219, -0.49654284, -0.050717738, -0.016864913, 0.10909543, 0.042307884, -0.61003846, -0.24896201, -0.007953549, 0.3046915, 0.306165, -0.26979437, -0.01199884, 0.0038196675, 0.0015453661, 0.22938502, 0.057267625, -0.005001699, 0.0063506085, 0.0659321, 0.16472207, 0.005752814, -0.060800575, -0.04671858, -0.16756457, -0.035239484, 0.19467963, 0.024058789, 0.2189605, -0.19324368, -0.3220665, 0.17012118, 0.102499545, 0.100961715, -0.18287124, -0.239499, -0.014077175, 0.057945933, -0.04778926, -0.10313811, -0.12649469, 0.020112157, -0.08506074, -0.054069716, -0.05977798, -0.034667015, 0.07130123, -0.14046882, -0.041510426, -0.21255425, -0.43259814, -0.03854069, 0.14422135, 0.18751332, -0.40663126, -0.44567785, -0.13582948, 0.16856466, 0.10239282, -0.20450968, -0.06955548, -0.09154755, 0.08063144, 0.004222857, 0.048019614, 0.21487188, 0.14202985, 0.04498914, 0.05210359, -0.062286943, -0.04194066, -0.09545072, 0.0043757884, 0.11626085, 0.16389115, 0.017171431, -0.021798361, -0.06448058, -0.10931202, 0.063426025, 0.11040173, 0.07869647, -0.20058402, -0.18562067, 0.06897376, 0.15138665, 0.19741811, -0.099188, -0.103695884, -0.17771949, -0.07988047, 0.025029672, -0.051474817, 0.17044054, 0.17339239, -0.0049177064, -0.0043344065, 0.012928388, 0.035024144, 0.062132142, -0.0075192987, -0.09249844, -0.10236487, -0.4962108, -0.40411288, 0.053694494, 0.17604361, -0.0047103227, -0.24940602, -0.2730918, -0.1999173, 0.1360383, 0.268308, 0.14628717, -0.017887734, -0.10759856, -0.03171989, 0.094091095, 0.051256727, -0.14166844, -0.293143, -0.26725665, -0.10297772, 0.045229293, -0.054506585, -0.20331043, -0.16087222, -0.114401616, -0.010949852, -0.034456905, -0.1039868, -0.13863203, -0.053474408, 0.0013762934, -0.037617225, 0.02317054, -0.011348, 0.03526382, 0.042055678, -0.016551362, 0.06851571, 0.080129296, 0.08743749, 0.11951866, -0.12104202, -0.124470145, 0.0141207175, -0.010973135, 0.19651791, 0.060143705, 0.05670007, 0.059594896, 0.07026204, 0.16869949, 0.1332644, 0.22363356, 0.061898507, 0.009754297, 0.018225191, 0.10813475, 0.22579214, 0.067830116, -0.00973314, -0.08852616, 0.061309204, 0.19016248, 0.19304322, -0.01807797, 0.03628632, 0.1289287, 0.21954, 0.13461496, -0.029173747, -0.13418183, 0.06680662, 0.119181365, 0.09906516, 0.0066038836, -0.019064335, -0.050645016, -0.062687404, -0.072263755, 0.06939974, -0.018384563, -0.09867623, -0.021799851, -0.046244632, 0.016856803, -0.030928295, -0.071530744, -0.18153422, -0.2244154, -0.025532903, -0.08237381, -0.0389143, 0.13523903, 0.13867995, -0.059645835, -0.10473122, 0.0017034864, 0.0046069548, 0.008014061, 0.040575985, 0.019571751, -0.00031985878, -0.020980427, -0.15441293, -0.018072274, 0.002005565, -0.0684858, -0.1295218, -0.13015455, 0.03143116, -0.027829383, -0.14865734, -0.033479955, -0.12401951, 0.067976296, 0.06387169, 0.09687615, -0.20360452, -0.23336907, -0.066710755, 0.027102146, 0.032469373, -0.04265075, -0.1856133, -0.11015733, -0.05349345, 0.0067452313, 0.05680452, 0.05834421, -0.09256715, -0.07846425, 0.013215098, -0.0023565637, 0.057135332, -0.030743891, -0.049784694, 0.01873865, 0.035464145, 0.019602776, 0.04988996, 0.013140548, 0.031022869, -0.049733173, -0.256385, -0.0084316395, -0.09653107, 0.035619043, -0.09416814, -0.19718024, 0.025966236, -0.013071684, -0.1015349, -0.27046907, -0.32435414, 0.14847888, 0.16522194, -0.11948202, -0.25972047, -0.31042165, 0.14615515, 0.2029641, 0.017262537, -0.19394688, -0.075126305, -0.07440173, -0.10457739, 0.07686906, 0.022870215, -0.04373131, 0.0033234728, 0.039820507, 0.08212975, -0.047490444, -0.106989264, -0.008685987, -0.0025934838, 0.07371966, 0.065267645, 0.012731565, 0.06875917, 0.057589233, 0.035224836, 0.010470897, 0.0843014, -0.05053048, -0.019986808, -0.049754884, -0.022408044, 0.04003022, 0.03322632, 0.06265108, 0.20832086, 0.0083405515, 0.025074143, -0.11423918, -0.013478611, 0.17123641, -0.1679036, -0.027348353, -0.039881807, 0.121111, 0.115241416, -0.16769302, -0.0048555806, 0.069864966, -0.044491526, -0.09562288, -0.26573893, -0.18125314, -0.12855826, -0.06065119, -0.030978933, -0.18379967, -0.18013218, 0.19833848, 0.110964686, -0.04574596, -0.16447005, -0.19598314, 0.10198129, 0.07260284, -0.22431768, -0.108383074, -0.16006365, 0.09149044, 0.07345544, -0.18695162, -0.15016055, -0.15439114, 0.00775583, -0.021138363, -0.16532922, -0.28168753, -0.21212192, 0.15693992, 0.0050537074, -0.042133845, -0.20844793, -0.16283709, 0.1523539, 0.18985513, 0.048072673, -0.04388497, 0.011443394, 0.18658888, 0.1368064, -0.12437013, -0.036121592, -0.010865273, 0.032983866, -0.04460301, -0.3502485, -0.19603558, -0.2176645, 0.0029213147, -0.12973095, -0.37219173, -0.4046785, -0.30409572, 0.10699304, -0.07781895, -0.11509982, -0.21551602, -0.097185396, 0.010981787, -0.026095351, 0.05746227, -0.020029524, -0.16654879, 0.06489663, 0.07660521, 0.07228345, 0.04227405, -0.1743532, 0.062420156, 0.10480101, 0.1317572, 0.13884698, -0.03661416, -0.06465248, 0.10072304, 0.07238334, 0.08540352, 0.08091646, -0.005816809, 0.06076623, -0.099004984, 0.00924044, 0.011933385, 0.02566226, -0.041905686, -0.022388062, 0.08805445, 0.14059992, 0.14076555, 0.0017368313, -0.068277985, -0.07012186, 0.0011201748, -0.0009716932, -0.15619636, -0.106404744, -0.12781571, -0.0035100817, -0.13770336, -0.23652786, -0.1541261, 0.08955568, 0.13948739, -0.0640384, -0.27610284, -0.22611184, -0.1717335, 0.059684105, 0.15549043, 0.10035313, 0.022100467, 0.1399112, 0.14702079, 0.043855634, -0.12085355, -0.03532298, 0.08195099, 0.05010362, -0.36576176, -0.38301626, -0.19051364, -0.008311964, -0.02194119, -0.20275842, 0.06297812, -0.021230662, -0.042691126, -0.13262098, -0.035042856, 0.0480939, -0.05882528, -0.098817475, -0.2906962, 0.13869402, -0.09425483, -0.15463962, -0.06729609, 0.02103686, -0.09151973, -0.1613983, 0.017456632, 0.09827005, 0.06540042, -0.22350779, -0.016998067, 0.12105938, 0.058836382, 0.15896834, 0.14418302, 0.035970576, -0.048922814, 0.00039016406, 0.0077357697, 0.21557096, 0.09027434, -0.089611195, -0.16598286, -0.12515937, -0.113768525, -0.11355174, -0.090102404, -0.18280005, -0.10600571, 0.013608991, -0.015638174, -0.0592467, -0.010006738, -0.24130015, 0.083556995, 0.14201355, 0.15519817, -0.04337417, -0.14317018, 0.2149364, 0.17528121, 0.22824875, 0.017031882, -0.10386798, 0.035038337, 0.019031744, 0.16146313, 0.08177884, 0.030844988, -0.038204663, -0.15161744, -0.21237351, -0.13671392, -0.0397142, -0.06425886, -0.007581016, -0.045377783, -0.0747135, -0.12626864, 0.1574818, 0.12610355, 0.11635075, 0.053716943, -0.04699799, 0.16257134, 0.20253195, 0.15991677, 0.02889061, -0.0482305, -0.03694649, -0.07811556, 0.100044616, 0.15607718, 0.10093662, 0.042187065, 0.12720126, 0.08941256, -0.037485283, 0.010702666, -0.055137143, -0.062984556, -0.0933668, 0.07500534, 0.103152916, -0.14444393, -0.40684125, -0.31173965, -0.02746933, -0.0144691635, -0.19991343, -0.24077678, -0.019528918, -0.010775086, -0.00812353, -0.06893408, -0.08425684, 0.04016614, -0.034934595, -0.13791992, 0.077742144, 0.2634395, 0.16813001, 0.27836075, 0.09115085, -0.13998029, -0.08785268, -0.07897293, -0.21075456, -0.3380191, -0.15722832, -0.19990614, -0.055155482, -0.21393345, -0.23437724, 0.02175664, 0.02372049, 0.0074812416, -0.009807148, -0.20958777, 0.06565277, -0.031438187, -0.05573796, -0.06703279, -0.07595213, -0.11054473, -0.11950348, -0.024235753, 0.043241106, 0.039533496, -0.017334616, -0.02615848, -0.07471204, 0.07109597, 0.033617217, -0.013989357, -0.12873052, 0.0046263854, 0.10147976, 0.04843639, -0.08343832, -0.040264633, 0.13019332, 0.012938714, 0.09979002, 0.04400379, -0.0028117278, 0.074120775, 0.1288056, 0.06654668, -0.011327529, -0.12769431, -0.09293464, 0.07237661, 0.025466966, -0.13554461, -0.116781525, 0.014093114, 0.014819056, 0.0013326935, -0.19506782, -0.09219318, 0.09173161, 0.10289728, 0.063383475, 0.082912415, 0.10925414, -0.007198883, -0.04978631, -0.00020441019, 0.05434311, 0.047997486, -0.0018755744, -0.11065294, -0.025032014, -0.10534881, -0.098354004, -0.0011993311, 0.05232066, -0.081605114, -0.07724342, -0.13375759, -0.05396033, -0.1465053, -0.13114159, -0.09444845, -0.11700029, -0.07387392, -0.058562767, -0.34067985, -0.097719654, -0.098976076, 0.011589975, -0.08443003, -0.36625338, 0.033082426, -0.0114813335, -0.005059726, -0.16465154, -0.24748403, -0.19679374, -0.02113796, -0.07770283, -0.028669523, -0.029295979, -0.18596038, -0.13414006, -0.0100744525, -0.018537639, -0.26006067, -0.09442183, -0.061958432, -0.06802841, -0.08613022, -0.21068339, -0.08015331, 0.032109108, 0.03801439, -0.07469847, -0.116824344, -0.020767707, -0.031687673, -0.13895951, -0.0875102, -0.26516405, -0.0077425954, -0.13319261, -0.100204445, -0.090162866, 0.106854044, -0.07766917, -0.1426361, -0.059894957, -0.03743034, 0.08683355, -0.12442073, -0.091271915, -0.03055605, 0.022807652, 0.06606794, -0.1137754, -0.15868956, 0.024806928, 0.08013568, 0.06691696, -0.107554816, 0.046284165, 0.12522054, 0.043018926, 0.1640923, 0.25943497, 0.18774752, 0.12322847, -0.006081818, -0.11253815, 0.20109746, 0.11799592, -0.055128094, -0.056775417, -0.15276083, 0.06572482, 0.0215568, -0.058816887, -0.24402696, -0.28238252, 0.07751188, 0.06853016, -0.010992568, -0.1969581, -0.19954123, 0.027913975, 0.024785047, -0.31211734, -0.31429723, -0.24418999, -0.060503334, 0.029005546, -0.056147695, 0.007185719, 0.052840635, -0.15796146, -0.060207978, 0.022264512, 0.16869628, -0.021349728, -0.018424816, 0.093259364, 0.23897491, 0.028968269, -0.2202879, 0.06644498, 0.16531602, 0.086959764, -0.094796576, -0.021697301, 0.078097366, -0.10988463, -0.14374307, -0.053325724, -0.07902218, -0.10529822, -0.13424812, -0.06967885, 0.12111067, 0.056845587, -0.28102583, -0.05662879, 0.16042264, 0.1380504, -0.17872769, 0.021270532, 0.30427304, 0.19704354, -0.008317883, -0.19036587, 0.09867992, 0.04798726, -0.022022448, -0.10325364, -0.056518126, 0.097928315, -0.04594425, 0.061185144, -0.14597744, -0.26105842, -0.008388235, 0.09590303, -0.0021986575, -0.0715742, 0.042422008, 0.13870604, 0.052247312, -0.044992182, -0.14971614, -0.167833, 0.026970174, 0.003438727, -0.18063223, -0.16281323, -0.06051963, -0.026354773, -0.14830944, -0.34237298, -0.31053418, 0.06331187, -0.07131925, -0.15373716, -0.12909915, -0.100172244, 0.11761107, -0.025713881, 0.1213408, 0.21350025, 0.03698458, -0.015447511, 0.0671041, 0.15181242, 0.045163963, -0.06774126, -0.058621783, 0.058457285, 0.011013749, -0.04764825, -0.04487552, 0.13375574, -0.0015001385, -0.13314885, -0.124539696, 0.0056040217, -0.02403094, -0.033259775, -0.13711439, -0.07958286, -0.20594789, -0.18071046, 0.080354616, -0.10963414, 0.00044440158, 0.14005423, 0.140202, -0.06636803, -0.1339829, 0.004825463, 0.09009506, 0.1213502, -0.03261375, -0.0729146, 0.0063289804, 0.15787314, -0.09251663, -0.07294713, 0.0059451824, 0.12764306, -0.008832685, 0.013359924, 0.04299593, -0.0032058596, -0.1341123, -0.038494084, 0.057245802, 0.20561291, -0.08926058, -0.12390481, -0.047361106, -0.027328536, 0.08325426, -0.14003466, 0.07667301, -0.030178372, -0.08612149, 0.02442135, 0.17725119, 0.14363237, -0.29275268, -0.27993575, 0.23690034, 0.003260499, -0.5654047, -0.5597509, -0.019334402, -0.05112372, -0.50948834, -0.33764985, 0.19115496, 0.28003737, 0.0687697, 0.052791413, 0.0988334, -0.06283574, -0.12461682, 0.17281415, -0.011991235, -0.08588297, 0.04657034, -0.06835335, 0.045215223, -0.18343462, -0.08814015, 0.09414882, 0.02359571, -0.118643574, -0.06882293, -0.06821852, 0.1206719, -0.010827744, -0.07347004, -0.12626354, -0.1989064, 0.0055583287, 0.11358181, -0.04081668, -0.020333739, 0.0876452, -0.0829427, -0.009118271, -0.097353086, -0.05823587, 0.19286011, 0.16986679, 0.116165705, -0.088074975, -0.078010805, 0.18860316, 0.119062945, 0.068632364, 5.8369507e-05, -0.09331388, 0.103602126, 0.22332916, 0.060638692, -0.034874484, -0.2364329, -0.17879851, 0.11282724, 0.11321619, -0.11387747, -0.0023756598, 0.13196164, 0.06582575, 0.12410958, -0.029093895, -0.021639407, 0.052402902, 0.08819885, -0.063147426, 0.063252255, 0.0058649178, 0.036401637, -0.09375005, -0.1442392, 0.007223476, 0.055115066, 0.0736079, -0.050692927, -0.22069313, -0.042326644, 0.11274566, 0.06496919, -0.047623083, -0.13474256, 0.0215476, -0.032138206, 0.027417108, 0.18982767, 0.05858877, 0.039417844, 0.079865366, 0.09600194, 0.09526096, -0.08159831, 0.06395932, 0.11198116, 0.039771385, -0.11253012, -0.23886818, 0.10128799, 0.12959695, 0.032233153, 0.0068167127, -0.10262694, -0.057500828, -0.053503215, -0.040510643, 0.009789802, -0.16342573, 0.15971957, 0.13545856, 0.1493334, 0.09542602, -0.06620705, 0.16779721, 0.08141407, -0.06748954, 0.09691904, 0.055810783, 0.098844536, 0.005574139, -0.098552756, 0.20473768, 0.16687764, 0.025776755, -0.15927784, -0.11429599, 0.15900932, 0.20582902, -0.12481285, -0.14902793, -0.19632575, -0.13719675, 0.09249999, 0.1351924, -0.033086527, -0.39294305, -0.2643368, -0.11648805, -0.1436359, -0.4366352, -0.4963524, -0.46221116, -0.1917623, -0.59344095, -0.5297473, -0.5270852, -0.4939259, -0.17840864, -0.31750867, -0.47969574, -0.64408225, -0.6514853, -0.37508523, 0.0102139255, -0.0717358, -0.29831967, -0.4815945, -0.6066194, 0.18213367, 0.16017711, 0.084112436, 0.14148887, 0.05620384, 0.21706796, 0.05816899, 0.059349924, 0.07064841, -0.15055929, 0.07917032, 0.033530332, -0.015966114, -0.07646444, -0.2377835, -0.113807246, -0.14826478, -0.029612329, 0.037151758, -0.03700009, -0.14931573, -0.095634826, -0.018196044, 0.008783429, -0.018585484, -0.012079057, 0.065336436, 0.0993199, 0.057377182, -0.4199464, -0.026095357, -0.15735626, -0.15516037, -0.3277809, -0.6885505, -0.45807958, -0.62303716, -0.599763, -0.44305688, -0.26439092, -0.40056658, -0.3154182, -0.22990766, -0.08502624, -0.12221674, -0.061660133, -0.020977166, -0.038314164, 0.007892514, -0.12799771, 0.008116084, -0.05431232, -0.16541906, -0.04743308, 0.022595214, -0.031501517, -0.0637599, -0.10283285, -0.080648474, -0.03572212, 0.09737424, 0.10337143, 0.08364359, -0.00066662, 0.10640562, 0.16359589, 0.04178762, -0.024833925, -0.0364013, -0.026943076, 0.11929783, 0.12263462, 0.023736948, 0.041926954, -0.06362864, 0.088035576, 0.031996295, -0.05298939, -0.06018247, 0.105499454, 0.1513121, 0.099643566, -0.0719974, 0.0022941337, 0.12963499, -0.012546872, -0.026055146, 0.08136851, -0.037674025, 0.044471376, 0.031400327, -0.09652709, -0.08963176, -0.005017679, -0.017831247, -0.01901008, -0.1687796, -0.05262292, -0.0012887494, -0.012514852, 0.036479767, 0.20566599, 0.05849037, 0.088809475, 0.172672, 0.21205862, 0.08168013, 0.13956998, 0.12138938, -0.011696263, 0.08807284, 0.061605435, -0.08375123, -0.10066888, -0.13340712, -0.035929456, -0.047722783, -0.19826159, -0.10277337, -0.082955815, -0.24641664, -0.07023797, -0.02579813, -0.023364732, -0.10094451, 0.06615023, -0.03253348, 0.025115743, 0.11830509, 0.08278801, 0.067506455, -0.0091813365, -0.08985203, 0.15733501, 0.15729702, -0.06255364, -0.121489495, 0.09422114, 0.19406599, 0.28362116, -0.05224739, 0.12853107, 0.28307372, 0.2094707, 0.26060122, 0.06685832, 0.13826096, 0.20611872, 0.09733359, -0.06548687, -0.013699285, -0.087378345, -0.08847036, -0.24467377, -0.32770526, 0.0046773213, 0.0966165, 0.09234622, 0.06826053, -0.006873056, 0.0071464437, 0.09045052, 0.09642099, 0.12204093, 0.16443412, 0.05270814, 0.14888465, 0.120444275, 0.10934578, 0.024689808, -0.03521547, -0.021318464, -0.07577534, -0.08661392, -0.069810204, 0.10445227, 0.01082496, -0.058300592, -0.14875257, 0.056468975, 0.04376644, -0.033389103, -0.08711551, -0.19661309, -0.056947973, -0.11465475, -0.10120976, 0.11387466, 0.09449863, -0.2405555, 0.0048579453, 0.028338201, -0.061418854, -0.19946592, -0.06052929, -0.17526628, -0.16506505, -0.2332499, -0.105154574, 0.1482407, -0.10448622, -0.0754199, 0.097185634, 0.060397033, 0.14169465, -0.052888718, 0.107891366, 0.062872395, 0.045220118, 0.14988229, -0.0116820885, -0.110088706, -0.17353725, -0.21407756, -0.07876485, -0.18386844, -0.3076147, -0.28888583, -0.0943977, -0.1317385, -0.17142957, -0.12859295, -0.10676115, -0.0011978871, 0.111666575, -0.034326963, -0.05627171, 0.072917394, 0.10666829, 0.17972052, 0.046066154, 0.14416805, -0.036603983, -0.02171089, 0.11454347, -0.08948439, -0.031017063, -0.2883715, -0.04775386, -0.10557284, -0.1794862, -0.21335298, -0.016380455, 0.113256395, 0.0035421986, -0.07002735, -0.0667927, 0.17777479, 0.18164647, 0.071932755, -0.035947118, 0.070195295, 0.013417191, -0.0060295872, -0.260339, -0.10655641, -0.009838495, 0.046099383, 0.107973345, -0.050418384, -0.097280025, -0.066950016, 0.106396735, 0.15260747, 0.17737041, -0.07231184, -0.043722928, -0.063418046, 0.01748801, -0.023988878, -0.053574804, 0.034888074, -0.0026541315, -0.10727047, -0.03956509, 0.06818492, -0.006307767, 0.1875527, 0.10507065, -0.08301356, -0.062345687, -0.30989, -0.23648289, -0.050995335, 0.14314473, -0.089448676, -0.016462063, -0.0085632615, -0.00965654, 0.13535157, 0.20897493, 0.28375056, 0.271757, -0.06085278, -0.13569011, -0.07482154, -0.20716219, -0.53734666, -0.28900024, 0.101259194, 0.10147004, 0.084558904, -0.21991447, -0.28392118, -0.061374735, 0.1072847, 0.032046806, -0.60255134, -0.04019122, 0.03788997, -0.066992, -0.4686241, -0.16701634, 0.21414442, 0.09129501, -0.19078565, -0.3124279, 0.10309555, 0.03129688, -0.041035358, -0.2195491, 0.020427478, 0.07836164, 0.069420286, -0.012760923, 0.3023926, 0.14344135, -0.30503717, -0.02479925, 0.12005058, 0.44134927, -0.31406584, 0.015626486, 0.083996534, 0.097213, -0.13241564, -0.26836264, 0.19571245, 0.08551216, -0.02102563, -0.31215477, 0.038924348, 0.2132977, 0.11471594, -0.04055185, -0.1388319, 0.17629002, 0.06474029, 0.013161438, -0.07064409, -0.10128344, 0.040454205, 0.033324886, 0.09474819, 0.11092544, -0.12242392, 0.044612125, 0.09888749, 0.00038659034, -0.045422044, -0.1455473, 0.096094705, 0.08760915, 0.032316823, -0.058600888, -0.016012374, -0.0075337775, 0.009444648, -0.034421425, -0.14271708, 0.05123203, 0.12049443, -0.04476169, -0.05657137, -0.0111896545, -0.1415538, 0.030736487, 0.16293001, 0.2152922, 0.05156863, 0.005005373, 0.12697639, 0.1740116, 0.020415714, 0.037527572, 0.08270853, 0.13722572, 0.11933433, -0.058343686, -0.008766465, 0.11975399, 0.10237286, 0.06347738, -0.036294345, -0.039242946, 0.06437186, 0.05733774, 0.06158714, 0.016824353, -0.057419654, 0.11027243, 0.12881607, -0.04532629, -0.19351879, -0.07534925, 0.05992857, 0.11309687, -0.17705719, -0.41877338, -0.058533303, 0.12122956, -0.005065522, -0.54936063, -0.13642032, 0.052764643, -0.057762437, -0.4001159, -0.20613699, -0.021932933, 0.05218739, -0.023090728, -0.24628104, -0.011629067, 0.08197931, 0.08287489, 0.124167874, -0.051254373, -0.57932824, -0.54615843, -0.45129317, -0.054440856, -0.31805396, -0.46576393, -0.020639015, 0.07204871, -0.40651494, -0.45713273, -0.1613138, 0.14067587, 0.037548464, -0.14384516, -0.17830828, -0.00022538178, -0.05351764, -0.07755718, 0.11692697, 0.17540444, 0.11111625, -0.05302408, -0.059900697
};

static const float conv2_bias[16] = {
    -0.021801433, 0.10996489, 0.0075092246, -0.076898806, -0.0909459, 0.03242487, 0.034071054, 0.078836784, 0.051351137, -0.031092308, 0.034665067, 0.07091523, -0.10474287, -0.03455072, 0.09167521, -0.07404263
};

static const float fc1_weight[120][400] = {
    -0.004659089, -0.07326245, -0.025215339, 0.010013363, -0.04434927, 0.001750537, -0.065948315, -0.04565183, -0.013095304, 0.015324059, -0.060685024, -0.007905952, -0.05945087, 0.020604515, -0.055428278, -0.0026658305, -0.043280274, 0.005139119, -0.019829176, -0.047441904, -0.037796464, -0.02398761, -0.025472801, 0.017187681, -0.0345965, -0.039143912, -0.0070104543, -0.055213787, -0.04437097, -0.009662751, -0.065682314, 0.008079804, -0.015711794, -0.009810373, -0.030567402, -0.0031417375, 0.013909999, -0.06895466, -0.02930406, -0.04735145, 0.002372668, 0.03385703, -0.08528742, 0.025091456, -0.03970344, -0.05373114, -0.046272263, -0.016194453, 0.0077663977, -0.03107679, -0.020757828, -0.029720789, -0.012936649, -0.08135214, -0.006103534, -0.064099714, 0.0013722781, -0.04718593, -0.017242, -0.08674654, -0.0107859485, -0.03425741, -0.0324895, -0.055764806, 0.01457002, -0.026118323, -0.029885951, -0.027136771, 0.0022777012, -0.04912897, -0.016920757, 0.023621287, -0.011850153, -0.07648081, -0.020940997, -0.04683771, -0.004100577, -0.06962131, -0.0043695616, -0.00014178322, -0.02408544, -0.05361262, 0.0023789096, 0.0118488, -0.004473751, -0.014468257, 0.033015504, -0.016509619, -0.05003436, -0.06467462, -0.052469157, -0.0029184702, 0.020331925, -0.07033308, 0.034494918, -0.009934892, 0.010615261, 0.02176993, 0.018755764, -0.029086925, -0.008924696, -0.04679653, 0.05421065, 0.014126594, -0.052756514, 0.00028812943, 0.00785667, -0.007541772, 0.00064787036, 0.028719675, 0.012121191, -0.004925621, -0.0009614622, -0.06419447, -0.07864384, 0.011142766, 0.010891229, -0.056028556, -0.01671712, 0.005989917, 0.0076303747, 0.025410905, -0.061955284, -0.006639633, -0.0501235, -0.03884028, -0.0047988426, -0.029361913, -0.018905796, -0.07709279, -0.015824381, -0.02785829, -0.0052239127, -0.026785655, -0.04555553, -0.021768872, -0.016980998, -0.02004281, -0.0025409723, -0.0292165, -0.0007046573, -0.02160046, -0.004227301, -0.033085547, 0.0033432595, -0.045839515, -0.044820234, 0.03859182, 0.018067008, -0.05061674, -0.040950302, -0.052494887, -0.008359873, -0.039434332, -0.03923186, -0.019737452, -0.036971565, -0.002671953, 0.010229812, -0.0015183645, -0.0031540496, 0.0082292, -0.012399768, -0.03158241, -0.022506258, -0.06121645, -0.057617422, 0.010050259, -0.04335518, -0.051131375, -0.011776558, -0.027182207, -0.056654256, -0.0035286539, -0.075185075, -0.012311135, 0.00034051787, -0.010889107, 0.0109680435, -0.07547871, -0.0028978104, -0.03493226, -0.056237098, 0.0016990053, -0.04618207, 0.005619643, 0.018006487, 0.014151261, -0.06993329, -0.07366307, 0.0028948653, -0.045036826, -0.022450985, -0.07080044, 0.0010063763, 0.0071682576, 0.023422271, -0.07104823, -0.0013050244, -0.061306912, -0.07457192, -0.02064563, 0.017638968, -0.030107133, -0.0597346, -0.023897432, 0.010860402, -0.06419538, -0.033494648, 0.0041461005, -0.025318539, -0.06018765, -0.0666254, -0.049547724, -0.009433982, -0.0074210074, -0.05977158, -0.020648217, -0.006454357, -0.027251292, -0.04253053, -0.047601663, -0.01838856, 0.010370482, 0.011207937, 0.018570095, -0.05641108, -0.030634064, -0.055331957, -0.016242048, -0.04450768, 0.01575238, -0.051482737, -0.052348204, 0.04951051, -0.019780783, -0.027158754, -0.022382142, 0.0045517916, -0.05182594, -0.081183024, -0.011484478, 0.002425206, -0.007581752, 0.051398236, -0.03319372, -0.048306525, -0.015801394, -0.04903502, -0.051663052, -0.0063423817, 0.0030347118, -0.07509489, 0.02153076, -0.03436126, -0.015497187, -0.078826725, 0.009849092, -0.08015394, -0.011574839, -0.007235813, 0.0020956725, -0.075075, -0.05784549, -0.033278976, -0.0008084492, -0.051863793, -0.068927266, -0.021654338, 0.021770852, -0.014800622, -0.024569787, -0.03500625, -0.061572812, -0.047389474, 0.016911486, 0.0024841423, -0.018496668, -0.05107141, -0.014656549, 0.0028534818, 0.012958741, 0.040409595, 0.028323775, 0.025525779, -0.047879603, 0.008992118, -0.053169448, 0.024460314, -0.055239562, -0.037603725, 0.032376863, -0.063260294, -0.075015694, -0.017420672, -0.01852569, -0.045099016, -0.0028276974, 0.010102421, -0.033166308, -0.071221344, 0.028775344, 0.031723037, 0.020310242, -0.027510101, -0.053192746, -0.018025259, -0.044225287, -0.060688205, -0.040015157, -0.024507375, -0.043945316, -0.005208357, 0.0027156316, 0.024027513, 0.0014537836, 0.037990477, -0.027550964, -0.026221056, -0.048042335, -0.01643522, -0.035742983, 0.01678119, -0.03470569, -0.007470059, -0.06343201, -0.0023661428, -0.030859966, 0.0112794135, -0.04101178, 0.020364366, -0.04717631, -0.023731165, -0.055949684, -0.05621599, -0.012303802, 0.009756025, -0.07520069, -0.046223886, 0.011866707, 0.0074616987, -0.032721613, -0.014863934, 0.01352329, -0.06278066, -0.07057639, -0.04060563, -0.023797493, -0.0679969, -0.0279791, -0.015978673, -0.04316446, -0.08310604, -0.0101585435, -0.04465777, -0.056589883, -0.0050145932, 0.029970815, -0.050402567, -0.0051117754, -0.034216844, -0.085642055, -0.06943747, -0.06280867, -0.0020342537, -0.047965605, 0.002115748, 0.028650573, -0.0820618, -0.012369048, -0.009681139, -0.03340794, -0.015533764, -0.0058102207, -0.042164914, -0.063834615, -0.031021839, 0.017186152, -0.06740115, -0.08336933, -0.03342797, -0.042456828, -0.038878717, -0.050236456, 0.008354215, -0.030153494, 0.013465916, -0.06635796, -0.054137755, 0.02001739, -0.053693697, -0.0224131, -0.0030168348, 0.03403623, 0.026176997, -0.019039989, 0.009269247, -0.041240904, -0.016585285, -0.05874761, -0.05063549, -0.04585029, 0.12063775, -0.060778994, 0.032551292, 0.017661512, -0.014478856, 0.02479103, 0.04743704, -0.10755751, -0.015123326, 0.10871934, 0.06663937, 0.060831998, 0.043990783, -0.046886493, -0.12505391, -0.034364544, 0.033249646, -0.14699738, 0.108502924, 0.11018499, -0.0032980684, -0.10482653, -0.0054336255, 0.021303013, 0.041413978, 0.082682855, 0.079751685, 0.019031135, -0.07892759, -0.02286074, -0.04083074, -0.04179107, -0.004354615, -0.08866822, 0.15547836, 0.104185484, 0.05180628, -0.010884734, 0.13423523, 0.079659715, 0.0022707921, -0.01775264, -0.114627875, -0.08883207, -0.19415185, -0.22047147, -0.16889434, -0.29591933, 0.04509497, 0.14620036, 0.1919786, 0.14845206, 0.039951872, 0.041651703, 0.09073166, 0.0771634, 0.11632584, 0.16780628, -0.12629023, -0.2579328, -0.07664386, 0.04682415, -0.07989774, -0.04279589, -0.0075928112, -0.09643783, 0.09736117, -0.06575064, -0.29283932, -0.20662718, -0.14571132, -0.14870568, -0.18083775, 0.051511496, 0.19630632, 0.16445494, 0.054211196, 0.08226983, 0.09906981, 0.13436247, 0.074331075, 0.12759882, 0.018277375, 0.0050529237, 0.039223406, 0.097137146, 0.20822977, 0.054638777, -0.036863014, -0.12524348, -0.008972735, 0.08830568, -0.046934217, -0.09958044, -0.16126855, -0.15968408, -0.07342388, -0.06983874, 0.046267085, -0.17294021, -0.43570656, -0.2603986, -0.004535997, 0.048647948, 0.015941724, -0.10439675, -0.0517888, 0.088632986, -0.03639842, 0.12246495, -0.04245856, -0.021706806, 0.08059041, -0.0709133, -0.0038933537, -0.022913968, 0.017707692, 0.009094977, 0.037840642, 0.13666104, 0.031738754, 0.055019975, 0.04775349, 0.06815318, 0.16458236, 0.066307984, 0.079596594, 0.098236285, 0.018632587, 0.025552172, -0.062216803, 0.04587765, 0.038446642, -0.052782435, 0.0070777703, 0.030220032, 0.03766473, 0.020370621, -0.031368736, 0.029495712, -0.09289257, -0.087819256, -0.09231741, 0.15716723, -0.06875964, -0.06883737, -0.18631601, -0.1269141, 0.040219713, -0.21089059, 0.07174795, 0.09229157, -0.1074061, -0.052691378, -0.09430504, 0.15235512, 0.10865434, -0.010807279, -0.025438378, -0.14125068, 0.03279973, 0.012306276, -0.22145277, -0.10635547, -0.12464333, 0.051672388, -0.018608436, -0.13257536, -0.2746844, 0.012539597, 0.085960686, -0.051898614, -0.10781668, 0.02858692, -0.08223008, -0.024563104, 0.004741681, 0.0109890355, -0.08531669, 0.06533774, -0.0048255366, 0.016064435, -0.021242607, -0.035401907, 0.19495456, 0.021751551, 0.099522956, 0.074024126, -0.09287392, -0.054493632, -0.10234729, -0.0715671, -0.11676394, 0.080212384, 0.08688834, 0.015415372, -0.15904124, -0.09091933, 0.08301656, -0.017811418, 0.004967655, -0.020259516, -0.063855715, -0.03633209, -0.054926164, 0.02007459, 0.014486048, 0.11795848, -0.17576706, -0.18344948, -0.010570952, 0.0006581199, -0.014891349, -0.15055951, -0.22296332, 0.07701896, 0.052818332, -0.07447456, -0.23608369, 0.0006754143, 0.027343413, 0.02010087, 0.011198842, -0.057097998, 0.118922785, -0.03653511, -0.14750685, 0.06957694, -0.017386302, 0.0076369136, 0.15599233, 0.123567045, -0.20326127, -0.030185232, 0.01909222, 0.040652324, -0.06858839, -0.08791782, 0.015730541, -0.06840374, -0.05879721, 0.06712548, -0.07173409, -0.018036202, 0.08995153, -0.045905914, -0.12195689, -0.0717953, 0.050897926, -0.013990501, 0.030104304, -0.034644037, -0.017334996, -0.00088060816, -0.12049212, 0.036975477, 0.08142342, -0.039992683, -0.04661583, 0.11016852, 0.06771605, -0.0134168, 0.0011294367, -0.081649035, 0.040389385, 0.054867055, -0.08341746, -0.15460926, 0.10782056, 0.13116294, 0.15883008, -0.031665515, -0.1727121, -0.061341494, -0.022081483, -0.02635138, -0.051327676, -0.038940594, 0.059838347, -0.0406347, 0.059554305, 0.114785835, -0.035159685, 0.04479688, -0.100106776, 0.18574004, 0.10358537, -0.015754778, -0.14089715, -0.03914677, 0.076833814, 0.04148583, -0.16474271, -0.06497352, -0.01629329, 0.05777858, -0.08581009, -0.3202985, -0.06388742, -0.077855796, -0.05187031, -0.0756057, 0.022673242, 0.017569283, -0.088084474, 0.23756398, -0.21626668, 0.09198003, -0.077205025, 0.077321954, 0.21831462, -0.111867145, 0.08266844, -0.04501259, 0.055697855, -0.05802116, -0.07777678, 0.006419646, 0.02523826, 0.07763847, 0.019508567, -0.026823424, 0.019160986, -0.095119834, 0.055645764, 0.09427831, 0.17159967, -0.028445423, 0.120830394, 0.07168623, 0.03979205, 0.012486018, 0.07563579, 0.21292548, -0.046281837, -0.024205834, 0.053361915, 0.12374585, -0.06879237, -0.09411781, -0.09244986, 0.122560404, 0.06388696, -0.09901352, -0.3827703, -0.25428095, 0.013572847, -0.02228313, 0.07575094, -0.023558557, 0.0037212223, 0.044673827, 0.02483426, -0.0023715692, 0.06331873, -0.09073571, 0.06732284, 0.088730335, -0.16713813, -0.07974073, 0.09784834, -0.04865575, -0.0644203, -0.122377224, -0.093952365, -0.07945725, 0.048571885, -0.09437208, -0.124335244, -0.052096557, -0.07110423, -0.09158031, -0.24956264, -0.057246972, -0.032036923, -0.07806771, -0.09428389, -0.12808907, -0.062342625, 0.012797897, 0.087613285, -0.34523746, 0.069139525, -0.010029221, 0.11963943, 0.30784902, 0.084823415, 0.033122357, 0.057974108, 0.096035674, 0.17583627, -0.19986998, -0.08729799, 0.05878273, 0.119383484, -0.109205596, -0.070312075, 0.05359582, 0.056986306, -0.026029965, 0.05815374, -0.0585753, -0.11669366, -0.060010947, -0.060824893, -0.03782418, 0.04188534, 0.051395938, 0.011445801, -0.17554551, 0.027511803, 0.051078163, -0.006319508, -0.05094044, 0.0568302, 0.04739916, -0.05249476, -0.06021054, -0.001808968, 0.10867069, 0.106889695, -0.059476186, 0.09329001, 0.07331662, 0.035308912, 0.013607017, 0.06620783, 0.044155948, -0.0539756, -0.0700387, -0.026494823, 0.06060887, 0.13877416, -0.07254951, -0.040534604, -0.0053881765, 0.04167356, 0.004382803, 0.024746927, 0.052977536, 0.098720774, -0.011587808, -0.13808182, 0.037707865, 0.007228272, -0.09227889, -0.23063003, -0.25586835, 0.0423486, 0.053020515, 0.06303537, 0.05366641, 0.106547505, 0.12062177, -0.12937626, -0.09712875, -0.033271205, -0.031554773, 0.1936584, 0.2040976, 0.07186501, 0.06399552, -0.036840975, 0.13534044, 0.13171062, -0.023465019, 0.032365434, -0.05693442, -0.026925273, -0.0764275, -0.15238537, -0.080350146, -0.08751169, 0.017930046, 0.1677926, 0.2422272, 0.074309215, 0.041364986, 0.0993517, 0.013483395, 0.021476945, 0.04023157, 0.13414966, 0.080621116, 0.07139132, 0.03551846, 0.0961185, 0.11660032, 0.09145195, 0.14945236, 0.15969148, 0.048713367, -0.123426594, -0.09176653, -0.034972116, 0.06593527, 0.10763106, 0.04688427, 0.009514138, -0.1511407, -0.22230694, 0.0105615705, -0.003222527, 0.08467008, 0.021076424, -0.16068529, 0.15022442, -0.033437036, 0.011899342, -0.11626604, -0.11360343, 0.084597826, -0.107359394, -0.051514044, -0.20232072, -0.1169571, 0.14238909, 0.0859511, -0.016388124, 0.104425326, 0.030987922, 0.09039447, 0.051226486, 0.085548006, -0.063105814, 0.017883783, 0.008073078, -0.030483546, -0.079982586, -0.0681185, 0.076504566, -0.027862396, -0.033029586, -0.0905235, -0.1551681, 0.011672816, 0.017654352, 0.0038545055, -0.036641397, -0.110611245, -0.017929602, 0.03600784, -0.07977381, 0.09643292, -0.030829754, -0.0008707392, -0.21620066, -0.15319452, -0.2701985, -0.18192098, -0.015309362, 0.038049173, 0.16770184, -0.054347787, -0.08792183, 0.12700488, -0.03278731, -0.041746564, 0.025083747, 0.109663635, -0.00089868176, -0.061154246, -0.05804306, -0.02078608, 0.045339134, 0.019786336, -0.001731613, 0.003745379, -0.043586783, -0.04290789, -0.05973802, -0.002684486, -0.05255179, -0.016248412, -0.041751854, -0.035836067, -0.046867456, 0.019121261, 0.078975156, 0.020140065, 0.044665325, -0.006839885, -0.0129616335, 0.023235667, 0.036326356, -0.056970395, -0.022354838, 0.1046308, -0.10742259, -0.056181215, -0.15650277, -0.055615976, -0.0078069037, 0.13509193, -0.051661104, -0.0101501895, 0.09157653, 0.018175779, 0.017935941, -0.052457668, 0.048415348, 0.0065308404, 0.03925685, 0.06490151, 0.027067648, 0.0063408623, -0.09493617, -0.1327974, -0.012005385, 0.10250832, 0.12185513, 0.010206277, 0.025293564, -0.108093604, -0.1318696, -0.0046770065, -0.04625215, 0.027458815, -0.086904846, -0.032102205, -0.04919611, -0.0527449, 0.002111598, -0.040149275, -0.0415616, 0.1781749, 0.11700214, 0.08973772, 0.09866111, 0.040420454, 0.12295644, -0.061456505, -0.002900596, 0.07770428, 0.048042815, -0.08654819, -0.19683097, -0.017447358, 0.041240707, 0.044006784, 0.014581435, 0.13659121, 0.043371264, 0.03225938, 0.030588642, 0.06413857, -0.024812775, 0.03081201, 0.038638514, -0.034573574, 0.059075654, 0.05359752, 0.02275316, -0.104591936, 0.08810603, 0.014811535, 0.016247008, -0.04023549, -0.01073415, 0.020088233, -0.040176798, -0.059131168, 0.08544558, -0.09718542, -0.03453479, -0.08888254, 0.079735555, -0.07384076, -0.0041470435, 0.05561527, 0.05764203, 0.04199009, 0.028654689, 0.17945695, -0.04234421, -0.024720667, 0.05615876, -0.09149842, -0.025347875, -0.068148054, 0.023217108, 0.032945063, 0.023503754, -0.12635985, -0.07197578, 0.040985677, -0.08219861, 0.046075124, -0.13202755, -0.14293781, -0.011553643, 0.12377058, -0.106186815, -0.1055528, 0.035363574, 0.021217898, 0.050710183, -0.09446815, -0.01270981, -0.13094285, -0.044634957, -0.04928226, -0.09726418, 0.09264282, 0.000977583, 0.004460336, -0.14650026, 0.013792497, 0.036687046, -0.06286095, -0.10422201, -0.11707659, -0.12873252, -0.090109326, -0.011031107, -0.10449618, 0.11338055, -0.03346181, -0.049194504, -0.035809003, -0.044029616, 0.057589035, 0.060078893, 0.107066974, 0.10874905, 0.05895394, -0.0020615524, 0.05583003, 0.0025496157, 0.017050987, -0.051486194, 0.120232694, -0.009269975, 0.10124763, -0.22610037, -0.051484466, 0.10487808, -0.006421587, -0.041170716, 0.0068003577, -0.12058555, 0.03852047, -0.043740526, 0.053724702, -0.066945605, -0.13651663, 0.05149433, -0.010312922, 0.09514028, 0.114172295, 0.052804176, 0.07697742, 0.019285409, -0.032555845, -0.1059335, -0.07484333, 0.03576532, 0.07942501, 0.047338575, -0.10283757, 0.08110207, -0.11672333, 0.021309692, -0.11351205, -0.04767915, 0.08403765, -0.023196965, 0.019094637, -0.042273004, -0.10531322, -0.07408913, -0.057439744, -0.093555644, 0.06418784, 0.013568232, -0.034011368, -0.27727517, -0.083686486, -0.013104757, 0.026881492, -0.19254714, -0.1371042, 0.03577353, -0.0006941926, -0.057051297, -0.19490337, -0.009331751, 0.07211649, -0.0030224887, -0.15701294, -0.08088316, 0.011425501, -0.010739289, -0.010247361, 0.03316727, 0.022424608, 0.16449545, 0.0923608, -0.027484292, -0.007772796, -0.006016213, 0.06011364, 0.1109604, -0.0037055903, 0.008202007, -0.09913831, -0.022246277, 0.015599361, -0.21115051, -0.24027745, 0.01231892, 0.11396135, 0.09027258, -0.014436115, -0.10764079, -0.0422171, 0.01555904, 0.06959583, 0.10015527, 0.231512, 0.07682685, 0.25621024, 0.085117295, 0.06374367, -0.004953359, -0.0273035, -0.01543318, 0.13159136, -0.04182012, -0.06318217, 0.06157269, 0.062046666, -0.022867337, -0.18161857, -0.16773337, 0.07564997, 0.24080785, -0.053734645, -0.00034668506, -0.07472222, -0.10559664, -0.0046911556, -0.027207172, 0.31547573, 0.141307, -0.02580362, -0.07592434, -0.38657838, 0.068499446, 0.0716256, -0.02358672, -0.02289039, -0.15880738, 0.2456373, -0.0069213132, 0.013662843, 0.018699137, 0.05316803, 0.14786962, 0.223653, 0.07790684, -0.08115064, -0.005917268, -0.08295754, -0.034246016, 0.1367949, 0.0702344, -0.099296115, -0.16075344, -0.12874214, -0.14039408, -0.15922646, -0.24806957, 0.03889664, 0.08876334, 0.1760872, -0.0025114997, -0.10299744, -0.040347874, 0.005590311, 0.017285967, 0.01497661, 0.0700062, 0.104132034, 0.035733435, -0.05684646, 0.15765908, 0.253901, 0.2107313, 0.20161623, 0.045796115, 0.07699128, 0.093068846, -0.08595016, -0.0723491, -0.1945756, -0.029782904, -0.039580986, -0.044345845, -0.12651393, 0.20133726, 0.22918834, 0.062184144, 0.0009772859, 0.03940885, 0.09531464, -0.07438498, -0.014298269, 0.09740584, 0.006475153, 0.097166106, -0.1851167, -0.1237612, 0.007951891, -0.100030586, 0.014129112, 0.022308605, -0.026617112, -0.019227663, -0.025682466, 0.08718797, 0.19275758, -0.013863574, 0.005067443, -0.00013601164, -0.094092965, -0.031076675, 0.008466842, -0.055610046, 0.10544223, 0.04540697, 0.0037253236, 0.04073045, -0.1358979, -0.14838958, 0.11308309, -0.066468135, -0.086397186, -0.20963268, -0.15643449, 0.12990065, 0.077320315, -0.12465336, 0.12995224, -0.010864744, -0.05625262, 0.19794104, 0.15161163, -0.019280752, 0.18988444, 0.0568421, -0.09011346, -0.20892033, 0.12558943, -0.09759702, -0.10885539, 0.016954478, 0.011336324, 0.22824152, 0.238604, -0.09980597, -0.23672079, 0.14724757, 0.11987691, 0.14365286, 0.101871304, -0.020149067, 0.16630727, -0.24582769, -0.074168645, -0.03698766, -0.13381559, 0.02401642, 0.017740835, 0.12338663, 0.2166015, 0.14112337, 0.11081955, 0.1028737, -0.11347949, 0.0772917, 0.063774146, -0.04482593, 0.069027945, -0.051115986, -0.16446517, 0.059276313, 0.0501634, -0.043598484, 0.011223782, -0.027064938, -0.044988904, 0.048562028, 0.08941421, 0.06704299, 0.3094731, 0.015391436, 0.061288066, 0.022656744, 0.029754419, 0.0198303, 0.068404526, 0.02423551, 0.11686219, 0.15041226, -0.05119762, -0.09578935, -0.108360186, 0.034437962, 0.074236706, 0.06844281, -0.07647493, 0.09070299, -0.2963736, -0.0492878, 0.104579926, -0.09586812, 0.0029127724, -0.3904744, -0.1078559, -0.16349198, -0.26320598, -0.08148342, -0.00873605, 0.00019193518, -0.017288784, 0.040077835, -0.08695151, 0.08351873, -0.013137002, 0.030896466, 0.043553367, 0.062510826, 0.03795724, 0.014645572, -0.24064627, 0.18312898, 0.26793703, 0.08094741, 0.14739646, 0.041467965, 0.1502858, 0.085735105, -0.12175928, -0.0688889, -0.17381158, 0.0062125307, 0.0068041445, -0.0002338624, -0.030426282, 0.014821667, 0.0093576405, 0.07720297, 0.0849416, 0.022596348, -0.10053507, 0.0038602485, 0.18249968, -0.02178135, -0.11621028, -0.060026705, 0.019579664, 0.072850674, 0.047194105, -0.12517841, -0.23567222, -0.059635174, 0.11948458, 0.12581308, 0.047705263, -0.12416625, 0.022202348, 0.27099296, -0.09649173, -0.056792945, -0.2148096, 0.0039486303, 0.036419444, -0.064333215, -0.012555703, -0.13463081, 0.07338873, 0.22764656, 0.08052229, 0.016573979, -0.012853889, 0.05892767, 0.13344046, -0.115277536, -0.023511855, -0.02862809, -0.036791038, -0.025409391, 0.04166069, 0.12489849, 0.0068430454, -0.024037957, 0.18865964, 0.003448235, -0.06387524, 0.017540712, -0.03693229, -0.16430412, -0.04713624, -0.17408133, -0.22941877, -0.13913949, 0.045110796, 0.04379476, -0.076744534, -0.07111881, -0.12003408, 0.006860066, -0.10072876, -0.012603189, -0.0149005875, -0.0052393153, -0.06480192, 0.007053906, -0.19756931, -0.073615804, 0.110640585, 0.13423075, -0.014747828, -0.042399593, -0.104501985, 0.073568165, 0.054038856, -0.043476127, 0.031613376, 0.05839859, -0.08485312, -0.074070826, -0.06291062, 0.012085445, 0.05955647, 0.1094953, 0.124548584, 0.06752265, 0.04972682, 0.09757237, 0.16421406, -0.012598335, 0.0545762, -0.16349159, -0.0053562834, -0.053591426, -0.10306452, -0.03400271, 0.06816101, -0.102697104, -0.07642498, 0.118611775, -0.094902925, -0.019274218, 0.17532468, 0.10141129, 0.020142078, 0.15200289, -0.021280285, 0.014179056, 0.055863842, 0.013937673, -0.07646631, -0.0064036376, -0.0030641824, -0.08516811, -0.060832363, -0.13307276, 0.09439666, 0.12221279, -0.07529307, -0.09499132, 0.005149506, -0.12697214, -0.26196346, -0.1168278, -0.06285003, 0.027964879, -0.067892425, -0.15820365, -0.0025229354, 0.018615002, 0.056642085, -0.055834427, -0.12989573, 0.0045169564, 0.051007092, 0.030980906, -0.04331846, -0.07821325, -0.039676182, 0.038483787, 0.055289112, 0.17043275, 0.23422328, 0.17564194, 0.19176976, 0.11398552, 0.016025852, 0.008888382, -0.07682226, -0.060684852, 0.01431195, -0.14216162, -0.010753722, 0.030876692, 0.108693995, -0.031959426, -0.124386184, 0.032118116, 0.06548443, 0.000849739, 0.047600426, -0.007880639, 0.015258864, -0.03633791, -0.048604246, -0.010199979, -0.012651636, -0.025313236, 0.019898867, 0.044355933, 0.2124637, 0.0815342, 0.037997454, 0.10064359, -0.033387538, -0.13299143, -0.1871061, -0.028231693, 0.0199183, 0.14904518, -0.24467209, -0.08461099, 0.036819648, -0.0475525, -0.10859614, -0.009366397, 0.13398929, 0.053275988, -0.04920387, -0.042797092, 0.045577705, 0.15460883, -0.03803083, -0.12909989, -0.13777249, 0.05876115, 0.09143614, 0.021513136, 0.052679542, -0.113760434, -0.115889184, -0.058582287, -0.06257848, -0.025312528, 0.122039706, 0.0031645023, 0.01174765, -0.017216096, -0.004084807, -0.11357066, -0.024040952, 0.033253208, -0.14074449, -0.05095274, -0.099420674, 0.110570766, -0.04400288, -0.056392808, -0.016657269, -0.024455667, -0.03556045, 0.007682879, 0.12941037, -0.04508857, 0.10905606, -0.050931476, -0.05603125, -0.06829538, -0.043032017, -0.061073, 0.08395662, 0.100380585, -0.059974868, -0.0033086545, -0.0012546245, 0.115156606, 0.07585233, 0.079956, 0.009860946, -0.055543885, -0.016923485, 0.1360976, -0.005722301, -0.06814136, -0.16023242, 0.0069061066, -0.2058985, -0.4576919, -0.10951896, -0.010030654, 0.10812576, -0.048916426, -0.20008568, 0.1494225, -0.02194542, 0.10126644, 0.025109323, -0.06378639, 0.14413713, -0.003785752, -0.0790063, -0.055823863, -0.109138824, 0.11634665, 0.048833873, -0.09716254, 0.023307955, -0.022439428, 0.049535494, 0.072498396, 0.12260553, 0.13629748, 0.043209344, 0.029192973, -0.0053422917, -0.0012743331, 0.014819275, 0.0015342744, -0.029350135, 0.13679247, -0.07374907, -0.18807669, -0.0057647666, -0.045042224, -0.071592644, -0.051818658, -0.08206603, -0.17261107, -0.059819765, 0.028062563, 0.07431604, -0.0020866534, -0.13869746, -0.1103626, 0.13692021, -0.28481805, -0.16959922, -0.053545557, -0.013689522, 0.032885514, 0.056337412, -0.013219088, 0.09245967, 0.03807118, -0.017418444, 0.11824512, -0.009833824, -0.071824476, -0.014195007, -0.106479414, -0.19980651, -0.051138595, 0.04229781, 0.07654677, 0.035593454, -0.11448191, -0.09557215, -0.07075916, 0.12711369, 0.004773206, 0.0074874028, -0.064378634, -0.18667136, -0.11497407, 0.028315997, 0.07657402, 0.08400189, 0.020943029, 0.00713538, 0.041358724, -0.03593928, 0.01139269, -0.06304268, -0.063874595, -0.0170031, -0.040932007, -0.1837825, -0.03200193, -0.06929754, 0.011327034, -0.033737805, -0.025983753, 0.10983024, 0.15992303, 0.036584906, -0.01885791, 0.0045254994, -0.047857206, 0.0897619, -0.061936174, 0.04518837, 0.06928238, 0.0038860366, 0.04498863, -0.06635531, 0.0037500092, 0.022836711, -0.006607928, -0.1032475, 0.049846914, -0.10765246, -0.15102378, 0.0072029354, -0.036396988, 0.054315597, -0.023362115, -0.059270687, -0.035131574, 0.07414237, 0.10051605, -0.013271367, -0.007885059, -0.017529279, -0.072326645, 0.16409487, 0.032593995, -0.030769497, -0.08814933, -0.22706114, -0.16152948, 0.10443174, 0.06987056, -0.05794347, -0.24138041, -0.010394587, 0.042531, 0.08829696, -0.01064411, 0.0054808483, -0.09030318, -0.06980864, -0.024621155, 0.043729145, -0.055260472, -0.15625572, 0.027160967, 0.020247856, 0.06380843, -0.008558182, 0.010184559, -0.007021146, 0.0487374, 0.033635695, 0.07882979, 0.032526188, 0.03784836, -0.013931622, -0.02803572, -0.022958016, 0.08369954, -0.033560168, -0.06734275, -0.04544225, 0.068420365, 0.016430896, -0.045412276, -0.08618912, -0.02280508, 0.12070606, 0.038689904, 0.22731331, 0.18235739, 0.061906215, 0.0135679245, -0.1803153, 0.12160699, 0.003796221, 0.021937491, 0.117269345, 0.0026071053, -0.114803, -0.047295686, 0.11152854, 0.10784474, 0.15105924, -0.07552736, -0.012625672, 0.040092662, 0.016602773, 0.048477717, -0.09800194, -0.05712252, -0.006875087, 0.085488, 0.05795732, 0.02150903, -0.12513396, -0.16257237, -0.0675438, 0.18322168, 0.15971126, -0.03728787, -0.11122031, -0.107856184, -0.02177397, 0.10719605, 0.000913652, -0.14063577, -0.073461354, 0.16991894, -0.065154105, -0.06471904, -0.03562027, 0.04412387, -0.024904668, -0.14970392, -0.20585625, -0.05421944, 0.1109049, -0.047853675, 0.03919962, 0.11622034, 0.031414438, 0.040892314, 0.0143250935, -0.0046937335, 0.05485257, 0.07215251, 0.15650447, -0.016073573, 0.036599845, -0.112246916, 0.0074125663, 0.19310197, 0.047722537, -0.06643402, -0.03972663, 0.002912926, -0.01937501, -0.016736597, 0.07859478, 0.034355126, -0.18172969, -0.11703819, -0.04337975, 0.2319309, 0.16333395, 0.06753413, -0.017100291, -0.19976386, -0.08107145, -0.21159446, 0.028088382, 0.036712777, 0.104632206, -0.06217311, -0.05635061, 0.17525329, -0.07779775, 0.02056605, -0.09807884, -0.002513343, 0.07039096, -0.064884186, -0.07013445, 0.051096894, -0.13446218, -0.050669897, -0.042772442, 0.058932856, 0.08767686, 0.03629439, -0.10183438, -0.26453373, 0.0031373736, -0.036438473, 0.032334507, -0.009352982, 0.021749005, -0.0011203066, -0.0012057204, -0.040867016, 0.08505391, -0.025121363, 0.04983337, 0.104912356, -0.08792826, -0.04531108, -0.027427867, 0.11323091, -0.051765475, 0.05075455, 0.022535855, 0.15239167, 0.018295407, 0.13034888, 0.013390396, 0.073660724, -0.013437821, 0.006001827, 0.21684037, 0.042861078, 0.113082394, 0.034773815, -0.17631641, 0.05970037, -0.0070906407, 0.133322, -0.090889744, -0.015163831, 0.0005853515, 0.07307266, -0.021886058, 0.047447417, 0.0003087783, 0.025249101, 0.060931202, -0.10828435, -0.13942021, 0.03036223, 0.03204891, 0.013482318, 0.03603704, -0.007540271, 0.016752703, 0.06706988, 0.0035880513, -0.03466603, -0.023792222, 0.060395278, -0.18854986, -0.11954336, 0.11169199, -0.08667996, -0.0994345, -0.12266672, 0.08901414, 0.04643458, -0.062307484, -0.18981664, -0.083474986, 0.10531334, -0.048247557, -0.12475221, -0.3375277, -0.23343658, -0.09672976, 0.026996162, 0.08716788, 0.06404893, -0.22198144, -0.17045149, -0.07495308, -0.07386867, -0.06833125, -0.08603101, 0.0061204275, -0.014481068, 0.008034727, -0.13045573, 0.13850322, -0.0022504074, -0.14381577, -0.108107075, -0.18774611, 0.21288364, 0.059698027, -0.18227428, -0.27239773, -0.14492446, 0.10231992, -0.008570617, -0.0888371, -0.073992535, 0.14390428, -0.14260867, -0.19919032, -0.08546878, -0.03783616, 0.0616299, -0.33641276, -0.30643922, -0.22587621, -0.0064334963, 0.080579914, -0.056632258, -0.033508684, 0.032600608, 0.02091314, -0.042371444, 0.06678038, 0.084894896, 0.04618183, 0.0592389, 0.013340315, 0.0038665053, -0.0944162, -0.2198348, -0.29558232, -0.21013835, 0.06993126, -0.001458664, -0.16892168, -0.1644012, -0.037032615, 0.051817946, 0.31051514, 0.112119876, 0.0017039588, 0.14567186, -0.03691909, 0.014912025, -0.036667913, 0.036677193, 0.12323198, -0.11188461, -0.019374447, 0.056116313, 0.04349663, 0.1069779, 0.010421645, 0.000661285, -0.07650321, -0.057900455, -0.008758616, 0.07280031, 0.050278053, -0.116923176, 0.12240811, 0.09310166, 0.10555027, 0.008675165, 0.0715009, 0.10277281, 0.0038184838, -0.025126673, 0.039158825, -0.09733135, 0.03589576, 0.008662722, -0.060345642, 0.115560986, 0.100442916, -0.11413872, 0.023048637, -0.4551442, -0.5291585, -0.067389466, -0.006989189, 0.03785419, -0.2832659, -0.30141866, 0.0384331, -0.029385481, -0.05935946, 0.027604595, -0.17739554, -0.095311455, -0.024031213, -0.021924516, 0.16554399, -0.06582925, -0.015931243, 0.045502655, 0.0463434, 0.034614254, 0.017292827, -0.09293889, -0.009142815, -0.057378955, 0.010813388, -0.08100492, -0.083399646, -0.07459526, 0.020055955, 0.09964985, 0.0357603, -0.11381362, 0.02487069, 0.12354227, 0.08266256, 0.04452121, -0.029732367, -0.020257, 0.072276756, 0.028502615, -0.09295593, -0.15657315, -0.00941701, -0.10481684, 0.032394897, 0.04064387, -0.017462542, 0.10762818, 0.010460829, -0.1700577, -0.15422623, -0.07275793, -0.0003857797, 0.004728436, -0.06714864, -0.109336264, -0.025464965, -0.05841705, -0.068428755, 0.05135527, 0.02977683, 0.026232634, -0.07631882, 0.00027719163, 0.20303367, -0.006919134, -0.038328525, -0.004775799, -0.06662662, 0.05481252, -0.15499432, -0.15002614, -0.03705292, -0.15893102, 0.015636846, -0.015730765, -0.14411719, -0.096285634, 0.07417936, -0.15216129, 0.037816837, -0.014661795, -0.1483582, 0.020644454, -0.08222469, -0.03433801, -0.15166599, -0.29060358, 0.05165024, -0.0266884, -0.09970101, -0.0114967385, -0.08520613, -0.052326143, 0.04256597, -0.07244622, 0.010397671, 0.079244606, 0.017051682, 0.036700573, 0.027731791, -0.037018593, -0.079553954, -0.02429276, -0.07333086, 0.021586895, -0.1019758, 0.066421784, -0.10439815, 0.12838759, -0.07893356, 0.0616964, -0.036691613, -0.044065937, -0.041732304, -0.059601225, -0.018666184, -0.02865737, -0.08978587, -0.076606356, -0.0680085, 0.10632404, 0.046789426, 0.070685364, 0.06259164, 0.13785796, 0.06934733, 0.028841387, 0.03631098, 0.08245304, -0.007894022, 0.042455103, 0.06455476, -0.19626951, 0.017481988, -0.05014986, 0.16280746, 0.087742746, 0.1057823, 0.11734923, -0.089150146, -0.032907587, -0.01918897, -0.064736605, -0.047006994, -0.078261696, -0.004224439, 0.034940127, -0.027936826, -0.10978978, 0.07708211, -0.17823263, -0.19458431, 0.393642, -0.014346138, 0.1325571, 0.009059779, -0.026828539, 0.07583122, 0.09680914, -0.061436493, -0.07275033, -0.058318723, 0.13713707, 0.10256739, -0.07259715, -0.04935252, 0.095818594, 0.17427231, 0.0033233766, -0.012476706, 0.0036055425, 0.08700949, 0.026723657, 0.048547905, 0.16207515, 0.09156754, 0.079454795, 0.027738886, 0.057084918, -0.037301984, 0.14884104, 0.23340367, -0.0016604607, -0.05121742, -0.15527587, -0.015266112, 0.06620743, -0.015109079, -0.1388827, -0.022907196, 0.007011691, -0.013082419, 0.02833138, -0.099027194, -0.042771652, -0.048977803, -0.010978761, -0.021503879, 0.123712555, 0.08570336, 0.102269515, -0.0239678, -0.03717963, 0.046532713, -0.033372555, -0.1569915, 0.07053651, 0.047689453, -0.002399552, -0.064859726, 0.030768676, -0.04852837, -0.023670183, 0.124187976, 0.05889699, 0.092834435, 0.06451233, 0.012878901, 0.12483678, -0.15768515, -0.10279155, -0.13555849, -0.12861645, -0.0148983, 0.10871534, 0.17266588, 0.0057448577, -0.124218814, 0.13227157, 0.08841721, 0.19504976, -0.102745615, -0.033172227, -0.049859032, 0.08116887, 0.041326724, 0.14186367, 0.14373288, -0.058815315, -0.14568748, 0.02067595, 0.05471424, 0.11784572, -0.07890648, 0.004046702, -0.04567272, 0.1328162, 0.12353106, -0.015037884, 0.011620158, -0.04581585, 0.09469615, -0.17392853, -0.018658968, 0.013149511, 0.05534105, -0.15267396, -0.3233034, -0.0075868564, -0.11999781, -0.040093713, -0.15673493, -0.19160084, -0.013428485, -0.18412308, 0.15363678, 0.2141461, 0.14616276, -0.10769842, -0.12792383, 0.014182466, 0.04352252, -0.0429773, -0.06693287, -0.018623548, -0.10476041, -0.16443817, -0.21311441, -0.04990703, -0.19582202, -0.07129254, -0.021743681, -0.006234974, 0.005289109, 0.14071974, 0.019776858, -0.18374893, -0.121156015, 0.023464033, 0.0045214556, 0.11590893, -0.0042380937, -0.0758997, 0.045720197, -0.13049567, 0.08058538, -0.010838689, 0.13162585, -0.11745608, -0.076073945, -0.07169833, -0.0039523593, 0.06017814, -0.036736123, 0.051545624, 0.054352038, 0.041779574, -0.036529865, 0.08230047, -0.07572622, -0.026195167, 0.010387263, 0.054389283, 0.16805416, 0.09663323, 0.009905156, -0.17450151, -0.0055947253, -0.06677293, 0.13483347, 0.081527375, 0.00041276898, -0.08271727, -0.069437906, -0.24904922, -0.15744843, 0.027556852, 0.06965105, 0.12825195, -0.06395217, -0.04122879, -0.12134482, -0.05756817, 0.16323419, 0.064293824, 0.16263075, 0.027145432, -0.075584166, -0.09910791, -0.087097384, -0.11462385, -0.097444244, -0.07487623, -0.13273232, -0.1215375, -0.11603584, -0.18782352, -0.112837926, -0.044321105, 0.14708787, 0.13796026, -0.17673166, 0.02510869, -0.13594452, 0.12932521, 0.17712359, -0.17861432, 0.038306322, -0.19191255, -0.074229464, 0.014985314, -0.014052809, 0.03778695, -0.15108807, 0.055940274, -0.061205354, 0.1290227, -0.02968285, -0.10993076, 0.18729655, -0.12924108, 0.1959284, -0.02691006, 0.023815189, 0.08014652, 0.046536986, 0.004042966, -0.033681985, 0.04891675, -0.08229991, -0.14025585, -0.30615205, -0.12872307, -0.11706676, -0.026933333, -0.13840492, -0.16656056, -0.00178558, 0.084160656, -0.013424712, 0.10193873, -0.009008158, -0.12757954, 0.20725064, 0.12268176, 0.11631748, -0.015784295, -0.14885037, 0.100326985, -0.2579345, -0.026816366, 0.08557897, -0.0067787645, 0.15612026, 0.02422075, 0.12831447, 0.16382737, 0.020320661, 0.11538562, 0.087102614, -0.074544296, 0.14066951, 0.14391604, 0.20433253, -0.11087912, -0.18698563, -0.14019857, 0.07384841, 0.22104938, -0.025610033, 0.09041642, -0.07377191, 0.1086496, -0.08233192, 0.05935794, 0.09006207, -0.09182127, -0.08050164, -0.113534376, 0.10888423, 0.05094817, -0.02846185, -0.14007643, 0.001083969, -0.14221723, -0.041414887, 0.22009382, 0.10741911, 0.007863648, -0.12414161, -0.010771751, -0.03984401, 0.03608709, 0.14614631, -0.14331153, -0.107262544, -0.047404032, -0.036945567, 0.11002448, 0.005471316, 0.049932156, 0.1136002, 0.038384683, 0.16560374, 0.10531501, 0.066118866, 0.13778482, 0.081030175, 0.04422302, -0.04446677, -0.04477861, -0.043861203, 0.0896411, 0.13119993, -0.07304813, -0.08988632, -0.18777463, 0.074399486, 0.20728876, 0.158003, 0.16944659, -0.08488808, 0.19438058, -0.028499637, -0.010818662, -0.07668305, -0.016980952, 0.16833837, -0.055777308, 0.025119668, -0.14851041, -0.13079685, -0.09697764, -0.124104396, -0.005671512, 0.19832832, 0.13181773, -0.031817663, -0.20718434, -0.090222225, 0.073710844, -0.04937142, -0.009214663, -0.06552854, -0.06275517, -0.13735858, -0.13057949, -0.1350388, 0.08859276, 0.05562576, -0.054798886, 0.029625352, -0.22786552, 0.104733, -0.056906022, 0.078082584, -0.14146505, -0.17266712, -0.11573397, -0.14636494, -0.0487848, 0.001177133, 0.095937155, -0.08089513, -0.17539069, 0.12349022, 0.1820957, 0.19325522, 0.027152415, -0.029129762, 0.036686942, 0.13299492, 0.13545287, 0.107786976, 0.0073482306, 0.16863531, 0.059446756, 0.08178226, 0.107307956, -0.026700333, -0.11240467, -0.15151796, -0.2777068, -0.008757144, -0.10850314, -0.19269906, -0.11937367, -0.068770126, -0.037816193, -0.09821303, -0.03748713, 0.039721016, 0.14610407, 0.24017847, -0.1006949, 0.037617896, 0.029638011, 0.13738818, -0.07953268, 0.2823182, 0.28349555, 0.19358449, -0.23667306, -0.02764417, 0.021635268, 0.39022273, 0.28103217, -0.2237876, -0.1912951, -0.23239586, 0.04905621, 0.23546994, 0.015527534, -0.14404185, -0.10621811, -0.08715868, -0.11519878, 0.038351994, 0.06669569, -0.21050403, -0.16767828, -0.14866029, 0.06932794, -0.036388505, -0.1357906, -0.13413256, 0.021110408, 0.11835069, -0.07142313, -0.0815724, 0.025350966, -0.10134133, -0.026477294, 0.06997615, 0.21792857, 0.067327045, -0.16899416, -0.27027062, 0.17138278, -0.021545079, -0.033983894, -0.19159162, -0.056199647, -0.0978306, -0.14097553, 0.0009190912, 0.0008738896, -0.0074812896, -0.13635808, -0.15824458, -0.10360626, -0.034079935, -0.091839544, 0.060388416, 0.016237436, -0.084546514, -0.12747799, -0.17668088, -0.10117018, 0.046150584, -0.16440558, 0.20965165, 0.07772203, 0.10144127, -0.04701215, -0.15643646, 0.0036362456, -0.030708393, 0.08815674, 0.10764843, -0.004581743, -0.10820179, 0.1461765, -0.012206502, 0.060803317, -0.02889619, -0.24431793, -0.25993466, -0.109660834, -0.019388797, 0.007381534, -0.3251243, -0.40433988, -0.11708458, -0.11184035, -0.084630065, -0.010662115, -0.038054105, -0.08467633, -0.13351849, -0.022834616, 0.03294061, 0.041539345, -0.0010707129, -0.09956211, -0.043898027, -0.09260152, -0.07633388, 0.019377304, 0.1300882, -0.07359502, -0.22982518, -0.093677506, -0.019206364, -0.01245369, -0.041529514, -0.0043494394, -0.13221085, 0.11600224, -0.038836516, -0.013429122, 0.066375196, 0.16619883, 0.18633616, 0.11120518, -0.026390927, -0.08479176, 0.08784378, -0.09522634, -0.16471839, -0.092026375, -0.0067843134, 0.056931216, -0.12073406, 0.029122798, -0.030880554, -0.02071995, -0.11833988, 0.001540657, 0.07067085, 0.06462704, -1.4373894e-05, -0.039834067, -0.08033391, 0.04556015, 0.04639837, -0.058822237, -0.25865668, 0.18130046, 0.10367831, 0.038326398, -0.063291214, 0.005362164, -0.16776702, -0.027859947, 0.14991139, 0.14047404, 0.31602135, -0.1554126, -0.058061264, -0.0262025, 0.12804039, 0.0793772, -0.14985847, -0.19583936, -0.09475861, -0.17345633, -0.08195828, -0.07478963, 0.053619552, -0.049743455, -0.18272445, -0.05097597, -0.07568555, -0.058646526, -0.13546456, -0.20924632, -0.15481076, 0.14533883, 0.10924899, 0.09861314, -0.06745434, -0.096438214, 0.18428594, 0.1754415, 0.12471955, 0.016890243, -0.14726807, -0.026885305, -0.07018968, 0.002010806, -0.07022515, -0.26243126, -0.08505222, 0.07945252, 0.027124997, -0.040438544, 0.17258586, -0.23283654, -0.07880446, -0.087533854, -0.09582731, 0.069791585, 0.060098846, -0.017705614, -0.09333876, 0.013060207, 0.028716747, 0.03246842, 0.024569334, -0.41498363, -0.22145122, 0.14211062, 0.081845805, 0.11206063, -0.08272303, 0.023016972, 0.106826305, 0.04727119, -0.038716678, 0.083281584, -0.041629914, 0.051308237, 0.15270692, -0.029751346, -0.08495444, -0.05180707, 0.15960887, 0.04169764, 0.052724283, -0.097484715, -0.044104103, 0.12531006, -0.040084902, -0.018037276, 0.021521624, -0.031419035, 0.11206062, -0.023556728, 0.009757311, -0.26790825, -0.1345046, 0.033213444, 0.035111424, -0.0018910145, 0.010380684, 0.10310555, -0.19018127, 0.1621862, 0.10883801, -0.02424031, -0.1321916, -0.122175075, -0.11611166, -0.022212878, 0.17785482, 0.011938816, 0.16232434, -0.3137232, -0.24547255, 0.14151491, 0.22032532, 0.48678073, -0.06200851, -0.0074637975, -0.001174933, 0.09233844, 0.057571284, -0.052101776, -0.023518324, -0.056036137, -0.1252749, -0.0050384616, -0.024299253, -0.16441274, -0.029024744, -0.0110291345, -0.0068739536, 0.025432741, 0.01161712, 0.071934536, -0.09539539, -0.06861378, 0.061534643, 0.004024341, -0.049701948, 0.07673872, -0.032284565, 0.10018376, 0.040988084, -0.08882934, 0.07225456, 0.048957862, 0.14706089, -0.04058648, 0.008198719, -0.08012404, -0.08155562, 0.010496042, -0.15371771, 0.031100152, -0.10446786, -0.106734365, 0.012093534, 0.009242303, 0.14309578, 0.055237144, 0.02744066, -0.121486194, -0.03666734, -0.06344485, 0.025727298, 0.027812667, -0.08862836, 0.015697274, -0.033676956, -0.060685396, -0.023599979, 0.051266722, 0.08806377, -0.030434227, -0.101020336, 0.0070419447, 0.084790766, 0.06068539, 0.012563627, -0.06307553, -0.06142705, 0.25474, 0.13839959, -0.1261843, -0.047635883, -0.11856642, 0.10496982, 0.09297217, 0.03169103, 0.10929531, -0.005811365, 0.054632824, -0.02319691, -0.093235806, -0.024969794, -0.20563763, 0.05954458, -0.122767046, -0.20165884, -0.035016626, 0.040504593, -0.110684395, -0.18393797, 0.00021675925, -0.055347655, 0.076858, 0.05712953, 0.010372551, -0.08885807, -0.10376366, 0.003185922, -0.07323892, 0.0050723967, 0.04798031, -0.01675803, 0.0985765, -0.05588327, -0.058936413, -0.08353159, 0.1415632, 0.07438284, 0.11618433, -0.045008056, 0.027033841, 0.07241967, 0.011739621, 0.05398607, 0.040902518, 0.04754047, -0.045224953, -0.005057557, 0.050354373, -0.022481345, -0.025966639, -0.19634861, -0.053703837, 0.04490355, 0.023616785, 0.0777748, -0.001844298, -0.060341682, -0.09880546, 0.03637451, -0.021632697, -0.05225054, 0.17831793, -0.036895685, -0.0623278, 0.042887703, 0.13511714, 0.1957742, 0.16041985, 0.026703574, 0.09647971, 0.006299214, 0.1074195, 0.10806529, -0.0036490012, -0.044567864, -0.04891752, -0.02769858, 0.08222158, 0.003991661, 0.11062194, 0.07130568, -0.063389525, 0.119194046, 0.13721155, 0.029285144, 0.19338255, 0.018677782, 0.024797862, -0.058765154, -0.21765517, -0.007200249, 0.07108223, 0.13565199, -0.103168696, 0.02973652, -0.17238072, 0.12995404, 0.029969834, -0.029905014, -0.0012893942, 0.0099804755, 0.05068756, 0.10971008, 0.101433545, 0.029249122, -0.0025247547, -0.12656207, -0.0019642822, -0.11669891, -0.07605521, -0.12636085, -0.19194198, -0.04691538, -0.1009323, -0.0886241, -0.15352403, 0.13880031, -0.15937787, 0.03137674, 0.10164412, -0.0504175, 0.07058234, -0.060515888, 0.09418561, -0.016768403, 0.025229909, 0.026555233, -0.06774818, -0.058703218, 0.104266554, 0.10700097, -0.09383119, -0.02227306, -0.041059397, -0.120261416, 0.0789353, 0.108617656, 0.0711979, 0.060106114, 0.02707542, -0.03400251, -0.12309543, 0.11314634, -0.026220078, 0.04510636, 0.09227671, 0.018366627, -0.072685234, 0.05781771, 0.031069186, -0.006759147, -0.20044143, 0.0073436694, 0.14123036, 0.071788885, -0.23982896, -0.08972895, 0.10080712, 0.017248167, -0.08877385, -0.040778574, -0.039247524, 0.06300643, -0.09394368, -0.13621773, 0.15299958, 0.10375605, 0.21068296, -0.0757348, -0.07061345, 0.05364775, 0.19156133, -0.01827609, -0.13399984, -0.18250197, -0.040046845, 0.111068524, 0.0032267494, -0.079709366, -0.005413814, 0.014036475, -0.05342038, -0.02196443, -0.058694262, 0.022145232, -0.061497256, 0.03523195, -0.0054531232, -0.0057477714, -0.041069772, -0.054446395, 0.023129739, -0.029763725, -0.01387389, 0.013849985, -0.04057931, -0.014090439, -0.05680189, -0.04964443, -0.07123185, -0.01394646, 0.008760046, -0.011813033, 0.026381522, -0.019006839, 0.036675893, -0.016642993, 0.01696134, -0.017478585, 0.015242071, -0.0050748265, 0.022410357, -0.01505076, 0.032234613, 0.017073289, -0.009436947, -0.048350718, -0.03914533, -0.03315695, -0.051607274, 0.009656883, 0.0074692345, -0.026520966, -0.022836834, -0.030455928, -0.024280697, 0.037211087, -0.05643094, 0.020551296, -0.044720247, 0.001195112, -0.052029815, -0.04219455, -0.052577056, -0.0043819104, 0.00394757, 0.008276037, 0.014102067, -0.04995945, -0.025082372, -0.065097876, -0.018965958, 0.005027944, 0.014513743, -0.06289739, 0.007817486, -0.0042938306, -0.07462635, 0.009975224, -0.021463344, -0.032974944, 0.023796774, -0.03139749, 0.007352577, 0.034437135, 0.023660963, -0.03398822, -0.060685214, -0.045645017, -0.029369375, -0.062819235, -0.043744814, 0.0037409693, -0.07051593, -0.021669658, 0.03943246, 0.029017549, -0.024079373, -0.043273855, -0.053191546, -0.053898543, -0.046956, -0.038427338, 0.0143986, -0.03666543, 0.022699237, -0.06426509, -0.011967495, -0.009756423, 0.0144523345, 0.017963843, -0.06340123, -0.04119017, 0.021099642, -0.01568341, -0.014855703, -0.008906274, 0.03926745, -0.010330686, -0.04133943, 0.0005041748, -0.054771688, -0.014593598, -0.04956086, -0.05167889, 0.03209746, -0.008877928, -0.017164338, -0.025395283, -0.025629045, -0.021048525, -0.054463092, -0.04455517, -0.029426044, -0.04426329, -0.031248674, 0.023047188, -0.0480053, -0.026252294, 0.006556758, -0.015792433, 0.033479284, -0.020173257, -0.023856191, 0.0016902569, -0.06761765, -0.014715049, -0.024286997, -0.041510206, -0.0502495, 0.0029661972, -0.062201668, -0.0043923776, -0.043867633, 0.032812867, -0.05593667, -0.062649004, -0.05626333, -0.022276646, -0.009283799, -0.029265119, -0.018515784, -0.052449066, 0.0024085918, -0.041251272, -0.017111514, -0.012348372, -0.048858784, -0.058266163, 0.01692448, -0.01137601, -0.029991278, 0.010400505, -0.03580598, -0.0062680608, -0.027458461, -0.07073981, 0.021637294, 0.011541532, 0.028390916, -0.05925745, -0.06080165, -0.019743131, 0.027998079, -0.0064291013, -0.046457026, 0.019624315, 0.014513378, -0.045714244, -0.051037345, -0.056130834, -0.061873373, -0.0655609, -0.04559231, 0.023122031, -0.043468032, -0.07424904, 0.0025870868, -0.016919438, 0.016910376, -0.040500984, -0.031653676, -0.016972488, -0.056971088, -0.003053963, -0.023192277, 0.024568921, -0.042481303, 0.0021812634, 0.019565102, -0.053542938, -0.059206214, -0.05783013, 0.0014758548, -0.06256645, -0.0722175, -0.007958381, -0.041957244, 0.017400254, 0.009132523, -0.06911684, -0.012861269, -0.054162495, 0.023021193, -0.04535629, -0.028646521, -0.013005623, -0.015408256, -0.06614154, -0.012284724, -0.046085525, 0.014406316, 0.010582894, -0.0013735307, 0.017715618, -0.059146658, -0.006092694, 0.0139467055, 0.023582963, 0.010885958, -0.042515315, -0.036691703, -0.060402375, -0.027368382, -0.0034890475, 0.015864585, -0.014419991, -0.064785816, 0.0305941, -0.011798158, 0.00874311, 0.005104454, -0.06541065, -0.0029280733, 0.014572402, 0.008584237, -0.013899972, -0.021562127, 0.02680931, 0.026035637, -0.041510515, -0.022154247, 0.006392028, -0.049884785, -0.06460835, -0.013481387, 0.043566808, -0.010804546, 0.015413745, 0.016095627, -0.06620069, -0.05276099, -0.025821459, -0.029330973, -0.051252607, 0.0011784628, -0.013808893, -0.06500575, -0.016424485, -0.01573386, -0.031787686, 0.035680905, -0.015746316, -0.0144223105, -0.013725652, -0.021755699, -0.036802717, -0.042183336, -0.06653422, -0.017821506, -0.021175409, 0.06570367, -0.021042382, 0.020416286, -0.027546443, -0.05129815, 0.0047783004, -0.061134987, -0.038375817, 0.025498433, -0.05959461, -0.055726368, -0.07412408, -0.011781443, -0.051232435, 0.001515534, -0.029250419, -0.006945306, -0.06781979, -0.023296077, 0.030768491, -0.057457168, -0.019689618, -0.0018692438, 0.017500553, -0.0155632235, 0.0029639844, -0.04842599, -0.008082053, 0.028026523, -0.061092936, 0.022031896, 0.0024789209, -0.025234113, -0.04503713, -0.04408063, -0.03851395, -0.049457263, -0.06235486, -0.02164473, 0.021802884, -0.02005247, 0.0021486501, -0.037538666, 0.009339068, 0.03278661, 0.010413157, -0.009617592, 0.0076862974, -0.0149680395, -0.03160998, -0.022897366, -0.028757172, -0.01177865, 0.028697718, -0.007607682, -0.033522084, -0.048745476, 0.001663395, -0.0032837158, -0.0017005021, 0.003057498, -0.04825064, -0.04291872, -0.008522993, -0.00807804, 0.023163404, 0.023593184, -0.06317127, 0.013530845, 0.010779854, 0.016805192, 0.020681176, -0.04076078, -0.053225446, -0.0024206822, -0.029816592, 0.013158985, 0.0022084569, -0.063329615, -0.06459473, -0.04953604, 0.01904316, -0.067602955, -0.056086887, -0.06747753, -0.057331096, 0.0093973465, 0.00786435, -0.006990488, -0.06135566, -0.015287946, 0.019124065, -0.0072159176, 0.02419877, 0.016901527, -0.054564446, 0.0066552856, -0.036240827, -0.012801934, -0.036269087, -0.078232974, -0.045971856, -0.05877167, 0.014742955, -0.040638242, 0.008392455, 0.019422578, -0.0021365338, 0.003308848, -0.035849337, -0.030710502, -0.03629903, -0.061733928, 0.030991364, 0.016374346, -0.02469859, -0.037172277, 0.06536296, 0.057017222, 0.07980181, 0.0092651695, 0.123728275, 0.045312416, -0.082013115, 0.11667265, -0.0022198118, 0.1785355, -0.2059637, -0.1583854, 0.077043146, 0.01400848, -8.723887e-05, 0.15812361, 0.049749326, 0.042070303, 0.008285623, 0.0041451724, 0.10906526, -0.03691675, -0.1806495, -0.016038334, -0.039493628, -0.019111702, -0.061938073, 0.0065987213, -0.058731187, 0.053656954, 0.07967982, 0.015776575, 0.028765196, 0.08091213, 0.058640786, -0.08118781, -0.041344494, -0.03256419, 0.08247538, -0.22605062, -0.11290715, -0.05187495, 0.009554002, 0.03420315, 0.036379736, -0.16198596, -0.1620316, -0.18254893, 0.044100683, 0.007277627, -0.04887871, -0.042024292, -0.05514824, -0.12790588, -0.058108594, -0.072954305, -0.11936869, -0.12553763, -0.16571474, 0.16655351, 0.16559125, 0.107661195, 0.10389583, -0.056128107, 0.21390224, 0.16560294, -0.16136405, 0.08624494, 0.15722686, 0.08307638, 0.04371403, -0.03560188, 0.06198277, 0.021603243, -0.09760546, -0.23810464, -0.10879162, -0.028638482, -0.18839501, -0.11312268, -0.23238884, -0.17863896, -0.11254763, -0.010686388, -0.001597251, -0.10924649, -0.04027836, -0.11942724, 0.1159523, 0.11027204, 0.075129494, 0.006281322, 0.056045797, 0.0013809274, 0.029547565, -0.008275328, -0.10291848, -0.114379376, -0.06415256, -0.0057211835, 0.13026005, 0.23160899, 0.048181556, -0.016998457, 0.007128478, 0.11041862, -0.033275872, 0.021002661, 0.0024183888, -0.07527803, 0.03669777, 0.025183152, 0.1403623, 0.06220367, -0.18043005, 0.21237835, 0.051425178, 0.11392935, 0.05072045, -0.097418234, 0.122915715, 0.18018577, 0.03476611, -0.014558352, 0.089217775, 0.017165497, 0.014799712, 0.044108883, -0.0189256, 0.055273898, 0.13794735, 0.13480012, -0.013944148, -0.015360389, 0.18510541, -0.020653276, -0.0075563984, -0.0067657023, -0.030515466, -0.07953106, -0.06285551, -0.026758935, -0.049311284, 0.10182279, -0.009898188, -0.15319422, -0.19827832, -0.15161254, 0.1540634, 0.030531758, -0.17423816, -0.14331648, -0.1973214, -0.13256481, 0.019314108, -0.079373166, -0.120995305, -0.122169755, -0.006784889, 0.047830746, -0.11209894, 0.0954568, -0.041552562, -0.21408139, 0.15566055, 0.07756064, 0.029147616, 0.003377721, -0.048806753, 0.030819023, 0.049109988, 0.081544615, 0.075012125, 0.031395104, 0.0410465, 0.09098197, 0.053876653, -0.0046662586, -0.012627039, 0.04780556, -0.06962534, 0.045305166, -0.07122785, -0.07714134, -0.13311067, -0.058930125, -0.038671475, -0.12353801, 0.030907921, -0.05493759, 0.009192357, -0.05953101, 0.03528807, 0.044865176, -0.011035466, 0.005745206, -0.101759456, 0.027324498, 0.0018006694, 0.0893753, -0.08129741, 0.047742635, -0.060579307, -0.052550793, -0.036886316, -0.006047915, -0.09353544, -0.080671474, -0.12171895, 0.13723601, -0.11376746, 0.012100708, 0.11356875, 0.0017795216, 0.065142125, -0.058290686, 0.17475232, 0.005684223, 0.025655417, -0.044793274, -0.17189232, 0.08420094, 0.13344817, 0.1069482, -0.13023196, -0.2512216, -0.32518798, -0.2143484, -0.22970273, 0.033448573, 0.02795254, -0.09911143, -0.1494549, 0.04298072, -0.06535803, 0.026384557, -0.037687518, -0.06534171, 0.15830532, 0.050249428, 0.12142469, 0.04182172, -0.003334262, 0.080329046, 0.13741072, 0.1272967, -0.04749501, -0.1634029, -0.03418298, -0.032628596, -0.11972988, -0.015660334, 0.03328406, -0.027670624, -0.072869316, -0.07470395, -0.002241157, -0.0007431308, 0.030510534, -0.06876272, -0.08927458, -0.013494136, 0.018888434, -0.030359073, -0.05948012, -0.040738575, 0.014325471, -0.010973123, -0.024778984, -0.0991917, -0.023891805, 0.102058895, -0.0755816, 0.03474154, 0.110157624, 0.022104552, 0.045003112, 0.10141447, 0.1349125, -0.017801164, -0.02455346, -0.040567696, 0.06588871, 0.10439389, 0.102442786, -0.1107751, 0.007420167, 0.026747286, -0.017590536, 0.10560819, -0.12173844, 0.084610365, -0.036788207, -0.05015585, -0.16144328, -0.050555855, 0.030316101, -0.010392024, -0.0734608, 0.0034847585, -0.025972532, -0.14091732, -0.1203264, -0.062295042, -0.021662619, 0.018782798, 0.062856734, -0.083846204, -0.03990775, -0.13335882, 0.0057228142, -0.017858265, -0.20898946, 0.07701171, -0.05226091, 0.032800205, 0.04132437, 0.043931, -0.028221296, 0.102749445, 0.1674394, 0.08781471, -0.059588853, -0.1054694, 0.16448158, 0.049951624, -0.13634095, -0.14309987, -0.088532016, -0.15125038, -0.0019320273, -0.0059117237, -0.042599518, 0.04147076, -0.18542986, 0.021084119, -0.097363725, 0.07811192, 0.10007669, 0.110891104, 0.10973086, -0.09582062, 0.11768678, -0.0035605663, -0.052067786, -0.31694168, -0.32393518, -0.083384775, -0.0002976179, -0.07494378, -0.032334384, -0.04493368, 0.070823744, -0.06357243, -0.094960794, -0.035224278, -0.07172637, -0.036085986, -0.024815954, 0.23090348, -0.078065746, -0.05975128, -0.10691717, -0.12465186, 0.117104, -0.15919012, -0.12612768, -0.028386269, -0.08418881, 0.043377757, -0.028291566, -0.0191032, 0.023222372, 0.13623472, 0.07622217, 0.08874937, 0.08380142, 0.004593152, -0.11482468, 0.13997711, -0.04430164, -0.07950776, 0.04842381, 0.075382896, -0.07019416, -0.26294488, -0.008580759, 0.15705523, 0.003791459, -0.077151716, 0.034015354, -0.039608095, -0.03261306, -0.007260915, -0.045967713, 0.07683995, -0.043866485, 0.03830656, -0.034064554, 0.08796667, -0.20662817, -0.07917069, -0.008689923, 0.008481805, -0.22314149, -0.12618959, 0.051449165, 0.14610179, 0.0030712206, -0.10263145, -0.18330976, 0.03358077, -0.06209566, -0.115261264, -0.11878023, -0.17433468, -0.055390384, -0.057339977, -0.042070616, -0.03953492, 0.20177028, -0.07625437, 0.1175311, 0.090332545, 0.12706695, -0.03753407, 0.11482783, 0.12126364, 0.060992423, -0.0783775, -0.11120395, 0.04788818, 0.092434615, -0.04949941, -0.010643948, 0.011373776, 0.12876469, -0.024116611, -0.037943207, 0.033552196, -0.038402822, -0.013425999, -0.006628916, -0.14210641, 0.09828042, 0.09618618, -0.092145205, -0.052997988, -0.48875323, 0.16578874, 0.12389103, 0.069080666, 0.040873233, 0.07530126, 0.020164046, 0.01653224, 0.048475944, -0.0005990424, 0.13175654, -0.071894564, -0.07134962, 0.043647595, 0.14694399, -0.00668374, 0.0972894, 0.016472936, -0.047670998, 0.12617573, -0.058627088, -0.078910016, -0.02916064, -0.06258744, -0.18002318, -0.2708595, 0.07063613, 0.13340952, 0.15100873, 0.06656898, 0.041621737, 0.0208711, 0.05161168, 0.05624409, 0.008840858, 0.05019372, 0.030772762, 0.13706191, 0.05573612, 0.028868852, 0.041376144, 0.17502692, 0.12835328, 0.12493288, -0.0016646422, -0.026500741, 0.02353979, 0.0122459335, -0.09669912, -0.037847016, -0.065314345, -0.15400794, -0.22642012, -0.29879424, -0.06464183, -0.081598505, -0.13118102, -0.11473963, -0.31971738, -0.058374915, -0.00964789, -0.012616092, 0.09315835, -0.21788815, -0.07325339, -0.031731233, -0.12434318, -0.077926286, -0.21986404, -0.03803948, 0.010670229, -0.1339309, -0.12526435, -0.047362514, 0.14043546, 0.08916931, 0.09202947, 0.03449994, 0.025681177, 0.047498234, 0.029910311, -0.09620324, -0.06848315, -0.0102779865, -0.019633539, -0.0025080617, -0.17480093, -0.20313904, 0.0017590936, -0.092371725, 0.049972393, -0.09503933, -0.13912365, -0.062100727, -0.15519, 0.030310385, 0.06533354, 0.037071228, -0.03375081, 0.032554768, 0.0020679885, 0.025799127, -0.15578932, -0.039782006, 0.019293481, -0.10061527, 0.12120055, 0.0074667963, 0.029272756, -0.00510875, -0.012612261, 0.020934926, -0.0036723565, -0.11796754, 0.066628456, 0.042054683, 0.00555836, 0.17276476, 0.07607006, 0.061316997, -0.027945487, -0.07323891, -0.009873952, 0.04449363, 0.011331704, -0.17620805, -0.11615613, -0.07303829, -0.011939829, -0.049410596, 0.09633729, -0.10025674, 0.014964184, -0.006747891, -0.006494372, 0.05822909, -0.044053, 0.0014703511, -0.086598285, -0.058214102, -0.08257023, -0.09997063, -0.025509754, 0.020558715, -0.02608658, -0.11495666, 0.030619308, 0.06833296, 0.18867832, -0.016117942, 0.04947848, 0.07122997, 0.028369403, -0.035555873, -0.015424291, 0.08975249, 0.006807271, 0.029790362, -0.025536736, -0.012649239, 0.05639029, -0.1595804, -0.08013172, 0.048896026, -0.016568191, 0.061679073, -0.15670857, -0.14728993, 0.0688555, 0.03148829, -0.01768455, -0.041225083, -0.041440237, -0.044196296, 0.005925263, -0.09368005, -0.045502488, -0.015158141, -0.022702014, 0.020402418, 0.018026572, 0.051771708, -0.11791827, -0.05966217, -0.08837868, -0.087145, 0.04807027, -0.07227194, -0.06215737, 0.02609712, 0.1309942, 0.08886771, 0.14837258, 0.00023064681, -0.0014809832, -0.042939294, 0.031309113, 0.046274357, -0.071227856, -0.12012007, -0.090528496, 0.012409789, 0.0061781993, 0.025238795, 0.091920294, 0.08517312, -0.0568211, -0.05131681, 0.03539818, 0.21768361, -0.0771572, -0.13055265, -0.06336621, 0.013844538, -0.06621366, -0.023502074, -0.062386516, -0.06451509, 0.031470947, -0.07531692, 0.08041212, -0.015854405, 0.08019882, -0.008747866, 0.17309017, 0.032759693, 0.08810322, -0.06583981, -0.061222255, 0.024398044, -0.012445597, 0.022013163, -0.08328193, 0.15081945, 0.17357649, 0.10455046, -0.13617939, 0.03815473, 0.13318473, 0.054270044, -0.12396245, -0.2508504, -0.15483098, -0.009638044, -0.009296213, -0.00990929, -0.15140627, -0.065175146, 0.06606437, 0.13205184, 0.11697337, -0.06454618, -0.013187027, -0.15085857, -0.10575972, 0.09313468, -0.07522537, -0.08970069, -0.15096089, -0.27923894, 0.028061233, 0.034814257, -0.07894371, -0.060655277, -0.0067494507, 0.056980934, -0.061240222, -0.105963744, -0.0029537312, 0.0058985967, 0.052267477, -0.20064993, -0.1161747, 0.022154337, -0.014236605, 0.09418567, -0.0745726, 0.02338264, 0.002503312, 0.1467322, -0.00039100635, 0.05632678, 0.04238694, 0.0010327027, 0.098432116, 0.09508024, 0.03168314, -0.17606555, 0.03272928, 0.23717971, 0.14700623, -0.10913439, -0.089824125, 0.09049703, 0.020460913, -0.0061455304, -0.033763662, -0.20505139, -0.1872167, 0.0036405316, -0.05161022, 0.14373483, 0.010665521, 0.08709129, 0.0952485, 0.10449513, -0.04038999, -0.0060639055, 0.022722865, 0.16863617, 0.16628353, -0.18960248, -0.13030145, 0.026169794, -0.061699457, -0.104018785, -0.23419614, -0.18591022, -0.017679844, 0.0016484828, 0.05605846, -0.0042790445, 0.05826731, -0.0574296, -0.07027431, -0.121220574, -0.064310096, -0.13419013, -0.17043363, -0.07223982, -0.1010283, -0.09597735, -0.04593976, -0.04601699, -0.25686148, 0.07725072, 0.0750494, 0.10824032, 0.027899105, -0.16137265, -0.051197793, -0.035678674, -0.1442305, -0.08664127, -0.012178766, 0.04707482, 0.007189129, 0.069149114, -0.008787863, 0.09447438, 0.08949015, 0.18090077, 0.0864232, 0.026166474, -0.08260253, -0.06441086, 0.15297468, -0.13733906, -0.12631345, 0.082347386, 0.07378773, 0.09322963, -0.19168429, 0.038077135, 0.088553056, 0.11654341, -0.016498826, 0.06571367, 0.11934409, 0.06145609, 0.024510639, 0.095910996, -0.016105141, 0.04411521, -0.11539684, 0.05062818, 0.077282205, -0.0045680185, 0.029033044, 0.0054307533, -0.028983347, -0.08338381, -0.30379018, -0.04075163, -0.036811195, -0.005950505, -0.2297166, 0.06628552, 0.1160205, -0.2558686, -0.25980845, 0.0076998114, 0.07901384, 0.0540605, 0.027851215, 0.013721746, 0.14427441, 0.09091772, 0.13024579, 0.00038682917, 0.3806665, -0.09088662, 0.07808219, 0.04075351, -0.034370948, 0.02515204, -0.09330809, -0.0242616, 0.034017637, -0.0432724, 0.01926434, 0.020554595, 0.051157866, -0.053035002, -0.17833027, -0.10538947, 0.15188691, 0.05254847, -0.20056781, -0.4932487, -0.091293044, 0.06445544, 0.0544448, 0.033736374, 0.06455917, 0.093741514, -0.2274589, -0.28883308, -0.17577168, -0.04631194, 0.04970659, -0.011432434, -0.05959149, -0.20154352, -0.23334908, -0.20437714, 0.11389342, 0.26659968, 0.14005381, 0.15081552, 0.13965033, 0.032033175, 0.013295078, 0.07739423, 0.093367636, 0.12517485, 0.06091338, 0.04599812, 0.086328685, -0.09861464, -0.06281522, 0.08086359, -0.1749598, -0.085599974, -0.065187655, -0.14415917, 0.124874845, -0.03443587, 0.08661867, 0.27511916, 0.16359082, -0.05791827, -0.13438691, -0.080402225, 0.29821074, 0.108142115, 0.020855894, -0.16408074, 0.018667001, 0.124598786, -0.07021988, -0.060864784, 0.015427305, 0.06958432, -0.005128369, 0.006359271, 0.1972555, 0.056762062, -0.0788277, 0.048536696, 0.06731986, -0.033811186, -0.12773551, 0.039356846, 0.16279563, 0.14452483, 0.004970914, -0.2335122, -0.033533305, -0.1800304, -0.08748361, 0.0031215653, 0.13603254, -0.024258217, -0.13023756, -0.14565027, 0.1381548, 0.08611345, -0.008555884, -0.075718634, 0.042845577, -0.19946973, -0.06423327, 0.16857144, 0.03256195, 0.1372602, 0.054251935, -0.057442944, 0.10710449, 0.016609855, 0.124373846, 0.0026591758, -0.08876827, 0.12938814, 0.10143711, -0.18003985, -0.11478086, 0.016317826, -0.114984736, -0.118928455, -0.13671239, -0.07611736, -0.069993146, -0.15704727, 0.085866414, 0.1403683, 0.10212979, -0.084729575, -0.079707876, -0.040463377, -0.043583862, 0.010467068, -0.05978769, 0.10699615, -0.034613397, 0.044015143, -0.093479805, -0.22097665, -0.00812235, 0.09175299, 0.007141045, 0.02722086, 0.07590567, -0.012672503, 0.16998647, 0.062336735, 0.017679997, 0.10676913, 0.017230457, 0.16852379, -0.07267682, 0.026104735, 0.09267056, -0.08092308, -0.08692221, 0.042532075, 0.1801389, 0.11989111, 0.027891096, 0.041747745, 0.08744259, 0.031735253, -0.011884586, -0.027865574, 0.016330544, -0.022431402, 0.041495048, 0.007475525, -0.08638189, -0.12199128, 0.05662163, -0.040728185, 0.0088306395, 0.052320134, 0.002378294, 0.11619526, -0.04636824, -0.13557877, 0.049919233, 0.01290534, 0.28873497, 0.15352523, -0.00255888, -0.14753468, -0.08588063, 0.0057728468, 0.016570834, 0.22579128, 0.14907576, -0.048816204, 0.08271563, -0.04852916, -0.053193234, -0.017637419, -0.1068808, 0.13669927, -0.02244899, -0.045047987, 0.012859129, 0.079443425, -0.12773299, 0.073747665, -0.080835514, -0.12224178, 0.017869886, 0.007417053, -0.0015552883, -0.08645523, 0.00723177, 0.089849226, -0.00785718, 0.022773892, -0.1493665, 0.0043743616, 0.108016185, -0.0033872384, -0.06190087, -0.05742952, -0.06415449, 0.067119256, -0.14513184, -0.027567878, -0.13877684, 0.019212037, 0.06371179, -0.031299956, 0.30464104, 0.15261789, -0.03146214, -0.09318293, -0.030624231, 0.11337204, 0.019990131, -0.0478333, 0.11834346, 0.008309204, -0.13114859, -0.2618355, 0.058445673, 0.057299495, 0.30878422, -0.156094, -0.13446498, -0.0017706531, 0.03519448, 0.039050132, 0.04557427, -0.060993493, -0.0062812446, -0.0027823837, -0.07149346, 0.11501366, -0.09484693, -0.037805963, -0.106041215, 0.037941925, 0.18264471, 0.15714729, 0.027592195, -0.022993714, 0.021110559, 0.0064826524, -0.10524295, 0.02695455, -0.010266497, 0.2327613, -0.11868557, 0.031570084, 0.09040758, 0.09778562, 0.010131302, -0.12600969, -0.036443964, 0.063135855, -0.03610181, -0.21033694, 0.09922078, 0.078646, 0.029760893, -0.08416441, -0.27988666, -0.15049778, 0.06261949, -0.054815494, -0.27620444, -0.06219907, 0.061251223, -0.0407303, -0.08886868, 0.029013138, 0.07284242, 0.13017178, -0.0034312268, -0.14255261, 0.044158246, -0.00868055, 0.1523681, 0.27277678, -0.01890094, -0.25226673, -0.06277115, 0.075743586, 0.095702626, -0.002819696, -0.028734414, -0.07883447, -0.10056354, -0.14453618, 0.16542968, -0.02669038, 0.11935868, 0.022104386, -0.08025304, 0.0899887, 0.02326665, 0.13238393, 0.03692375, 0.050786357, -0.03788077, -0.049089663, -0.036702495, 0.06325702, 0.052157108, 0.017669624, -0.04415235, 0.055845093, 0.026538225, 0.03344019, -0.086016275, -0.13374647, -0.07751607, 0.037398115, -0.106962904, 0.03422656, -0.029756855, 0.1967881, -0.040575314, -0.28098327, -0.07636981, 0.2098036, 0.28743997, 0.0654874, 0.0680654, 0.16100997, 0.1693169, 0.15627344, -0.014999794, 0.037817813, -0.058266632, -0.03874719, -0.17645407, 0.08163412, 0.1653621, 0.10680262, 0.07478169, 0.014526715, 0.17357689, 0.13382505, -0.07730515, -0.033266753, -0.049001675, 0.13742131, 0.129772, -0.05984394, -0.03834952, -0.07729816, 0.18011966, 0.15070866, -0.018838137, -0.27734455, -0.091428675, 0.03197387, -0.016975015, -0.14832008, -0.048565365, -0.037622508, -0.042554732, 0.019164782, 0.00086732936, -0.067319065, -0.08951806, -0.08376163, -0.0057900916, -0.06257223, 0.062259205, 0.12724993, 0.07098452, 0.032093894, 0.088168405, 0.115470074, -0.04150351, 0.2546536, 0.08261867, -0.105429575, -0.06459666, 0.035755094, -0.0755067, -0.091988094, -0.013350435, 0.1552896, -0.049592126, -0.09506788, -0.021247609, -0.014528676, 0.012362171, -0.028940178, -0.07691219, -0.1457632, -0.116954535, -0.17573753, -0.061903905, -0.05513882, 0.06506692, -0.03841853, 0.052792035, 0.017042529, 0.0989344, 0.046739694, -0.0043956833, -0.06100443, -0.05782975, 0.19286752, 0.03010227, -0.049090076, -0.12340923, -0.12966369, 0.03544038, -0.26271966, -0.22191714, -0.18334973, 0.04894986, -0.12463323, -0.20248571, -0.2409749, -0.11154974, -0.010065611, -0.14445782, -0.1646835, -0.12257639, -0.10128552, 0.123284705, -0.02925721, 0.026320571, 0.046462823, 0.08735357, 0.132191, 0.13088444, 0.09656633, 0.029478507, 0.10557531, 0.13612877, -0.009476739, 0.09929346, 0.10066293, 0.139602, 0.031499725, 0.0114791365, 0.059424642, -0.09492238, -0.023416484, 0.00813467, -0.015733115, 0.15868068, 0.016422633, -0.056669462, -0.07704286, -0.019690761, 0.07609725, 0.027335707, 0.024781303, -0.046879683, -0.08376325, 0.041224036, -0.07368036, 0.05493097, -0.05887229, 0.08831307, -0.031432554, 0.03062516, -0.04799183, -0.04667378, 0.10616553, 0.08267003, -0.034324687, 0.06061215, 0.067455396, 0.12103926, 0.11380361, -0.006699807, -0.009192147, -0.072984576, 0.11352724, 0.072266534, 0.099496506, -0.26577857, 0.0014387694, -0.06039779, -0.111382164, -0.19707043, -0.07499119, 0.08085196, -0.14215676, -0.10069104, -0.013038639, 0.022392279, 0.1553923, -0.12653683, -0.07876343, 0.008079231, -0.10903579, -0.02189876, 0.07369266, -0.09316396, 0.0057485118, -0.041425135, 0.09431269, 0.13809183, 0.03196103, 0.0012872575, 0.08600338, 0.08315589, 0.08724841, 0.020146826, 0.028566487, -0.049826384, -0.08835579, 0.0149562955, 0.05294867, 0.064813316, 0.087644935, 0.04504037, 0.06787339, 0.10089424, 0.1504171, -0.122588664, 0.087717004, 0.08016583, -0.009953168, -0.016931904, -0.023767382, -0.021323137, -0.05655272, 0.025497433, -0.09864026, 0.029671865, -0.021150487, -0.038687374, -0.02330077, -0.040885825, 0.09098922, 0.110417955, -0.09789474, -0.052544918, 0.05265411, -0.06422844, 0.009979099, -0.080980055, -0.11510535, 0.015142737, -0.081567906, -0.15219054, 0.050616506, 0.0126510905, 0.06696758, 0.03276112, -0.039941132, 0.15761484, 0.024471633, 0.07443151, -0.04160361, -0.026587501, 0.16034628, -0.017947989, -0.00899759, -0.07138094, -0.06815407, 0.061817236, -0.16806959, -0.26427764, -0.2616472, -0.059418783, 0.036363866, 0.011975145, -0.14566445, -0.12350353, -0.13226502, -0.05966153, -0.01940466, -0.15568337, -0.22250591, -0.054647096, 0.019815909, -0.04048065, -0.12163727, -0.21359602, -0.051112965, 0.08480413, 0.05927769, -0.21022046, -0.16373803, -0.043902326, -0.06573864, -0.04348883, 0.006704875, -0.013983287, -0.09892507, -0.06651608, 0.03755551, -0.12634419, -0.030600466, 0.13608155, 0.06924376, 0.053870596, -0.06799136, -0.093939066, -0.0077651334, 0.04832154, -0.064359695, -0.037812352, -0.3292199, 0.029133052, -0.049356055, -0.07234283, -0.113256425, -0.011947646, 0.104686216, 0.047429733, 0.05759828, 0.16198073, 0.07643052, 0.013210427, -0.05939328, -0.008046594, -0.025554901, 0.05651983, -0.0022285383, 0.066923626, 0.012894304, -0.004183963, 0.099499956, 0.2898666, 0.18569237, 0.034523044, 0.02955625, -0.18317032, -0.09132355, 0.106472135, -0.102886386, -0.18294461, -0.088767834, 0.19783662, -0.027705615, 0.04874176, -0.26160103, -0.070951045, -0.07870862, 0.004125867, 0.11946003,