#ifndef LENET_WEIGHTS_H
#define LENET_WEIGHTS_H

// This file was generated by an automated Python script.
// It contains the weights and biases for the LeNet-5 model.

// Layer: C1 - Weights
const float C1_weights[] = {
    0.045017f, -0.120832f, 0.190925f, 0.198705f, 0.022203f, 0.326768f, 0.145118f, 0.390766f, 0.125282f, 0.397478f, 0.210499f, 0.329618f, 
    0.166706f, 0.410159f, 0.035350f, 0.347451f, 0.315709f, -0.221558f, 0.284682f, 0.128309f, -0.221166f, 0.326747f, 0.076540f, -0.517351f, 
    0.190568f, -0.179282f, 0.145291f, 0.242788f, 0.348500f, -0.563089f, 0.129102f, 0.307905f, 0.231270f, 0.363934f, 0.192596f, 0.273340f, 
    0.255811f, 0.495198f, 0.458880f, 0.149237f, 0.249619f, -0.028110f, 0.213696f, 0.555911f, 0.154586f, 0.138278f, 0.004952f, -0.497581f, 
    0.593635f, 0.248651f, 0.117808f, -0.161573f, 0.013640f, -0.640356f, 0.527443f, -0.245105f, 0.374826f, 0.043930f, 0.423283f, -0.515897f, 
    -0.224257f, 0.020315f, 0.104664f, 0.223775f, 0.153267f, -0.029512f, 0.315553f, 0.482629f, 0.135047f, -0.095132f, 0.040838f, -0.151098f, 
    0.649741f, 0.241092f, 0.350485f, -0.421258f, -0.183299f, -0.248529f, 0.661018f, -0.074062f, 0.291240f, -0.549790f, -0.018746f, -0.137409f, 
    0.153771f, -0.025771f, 0.376045f, -0.300639f, 0.294160f, -0.181310f, -0.029299f, 0.122322f, 0.140796f, 0.106765f, -0.279844f, 0.127267f, 
    0.361376f, 0.116237f, 0.001426f, -0.420778f, -0.454076f, -0.055249f, 0.586380f, -0.185584f, 0.065643f, -0.650716f, -0.366284f, 0.091952f, 
    0.241006f, -0.127267f, 0.125955f, -0.496360f, -0.295792f, 0.200516f, 0.081778f, -0.304324f, 0.192878f, -0.386747f, 0.258446f, 0.482622f, 
    0.068516f, -0.109060f, -0.128191f, 0.052535f, -0.469383f, 0.043620f, -0.015377f, -0.225547f, -0.054800f, -0.057954f, -0.456191f, 0.318093f, 
    0.194305f, -0.360253f, -0.269957f, -0.030795f, -0.448722f, 0.279104f, 0.172931f, -0.235811f, -0.162100f, 0.041760f, -0.159396f, 0.266373f, 
    -0.042618f, -0.137117f, -0.175351f, 0.127842f, 0.101575f, 0.284677f, 
};

// Layer: C1 - Biases
const float C1_biases[] = {
    -0.151957f, -0.020258f, -0.159065f, 0.078053f, -0.029592f, 0.218077f, 
};

// Layer: C3 - Weights
const float C3_weights[] = {
    0.087171f, 0.023135f, 0.122007f, 0.044574f, 0.045666f, -0.082395f, 0.000134f, 0.089928f, -0.139880f, -0.177998f, -0.049603f, -0.038001f, 
    -0.116259f, 0.161892f, 0.088998f, -0.146953f, 0.237497f, -0.122001f, 0.081134f, 0.124130f, -0.138306f, -0.150016f, -0.022607f, 0.249491f, 
    -0.185779f, -0.065343f, 0.161592f, -0.044940f, -0.113804f, 0.031560f, -0.000047f, -0.198058f, 0.125768f, 0.022071f, 0.049669f, 0.115076f, 
    -0.140897f, 0.063905f, -0.149217f, 0.153036f, -0.055919f, -0.171951f, -0.053835f, -0.029338f, -0.146385f, 0.004641f, 0.014788f, -0.196117f, 
    -0.025242f, -0.210117f, -0.329361f, 0.114395f, 0.073392f, -0.037889f, 0.055291f, -0.132598f, 0.060078f, -0.001155f, 0.024250f, 0.032102f, 
    0.050111f, -0.141346f, 0.042872f, -0.062625f, 0.035608f, 0.049933f, -0.271326f, -0.007122f, 0.133481f, 0.172589f, 0.204469f, -0.143210f, 
    0.047657f, -0.184683f, -0.132644f, -0.088444f, 0.067749f, 0.040790f, -0.190668f, -0.275053f, 0.000642f, -0.085126f, -0.003700f, -0.056514f, 
    0.053382f, -0.079386f, -0.045028f, -0.122306f, 0.059592f, 0.171417f, -0.080578f, 0.117052f, 0.044627f, -0.019329f, 0.101872f, 0.100993f, 
    -0.048152f, -0.039594f, 0.059717f, 0.094036f, -0.087600f, 0.118339f, 0.171021f, 0.000455f, -0.061062f, -0.062852f, 0.095444f, -0.074968f, 
    -0.046954f, 0.145486f, 0.094511f, -0.102810f, 0.043749f, -0.089624f, 0.103288f, 0.020026f, -0.031388f, -0.062995f, 0.038538f, -0.000411f, 
    -0.209262f, -0.178544f, 0.094897f, 0.012503f, -0.005270f, -0.004154f, -0.052889f, -0.024084f, 0.071812f, 0.015288f, -0.021328f, 0.041653f, 
    -0.032067f, 0.153561f, 0.078135f, 0.080174f, -0.028290f, -0.169884f, 0.099645f, -0.017429f, -0.112197f, -0.029274f, 0.041590f, -0.032503f, 
    -0.162848f, -0.113322f, -0.114005f, -0.025408f, -0.114909f, 0.079043f, -0.252494f, -0.067662f, 0.131868f, 0.107824f, 0.066588f, -0.110608f, 
    -0.014594f, -0.131393f, -0.066187f, 0.035909f, -0.209444f, 0.018935f, -0.391566f, 0.044724f, -0.094157f, 0.085254f, 0.000410f, 0.095906f, 
    0.247488f, 0.061552f, -0.208235f, -0.012771f, 0.036086f, 0.010844f, -0.219971f, -0.211743f, 0.007839f, 0.080317f, 0.214940f, -0.048639f, 
    0.098633f, 0.005175f, -0.052044f, 0.132309f, -0.077540f, 0.053186f, 0.025023f, -0.082515f, -0.072411f, 0.061950f, -0.151091f, 0.037599f, 
    -0.025409f, -0.113811f, -0.121650f, -0.030641f, -0.046365f, 0.102687f, 0.061842f, 0.072660f, 0.003387f, -0.216358f, 0.138399f, 0.068744f, 
    -0.009513f, -0.014288f, 0.206073f, -0.080880f, 0.006934f, -0.080665f, -0.060824f, -0.049913f, -0.007897f, -0.027221f, 0.142115f, 0.018730f, 
    -0.133855f, 0.054149f, -0.029411f, -0.030454f, 0.048695f, 0.126806f, -0.034413f, -0.108307f, 0.055000f, -0.208330f, -0.165354f, -0.081218f, 
    -0.102632f, 0.136009f, 0.026796f, -0.007272f, 0.056603f, -0.126094f, 0.159673f, 0.054740f, -0.135100f, 0.067564f, 0.073662f, -0.115074f, 
    -0.025685f, 0.153541f, 0.108730f, 0.013687f, 0.002853f, -0.008707f, -0.057081f, -0.058671f, -0.060339f, -0.035752f, -0.052039f, -0.181824f, 
    -0.066418f, -0.029583f, -0.153188f, 0.048099f, -0.374952f, -0.077602f, -0.391879f, 0.057229f, -0.109335f, 0.029764f, -0.227868f, -0.004134f, 
    0.335605f, 0.213480f, -0.094363f, 0.060144f, 0.127270f, -0.178172f, -0.037399f, -0.015488f, 0.046998f, 0.286985f, 0.251661f, -0.179569f, 
    0.048438f, -0.097652f, 0.198647f, 0.234510f, -0.185476f, -0.180169f, 0.207016f, 0.031135f, -0.024722f, 0.128927f, -0.238911f, -0.076558f, 
    -0.274106f, -0.068318f, -0.227268f, -0.089288f, -0.091224f, 0.006182f, 0.117541f, 0.115469f, 0.104464f, -0.107297f, 0.187244f, 0.061258f, 
    -0.124301f, -0.090039f, 0.063642f, -0.082791f, -0.090776f, -0.269218f, -0.209413f, -0.062045f, -0.023654f, 0.036372f, -0.070773f, 0.052052f, 
    0.052786f, -0.038331f, 0.068179f, 0.030150f, 0.048252f, 0.069273f, 0.116357f, 0.052817f, -0.202660f, -0.135759f, -0.173201f, -0.201903f, 
    -0.098923f, 0.162283f, 0.025721f, -0.041025f, -0.012715f, -0.000484f, 0.112368f, -0.020350f, -0.116336f, 0.002967f, 0.015462f, -0.023530f, 
    0.446045f, 0.105939f, 0.100032f, 0.051474f, -0.086505f, 0.090387f, -0.013610f, -0.206542f, -0.221432f, -0.098815f, -0.137342f, -0.088190f, 
    0.060105f, -0.040554f, -0.054184f, 0.137857f, 0.185382f, 0.031996f, -0.268800f, 0.111191f, -0.064318f, -0.006920f, 0.064226f, -0.196365f, 
    0.023591f, 0.075603f, -0.289620f, 0.133526f, -0.099700f, -0.094377f, -0.041763f, -0.046940f, -0.032916f, 0.054581f, -0.142339f, -0.134367f, 
    -0.037900f, -0.286981f, 0.050273f, 0.096244f, -0.093117f, 0.020916f, -0.252377f, 0.014607f, 0.065245f, 0.032757f, -0.112402f, 0.086408f, 
    -0.178917f, -0.008872f, -0.135207f, 0.032187f, -0.013723f, -0.081848f, -0.033631f, -0.147173f, 0.066418f, -0.173340f, 0.062138f, -0.145204f, 
    0.011664f, 0.108875f, 0.045296f, -0.048534f, -0.341457f, -0.289809f, 0.045782f, -0.120153f, 0.138848f, 0.139376f, -0.113499f, -0.091486f, 
    0.141357f, -0.054310f, 0.368490f, 0.224946f, 0.015175f, 0.007863f, 0.086677f, -0.117978f, -0.099909f, -0.166224f, -0.008000f, -0.123567f, 
    0.106327f, 0.120208f, 0.051504f, 0.069975f, 0.066311f, -0.104023f, 0.115308f, -0.023527f, -0.138374f, 0.088661f, 0.134899f, 0.024162f, 
    0.005701f, 0.099647f, 0.223251f, 0.051381f, -0.075432f, 0.262406f, 0.001811f, 0.141303f, 0.021922f, -0.182615f, -0.039090f, 0.129911f, 
    0.179359f, -0.190358f, -0.144241f, 0.027749f, 0.274644f, 0.084288f, 0.064948f, 0.209065f, 0.142327f, 0.071240f, 0.036709f, -0.206009f, 
    -0.156402f, -0.014264f, 0.100556f, 0.210698f, 0.139978f, -0.085121f, 0.050837f, -0.276867f, -0.331916f, -0.286992f, -0.307998f, 0.029191f, 
    -0.296569f, 0.016163f, 0.154486f, 0.009401f, -0.014232f, -0.043115f, -0.566334f, -0.420587f, -0.016863f, -0.033284f, -0.012758f, 0.360943f, 
    -0.064940f, -0.122247f, -0.012078f, 0.100064f, -0.008233f, -0.078722f, -0.046430f, -0.072386f, -0.095615f, -0.088490f, 0.028014f, 0.083674f, 
    -0.024400f, -0.001238f, -0.017784f, 0.016510f, 0.119781f, 0.040013f, 0.202498f, -0.096520f, -0.164727f, -0.216517f, -0.197343f, 0.218864f, 
    -0.134766f, -0.030053f, 0.050257f, 0.209841f, -0.131665f, -0.049487f, 0.066706f, -0.098344f, 0.071500f, 0.060806f, 0.096667f, -0.110870f, 
    -0.024420f, -0.093441f, -0.076282f, 0.104291f, -0.083771f, -0.137761f, 0.172224f, 0.110978f, -0.033810f, 0.076921f, 0.096734f, 0.032494f, 
    -0.191768f, -0.107145f, -0.092899f, 0.195328f, 0.118450f, 0.025727f, -0.023364f, 0.298427f, 0.189168f, 0.168009f, -0.118333f, -0.007727f, 
    0.134229f, 0.009394f, -0.110985f, -0.329253f, -0.050228f, -0.066565f, 0.176682f, 0.022777f, -0.006288f, 0.176511f, 0.329567f, 0.122036f, 
    -0.269229f, 0.152216f, -0.113235f, -0.197933f, 0.045954f, -0.041871f, -0.029458f, -0.340749f, 0.026985f, -0.138822f, -0.252772f, 0.202271f, 
    0.187176f, -0.118073f, 0.000956f, 0.102572f, 0.105571f, 0.015931f, 0.041678f, -0.061698f, 0.057871f, -0.029535f, -0.373791f, 0.353164f, 
    -0.005119f, -0.202406f, 0.177972f, -0.022491f, 0.073978f, 0.050364f, 0.215283f, -0.035092f, -0.144976f, -0.151247f, 0.093102f, 0.012242f, 
    -0.051609f, 0.038808f, 0.098298f, 0.114220f, 0.036716f, 0.074980f, 0.205940f, -0.062542f, -0.054546f, -0.128499f, -0.115812f, 0.119145f, 
    -0.219571f, -0.178950f, 0.142019f, 0.184885f, -0.057874f, 0.100227f, 0.271672f, -0.171581f, 0.116095f, -0.135688f, 0.129150f, -0.154328f, 
    -0.073856f, 0.149107f, -0.041991f, 0.063054f, -0.024214f, -0.027275f, 0.246773f, 0.044674f, -0.137620f, -0.028298f, 0.129233f, 0.232870f, 
    -0.037832f, 0.002784f, -0.152548f, 0.071993f, -0.034274f, -0.047308f, -0.332707f, -0.016028f, 0.186209f, 0.137890f, -0.144998f, -0.117909f, 
    -0.011715f, -0.086623f, 0.143250f, -0.465649f, -0.218283f, 0.000532f, 0.033926f, -0.144516f, -0.164115f, 0.101522f, -0.063236f, 0.229901f, 
    0.323481f, 0.163081f, -0.191831f, -0.131361f, -0.209605f, -0.125770f, 0.218590f, -0.636946f, -0.175477f, 0.094350f, -0.014135f, -0.019213f, 
    0.188202f, -0.254150f, -0.169472f, 0.081975f, 0.275006f, 0.398853f, -0.205789f, -0.091902f, -0.080937f, 0.032128f, -0.435957f, 0.370391f, 
    -0.221696f, -0.162366f, 0.057564f, -0.168051f, -0.043542f, -0.003566f, 0.032027f, 0.016934f, -0.000808f, -0.088922f, 0.114675f, -0.006650f, 
    -0.067025f, -0.046227f, 0.025119f, 0.065986f, 0.189483f, -0.098254f, 0.091710f, -0.032555f, 0.102918f, 0.060846f, 0.216866f, 0.156370f, 
    -0.186409f, -0.266938f, 0.149666f, 0.065903f, -0.001770f, 0.110155f, 0.279107f, -0.079393f, 0.000198f, -0.192633f, 0.036230f, -0.027287f, 
    -0.042170f, 0.084499f, 0.189779f, -0.013849f, -0.087422f, -0.160040f, 0.043791f, 0.033828f, 0.012460f, 0.133262f, 0.062936f, 0.142917f, 
    0.340863f, -0.006558f, -0.311146f, 0.043057f, -0.234522f, -0.025448f, 0.005796f, -0.153054f, -0.185646f, -0.134111f, -0.160139f, 0.086986f, 
    0.002352f, -0.228702f, 0.099681f, -0.442816f, -0.226547f, -0.193789f, -0.235418f, -0.090978f, -0.541218f, 0.099142f, -0.093594f, 0.073073f, 
    0.275970f, -0.228519f, 0.057501f, -0.114879f, 0.092252f, -0.172527f, 0.241190f, -0.783460f, -0.129009f, 0.329329f, 0.084227f, -0.059121f, 
    0.366092f, -0.292104f, -0.115758f, -0.054160f, -0.256786f, 0.292199f, -0.575470f, -0.025210f, -0.011016f, 0.097420f, -0.176312f, 0.307122f, 
    -0.219553f, -0.141195f, -0.058911f, -0.143530f, 0.076087f, -0.000753f, 0.018591f, -0.000309f, 0.146320f, -0.099090f, 0.137767f, -0.218098f, 
    -0.092794f, 0.165261f, 0.023250f, 0.193765f, -0.164401f, -0.207896f, 0.014943f, 0.064637f, -0.045900f, 0.083107f, -0.004248f, 0.117019f, 
    0.092505f, -0.136276f, 0.276279f, -0.051260f, -0.064686f, 0.075340f, 0.214609f, -0.002187f, -0.045019f, -0.144938f, 0.016158f, -0.034889f, 
    0.077421f, -0.046096f, 0.079223f, 0.149124f, 0.113097f, 0.047098f, 0.129442f, -0.147879f, -0.044901f, -0.001133f, -0.017714f, 0.152000f, 
    0.342272f, 0.138030f, -0.405182f, -0.203797f, -0.297157f, 0.459125f, -0.033285f, -0.093971f, -0.253995f, -0.345650f, 0.202966f, 0.107026f, 
    0.002070f, -0.076098f, 0.021199f, -0.372792f, 0.322311f, -0.327656f, -0.357407f, 0.002687f, -0.518035f, 0.285308f, 0.306724f, 0.047259f, 
    -0.171555f, -0.345861f, 0.153157f, -0.212321f, -0.146470f, -0.195409f, 0.205994f, -0.523391f, 0.353191f, 0.196811f, 0.211483f, 0.069434f, 
    0.234968f, -0.042012f, -0.154204f, 0.065945f, -0.120013f, 0.153830f, -0.447720f, 0.108862f, -0.086033f, -0.069672f, 0.034327f, 0.051998f, 
    -0.263430f, -0.173629f, -0.072369f, 0.027721f, 0.192751f, -0.214951f, 0.100499f, 0.152384f, 0.005589f, -0.016077f, 0.062110f, -0.221800f, 
    -0.105442f, 0.040785f, 0.019987f, 0.211082f, -0.346128f, -0.148735f, -0.008567f, -0.174165f, 0.011348f, -0.039935f, 0.101251f, 0.016387f, 
    0.008827f, -0.115048f, 0.171996f, -0.201645f, -0.027156f, 0.269019f, -0.009939f, 0.164447f, -0.182994f, -0.089171f, -0.045974f, -0.099458f, 
    -0.021711f, -0.143260f, 0.083217f, 0.019157f, -0.008918f, -0.030338f, -0.053132f, -0.288612f, -0.049850f, 0.145421f, 0.023685f, 0.058766f, 
    -0.133897f, 0.211342f, -0.087424f, -0.102034f, -0.128081f, 0.345702f, 0.141140f, -0.049258f, -0.134417f, -0.194153f, 0.198575f, 0.161631f, 
    0.163908f, 0.038979f, -0.142189f, -0.247920f, -0.010381f, 0.024525f, -0.473466f, -0.315860f, -0.141584f, 0.271072f, 0.091044f, -0.126571f, 
    -0.018943f, -0.289285f, 0.139605f, -0.149142f, -0.007118f, -0.081892f, -0.032695f, -0.064616f, -0.435178f, 0.039229f, 0.105858f, -0.038508f, 
    0.105387f, 0.051114f, -0.099115f, 0.262429f, 0.049685f, -0.009709f, 0.183369f, 0.166085f, -0.144350f, -0.179673f, 0.135954f, -0.088212f, 
    0.067633f, -0.091191f, 0.044827f, 0.200887f, 0.100069f, 0.111236f, -0.066239f, -0.073665f, 0.008925f, -0.134507f, 0.009624f, -0.020924f, 
    0.009638f, -0.022854f, 0.041846f, 0.194076f, 0.008050f, 0.083916f, 0.039653f, 0.039305f, -0.109022f, -0.197841f, -0.242681f, -0.151398f, 
    0.053278f, -0.055791f, 0.316181f, 0.114098f, -0.142917f, -0.078346f, 0.235018f, 0.250412f, 0.167264f, 0.072373f, 0.012103f, 0.004025f, 
    0.159592f, 0.018728f, 0.096530f, -0.140071f, -0.196518f, -0.115801f, 0.115667f, 0.027640f, 0.012695f, -0.023740f, -0.084117f, 0.192699f, 
    -0.013195f, -0.059965f, 0.196888f, -0.098459f, -0.118949f, 0.042899f, -0.193660f, 0.128266f, 0.188265f, -0.018117f, 0.118668f, -0.093701f, 
    -0.281378f, 0.016291f, 0.227167f, -0.003264f, 0.066641f, -0.166618f, 0.016654f, 0.154099f, 0.200407f, 0.103928f, 0.292487f, 0.016721f, 
    -0.115042f, 0.150747f, 0.272240f, 0.001591f, -0.024931f, 0.254804f, 0.365645f, 0.205529f, -0.075551f, 0.146385f, -0.228428f, 0.130200f, 
    0.131093f, -0.093065f, -0.052184f, 0.304653f, 0.184400f, 0.312262f, -0.488031f, -0.033616f, 0.196127f, -0.265092f, -0.160590f, -0.337848f, 
    -0.126887f, -0.117406f, -0.014403f, 0.014534f, 0.009110f, -0.017449f, 0.103863f, -0.175534f, -0.056132f, 0.045863f, -0.024825f, 0.014308f, 
    0.027688f, 0.130302f, -0.104487f, 0.165614f, 0.146378f, -0.067135f, 0.141978f, -0.024136f, 0.080239f, -0.140368f, 0.131839f, -0.119295f, 
    -0.243351f, -0.275164f, 0.276406f, 0.051160f, -0.072802f, 0.229264f, 0.182822f, 0.375056f, -0.061633f, 0.033228f, 0.048745f, -0.096154f, 
    0.044701f, -0.059230f, 0.147630f, -0.020837f, -0.112367f, 0.004519f, 0.048917f, -0.102910f, 0.104919f, 0.072588f, -0.086180f, 0.337463f, 
    0.019700f, -0.217837f, 0.142720f, -0.118512f, -0.441226f, 0.066980f, -0.299183f, 0.032752f, 0.106431f, -0.384593f, 0.312564f, -0.083655f, 
    -0.239471f, -0.182753f, 0.199475f, -0.191698f, -0.294372f, -0.099367f, 0.152347f, -0.091604f, -0.045165f, 0.088518f, -0.282891f, -0.201474f, 
    0.327363f, -0.339511f, 0.437323f, -0.087584f, -0.367064f, 0.173846f, 0.116866f, 0.195412f, -0.350464f, 0.254327f, -0.309828f, -0.071127f, 
    -0.151653f, -0.234609f, -0.555220f, -0.095964f, 0.234052f, 0.208118f, -0.414432f, 0.042782f, 0.119320f, -0.229462f, 0.242318f, -0.444883f, 
    -0.072961f, 0.009612f, 0.113124f, -0.083866f, 0.184681f, -0.124539f, 0.101441f, -0.110921f, -0.042645f, 0.067188f, -0.002619f, 0.023896f, 
    0.044260f, 0.009469f, -0.169678f, 0.296288f, 0.128754f, -0.010664f, 0.335125f, 0.013055f, 0.282599f, -0.143253f, 0.205809f, -0.125036f, 
    -0.252402f, -0.010110f, 0.285933f, 0.019350f, -0.169339f, 0.308235f, 0.053594f, 0.507206f, -0.158134f, 0.074537f, 0.076158f, -0.088410f, 
    0.195122f, -0.167538f, 0.008957f, -0.004186f, 0.040091f, 0.122463f, -0.048181f, -0.056009f, 0.120366f, 0.118918f, -0.024907f, 0.283717f, 
    0.498289f, -0.306995f, 0.222655f, 0.021464f, -0.377218f, 0.268105f, 0.254634f, 0.065511f, -0.367206f, -0.466993f, 0.360231f, -0.255536f, 
    -0.251754f, -0.084145f, 0.119731f, 0.111487f, -0.059986f, -0.327574f, 0.287480f, 0.007074f, -0.259825f, -0.020432f, -0.058054f, 0.033986f, 
    0.030668f, -0.249840f, 0.333734f, -0.179455f, -0.409229f, 0.019867f, 0.066306f, 0.092427f, 0.342725f, 0.066135f, -0.424977f, -0.011186f, 
    -0.181012f, 0.111755f, 0.374653f, -0.188178f, -0.549694f, -0.264405f, -0.064183f, 0.189546f, 0.185352f, -0.183367f, 0.165988f, -0.396771f, 
    -0.083525f, 0.099973f, 0.072127f, 0.102417f, 0.146896f, -0.053704f, -0.103043f, 0.014712f, -0.019790f, 0.112036f, 0.034060f, -0.076912f, 
    0.115109f, 0.143839f, 0.003542f, 0.158196f, -0.587623f, -0.040197f, 0.262169f, -0.070340f, 0.401551f, -0.301226f, -0.137017f, 0.078578f, 
    0.151665f, 0.046899f, 0.037379f, -0.108035f, 0.088315f, 0.093470f, -0.075514f, 0.398803f, -0.177845f, 0.109047f, 0.165804f, 0.038198f, 
    -0.009996f, -0.097949f, 0.040782f, 0.148881f, 0.086259f, 0.222424f, 0.068081f, 0.011493f, -0.083121f, 0.135661f, 0.040483f, 0.164496f, 
    -0.046479f, -0.342932f, -0.149899f, -0.376076f, -0.077819f, 0.037596f, 0.145874f, 0.193767f, 0.033929f, -0.254524f, 0.024978f, -0.440261f, 
    -0.029085f, 0.009848f, -0.120738f, 0.117950f, 0.388345f, -0.609737f, 0.238635f, -0.086633f, -0.104726f, -0.017844f, 0.237797f, 0.296544f, 
    -0.226892f, -0.002422f, 0.069374f, -0.421064f, -0.778817f, 0.083350f, -0.067703f, 0.184611f, 0.172455f, 0.374298f, -0.178854f, -0.175881f, 
    -0.276723f, 0.584786f, 0.040671f, -0.250830f, -0.193461f, -0.379549f, 0.266109f, 0.382355f, 0.205572f, -0.026505f, -0.022619f, -0.260621f, 
    -0.144754f, -0.038418f, 0.209023f, 0.037424f, 0.227913f, -0.158667f, -0.156345f, 0.110007f, 0.049669f, 0.191351f, 0.095651f, 0.076071f, 
    0.029592f, 0.166265f, 0.114360f, 0.288158f, 0.044586f, -0.236348f, 0.188405f, 0.305431f, 0.245929f, -0.461876f, -0.062692f, 0.196244f, 
    0.107515f, 0.183051f, -0.106868f, 0.059948f, -0.153605f, 0.259895f, 0.115033f, 0.260528f, -0.103871f, -0.058611f, 0.043436f, 0.079551f, 
    0.152419f, -0.045630f, -0.112892f, 0.106325f, 0.106806f, 0.092879f, -0.082415f, 0.002880f, -0.067550f, 0.009640f, 0.168878f, 0.116980f, 
    -0.287256f, -0.032625f, -0.299673f, -0.261212f, -0.146324f, -0.147104f, 0.127545f, -0.031984f, -0.019035f, -0.050549f, -0.111788f, -0.317467f, 
    0.281749f, 0.161232f, -0.158191f, 0.047273f, -0.043047f, -0.491745f, -0.198429f, -0.390499f, 0.231342f, -0.243733f, 0.039461f, 0.112660f, 
    0.007722f, 0.111616f, -0.079735f, -0.431000f, -0.195105f, 0.028296f, -0.062291f, 0.394981f, -0.599953f, 0.261614f, 0.082921f, -0.249008f, 
    -0.119576f, 0.340105f, 0.110549f, -0.095535f, 0.009651f, -0.123515f, 0.270786f, -0.054395f, 0.059271f, 0.125170f, -0.339377f, 0.140847f, 
    -0.092178f, 0.016550f, 0.029943f, 0.076145f, 0.018221f, -0.039214f, 0.070932f, -0.065550f, -0.163269f, 0.104085f, -0.144928f, -0.139666f, 
    0.130508f, -0.013765f, -0.160869f, -0.026229f, -0.072606f, 0.036030f, 0.115912f, 0.117891f, 0.089251f, -0.069979f, -0.247394f, -0.118314f, 
    -0.089202f, -0.350976f, 0.073737f, 0.028519f, 0.109036f, 0.055673f, 0.007403f, 0.091247f, 0.143567f, 0.114433f, -0.042286f, -0.056070f, 
    0.136048f, 0.000025f, 0.010941f, 0.001200f, -0.236477f, 0.087244f, -0.191446f, 0.019361f, 0.097944f, -0.088322f, -0.147885f, 0.084446f, 
    -0.034813f, -0.117541f, 0.047731f, 0.068883f, 0.068270f, -0.148142f, -0.231449f, -0.152107f, 0.255182f, -0.440427f, 0.140278f, 0.063485f, 
    -0.362109f, 0.264983f, -0.041025f, 0.101340f, -0.048599f, 0.005552f, 0.090236f, 0.390802f, 0.570396f, -0.016361f, 0.027865f, -0.087057f, 
    0.198580f, -0.409292f, 0.290270f, -0.083783f, 0.091384f, 0.165139f, 0.105406f, 0.082280f, -0.310888f, -0.070667f, -0.005884f, -0.248992f, 
    -0.244490f, -0.180309f, -0.072015f, 0.085680f, 0.229759f, 0.085058f, 0.180121f, -0.127962f, -0.226041f, -0.152794f, 0.050149f, 0.082279f, 
    -0.058231f, 0.104145f, -0.061889f, -0.022024f, 0.154780f, 0.014422f, 0.217538f, -0.138492f, -0.009606f, 0.054298f, -0.102983f, 0.029046f, 
    0.088389f, -0.056768f, -0.104940f, 0.042198f, 0.087055f, 0.187876f, -0.129630f, 0.231595f, 0.203154f, -0.030158f, 0.120064f, -0.076145f, 
    -0.287696f, -0.035509f, -0.027337f, 0.104789f, 0.316880f, 0.110085f, -0.137060f, 0.144071f, 0.049313f, -0.019845f, -0.060427f, 0.009037f, 
    0.215664f, 0.093910f, 0.007167f, -0.079388f, -0.140994f, 0.051842f, 0.003714f, 0.089261f, 0.261365f, -0.074064f, -0.115013f, 0.041997f, 
    0.160157f, -0.028136f, -0.031441f, 0.130119f, -0.295066f, -0.019756f, -0.202443f, -0.104222f, -0.123364f, -0.219685f, 0.057727f, 0.057153f, 
    -0.190312f, 0.217507f, -0.142160f, 0.016035f, -0.264659f, 0.104651f, -0.033995f, 0.205272f, 0.335619f, -0.117446f, -0.167472f, -0.281322f, 
    0.119569f, -0.212348f, -0.039260f, 0.141629f, 0.077566f, 0.376808f, -0.165308f, 0.117597f, -0.209526f, -0.336812f, 0.089416f, -0.138063f, 
    -0.158288f, -0.067788f, -0.091253f, 0.076080f, 0.168924f, -0.582976f, 0.320342f, -0.340687f, -0.042607f, -0.320638f, 0.127094f, -0.050921f, 
    -0.168351f, 0.052089f, -0.098099f, 0.145596f, 0.143887f, -0.047095f, 0.085853f, -0.025435f, 0.121767f, 0.133960f, -0.046688f, -0.032770f, 
    0.217621f, -0.079702f, -0.026097f, 0.067047f, -0.011016f, 0.318766f, 0.024255f, 0.006819f, 0.347819f, -0.174225f, 0.091456f, -0.185269f, 
    -0.055380f, 0.220075f, -0.164507f, 0.157324f, 0.223442f, 0.192516f, -0.012533f, -0.064043f, -0.016301f, 0.231420f, 0.101621f, 0.063252f, 
    0.029017f, -0.116815f, -0.051181f, 0.008710f, 0.067801f, 0.001573f, -0.054258f, 0.027475f, 0.211768f, -0.084147f, 0.058627f, -0.074889f, 
    0.227577f, -0.111310f, -0.181840f, -0.109886f, 0.105833f, -0.120908f, 0.206943f, 0.213599f, -0.378842f, 0.075533f, -0.112793f, 0.048955f, 
    -0.326337f, 0.320199f, -0.191671f, 0.087634f, 0.111332f, 0.349847f, -0.078185f, 0.154133f, -0.144936f, -0.139220f, -0.195852f, -0.214471f, 
    -0.191833f, 0.220476f, -0.118157f, 0.358275f, -0.074236f, 0.434988f, -0.049028f, -0.139900f, 0.413514f, -0.483658f, -0.047794f, 0.224067f, 
    -0.315344f, 0.361407f, 0.758194f, 0.291271f, -0.604138f, -0.443920f, 0.308967f, -0.574823f, -0.215539f, -0.185303f, 0.006677f, 0.187542f, 
    -0.133428f, 0.062485f, 0.051808f, 0.171460f, 0.141402f, 0.067554f, 0.051425f, 0.018149f, 0.083807f, 0.049019f, -0.060724f, 0.163195f, 
    0.035598f, 0.037977f, -0.073663f, -0.032558f, -0.383962f, 0.308042f, 0.016114f, 0.024961f, 0.355205f, -0.150161f, -0.238718f, -0.147242f, 
    0.225239f, 0.244881f, -0.038123f, 0.346393f, 0.333669f, 0.042036f, 0.034211f, -0.052073f, -0.099356f, 0.230386f, 0.002068f, 0.027784f, 
    0.011811f, -0.030592f, -0.170934f, 0.050830f, 0.161557f, 0.153463f, 0.037822f, 0.094376f, 0.144670f, 0.022143f, 0.068401f, -0.101517f, 
    -0.210887f, -0.040712f, -0.197812f, -0.304510f, 0.302105f, -0.373100f, -0.056999f, 0.193858f, -0.082706f, 0.226870f, -0.007773f, 0.184696f, 
    -0.098330f, 0.237089f, -0.026531f, -0.068503f, -0.027474f, 0.066119f, 0.030945f, -0.169806f, 0.064069f, -0.223820f, -0.319971f, -0.100333f, 
    -0.024941f, 0.173975f, -0.066336f, 0.396260f, -0.321745f, 0.173471f, 0.097205f, -0.124234f, -0.345653f, -0.086896f, -0.297706f, -0.472565f, 
    0.032569f, 0.240287f, 0.517253f, -0.104262f, 0.012671f, -0.161701f, -0.031622f, -0.588768f, 0.104652f, 0.062084f, -0.364779f, 0.324833f, 
    0.043913f, 0.062820f, 0.247118f, 0.191171f, 0.035439f, 0.047167f, -0.119000f, 0.107338f, 0.099399f, 0.147901f, 0.039099f, -0.097539f, 
    -0.042456f, 0.043611f, 0.021429f, 0.034584f, -0.011356f, 0.045704f, 0.135031f, 0.482520f, -0.022595f, -0.110620f, -0.212983f, -0.064315f, 
    -0.095418f, 0.034601f, 0.084400f, 0.225910f, -0.054349f, 0.280028f, 0.167054f, -0.173647f, 0.070046f, 0.136600f, 0.105725f, 0.011289f, 
    0.132053f, 0.007190f, -0.159617f, -0.053996f, 0.189349f, 0.153003f, 0.073306f, 0.065651f, -0.149221f, 0.025174f, 0.013621f, 0.072039f, 
    -0.075163f, 0.009068f, -0.232903f, 0.134657f, -0.047369f, -0.321028f, -0.034675f, 0.227219f, -0.176281f, -0.019675f, 0.108351f, 0.542423f, 
    0.191117f, 0.231734f, 0.155086f, -0.157215f, 0.138008f, -0.286790f, -0.026114f, -0.178240f, 0.460517f, -0.323250f, -0.262366f, 0.059338f, 
    0.008632f, 0.257803f, 0.120527f, 0.306904f, -0.205721f, 0.004887f, 0.196402f, 0.051632f, -0.490736f, 0.309657f, -0.215342f, -0.059421f, 
    0.058241f, -0.045631f, 0.363701f, -0.322607f, -0.017610f, -0.035726f, -0.154249f, -0.246066f, 0.426471f, 0.019004f, -0.235408f, 0.200313f, 
    -0.055388f, 0.065729f, 0.087041f, 0.066807f, -0.120717f, -0.017228f, 0.212235f, 0.145262f, -0.181154f, 0.232221f, -0.183284f, -0.049345f, 
    0.231135f, -0.122940f, 0.004840f, -0.142478f, 0.099907f, -0.025122f, -0.038806f, -0.152092f, -0.191660f, 0.144922f, -0.033820f, -0.069058f, 
    -0.414872f, -0.036258f, -0.179491f, 0.069104f, 0.057831f, -0.263333f, -0.049651f, -0.040841f, 0.072778f, 0.055303f, -0.134150f, -0.133111f, 
    -0.027974f, 0.021639f, 0.129204f, 0.086000f, -0.106127f, 0.206728f, -0.038062f, 0.004529f, 0.184233f, -0.125398f, -0.053197f, 0.013394f, 
    -0.066794f, 0.196905f, 0.175176f, 0.055645f, 0.061819f, -0.063177f, -0.331856f, -0.135189f, -0.023656f, -0.280711f, -0.052986f, -0.000462f, 
    -0.022114f, 0.126627f, -0.014888f, -0.119098f, 0.182462f, 0.009536f, 0.147752f, -0.010230f, 0.343194f, 0.200541f, 0.199364f, 0.075619f, 
    0.052015f, -0.240532f, 0.158162f, -0.100674f, 0.246368f, -0.240054f, 0.157917f, -0.070321f, -0.192164f, -0.046621f, -0.170203f, 0.012860f, 
    0.196029f, -0.280390f, -0.399430f, -0.059402f, 0.179994f, -0.463409f, 0.258572f, -0.130726f, -0.270547f, 0.248863f, -0.236138f, 0.134848f, 
    -0.041914f, -0.039591f, -0.008153f, -0.040357f, 0.142163f, 0.096750f, 0.276539f, 0.054483f, -0.007050f, 0.116017f, -0.020054f, -0.002067f, 
    0.079502f, -0.226918f, -0.033652f, -0.064991f, 0.028187f, 0.055845f, -0.011903f, 0.122626f, -0.091996f, 0.036242f, 0.248876f, -0.058791f, 
    -0.114961f, 0.155336f, -0.039490f, -0.004071f, 0.074422f, -0.176468f, 0.072718f, -0.011002f, -0.172013f, -0.071562f, 0.065006f, -0.081649f, 
    0.005902f, 0.040090f, 0.206713f, 0.242551f, -0.032333f, 0.048329f, -0.034045f, 0.041275f, 0.142657f, -0.042539f, -0.043594f, -0.009309f, 
    0.176779f, 0.032207f, -0.119630f, 0.103939f, -0.243704f, 0.009468f, -0.117480f, -0.224681f, -0.153877f, 0.040002f, -0.115693f, 0.094913f, 
    -0.032657f, 0.145418f, -0.005911f, -0.083237f, 0.023095f, -0.063676f, 0.209276f, 0.155219f, 0.056869f, 0.177194f, 0.073757f, -0.233656f, 
    -0.078098f, -0.057404f, 0.069571f, 0.129796f, 0.031448f, -0.284168f, 0.138033f, -0.037851f, 0.261248f, -0.007934f, -0.073302f, -0.082359f, 
    -0.241988f, 0.082484f, -0.176652f, 0.056257f, -0.383357f, -0.214847f, -0.006582f, -0.193086f, -0.085674f, 0.127493f, -0.311018f, 0.148186f, 
    -0.188379f, 0.038533f, 0.023233f, -0.060296f, 0.178201f, 0.134308f, 0.125558f, 0.106110f, 0.111826f, 0.072126f, -0.103589f, -0.107467f, 
    0.148217f, -0.205364f, 0.124492f, 0.082344f, -0.078079f, -0.013195f, 0.110040f, 0.062290f, 0.353463f, -0.003621f, 0.121743f, -0.030813f, 
    0.026860f, 0.176152f, -0.124471f, 0.033880f, 0.040497f, -0.219261f, 0.091641f, 0.130263f, -0.031535f, 0.045910f, 0.153973f, 0.114971f, 
    0.084425f, 0.059469f, 0.068987f, 0.107956f, 0.130312f, -0.105227f, -0.021222f, -0.080172f, 0.059162f, -0.198872f, -0.009766f, -0.126721f, 
    0.119280f, -0.073092f, -0.120769f, -0.040388f, 0.263223f, -0.231991f, 0.180628f, -0.174465f, -0.164383f, -0.017972f, -0.035258f, 0.268568f, 
    0.003823f, 0.189869f, 0.044741f, 0.015788f, -0.154126f, 0.007406f, 0.062961f, 0.272230f, -0.079561f, -0.132812f, 0.211257f, -0.408841f, 
    -0.079675f, 0.061654f, -0.070977f, 0.294687f, 0.254470f, 0.111929f, 0.090528f, -0.063960f, 0.291694f, -0.007574f, -0.085519f, -0.160991f, 
    0.069807f, -0.105683f, 0.159196f, 0.220647f, -0.546236f, 0.099346f, -0.148058f, -0.165089f, -0.250300f, 0.182531f, -0.054904f, 0.114388f, 
    -0.082332f, -0.023084f, 0.018949f, 0.015153f, -0.076395f, 0.216276f, 0.062191f, -0.039454f, 0.097473f, 0.060426f, -0.119866f, -0.023241f, 
    0.187847f, -0.058978f, -0.153997f, 0.074790f, -0.152815f, -0.028837f, 0.003237f, 0.158504f, 0.001093f, 0.020999f, 0.152243f, -0.079846f, 
    -0.008994f, -0.016673f, 0.043836f, -0.049318f, 0.238749f, -0.183633f, -0.058451f, -0.018325f, -0.205182f, 0.106299f, 0.188397f, 0.010488f, 
    0.014433f, 0.005899f, -0.064007f, -0.080928f, 0.006680f, 0.018264f, -0.026091f, -0.191631f, 0.017220f, -0.080905f, 0.009326f, -0.110032f, 
    -0.127339f, -0.183540f, -0.268794f, -0.139106f, 0.374203f, -0.193740f, -0.004397f, -0.136063f, -0.075906f, 0.014297f, 0.001145f, 0.202740f, 
    -0.110388f, 0.044437f, 0.152751f, 0.146899f, 0.099532f, -0.126031f, -0.057472f, 0.075414f, 0.199845f, -0.102490f, 0.190921f, -0.391310f, 
    0.021600f, 0.030315f, 0.125244f, 0.077570f, -0.047609f, 0.034914f, 0.174510f, 0.093571f, -0.477346f, -0.058933f, -0.118684f, -0.397509f, 
    0.435964f, -0.101816f, -0.108890f, 0.199649f, 0.054638f, 0.106564f, -0.058429f, 0.101854f, 0.084879f, -0.021841f, 0.053823f, 0.171009f, 
    -0.014220f, 0.010957f, 0.071361f, 0.034684f, -0.023278f, 0.069787f, -0.035544f, -0.046221f, -0.005728f, -0.044535f, -0.019067f, -0.246943f, 
    0.136839f, -0.125100f, -0.005901f, 0.156007f, 0.075974f, 0.123919f, 0.041037f, 0.407738f, -0.137514f, 0.227122f, 0.085696f, -0.053264f, 
    -0.058057f, -0.060240f, -0.128080f, -0.135280f, -0.048941f, -0.050913f, -0.178064f, 0.054488f, 0.121601f, 0.029534f, 0.074223f, 0.001018f, 
    -0.098064f, 0.118730f, 0.044124f, -0.081399f, 0.100168f, 0.061233f, -0.140814f, -0.076357f, 0.009571f, 0.011724f, -0.122160f, 0.067676f, 
    -0.162396f, -0.206923f, -0.049780f, 0.281688f, -0.132197f, -0.036695f, 0.198868f, 0.070784f, -0.187752f, 0.002784f, 0.047553f, 0.309641f, 
    0.138283f, 0.184487f, 0.104080f, -0.041572f, 0.125505f, -0.144570f, 0.053075f, 0.282050f, 0.214629f, -0.107583f, 0.204135f, -0.184369f, 
    -0.003248f, -0.045935f, -0.011488f, 0.034040f, -0.300887f, -0.062206f, 0.101493f, 0.128233f, -0.219714f, -0.077804f, -0.316563f, 0.055753f, 
    -0.048944f, 0.002414f, 0.077138f, 0.147906f, -0.336012f, -0.136844f, 0.242452f, 0.383084f, 0.556714f, 0.201308f, 0.027216f, -0.227319f, 
    
};

// Layer: C3 - Biases
const float C3_biases[] = {
    -0.131459f, -0.028771f, -0.048724f, -0.035033f, 0.070760f, -0.017298f, 0.023154f, -0.021103f, -0.223160f, -0.089576f, 0.007229f, -0.136977f, 
    0.026654f, -0.011273f, -0.047413f, 0.155293f, 
};

// Layer: C5_FC1 - Weights
const float C5_FC1_weights[] = {
    -0.099099f, 0.247508f, -0.106841f, -0.651449f, -0.227301f, 0.021488f, -0.006472f, -0.032599f, 0.053872f, 0.029093f, 0.260002f, 0.010644f, 
    0.214537f, -0.058934f, -0.197803f, 0.257336f, -0.188220f, -0.077518f, -0.047964f, 0.005887f, -0.130000f, 0.129853f, -0.086527f, 0.090630f, 
    0.102528f, 0.209691f, 0.368538f, -0.055178f, -0.058140f, 0.120015f, -0.196426f, 0.162006f, -0.039407f, 0.079526f, 0.193454f, 0.089091f, 
    -0.047139f, -0.111029f, -0.194624f, -0.158200f, -0.108323f, -0.244254f, -0.007550f, 0.014874f, 0.007737f, 0.105254f, 0.174235f, 0.055903f, 
    0.120125f, 0.212546f, 0.135287f, -0.278522f, -0.070500f, -0.144392f, 0.197253f, -0.044258f, -0.049780f, 0.145432f, 0.160816f, -0.215035f, 
    -0.025657f, -0.171278f, -0.070908f, -0.009364f, -0.157474f, -0.049699f, 0.330005f, 0.290389f, 0.137398f, -0.184616f, -0.087858f, -0.004388f, 
    -0.024039f, 0.307792f, 0.241306f, -0.036242f, -0.378090f, 0.198062f, -0.208017f, -0.109299f, -0.021954f, -0.022037f, -0.008330f, -0.039308f, 
    -0.146843f, 0.265039f, -0.035835f, 0.210738f, -0.014682f, -0.179565f, -0.115487f, -0.149309f, -0.202740f, -0.185273f, 0.015744f, 0.001552f, 
    0.097066f, 0.101403f, -0.140715f, -0.097465f, 0.219918f, 0.305780f, -0.238609f, -0.010007f, -0.338148f, 0.061025f, -0.037942f, 0.110667f, 
    0.154010f, 0.060425f, -0.140439f, 0.057682f, -0.078867f, -0.089582f, 0.273192f, -0.231334f, -0.010086f, -0.089336f, 0.281614f, -0.018951f, 
    -0.143123f, 0.126749f, 0.218512f, -0.009907f, 0.069231f, -0.029151f, -0.038306f, 0.214565f, 0.160594f, 0.117294f, 0.067336f, -0.131295f, 
    0.171034f, -0.070484f, 0.000653f, 0.288433f, 0.106469f, -0.008989f, 0.189533f, -0.054164f, 0.143972f, -0.065902f, -0.116712f, -0.131304f, 
    -0.204443f, -0.033939f, 0.171317f, 0.178262f, -0.134669f, 0.052035f, -0.160833f, -0.021901f, -0.062349f, -0.066705f, 0.100750f, 0.007915f, 
    -0.013343f, -0.050364f, -0.044304f, 0.014748f, -0.057628f, -0.179994f, 0.248639f, 0.194995f, 0.084137f, 0.026333f, 0.011399f, -0.120970f, 
    0.162464f, 0.043429f, -0.091950f, 0.096406f, -0.190105f, -0.185548f, 0.085063f, 0.059705f, 0.012885f, 0.088854f, -0.156073f, -0.035421f, 
    -0.258097f, -0.179444f, 0.076334f, -0.095205f, 0.047570f, 0.058315f, 0.083884f, -0.120293f, 0.038355f, -0.101718f, -0.172379f, -0.185006f, 
    0.325857f, 0.062871f, 0.129283f, 0.090666f, -0.054137f, 0.232004f, -0.131615f, -0.192547f, 0.450718f, 0.019144f, -0.093687f, -0.104339f, 
    -0.009729f, -0.113214f, -0.090083f, 0.003485f, -0.115334f, -0.094399f, 0.033692f, -0.116700f, -0.139151f, 0.033145f, 0.293944f, 0.077604f, 
    0.198468f, 0.232425f, 0.054867f, -0.113217f, -0.086507f, 0.131307f, 0.000183f, 0.092932f, -0.008972f, 0.086545f, -0.056808f, -0.100649f, 
    0.051424f, -0.117480f, -0.111724f, -0.047616f, -0.067604f, -0.097325f, 0.109901f, 0.159931f, 0.040211f, -0.109184f, -0.052722f, -0.162591f, 
    0.124238f, -0.100015f, 0.027130f, 0.008573f, 0.154849f, 0.134431f, 0.047773f, 0.211081f, -0.018252f, 0.168717f, 0.033264f, 0.035560f, 
    0.069682f, 0.135298f, 0.121134f, 0.055472f, -0.011365f, -0.136424f, 0.032263f, 0.001212f, 0.025960f, -0.077337f, -0.151275f, -0.008846f, 
    -0.000779f, 0.084626f, -0.133734f, 0.050087f, 0.070520f, 0.071564f, -0.100399f, 0.009156f, -0.040281f, 0.078619f, 0.008576f, -0.116852f, 
    0.099428f, 0.018100f, -0.109084f, 0.142028f, -0.180795f, -0.235363f, 0.079917f, -0.014218f, 0.068650f, -0.025338f, 0.010415f, 0.060913f, 
    0.186393f, 0.027190f, -0.060857f, -0.047289f, -0.283923f, -0.168525f, 0.012779f, 0.023660f, 0.137445f, 0.196649f, 0.085570f, -0.018628f, 
    -0.195591f, 0.065623f, 0.053578f, -0.075763f, 0.149701f, 0.178976f, 0.156155f, -0.231629f, -0.049454f, -0.121556f, -0.023871f, -0.014764f, 
    0.313379f, -0.079870f, 0.088106f, 0.008487f, 0.093805f, 0.107602f, -0.037839f, 0.017530f, 0.267805f, -0.104599f, -0.093635f, 0.018108f, 
    0.188834f, 0.062231f, 0.003353f, -0.009328f, 0.140285f, 0.024284f, 0.199375f, 0.056675f, -0.121897f, 0.043588f, -0.018302f, -0.014395f, 
    0.186340f, 0.065813f, -0.052300f, -0.011789f, -0.050402f, 0.032750f, -0.152569f, -0.178650f, -0.170107f, -0.013940f, -0.078172f, -0.046709f, 
    -0.053420f, 0.001524f, -0.144786f, 0.082142f, -0.073263f, 0.055607f, -0.080195f, 0.073313f, 0.007338f, 0.062532f, 0.023593f, 0.011078f, 
    0.067471f, -0.168441f, 0.093201f, 0.181077f, -0.092003f, 0.019398f, -0.068054f, 0.139036f, -0.158259f, 0.061088f, 0.056828f, 0.132032f, 
    0.043917f, 0.126025f, 0.131406f, 0.064775f, 0.113818f, -0.098826f, 0.061321f, 0.131642f, 0.157444f, 0.034128f, -0.097802f, -0.083532f, 
    0.020163f, -0.030531f, -0.055449f, 0.061562f, 0.013394f, -0.007103f, 0.035393f, 0.123642f, -0.070151f, 0.041022f, 0.048280f, 0.134017f, 
    0.004625f, -0.046498f, -0.166049f, 0.066546f, -0.058322f, -0.087293f, -0.128062f, 0.126865f, 0.064303f, -0.181912f, 0.004619f, 0.010678f, 
    -0.021404f, -0.052760f, -0.052936f, -0.120958f, 0.080390f, 0.075884f, 0.047311f, -0.053148f, 0.058112f, -0.023564f, 0.038223f, 0.033528f, 
    0.024596f, -0.046702f, 0.051872f, 0.017854f, 0.026752f, -0.108916f, 0.009992f, -0.028068f, -0.069852f, -0.011718f, 0.093028f, 0.022128f, 
    0.034149f, -0.153140f, -0.022029f, 0.152958f, -0.027872f, -0.058076f, -0.033306f, 0.085573f, 0.074731f, -0.088927f, -0.053397f, -0.055361f, 
    0.153540f, 0.012187f, 0.067010f, -0.031243f, -0.029231f, 0.177736f, 0.213942f, 0.003254f, 0.073610f, 0.056030f, 0.102711f, 0.019527f, 
    -0.152298f, 0.008845f, 0.104855f, 0.161279f, -0.175367f, -0.063121f, 0.066693f, 0.063017f, -0.001754f, -0.159399f, -0.133370f, -0.169170f, 
    -0.039993f, -0.039034f, 0.060155f, -0.054587f, 0.043411f, -0.024863f, -0.086974f, 0.010080f, 0.023212f, -0.023877f, 0.088434f, -0.079972f, 
    -0.000273f, 0.011591f, 0.016974f, 0.147185f, -0.162436f, 0.100905f, -0.041316f, -0.109876f, -0.186497f, 0.146430f, -0.141843f, -0.023555f, 
    0.161966f, 0.069514f, 0.266401f, -0.016167f, -0.080962f, 0.137148f, 0.181538f, 0.007042f, -0.000891f, -0.133607f, 0.011783f, -0.175170f, 
    0.069179f, 0.104239f, -0.087493f, 0.029372f, 0.018371f, 0.083722f, -0.136369f, -0.134169f, -0.012637f, 0.028882f, -0.009056f, 0.139654f, 
    0.278220f, -0.240888f, 0.102073f, -0.049430f, 0.169010f, -0.068224f, -0.237396f, -0.052362f, -0.153950f, -0.089270f, 0.093258f, 0.085286f, 
    0.093871f, -0.191603f, -0.124742f, 0.159739f, 0.139617f, -0.005640f, -0.052750f, 0.020840f, 0.033199f, -0.020167f, 0.173125f, 0.119831f, 
    -0.160294f, -0.116596f, 0.074435f, -0.028613f, 0.217828f, -0.050631f, -0.025224f, 0.001461f, -0.124889f, 0.218295f, 0.046149f, -0.107576f, 
    0.206918f, -0.090574f, -0.053688f, 0.117698f, 0.034404f, -0.056525f, -0.189433f, -0.181764f, 0.021053f, 0.097678f, -0.250761f, -0.068285f, 
    0.071070f, 0.033740f, -0.200194f, -0.133392f, -0.190625f, -0.161754f, -0.069960f, 0.114859f, -0.108674f, 0.272370f, -0.053795f, -0.111097f, 
    0.191408f, -0.043155f, 0.035949f, 0.220844f, -0.090591f, 0.167382f, -0.147296f, -0.104198f, 0.089446f, -0.078811f, -0.311605f, -0.048399f, 
    0.074860f, -0.069674f, -0.152015f, -0.324821f, -0.023670f, 0.108702f, -0.016743f, -0.049622f, -0.019017f, -0.124059f, -0.081059f, 0.127474f, 
    -0.237335f, 0.095668f, -0.078296f, -0.186702f, 0.233186f, -0.127811f, -0.078951f, -0.003270f, 0.094399f, 0.079719f, 0.037320f, 0.138788f, 
    0.101072f, -0.294228f, -0.141304f, -0.232239f, -0.002904f, -0.042918f, 0.028153f, -0.057116f, 0.105952f, -0.071092f, 0.002970f, 0.111042f, 
    -0.045411f, -0.128488f, 0.216112f, 0.226020f, 0.040494f, 0.094998f, 0.184310f, 0.086116f, 0.120828f, -0.158243f, -0.016593f, -0.092696f, 
    -0.093337f, -0.009962f, -0.173516f, -0.170757f, 0.020216f, -0.108653f, 0.224803f, 0.003514f, 0.072081f, 0.128934f, -0.315870f, -0.252659f, 
    -0.144583f, -0.007090f, 0.152153f, 0.051959f, -0.004081f, 0.125360f, 0.120456f, -0.113449f, -0.025438f, -0.186501f, -0.108158f, 0.113445f, 
    0.098980f, 0.094787f, 0.166513f, 0.027797f, -0.057237f, 0.159411f, 0.077957f, 0.033652f, -0.060540f, -0.039228f, -0.196797f, 0.053358f, 
    -0.158948f, -0.053634f, 0.040103f, -0.004362f, -0.003832f, 0.013700f, 0.295376f, -0.175901f, -0.085117f, -0.069475f, 0.201837f, 0.037355f, 
    0.088372f, -0.048172f, 0.022994f, 0.099291f, 0.063047f, 0.029261f, 0.001962f, -0.055350f, 0.070949f, -0.014625f, -0.014831f, 0.092121f, 
    -0.062383f, -0.024293f, 0.036157f, -0.183540f, 0.053156f, -0.021630f, 0.279892f, 0.056561f, -0.225543f, -0.131310f, 0.334328f, 0.086920f, 
    -0.078787f, -0.175447f, -0.003276f, 0.119711f, -0.014622f, -0.045975f, 0.265339f, -0.057142f, 0.049816f, -0.206934f, -0.147335f, -0.209242f, 
    -0.274914f, 0.041437f, -0.052188f, 0.102193f, -0.020116f, -0.119604f, 0.061303f, -0.087596f, 0.072783f, -0.275778f, -0.030636f, 0.127014f, 
    -0.026824f, 0.004592f, -0.008723f, -0.400755f, 0.178915f, 0.083398f, -0.085374f, 0.085638f, -0.080083f, -0.078477f, 0.048582f, -0.303398f, 
    -0.017786f, -0.039651f, -0.009683f, 0.104051f, 0.102220f, 0.009443f, 0.154986f, -0.010065f, -0.038845f, -0.051411f, -0.174722f, -0.080807f, 
    0.137495f, -0.005440f, 0.205680f, -0.099908f, -0.018280f, 0.222192f, 0.084767f, -0.000856f, 0.159633f, 0.077399f, -0.140089f, -0.087536f, 
    -0.234658f, 0.044819f, 0.178617f, 0.067983f, 0.273421f, 0.150346f, -0.032846f, 0.122032f, -0.086989f, -0.037845f, 0.018436f, -0.017880f, 
    -0.031432f, 0.064217f, -0.070410f, -0.084091f, -0.059542f, -0.071566f, -0.250218f, -0.161293f, 0.024450f, 0.180225f, -0.117757f, 0.066740f, 
    -0.159763f, 0.028283f, -0.169255f, 0.209333f, 0.116364f, 0.160291f, 0.220910f, -0.148125f, -0.055757f, 0.044872f, -0.016236f, 0.215126f, 
    -0.038443f, -0.298343f, 0.000376f, -0.097094f, -0.041610f, -0.088999f, 0.047760f, 0.137963f, 0.078149f, 0.046552f, -0.233852f, 0.134421f, 
    -0.048086f, -0.080852f, 0.097003f, 0.080124f, 0.048782f, -0.080857f, 0.098495f, -0.014713f, -0.191163f, -0.263180f, 0.295467f, 0.026537f, 
    -0.020494f, -0.105432f, 0.029089f, 0.071948f, 0.085957f, -0.014875f, -0.059235f, -0.045992f, 0.150269f, -0.115253f, -0.183950f, -0.120107f, 
    0.067582f, -0.155712f, -0.043315f, 0.129903f, -0.016262f, 0.131172f, 0.025082f, 0.077850f, 0.101423f, 0.188290f, -0.017844f, -0.209187f, 
    0.124744f, 0.080441f, 0.104503f, 0.084552f, -0.072863f, 0.114983f, 0.047175f, -0.072388f, -0.182558f, -0.026629f, -0.115462f, -0.084807f, 
    -0.292707f, 0.015387f, -0.136230f, 0.136678f, 0.126962f, -0.123897f, -0.112339f, 0.123762f, 0.147602f, 0.148117f, 0.071981f, -0.000513f, 
    -0.160660f, 0.098469f, 0.060692f, -0.112443f, 0.118375f, -0.048412f, -0.061707f, -0.123285f, 0.080434f, -0.086079f, 0.210857f, -0.147397f, 
    0.096096f, 0.428005f, 0.018072f, 0.235076f, 0.092652f, -0.078998f, -0.323271f, -0.136929f, -0.024410f, 0.262469f, -0.042031f, 0.037664f, 
    0.189563f, 0.323362f, -0.148899f, -0.142255f, 0.268400f, -0.015524f, 0.094808f, -0.161045f, 0.094575f, -0.001895f, 0.090791f, 0.012989f, 
    -0.132529f, -0.033024f, -0.305359f, 0.042150f, 0.015986f, -0.075644f, 0.165454f, 0.038364f, -0.235961f, 0.074194f, -0.039830f, -0.210998f, 
    -0.107644f, 0.101445f, -0.137216f, 0.070662f, 0.106632f, 0.003999f, 0.018761f, -0.195948f, 0.021589f, 0.048613f, 0.048399f, -0.213538f, 
    0.029234f, -0.021735f, 0.182866f, -0.114381f, 0.040165f, -0.048541f, -0.043436f, -0.158782f, -0.207284f, 0.187948f, -0.014976f, 0.063109f, 
    0.040943f, -0.147981f, 0.151315f, 0.158058f, -0.229148f, -0.301081f, 0.127979f, 0.116862f, -0.016270f, 0.272356f, 0.171936f, -0.072505f, 
    -0.058667f, -0.102017f, 0.140893f, 0.206415f, 0.046665f, 0.077839f, 0.009303f, 0.099469f, -0.134860f, 0.026011f, -0.016049f, -0.032711f, 
    0.009809f, -0.032127f, 0.035167f, 0.075869f, 0.072081f, 0.054699f, -0.071083f, -0.108857f, -0.036643f, 0.109971f, 0.099372f, 0.098252f, 
    -0.006064f, -0.022433f, 0.011261f, -0.145108f, -0.072008f, 0.025711f, -0.022011f, -0.087491f, -0.028809f, 0.133417f, 0.028308f, -0.127589f, 
    -0.008888f, 0.014684f, -0.100250f, 0.064735f, -0.114036f, -0.037928f, 0.036088f, -0.060883f, -0.220668f, -0.186377f, 0.036435f, 0.013383f, 
    -0.010570f, -0.088209f, -0.054276f, 0.151303f, 0.014589f, -0.052315f, 0.096645f, -0.119370f, -0.092065f, 0.012163f, 0.124661f, 0.003604f, 
    -0.101189f, 0.106706f, -0.056979f, 0.020266f, 0.066422f, -0.058566f, -0.085778f, 0.096900f, 0.133933f, 0.063700f, -0.075601f, 0.137254f, 
    0.010650f, -0.026217f, -0.144272f, -0.120509f, -0.031388f, 0.053216f, -0.011290f, 0.189734f, 0.061848f, -0.047331f, -0.159835f, -0.027076f, 
    0.091908f, -0.015607f, -0.003076f, 0.042393f, 0.089143f, 0.164252f, -0.073336f, 0.067771f, 0.009295f, 0.013217f, -0.141361f, 0.055657f, 
    -0.003231f, 0.118429f, -0.044645f, -0.126927f, 0.047539f, -0.099934f, 0.140598f, 0.046968f, -0.020066f, 0.079997f, -0.153105f, -0.132974f, 
    0.115308f, -0.031071f, -0.112348f, -0.025633f, 0.053196f, 0.029390f, -0.059339f, 0.127647f, -0.142653f, 0.140305f, 0.030037f, -0.046752f, 
    0.016909f, -0.007414f, -0.132830f, 0.005258f, -0.180250f, -0.000039f, 0.128786f, 0.186314f, -0.151690f, 0.325909f, -0.259622f, -0.049926f, 
    0.005071f, -0.006710f, -0.050583f, 0.247492f, 0.033327f, -0.199333f, 0.036728f, -0.015189f, -0.049987f, -0.054666f, 0.178235f, 0.050609f, 
    -0.107457f, 0.109209f, 0.028634f, 0.044758f, 0.015974f, -0.000488f, -0.092138f, -0.229431f, 0.074394f, -0.030859f, 0.004641f, -0.038093f, 
    0.135853f, -0.133680f, -0.063494f, -0.097535f, -0.016006f, -0.159568f, 0.100213f, -0.142526f, -0.058916f, -0.066484f, -0.045868f, -0.216182f, 
    0.205449f, -0.008485f, -0.099497f, 0.154042f, -0.088257f, 0.012192f, 0.004401f, 0.077285f, -0.056588f, -0.056624f, 0.164125f, 0.163629f, 
    -0.020934f, -0.002915f, 0.077566f, -0.002094f, -0.068551f, -0.021703f, -0.079704f, -0.139315f, 0.113417f, -0.021246f, -0.047487f, 0.103704f, 
    0.135464f, -0.105159f, -0.084223f, -0.167132f, -0.008479f, 0.217532f, -0.192212f, -0.286046f, 0.220127f, 0.122368f, -0.390835f, -0.100897f, 
    0.150256f, 0.141334f, -0.082913f, -0.025328f, -0.023467f, -0.085660f, 0.141322f, -0.108141f, -0.123108f, 0.024104f, 0.200831f, -0.128146f, 
    0.043370f, 0.198207f, 0.148469f, -0.107626f, -0.180471f, 0.050336f, -0.061784f, 0.082583f, 0.301984f, -0.041367f, 0.016330f, 0.001308f, 
    0.032843f, 0.059332f, -0.051871f, 0.061421f, -0.125101f, -0.051005f, 0.112069f, 0.045522f, 0.095681f, 0.181841f, 0.083044f, -0.158864f, 
    0.058458f, 0.135853f, 0.008046f, 0.036130f, -0.076640f, 0.219308f, 0.174252f, -0.084416f, 0.079481f, -0.183740f, 0.112842f, 0.110865f, 
    0.043810f, -0.012481f, 0.093245f, -0.312947f, 0.027861f, 0.127769f, -0.010187f, -0.221254f, 0.024336f, 0.060361f, -0.179884f, -0.156627f, 
    0.068665f, -0.074928f, 0.083370f, -0.190560f, 0.087759f, 0.168473f, 0.178365f, 0.064504f, 0.042018f, 0.053755f, 0.097625f, -0.043038f, 
    0.177001f, 0.029980f, -0.090595f, 0.013718f, -0.099509f, -0.011431f, -0.206852f, -0.111513f, 0.024600f, 0.089754f, 0.085362f, -0.058245f, 
    -0.104126f, -0.070486f, -0.141333f, -0.034969f, 0.139231f, 0.051425f, 0.099994f, -0.109139f, 0.078197f, -0.019284f, 0.049520f, 0.074518f, 
    -0.056598f, 0.211439f, 0.068626f, -0.206347f, -0.004442f, -0.078533f, -0.070932f, 0.107154f, 0.082279f, -0.196753f, -0.039033f, -0.132604f, 
    -0.226739f, -0.079782f, 0.049563f, 0.106803f, -0.057885f, -0.222548f, 0.008606f, 0.219297f, -0.096233f, -0.163946f, 0.078955f, 0.131729f, 
    -0.114632f, -0.026019f, -0.040291f, -0.036768f, 0.035170f, 0.070155f, -0.039308f, 0.194794f, -0.062855f, 0.058314f, -0.109793f, -0.041973f, 
    0.174190f, -0.014568f, -0.026034f, -0.063743f, -0.000895f, 0.027083f, 0.243108f, 0.037571f, -0.228184f, -0.152007f, -0.123220f, 0.075211f, 
    0.090007f, -0.127496f, -0.177548f, -0.032383f, 0.143000f, -0.103167f, -0.016559f, 0.092288f, -0.059749f, -0.280216f, -0.230719f, 0.229855f, 
    0.067209f, 0.076388f, 0.249026f, 0.225717f, 0.101167f, -0.236764f, 0.001250f, -0.075161f, 0.076857f, -0.066438f, -0.147167f, 0.183330f, 
    -0.050832f, -0.045367f, 0.278568f, -0.029961f, -0.035489f, 0.017308f, 0.158416f, -0.051015f, 0.046695f, -0.015603f, -0.035317f, -0.038972f, 
    0.031641f, -0.071246f, -0.284610f, -0.188756f, 0.040489f, 0.031079f, -0.065151f, -0.232320f, 0.157069f, -0.153463f, -0.184016f, 0.038624f, 
    0.013918f, -0.075696f, 0.098499f, 0.073912f, -0.343757f, 0.217525f, 0.109840f, -0.166826f, 0.181431f, -0.097877f, -0.182506f, -0.002417f, 
    -0.011826f, -0.241536f, -0.042920f, -0.121151f, 0.185774f, 0.010097f, 0.069798f, -0.266973f, -0.025439f, -0.217336f, -0.105996f, 0.403601f, 
    -0.022934f, -0.020055f, 0.147683f, -0.155353f, -0.059858f, 0.035461f, -0.237655f, 0.103933f, -0.099021f, 0.324783f, 0.045467f, -0.085732f, 
    0.023455f, 0.011037f, 0.105249f, 0.063082f, 0.204962f, -0.139532f, -0.131423f, -0.076378f, 0.074193f, -0.207415f, 0.231999f, 0.122444f, 
    -0.173675f, -0.029475f, -0.185862f, -0.123407f, 0.017561f, -0.119071f, -0.010648f, 0.254498f, 0.092835f, 0.139890f, -0.024074f, 0.104222f, 
    -0.094402f, -0.105451f, -0.022652f, 0.216455f, -0.084725f, 0.033153f, 0.232031f, -0.021118f, -0.044333f, -0.140799f, 0.029424f, -0.062765f, 
    -0.249074f, -0.099884f, -0.024554f, -0.056809f, 0.315337f, -0.233560f, -0.269059f, 0.147787f, 0.032036f, -0.030340f, -0.123300f, 0.030232f, 
    -0.278654f, -0.014935f, 0.038620f, 0.127831f, 0.236090f, 0.063124f, 0.018603f, 0.336197f, 0.144997f, 0.073114f, 0.083230f, -0.128642f, 
    0.062237f, -0.079763f, -0.011301f, 0.041710f, -0.115109f, 0.257291f, 0.065554f, -0.117742f, 0.046948f, -0.105639f, -0.059250f, -0.093632f, 
    -0.197353f, -0.036677f, -0.218472f, -0.036137f, -0.016018f, 0.050977f, 0.002444f, 0.138762f, -0.092930f, -0.046886f, 0.034136f, -0.054633f, 
    -0.092802f, 0.092521f, 0.216763f, -0.166698f, -0.228512f, -0.193572f, 0.140475f, 0.087744f, -0.006265f, 0.017144f, -0.014960f, 0.119958f, 
    0.073737f, 0.176201f, -0.089680f, 0.025634f, -0.225356f, -0.100939f, -0.013951f, -0.103047f, -0.084085f, -0.088666f, -0.098781f, -0.006414f, 
    -0.069876f, -0.193082f, 0.059030f, -0.128301f, 0.290617f, -0.021169f, -0.012193f, -0.171790f, 0.010577f, 0.304913f, -0.061111f, -0.046494f, 
    0.253154f, 0.187447f, -0.185961f, -0.032172f, -0.120394f, 0.080434f, 0.021151f, -0.244519f, 0.397846f, 0.081424f, 0.089023f, -0.031159f, 
    0.016086f, -0.155355f, -0.074394f, 0.063189f, -0.085520f, 0.026066f, -0.076732f, -0.177082f, -0.026241f, 0.074126f, 0.161678f, -0.213694f, 
    0.118531f, 0.282114f, -0.069303f, 0.000806f, -0.130831f, -0.002190f, 0.050203f, -0.053983f, 0.028158f, -0.271437f, 0.045222f, -0.047513f, 
    -0.104321f, -0.005438f, -0.014151f, -0.005940f, -0.042148f, 0.027860f, 0.005234f, 0.236368f, 0.056599f, 0.031020f, -0.105899f, 0.089860f, 
    0.277543f, -0.145322f, -0.000825f, 0.167465f, -0.218622f, 0.113206f, 0.109287f, 0.088548f, -0.285078f, -0.136952f, 0.049793f, 0.156239f, 
    -0.196030f, 0.104030f, 0.124034f, -0.014728f, 0.075438f, 0.044908f, 0.005887f, 0.054129f, -0.177798f, -0.171811f, 0.028925f, -0.021423f, 
    0.245720f, 0.017132f, -0.102993f, 0.010182f, 0.145918f, -0.154452f, -0.092857f, -0.263369f, -0.041007f, 0.191672f, 0.126938f, 0.080232f, 
    0.213216f, -0.046480f, 0.280379f, 0.164252f, 0.067796f, 0.031973f, -0.191624f, -0.198273f, -0.111172f, -0.177765f, 0.054233f, -0.071897f, 
    -0.085136f, -0.013485f, -0.049813f, 0.166125f, 0.099333f, 0.105983f, -0.060267f, -0.217429f, 0.141711f, 0.151913f, 0.224481f, -0.086295f, 
    -0.095348f, 0.191276f, -0.105908f, -0.108070f, 0.107242f, 0.045007f, -0.170769f, -0.036793f, 0.023947f, 0.056696f, 0.084624f, 0.008530f, 
    -0.124834f, -0.053154f, -0.217485f, -0.047287f, 0.203586f, 0.008358f, -0.037860f, 0.219818f, -0.160562f, -0.199868f, 0.001614f, 0.076414f, 
    0.147892f, 0.003796f, -0.060312f, -0.067327f, -0.208193f, -0.129562f, 0.069920f, 0.039732f, 0.228250f, 0.052051f, -0.182455f, -0.008837f, 
    0.025449f, -0.016961f, -0.140471f, 0.068948f, 0.042041f, 0.005801f, 0.031241f, 0.144078f, 0.096678f, -0.160464f, -0.134473f, -0.207960f, 
    0.104904f, -0.069858f, -0.118864f, -0.010443f, 0.180842f, 0.128122f, -0.159008f, 0.176066f, 0.109861f, 0.046193f, 0.007502f, 0.038011f, 
    0.347456f, -0.015738f, 0.235596f, -0.073584f, -0.128969f, 0.250785f, 0.214202f, -0.014800f, 0.014148f, -0.209048f, -0.177485f, -0.082847f, 
    0.059802f, 0.211331f, 0.106200f, 0.164075f, 0.128303f, 0.087629f, -0.015155f, 0.003670f, 0.020615f, 0.019401f, -0.120247f, 0.176303f, 
    0.268425f, 0.061633f, 0.140048f, -0.186670f, -0.105667f, 0.045936f, 0.005643f, 0.067988f, 0.120587f, -0.037696f, -0.041787f, -0.094992f, 
    -0.181848f, -0.080847f, -0.104768f, -0.118638f, 0.009003f, 0.010019f, -0.040034f, -0.032392f, 0.154411f, 0.155951f, 0.107670f, 0.057816f, 
    -0.066742f, -0.138307f, 0.034565f, -0.038902f, 0.194849f, -0.129545f, -0.009952f, 0.062632f, -0.226907f, -0.019887f, 0.103910f, -0.016158f, 
    -0.197999f, 0.249102f, 0.184673f, 0.128646f, 0.082366f, 0.071597f, 0.025399f, 0.095487f, 0.139804f, -0.104813f, -0.003806f, -0.083411f, 
    -0.039244f, -0.063181f, 0.108039f, 0.069447f, -0.041092f, -0.048476f, -0.071349f, 0.052806f, -0.140646f, -0.199851f, -0.024567f, 0.122554f, 
    -0.222568f, 0.035583f, -0.108224f, 0.222412f, 0.015383f, -0.064467f, -0.225192f, 0.047691f, -0.109028f, 0.059392f, -0.052538f, 0.053389f, 
    0.141179f, 0.153154f, 0.049739f, 0.048318f, 0.135930f, 0.040328f, 0.029551f, -0.006214f, -0.214420f, 0.205721f, -0.064287f, -0.056139f, 
    -0.052427f, -0.060258f, -0.176739f, 0.112564f, -0.076586f, -0.209108f, -0.121750f, 0.060847f, 0.002162f, -0.184031f, -0.099025f, -0.081466f, 
    0.004235f, -0.130066f, -0.229874f, 0.019824f, -0.279007f, 0.034239f, -0.121947f, -0.009270f, -0.177190f, 0.036039f, -0.001896f, -0.153509f, 
    -0.115112f, 0.083061f, -0.041104f, 0.057099f, -0.100875f, 0.015966f, -0.203720f, -0.026579f, -0.150958f, -0.334600f, 0.093744f, 0.009604f, 
    0.243478f, -0.060435f, -0.272569f, 0.150972f, 0.052024f, 0.102820f, -0.088354f, -0.167328f, -0.064278f, 0.247253f, 0.003988f, 0.118502f, 
    0.085974f, -0.064181f, 0.130668f, -0.039427f, 0.433957f, -0.171227f, -0.072796f, -0.072508f, -0.350227f, -0.125588f, 0.114848f, -0.210875f, 
    -0.020849f, 0.056223f, -0.085313f, 0.096507f, 0.037292f, 0.193508f, -0.208217f, -0.074769f, 0.001481f, 0.252227f, 0.020834f, -0.080395f, 
    -0.010378f, -0.197016f, -0.119342f, -0.009058f, -0.021605f, 0.086773f, -0.011023f, -0.175069f, -0.024744f, -0.124642f, -0.086433f, 0.169322f, 
    0.026948f, -0.048849f, -0.114830f, 0.000041f, 0.063973f, 0.277528f, -0.072932f, 0.038076f, -0.051375f, -0.120759f, -0.518598f, -0.349099f, 
    0.049877f, 0.236345f, 0.036114f, -0.227918f, -0.214570f, 0.008275f, 0.134183f, -0.024581f, -0.064102f, 0.271548f, 0.105965f, -0.001474f, 
    0.175985f, 0.100130f, 0.165834f, -0.023975f, -0.019031f, 0.284993f, -0.218556f, -0.018623f, 0.107124f, 0.041465f, -0.035306f, 0.053516f, 
    0.393658f, -0.022097f, -0.032499f, 0.081981f, -0.159845f, 0.058928f, -0.030350f, -0.038692f, 0.116744f, 0.154921f, 0.221280f, 0.066207f, 
    -0.032784f, 0.184794f, 0.123842f, -0.266686f, -0.085219f, -0.055072f, 0.008676f, 0.148653f, 0.149722f, 0.110605f, 0.105263f, -0.255188f, 
    0.170286f, -0.196846f, -0.132334f, 0.112689f, -0.204766f, 0.008691f, -0.197739f, 0.013841f, -0.202131f, -0.178542f, 0.252348f, -0.058717f, 
    -0.032211f, 0.247713f, 0.161794f, -0.027144f, -0.162730f, 0.066470f, 0.096280f, -0.245426f, 0.185806f, -0.014016f, -0.141679f, -0.233750f, 
    -0.150110f, -0.023506f, -0.056428f, -0.024854f, 0.373999f, -0.149145f, 0.104098f, 0.012262f, -0.150588f, -0.077104f, 0.031637f, -0.252098f, 
    0.091204f, 0.186111f, 0.072450f, -0.069313f, -0.015076f, 0.147158f, -0.051526f, -0.255163f, -0.116550f, 0.267150f, 0.309344f, -0.144216f, 
    0.182694f, -0.263896f, 0.089317f, 0.149772f, -0.062056f, 0.191878f, 0.059430f, 0.238557f, 0.081543f, -0.174169f, 0.016404f, -0.027223f, 
    -0.228632f, 0.001053f, 0.269775f, 0.033744f, 0.079297f, 0.343400f, -0.002581f, -0.211581f, 0.019779f, -0.124741f, -0.077060f, -0.269209f, 
    0.095578f, 0.312753f, -0.081871f, 0.359474f, -0.104137f, 0.009511f, -0.208133f, -0.029884f, -0.128654f, 0.036436f, 0.051764f, 0.006204f, 
    0.255346f, 0.034195f, 0.201003f, -0.064746f, 0.051482f, 0.193203f, -0.084526f, 0.043002f, -0.184224f, 0.034041f, 0.018852f, 0.394747f, 
    0.194117f, -0.029944f, -0.101987f, 0.059051f, -0.133874f, -0.035443f, 0.315166f, -0.172258f, 0.109778f, -0.164996f, 0.315671f, -0.157364f, 
    0.025634f, -0.048887f, 0.037914f, -0.315180f, -0.058751f, -0.004617f, 0.005169f, 0.191542f, 0.058999f, 0.110739f, -0.043717f, -0.091009f, 
    -0.008243f, -0.166416f, -0.076951f, 0.163583f, -0.098363f, -0.230898f, -0.132009f, -0.016675f, -0.041345f, 0.031713f, 0.039494f, 0.139946f, 
    -0.023460f, 0.005641f, 0.065568f, 0.092818f, -0.069313f, 0.078300f, -0.034579f, -0.037662f, 0.138267f, 0.339667f, -0.028513f, -0.045292f, 
    -0.108479f, -0.108473f, -0.172557f, 0.155647f, 0.228966f, -0.057442f, 0.208965f, -0.059681f, 0.008365f, -0.124512f, 0.014655f, -0.010502f, 
    -0.009282f, 0.066681f, -0.094774f, 0.140177f, -0.102219f, 0.134306f, -0.192877f, -0.034935f, -0.002405f, 0.218005f, 0.218085f, 0.172762f, 
    0.173405f, -0.222458f, -0.002422f, 0.024395f, 0.072509f, 0.154728f, -0.077046f, -0.021239f, -0.017019f, -0.264014f, -0.000093f, 0.005047f, 
    0.049306f, -0.009365f, 0.330193f, 0.148308f, -0.077933f, 0.138507f, -0.132720f, -0.028865f, 0.098758f, 0.011756f, -0.131784f, -0.198327f, 
    0.196660f, 0.153171f, 0.194292f, 0.223817f, -0.089814f, 0.058158f, -0.104569f, -0.073707f, -0.021918f, 0.046246f, 0.219735f, 0.128718f, 
    0.191753f, 0.094220f, 0.245542f, -0.184382f, -0.190575f, 0.242766f, -0.050966f, -0.074287f, 0.016403f, 0.029565f, -0.164247f, 0.176431f, 
    -0.009406f, -0.187182f, 0.034499f, -0.022023f, -0.087159f, -0.120979f, 0.124776f, -0.038388f, 0.019321f, -0.034416f, 0.190552f, 0.110325f, 
    -0.010585f, 0.030659f, 0.020675f, -0.047690f, 0.037695f, -0.061567f, -0.114257f, 0.120862f, 0.025938f, -0.139146f, 0.039852f, -0.096668f, 
    -0.190597f, 0.216993f, 0.147201f, 0.137155f, -0.028428f, -0.088703f, 0.080390f, -0.090931f, -0.046853f, 0.044784f, -0.043440f, 0.063039f, 
    -0.075451f, 0.014221f, -0.055671f, -0.087465f, -0.038489f, 0.117185f, -0.089022f, 0.169654f, -0.258163f, 0.251147f, -0.058854f, 0.054626f, 
    -0.030681f, -0.151101f, 0.038748f, -0.128569f, -0.031812f, -0.055962f, -0.144225f, 0.044215f, -0.135467f, -0.022681f, 0.075083f, 0.081866f, 
    0.005071f, -0.087329f, 0.099016f, 0.044043f, -0.086320f, -0.018062f, -0.291086f, 0.065368f, 0.130731f, 0.162130f, -0.036339f, -0.135387f, 
    -0.154566f, -0.221790f, -0.115507f, 0.072689f, 0.023948f, -0.178756f, 0.100587f, -0.005570f, -0.216208f, -0.069192f, -0.005789f, -0.056302f, 
    0.054253f, 0.051664f, 0.111346f, 0.091077f, -0.104758f, 0.187183f, 0.019320f, -0.040695f, -0.005355f, -0.133225f, -0.055186f, -0.124394f, 
    0.140319f, -0.034682f, -0.051099f, -0.032110f, 0.055364f, -0.058785f, -0.037863f, 0.081798f, 0.012600f, 0.062326f, 0.086252f, 0.055311f, 
    0.178727f, -0.023597f, 0.072664f, -0.117880f, -0.113957f, 0.134845f, -0.169809f, -0.095644f, 0.024841f, 0.040319f, -0.109418f, -0.144260f, 
    0.057274f, -0.087262f, -0.062627f, 0.004479f, 0.126915f, 0.295308f, -0.246976f, -0.153456f, -0.176084f, 0.011118f, 0.118854f, 0.212148f, 
    -0.158140f, -0.032871f, -0.123756f, -0.063969f, 0.158757f, -0.065274f, 0.019985f, 0.053862f, 0.023107f, -0.085622f, 0.180430f, 0.098144f, 
    -0.138361f, 0.109821f, 0.255155f, 0.010788f, -0.064362f, 0.127878f, -0.088124f, 0.191678f, 0.257304f, 0.177392f, -0.122140f, -0.119916f, 
    -0.088337f, 0.009386f, 0.031057f, -0.153164f, -0.008257f, -0.055701f, 0.103306f, 0.049052f, -0.147691f, 0.058724f, 0.167804f, 0.062760f, 
    0.071873f, -0.110684f, 0.004386f, -0.081551f, -0.317496f, 0.257488f, 0.103800f, 0.086925f, 0.026984f, -0.035657f, -0.118981f, 0.077229f, 
    0.000072f, -0.200242f, 0.105196f, -0.273665f, 0.054398f, -0.031276f, -0.013886f, 0.172524f, -0.025057f, 0.071874f, -0.061451f, -0.028751f, 
    -0.055621f, 0.018114f, -0.057959f, 0.118575f, -0.149832f, 0.002973f, 0.049349f, 0.114775f, -0.021873f, -0.084791f, 0.114936f, 0.033039f, 
    0.256173f, -0.129696f, 0.008019f, 0.090132f, -0.169280f, 0.041004f, -0.049640f, 0.045124f, 0.089332f, 0.152587f, 0.154016f, 0.060629f, 
    0.026765f, -0.257673f, 0.109327f, -0.013057f, 0.124257f, -0.098930f, 0.175530f, 0.075654f, 0.120661f, -0.090045f, -0.115768f, -0.075529f, 
    -0.192336f, 0.025102f, 0.055222f, -0.003992f, -0.106706f, -0.115522f, -0.014397f, 0.107416f, 0.147517f, -0.026250f, -0.107714f, -0.048165f, 
    -0.052828f, 0.039199f, 0.017770f, -0.051588f, 0.189798f, 0.150240f, -0.213852f, -0.089352f, -0.192959f, 0.122873f, -0.025998f, 0.255189f, 
    -0.097472f, 0.042135f, -0.097817f, 0.148047f, -0.164157f, 0.169482f, 0.032456f, -0.015974f, -0.011107f, -0.120231f, 0.165117f, -0.051757f, 
    0.042037f, -0.072086f, 0.173543f, 0.020702f, 0.008494f, -0.061252f, 0.269667f, -0.073240f, 0.048208f, 0.088052f, -0.161698f, -0.066303f, 
    -0.064056f, -0.085674f, -0.094261f, 0.035701f, 0.009136f, -0.078775f, 0.053982f, -0.011538f, -0.077116f, -0.067075f, -0.163145f, 0.079522f, 
    0.157000f, -0.024732f, -0.105120f, 0.195743f, -0.167434f, -0.017762f, -0.137885f, 0.043248f, -0.032247f, -0.161436f, -0.019684f, 0.095118f, 
    -0.052209f, -0.155345f, -0.120751f, 0.177926f, 0.050658f, -0.026341f, -0.085852f, -0.057910f, -0.010707f, 0.063278f, 0.075843f, 0.192195f, 
    0.020568f, 0.005731f, 0.033729f, -0.139542f, 0.203489f, 0.090726f, -0.080942f, 0.081748f, -0.057489f, -0.031273f, 0.038823f, -0.286215f, 
    0.120818f, 0.123454f, 0.049494f, -0.006680f, 0.095054f, -0.245963f, -0.178334f, 0.019477f, 0.171212f, -0.123139f, 0.035617f, 0.150086f, 
    0.043410f, 0.062881f, -0.012549f, -0.161529f, 0.132733f, 0.058497f, 0.209289f, -0.126642f, 0.096341f, -0.138039f, -0.013389f, 0.041678f, 
    -0.143930f, -0.049527f, 0.083274f, -0.097199f, -0.144204f, -0.186349f, 0.033933f, -0.187177f, -0.166883f, 0.120026f, -0.234681f, -0.143910f, 
    0.116469f, 0.081659f, -0.027208f, -0.138034f, -0.034347f, -0.106656f, -0.069589f, 0.040708f, -0.136468f, 0.097252f, -0.120593f, 0.120860f, 
    0.010801f, -0.073909f, -0.031674f, 0.020803f, 0.041302f, 0.065375f, -0.069175f, 0.066694f, -0.091978f, 0.092546f, 0.023117f, -0.080933f, 
    0.032250f, -0.152744f, -0.020948f, 0.108104f, -0.107694f, -0.208073f, 0.002449f, -0.038645f, -0.041689f, -0.039855f, 0.003856f, 0.038972f, 
    -0.117531f, 0.168206f, 0.191190f, 0.104907f, 0.014683f, 0.027855f, 0.224773f, -0.079727f, 0.015855f, 0.036886f, 0.094963f, 0.010972f, 
    -0.045522f, 0.109600f, -0.117678f, -0.144074f, 0.127743f, -0.167025f, 0.082042f, -0.115868f, -0.106103f, 0.118770f, -0.100309f, -0.018339f, 
    0.034882f, -0.140685f, 0.017782f, -0.085614f, -0.274205f, -0.061747f, 0.194219f, -0.135012f, 0.023149f, -0.065273f, 0.196240f, -0.079728f, 
    0.018220f, 0.083747f, 0.067210f, 0.015958f, -0.184700f, -0.046609f, 0.147766f, -0.060540f, 0.171158f, -0.075018f, 0.105921f, -0.064439f, 
    -0.193507f, 0.076375f, -0.111109f, -0.034707f, -0.060086f, 0.190910f, 0.052318f, -0.131947f, 0.131737f, 0.180831f, 0.051327f, -0.178425f, 
    -0.060052f, 0.057236f, 0.045453f, 0.047965f, -0.143805f, -0.033607f, -0.010498f, 0.055383f, -0.040309f, -0.108691f, -0.130651f, 0.038847f, 
    0.066812f, 0.152426f, -0.116307f, 0.206530f, 0.080536f, 0.000806f, 0.085022f, 0.113033f, 0.079040f, -0.056466f, -0.012850f, 0.135196f, 
    -0.028026f, 0.074809f, -0.051567f, 0.038878f, -0.040219f, -0.062419f, 0.179718f, 0.033010f, 0.054078f, -0.013598f, 0.114646f, 0.085368f, 
    -0.141584f, 0.007130f, 0.052736f, 0.418592f, -0.054233f, 0.042771f, 0.111040f, -0.023642f, -0.261024f, 0.238503f, 0.198933f, 0.121429f, 
    0.128923f, -0.093590f, 0.015364f, 0.032413f, 0.181822f, -0.090644f, -0.036721f, -0.055951f, -0.025150f, 0.016008f, 0.021336f, -0.039954f, 
    0.091234f, -0.079361f, -0.262718f, 0.155742f, 0.142362f, -0.023616f, 0.149754f, -0.214418f, -0.117608f, -0.064917f, -0.146755f, -0.019998f, 
    0.235237f, 0.191338f, 0.176691f, 0.067571f, 0.004214f, 0.099384f, -0.224208f, 0.172448f, -0.119283f, -0.099555f, -0.115593f, 0.033237f, 
    -0.103087f, -0.143481f, -0.048859f, 0.035263f, -0.157940f, -0.190739f, 0.071945f, -0.037079f, -0.061954f, 0.066093f, 0.051604f, 0.000731f, 
    0.078412f, -0.077353f, -0.027796f, -0.129850f, 0.227584f, -0.197123f, -0.238508f, 0.021292f, 0.103076f, 0.238488f, -0.090115f, -0.204645f, 
    0.173973f, -0.254932f, -0.163054f, 0.104773f, 0.073833f, 0.028853f, -0.045010f, -0.051733f, 0.045732f, 0.100736f, -0.165730f, -0.030622f, 
    0.252887f, -0.149044f, 0.019042f, -0.081728f, -0.151101f, 0.019412f, 0.059992f, 0.009410f, -0.011985f, 0.110125f, -0.054379f, -0.011688f, 
    0.038690f, 0.079006f, 0.152432f, 0.002251f, 0.034140f, -0.089857f, -0.020284f, 0.005045f, 0.236628f, -0.168383f, 0.221481f, -0.023441f, 
    -0.040279f, 0.087197f, -0.052586f, -0.031884f, -0.047294f, 0.108819f, 0.047312f, -0.026596f, -0.018903f, 0.026488f, -0.261458f, 0.007342f, 
    -0.169993f, -0.018471f, -0.167564f, 0.068970f, -0.073412f, 0.070867f, -0.086120f, 0.074591f, -0.037337f, -0.156773f, 0.040205f, -0.142356f, 
    0.061096f, -0.118100f, -0.019852f, 0.090439f, 0.285133f, 0.013950f, -0.064383f, -0.212253f, -0.065976f, 0.032700f, -0.076970f, -0.098444f, 
    0.002839f, 0.026538f, -0.052779f, -0.038675f, 0.177059f, -0.036756f, -0.047190f, -0.093397f, 0.190272f, -0.326371f, -0.169194f, -0.033007f, 
    -0.022321f, 0.023426f, -0.092099f, -0.026073f, -0.028868f, 0.032232f, 0.088702f, -0.025257f, -0.101521f, 0.168414f, 0.175308f, -0.030069f, 
    -0.085648f, 0.206990f, -0.119589f, 0.046355f, 0.055109f, -0.116566f, 0.066499f, 0.131974f, -0.206960f, -0.060819f, 0.067086f, -0.019340f, 
    0.004431f, 0.287981f, -0.128796f, -0.273419f, 0.139085f, -0.081239f, -0.045199f, -0.083089f, 0.017128f, 0.028822f, -0.035569f, -0.126184f, 
    -0.041941f, 0.217327f, 0.087027f, -0.012348f, 0.106870f, -0.019480f, -0.145642f, -0.103505f, -0.268903f, -0.055946f, 0.067527f, -0.102009f, 
    -0.071534f, -0.052939f, -0.048646f, 0.002920f, 0.060169f, 0.171177f, 0.011123f, 0.031255f, 0.030111f, 0.100224f, 0.119892f, -0.101367f, 
    -0.149302f, -0.155727f, -0.236274f, -0.179857f, 0.009483f, -0.198843f, -0.265033f, -0.146451f, -0.060945f, 0.138114f, 0.077976f, 0.041551f, 
    0.401514f, 0.156638f, -0.137398f, 0.027721f, -0.228512f, -0.167864f, 0.113532f, 0.034862f, 0.185033f, 0.085786f, -0.049432f, -0.119046f, 
    0.136967f, 0.088853f, -0.103875f, -0.021861f, -0.091570f, -0.113670f, -0.003854f, -0.309238f, -0.119340f, -0.268514f, -0.152831f, -0.038165f, 
    0.045166f, -0.038706f, -0.018643f, -0.170020f, 0.145772f, -0.083441f, 0.134330f, 0.069602f, 0.172445f, -0.052656f, 0.089919f, 0.214594f, 
    0.192242f, 0.028531f, 0.131708f, 0.019283f, 0.051093f, -0.258844f, 0.376770f, -0.118211f, 0.095592f, -0.126202f, -0.194106f, 0.156696f, 
    -0.157931f, 0.128842f, 0.037723f, 0.183194f, 0.085724f, 0.109594f, -0.107448f, 0.010224f, 0.072706f, 0.138119f, -0.094884f, 0.208100f, 
    -0.363545f, -0.284858f, 0.134362f, -0.131902f, 0.321677f, 0.183191f, 0.077236f, 0.108631f, -0.084595f, -0.217548f, -0.093104f, -0.158873f, 
    0.026174f, -0.027779f, 0.124640f, 0.210325f, -0.178530f, 0.217260f, -0.033223f, 0.285069f, -0.078009f, 0.006360f, -0.101156f, -0.112299f, 
    -0.109322f, -0.160094f, 0.163792f, 0.052246f, 0.197706f, -0.260678f, 0.124400f, 0.090421f, -0.056147f, 0.026435f, 0.073853f, 0.177331f, 
    0.131748f, -0.165280f, -0.010649f, -0.100427f, -0.016084f, -0.153983f, 0.038447f, 0.115205f, -0.023802f, -0.137402f, -0.263738f, 0.132006f, 
    -0.302873f, -0.308342f, -0.124379f, -0.047563f, 0.084517f, -0.055535f, 0.050477f, 0.039158f, -0.011532f, -0.002730f, 0.135957f, -0.048769f, 
    -0.095740f, 0.198834f, 0.071242f, 0.091320f, 0.139518f, -0.026458f, 0.019432f, -0.340656f, -0.139383f, 0.031755f, -0.265093f, -0.047671f, 
    0.244360f, -0.014572f, -0.010911f, 0.021727f, -0.054828f, -0.106497f, -0.082792f, -0.101964f, -0.044134f, 0.120154f, -0.067043f, 0.067203f, 
    -0.021437f, 0.078881f, -0.068124f, 0.013187f, 0.067741f, -0.050782f, -0.020870f, 0.133270f, 0.004073f, -0.034724f, 0.178546f, -0.083602f, 
    -0.105724f, -0.088233f, -0.031959f, 0.015493f, 0.048573f, -0.054236f, 0.014651f, -0.060440f, -0.028677f, 0.200098f, -0.258822f, -0.002609f, 
    -0.183976f, 0.030362f, -0.089340f, 0.003707f, 0.189276f, 0.025902f, 0.171526f, -0.079811f, 0.079281f, -0.156333f, 0.098360f, -0.123535f, 
    -0.087318f, 0.112617f, -0.017931f, 0.017378f, 0.241478f, 0.094542f, 0.005329f, -0.020973f, 0.080732f, -0.043218f, 0.060744f, 0.161229f, 
    0.098114f, -0.206687f, 0.057723f, 0.000298f, -0.061606f, 0.076515f, -0.008142f, 0.092026f, 0.037164f, -0.077860f, 0.001681f, 0.138294f, 
    0.074037f, -0.147485f, 0.105519f, -0.137146f, 0.143743f, -0.088430f, -0.006732f, 0.162156f, -0.089052f, 0.048914f, -0.216781f, -0.012989f, 
    0.038874f, 0.099821f, 0.203293f, -0.000150f, -0.108667f, 0.186807f, -0.053413f, 0.027611f, -0.087166f, 0.048834f, -0.044258f, 0.098226f, 
    -0.042890f, 0.095695f, 0.291091f, 0.031932f, -0.148609f, 0.040929f, 0.080569f, -0.080965f, -0.005662f, 0.167044f, -0.138535f, 0.157961f, 
    0.203020f, 0.153052f, 0.185296f, 0.176401f, 0.077735f, 0.123552f, 0.228201f, 0.030227f, -0.043912f, 0.047285f, 0.096759f, -0.030419f, 
    -0.034526f, 0.096898f, -0.024474f, 0.070306f, 0.008510f, 0.221053f, 0.183773f, 0.109338f, 0.023117f, -0.081983f, 0.137685f, -0.200428f, 
    0.047711f, 0.108752f, 0.222808f, -0.122420f, 0.307052f, 0.051956f, 0.130792f, -0.105070f, 0.025848f, -0.033781f, -0.244790f, -0.085944f, 
    0.098629f, 0.167926f, 0.006892f, -0.019111f, -0.006245f, 0.065461f, 0.138201f, 0.072411f, 0.002123f, -0.236167f, 0.140121f, 0.004840f, 
    0.115238f, 0.090567f, 0.124652f, 0.068506f, -0.104478f, 0.065460f, -0.273155f, -0.075528f, -0.036393f, 0.257251f, 0.248646f, 0.073094f, 
    -0.115811f, -0.067184f, -0.275291f, -0.077335f, -0.029390f, -0.258155f, 0.092687f, 0.183060f, -0.148970f, 0.156190f, -0.015722f, 0.014921f, 
    -0.029774f, 0.201721f, -0.208495f, -0.088140f, 0.075642f, -0.181874f, 0.000062f, 0.116659f, -0.130485f, 0.119208f, -0.142172f, -0.097465f, 
    -0.138725f, 0.023954f, -0.120084f, 0.160098f, 0.049878f, -0.001858f, 0.080943f, 0.205729f, -0.192815f, 0.089614f, 0.099302f, 0.186226f, 
    -0.068341f, -0.033672f, -0.192154f, 0.098571f, 0.209191f, -0.168969f, 0.192684f, 0.112915f, 0.159390f, 0.006023f, -0.065517f, -0.218757f, 
    0.169715f, -0.036692f, -0.119498f, -0.099119f, 0.208380f, -0.197499f, -0.032237f, -0.130183f, -0.143917f, -0.145822f, -0.115243f, -0.019733f, 
    -0.038320f, -0.057843f, -0.129981f, -0.249899f, -0.046866f, -0.056959f, -0.335023f, -0.048773f, 0.146329f, 0.069751f, -0.126141f, 0.011095f, 
    0.099581f, 0.015449f, 0.155442f, 0.177110f, 0.304838f, -0.040737f, 0.062260f, 0.155194f, 0.014030f, 0.107568f, 0.197424f, 0.100933f, 
    -0.288169f, 0.118271f, 0.132413f, -0.332117f, 0.016591f, -0.017550f, 0.064083f, 0.084583f, 0.196260f, 0.136764f, 0.058619f, -0.072714f, 
    0.044732f, -0.078097f, -0.105801f, -0.255897f, 0.001149f, 0.087563f, 0.061662f, 0.173975f, -0.027549f, 0.056698f, 0.109623f, -0.047288f, 
    0.008686f, -0.122944f, -0.026192f, 0.131431f, -0.461413f, -0.055822f, 0.090791f, 0.136717f, 0.355856f, -0.111446f, 0.078230f, 0.209320f, 
    0.164974f, -0.177871f, 0.004336f, -0.378662f, -0.244427f, 0.037034f, -0.131306f, -0.228155f, 0.117371f, 0.062553f, -0.075663f, 0.091861f, 
    0.074104f, 0.248052f, 0.012771f, 0.155930f, 0.024002f, -0.174502f, 0.177985f, -0.138458f, -0.040446f, -0.081447f, -0.165594f, 0.016071f, 
    0.055130f, -0.076182f, -0.124783f, -0.090311f, -0.051438f, -0.171277f, 0.224497f, 0.056533f, -0.063011f, -0.149249f, 0.327807f, 0.159452f, 
    -0.233504f, 0.128150f, 0.001501f, 0.069417f, -0.172873f, -0.148866f, -0.077962f, 0.044234f, 0.061026f, -0.280024f, -0.195313f, 0.002374f, 
    -0.110080f, 0.046650f, 0.056274f, 0.082222f, -0.027619f, 0.166429f, 0.321523f, 0.054523f, -0.030878f, 0.014410f, 0.210298f, -0.259380f, 
    -0.235547f, 0.040170f, 0.141326f, 0.229597f, 0.117666f, -0.132815f, -0.203176f, 0.203900f, 0.047258f, -0.162635f, -0.110732f, 0.089918f, 
    -0.143951f, -0.175574f, -0.129213f, 0.047474f, 0.098800f, 0.111542f, -0.029900f, 0.044000f, -0.165276f, 0.060039f, 0.245977f, -0.061513f, 
    -0.051475f, -0.179290f, -0.055643f, 0.014322f, -0.004314f, -0.119592f, 0.112252f, 0.061024f, -0.020174f, 0.063746f, -0.094709f, 0.024902f, 
    0.015814f, 0.144269f, 0.181133f, 0.005323f, -0.009830f, 0.100338f, 0.000941f, 0.005344f, -0.208072f, 0.093044f, 0.048520f, -0.134168f, 
    0.104355f, -0.155995f, -0.125657f, -0.034291f, -0.151205f, -0.050253f, 0.097704f, 0.083676f, -0.099424f, -0.092025f, 0.043082f, -0.088354f, 
    0.130593f, -0.019025f, -0.152035f, 0.131620f, -0.065132f, -0.032004f, -0.056172f, -0.066070f, 0.115516f, 0.233379f, 0.057638f, -0.090957f, 
    -0.084196f, -0.166267f, -0.088736f, -0.057489f, -0.100121f, 0.044240f, -0.004854f, -0.139140f, -0.071280f, -0.124715f, -0.182987f, -0.018206f, 
    0.301284f, 0.071145f, 0.016854f, 0.052863f, 0.040180f, 0.187261f, -0.036990f, -0.016872f, 0.176148f, 0.109215f, -0.075318f, 0.041349f, 
    0.042369f, 0.043842f, -0.066527f, -0.123456f, -0.129466f, -0.042562f, 0.119525f, -0.186593f, -0.166077f, -0.106083f, 0.034412f, 0.047850f, 
    0.183268f, 0.039080f, 0.119047f, 0.039248f, -0.106592f, 0.086534f, 0.061545f, -0.109383f, -0.116462f, -0.023449f, -0.134956f, -0.003449f, 
    0.083709f, -0.053839f, 0.025503f, 0.095692f, -0.250902f, 0.098286f, 0.159827f, -0.172382f, -0.126777f, 0.152029f, 0.114187f, 0.114717f, 
    0.035076f, -0.003312f, 0.066082f, 0.193498f, 0.018800f, -0.102778f, 0.029011f, 0.040010f, -0.006819f, -0.253537f, -0.109098f, -0.098287f, 
    -0.156576f, 0.235480f, 0.253870f, 0.047627f, 0.010461f, 0.114651f, 0.102171f, -0.075123f, 0.118724f, -0.036877f, -0.155735f, -0.136004f, 
    0.001517f, -0.150492f, -0.122940f, 0.081134f, 0.044521f, -0.207897f, -0.279298f, 0.038447f, -0.097505f, -0.086257f, 0.153127f, -0.077312f, 
    0.028192f, 0.080520f, 0.237963f, 0.002424f, -0.255927f, 0.162600f, -0.152384f, 0.021500f, 0.097022f, 0.205490f, 0.058324f, 0.092582f, 
    0.213040f, -0.062372f, 0.149294f, 0.003159f, 0.002292f, -0.269286f, -0.205250f, 0.158357f, 0.041229f, -0.152720f, -0.065931f, -0.034436f, 
    -0.211226f, 0.278969f, -0.126855f, -0.087394f, -0.055657f, -0.001729f, -0.008037f, -0.111310f, 0.009560f, -0.001016f, 0.037264f, 0.018759f, 
    -0.073606f, 0.028585f, -0.336520f, 0.036537f, -0.006270f, -0.207815f, 0.082446f, -0.172372f, -0.205187f, 0.047600f, 0.199150f, 0.028373f, 
    -0.236689f, -0.141063f, -0.217689f, -0.189449f, -0.095197f, -0.061280f, 0.065422f, -0.016612f, 0.188278f, 0.018489f, -0.232512f, -0.223807f, 
    -0.036719f, 0.056681f, -0.299625f, 0.001062f, -0.080933f, -0.142105f, -0.156811f, 0.033455f, 0.070019f, -0.134284f, 0.145533f, -0.380211f, 
    -0.069227f, -0.045779f, -0.039204f, 0.061847f, 0.051350f, 0.018166f, -0.329724f, 0.062061f, 0.051646f, -0.224841f, 0.070229f, 0.153267f, 
    -0.071305f, 0.066284f, 0.049584f, 0.062384f, -0.127997f, 0.000092f, -0.062057f, 0.116908f, -0.002455f, -0.207439f, 0.274948f, 0.067888f, 
    0.095199f, 0.069311f, 0.073914f, -0.245445f, 0.029082f, -0.009327f, -0.051117f, 0.024176f, 0.115308f, 0.188327f, -0.070538f, -0.105686f, 
    0.084744f, 0.062196f, 0.279747f, -0.017275f, -0.001645f, 0.068257f, -0.035803f, 0.173235f, 0.126957f, -0.129599f, 0.024779f, -0.101208f, 
    0.021834f, -0.031321f, 0.027895f, -0.098181f, -0.093716f, 0.083736f, -0.126916f, 0.035798f, 0.075030f, 0.165233f, 0.277389f, -0.115267f, 
    -0.111405f, 0.092853f, -0.068289f, -0.008806f, 0.154370f, 0.106476f, -0.046280f, 0.067196f, -0.091344f, -0.087611f, -0.005666f, -0.150464f, 
    0.036804f, 0.032554f, -0.199723f, -0.003922f, 0.059954f, -0.143777f, 0.087515f, -0.023387f, -0.117945f, -0.258901f, -0.211751f, -0.070117f, 
    -0.299266f, -0.026904f, -0.020070f, -0.105882f, -0.033521f, 0.025264f, 0.059110f, -0.046642f, -0.253498f, -0.165989f, 0.254977f, -0.020280f, 
    -0.103242f, -0.059252f, -0.107226f, -0.022968f, 0.064468f, -0.073100f, -0.056323f, 0.139389f, -0.017716f, -0.240582f, -0.074578f, -0.072091f, 
    0.058404f, -0.009376f, -0.199623f, -0.035999f, 0.092477f, -0.099760f, 0.144817f, -0.061887f, -0.231466f, 0.026446f, 0.078955f, -0.054257f, 
    0.040879f, -0.047522f, -0.121295f, -0.095952f, 0.169591f, -0.059587f, -0.050576f, 0.041846f, 0.045109f, -0.151857f, -0.105643f, 0.063695f, 
    0.234002f, 0.108062f, -0.109736f, 0.113352f, -0.125612f, 0.032974f, 0.082722f, -0.039000f, -0.221639f, -0.083768f, -0.142043f, -0.021039f, 
    0.090754f, -0.055008f, 0.014133f, 0.061462f, -0.015711f, -0.126952f, 0.106040f, -0.127441f, -0.090639f, -0.128139f, 0.053149f, -0.014845f, 
    0.075440f, 0.124154f, -0.118546f, 0.264233f, -0.058228f, 0.098657f, -0.073035f, 0.034274f, -0.096306f, -0.052522f, -0.084798f, 0.068287f, 
    -0.043230f, -0.203546f, -0.160779f, 0.066901f, 0.049800f, -0.135444f, -0.159867f, -0.059340f, -0.112546f, -0.014231f, 0.143162f, -0.077612f, 
    0.023387f, 0.203641f, -0.057761f, 0.261459f, -0.046497f, 0.053600f, -0.139813f, 0.009868f, -0.006359f, 0.220697f, 0.021666f, 0.016842f, 
    -0.133069f, -0.141400f, 0.106528f, -0.118916f, 0.018177f, 0.155290f, -0.187519f, -0.019729f, -0.069585f, 0.110687f, 0.150638f, -0.144922f, 
    0.070087f, -0.011735f, 0.108687f, 0.143736f, 0.099258f, -0.057880f, -0.107620f, 0.111360f, 0.019507f, -0.071731f, -0.259410f, -0.026230f, 
    0.066534f, 0.197369f, -0.177334f, 0.072327f, 0.009195f, 0.053473f, 0.158832f, 0.026325f, -0.188427f, 0.183636f, 0.166520f, 0.000523f, 
    -0.038835f, 0.154869f, 0.188175f, -0.174291f, -0.070450f, -0.050824f, -0.262615f, -0.070223f, -0.027489f, 0.039075f, -0.203298f, 0.008174f, 
    0.334018f, -0.134120f, -0.051602f, 0.063338f, -0.026909f, -0.078381f, -0.064116f, -0.025233f, 0.143978f, 0.096605f, -0.053712f, 0.092522f, 
    0.229104f, -0.038917f, -0.055282f, 0.014329f, -0.114837f, 0.086987f, 0.225871f, -0.122517f, -0.151777f, -0.083290f, -0.247911f, -0.162413f, 
    -0.038870f, 0.094030f, -0.109819f, -0.326623f, -0.083715f, -0.116211f, 0.017669f, -0.104154f, -0.115508f, -0.349364f, 0.239224f, 0.098779f, 
    -0.021692f, 0.083678f, -0.077688f, 0.185928f, 0.036529f, 0.161721f, 0.247335f, -0.110784f, -0.003422f, 0.142671f, -0.427031f, -0.281589f, 
    -0.217280f, -0.195844f, -0.016989f, -0.040495f, 0.276020f, -0.032207f, 0.099526f, -0.347149f, -0.070284f, -0.029920f, 0.178688f, -0.228118f, 
    -0.245180f, -0.068627f, 0.084925f, 0.231925f, 0.146979f, -0.069663f, -0.144113f, -0.016309f, -0.059580f, 0.262892f, 0.284525f, 0.057261f, 
    0.021432f, -0.097532f, 0.345562f, 0.102157f, -0.060007f, 0.211039f, -0.127756f, 0.029566f, 0.195189f, 0.002222f, -0.072192f, 0.193836f, 
    -0.258822f, -0.328793f, 0.246404f, 0.166232f, 0.225085f, 0.230306f, 0.039204f, -0.175792f, -0.197833f, 0.015084f, -0.153241f, -0.122706f, 
    0.001223f, 0.181482f, 0.064663f, 0.199036f, -0.284126f, 0.036157f, 0.010193f, 0.251858f, -0.047781f, 0.185411f, -0.283567f, -0.050989f, 
    0.123051f, -0.216880f, 0.239951f, -0.030489f, 0.198988f, 0.281427f, 0.028656f, -0.265411f, -0.097789f, -0.115891f, -0.120734f, 0.228318f, 
    -0.135761f, 0.004528f, -0.055548f, 0.113062f, -0.003108f, 0.002986f, 0.143047f, -0.212236f, 0.008067f, -0.016206f, 0.065328f, -0.179787f, 
    -0.137586f, -0.033709f, -0.071402f, -0.088970f, -0.010517f, 0.018042f, 0.083723f, 0.077855f, 0.019387f, -0.175371f, -0.103407f, 0.059941f, 
    -0.034041f, -0.048275f, 0.127393f, -0.266555f, -0.054142f, -0.040595f, -0.019760f, -0.161332f, -0.117385f, -0.047575f, 0.159663f, -0.034598f, 
    -0.014699f, 0.012217f, -0.002954f, 0.012533f, 0.068187f, 0.020444f, 0.222802f, 0.009178f, 0.169023f, 0.177857f, -0.138537f, 0.032742f, 
    -0.208048f, -0.126044f, 0.118066f, 0.063858f, 0.002593f, 0.143052f, -0.063695f, -0.039821f, 0.000075f, -0.096091f, -0.138524f, -0.152479f, 
    -0.021382f, 0.044511f, -0.117261f, 0.144565f, 0.142215f, 0.123243f, -0.284449f, 0.076018f, 0.025777f, -0.026652f, -0.076167f, -0.003187f, 
    0.036631f, 0.012526f, -0.084735f, 0.106567f, 0.100909f, 0.011622f, -0.010260f, -0.177385f, 0.132667f, 0.047494f, -0.120597f, -0.104665f, 
    0.057396f, -0.111242f, -0.016057f, 0.098350f, 0.198569f, -0.141526f, 0.045018f, 0.148506f, 0.024204f, -0.185356f, 0.060500f, -0.109051f, 
    -0.049308f, 0.041063f, 0.061860f, 0.027621f, 0.078750f, 0.127370f, -0.209750f, 0.120001f, -0.105184f, -0.003466f, -0.249168f, 0.091657f, 
    -0.099424f, 0.025298f, 0.169424f, -0.099508f, -0.038383f, 0.185036f, 0.040357f, -0.032910f, 0.010786f, 0.021782f, 0.083463f, 0.083331f, 
    0.061548f, -0.066950f, 0.124671f, 0.094122f, -0.032926f, 0.032839f, 0.026332f, -0.106453f, 0.142784f, 0.068475f, 0.096364f, 0.010914f, 
    -0.074885f, -0.044581f, -0.103913f, 0.057572f, -0.144377f, -0.140397f, -0.044044f, 0.165909f, -0.078847f, -0.196236f, 0.081940f, 0.029734f, 
    -0.079895f, -0.063651f, 0.095881f, 0.192408f, 0.100346f, 0.038820f, -0.117750f, 0.001208f, 0.085875f, -0.123158f, -0.063365f, 0.173389f, 
    0.124064f, 0.002732f, -0.080224f, -0.014366f, 0.186644f, 0.048684f, -0.043865f, -0.052525f, -0.117617f, 0.000540f, -0.210028f, 0.000946f, 
    -0.126368f, 0.137734f, 0.208519f, -0.071548f, 0.155660f, -0.122848f, -0.061579f, 0.072394f, 0.047421f, 0.184230f, 0.069007f, 0.186715f, 
    0.028038f, 0.130715f, 0.086042f, 0.058763f, 0.075717f, 0.125346f, -0.177437f, -0.011257f, -0.005163f, 0.043609f, 0.047112f, 0.136620f, 
    -0.129797f, -0.064498f, -0.060960f, -0.102745f, -0.030941f, -0.157198f, -0.172926f, 0.222549f, -0.109632f, -0.014069f, -0.051045f, -0.083664f, 
    0.070368f, -0.033056f, 0.233051f, -0.107407f, 0.001461f, -0.017816f, -0.108790f, 0.101113f, 0.074818f, -0.198545f, -0.027665f, -0.049855f, 
    0.151738f, -0.017798f, 0.077174f, 0.101756f, 0.146786f, 0.102479f, -0.031929f, -0.067869f, 0.058461f, 0.145478f, -0.102816f, 0.025235f, 
    -0.026513f, -0.082948f, -0.181691f, -0.034660f, -0.186557f, -0.065283f, -0.147980f, -0.283449f, -0.080374f, -0.129621f, -0.091790f, 0.055888f, 
    0.151581f, -0.046854f, 0.083964f, -0.020455f, -0.098346f, -0.042412f, -0.114210f, -0.092069f, -0.068428f, -0.001223f, 0.056417f, 0.167254f, 
    0.057620f, 0.038033f, -0.108864f, -0.062997f, 0.019751f, 0.047394f, -0.202846f, 0.260978f, 0.099382f, 0.173595f, -0.071616f, -0.140491f, 
    -0.060960f, 0.049450f, -0.060487f, 0.092892f, 0.123182f, -0.098082f, -0.017314f, 0.084006f, 0.199242f, -0.069310f, -0.024999f, -0.118618f, 
    -0.060862f, -0.077686f, -0.186468f, -0.175657f, 0.025879f, 0.041848f, -0.172422f, -0.012033f, -0.034396f, 0.221751f, 0.100487f, -0.071722f, 
    -0.051199f, 0.097603f, 0.077156f, 0.002507f, -0.066639f, -0.043268f, 0.048029f, 0.078251f, -0.019991f, 0.044795f, 0.063810f, 0.122550f, 
    0.067891f, 0.111822f, -0.202394f, 0.039312f, -0.186070f, -0.054922f, -0.203027f, -0.002712f, -0.089838f, -0.046013f, -0.054228f, -0.095923f, 
    -0.061709f, 0.116359f, -0.238988f, -0.005970f, -0.028953f, -0.049415f, 0.155690f, -0.075668f, -0.192014f, -0.003688f, -0.057127f, 0.036104f, 
    0.043484f, 0.149869f, -0.183686f, 0.054750f, -0.085200f, -0.047577f, 0.164568f, 0.115861f, 0.318193f, -0.130013f, -0.056375f, 0.207676f, 
    0.108417f, 0.143861f, 0.098707f, 0.193745f, 0.156511f, -0.196982f, -0.061672f, 0.023634f, 0.093531f, -0.064247f, 0.224060f, 0.076815f, 
    -0.038121f, 0.048360f, -0.128857f, -0.021282f, -0.004560f, 0.036317f, 0.093533f, 0.271171f, -0.113153f, 0.095871f, -0.026879f, 0.004020f, 
    -0.107425f, 0.054726f, -0.026110f, 0.081826f, -0.260612f, -0.133421f, -0.231428f, -0.147212f, 0.057277f, -0.153994f, 0.076951f, -0.015295f, 
    -0.241652f, 0.070335f, 0.040737f, -0.056268f, -0.033176f, 0.045517f, -0.000930f, -0.018469f, 0.067559f, -0.092197f, -0.008871f, -0.027173f, 
    -0.072172f, 0.023390f, 0.201353f, -0.019728f, 0.072548f, 0.061843f, 0.133165f, 0.083778f, 0.018041f, 0.159761f, -0.090322f, -0.041780f, 
    -0.026834f, 0.052009f, -0.103578f, -0.160848f, 0.079542f, -0.158149f, 0.010779f, 0.039802f, -0.076391f, -0.095280f, 0.075724f, 0.093310f, 
    0.096827f, -0.042317f, 0.075827f, 0.175344f, -0.194313f, 0.160280f, -0.012828f, 0.002569f, -0.122687f, 0.183078f, 0.056375f, 0.189510f, 
    0.018916f, 0.078690f, -0.102828f, -0.096896f, 0.063299f, 0.133732f, -0.013658f, 0.157427f, -0.118092f, 0.062630f, -0.122767f, -0.113468f, 
    -0.202885f, -0.084163f, -0.071599f, -0.076528f, -0.058606f, 0.077431f, 0.182909f, -0.028665f, -0.041073f, -0.093559f, 0.127768f, -0.275709f, 
    0.324112f, 0.038157f, -0.071806f, -0.131747f, -0.097576f, -0.140176f, 0.033422f, 0.231009f, 0.054602f, 0.071650f, 0.090379f, -0.121036f, 
    -0.007195f, -0.128216f, 0.140003f, -0.125540f, 0.150664f, 0.001835f, 0.091784f, 0.046302f, 0.048872f, -0.173875f, -0.034648f, 0.078376f, 
    -0.053557f, -0.050619f, -0.000358f, 0.035910f, -0.022183f, -0.190342f, 0.091605f, -0.128080f, -0.065944f, 0.109372f, -0.063932f, -0.150074f, 
    0.056131f, 0.112127f, -0.013029f, -0.180851f, -0.043277f, 0.088076f, -0.237094f, 0.117188f, -0.014518f, 0.049201f, 0.087981f, 0.121520f, 
    0.119578f, -0.073359f, 0.011183f, -0.130118f, -0.102915f, 0.127286f, -0.007495f, -0.150624f, -0.002446f, -0.032937f, 0.054864f, 0.004735f, 
    0.088744f, 0.098917f, -0.242515f, -0.024613f, 0.184472f, -0.094168f, -0.204044f, 0.014477f, -0.147389f, -0.017089f, 0.142238f, 0.133471f, 
    -0.028622f, -0.022805f, 0.025507f, 0.074532f, 0.073122f, 0.214988f, 0.105851f, -0.020480f, 0.111753f, 0.163135f, 0.008199f, -0.148540f, 
    -0.079800f, 0.056884f, 0.022593f, -0.120223f, 0.050741f, -0.098609f, 0.191249f, -0.261146f, -0.113465f, -0.107354f, 0.232801f, -0.015964f, 
    -0.012512f, -0.011763f, 0.130340f, 0.062855f, 0.137468f, -0.257680f, 0.131116f, 0.042156f, 0.114281f, 0.150822f, 0.165474f, -0.070885f, 
    0.127511f, -0.380691f, -0.124842f, -0.144458f, -0.020893f, -0.009803f, 0.133537f, 0.036645f, 0.049195f, 0.125937f, 0.043210f, 0.261077f, 
    -0.248652f, 0.014737f, 0.015388f, 0.118391f, 0.174285f, 0.169112f, -0.000217f, -0.072384f, 0.023504f, -0.131987f, 0.006106f, -0.051956f, 
    -0.143157f, 0.061962f, 0.008485f, 0.193836f, -0.077684f, -0.187732f, -0.128362f, 0.117331f, -0.038897f, 0.071630f, -0.073689f, -0.073865f, 
    -0.034179f, -0.118829f, 0.336134f, 0.179737f, 0.013287f, 0.151473f, 0.045118f, -0.098170f, 0.021436f, 0.113601f, -0.072174f, 0.283497f, 
    -0.365464f, 0.011911f, -0.063971f, -0.018468f, -0.066956f, 0.068392f, 0.260361f, -0.001578f, -0.142506f, -0.073463f, -0.091462f, -0.068374f, 
    -0.167358f, 0.141912f, 0.007054f, 0.087083f, -0.125610f, 0.264365f, 0.218586f, -0.016656f, 0.107029f, -0.112144f, -0.081617f, -0.121884f, 
    0.209240f, 0.111954f, 0.005313f, 0.112264f, 0.168085f, 0.114894f, 0.166298f, 0.103905f, -0.138943f, 0.219892f, -0.176140f, -0.142239f, 
    0.161911f, -0.194679f, -0.069985f, 0.020223f, -0.036667f, -0.074245f, 0.097372f, 0.340790f, 0.012523f, 0.062932f, 0.196676f, 0.094511f, 
    0.184822f, 0.111656f, -0.081443f, -0.102095f, -0.235462f, 0.081943f, -0.161087f, 0.204978f, -0.193372f, -0.031298f, -0.022801f, 0.213989f, 
    0.066375f, 0.019063f, 0.031251f, 0.124710f, -0.185463f, -0.313063f, 0.136949f, 0.269634f, -0.230215f, -0.173491f, 0.033289f, -0.294247f, 
    -0.182132f, -0.268058f, -0.214639f, -0.076639f, 0.293051f, -0.104865f, 0.140149f, 0.148010f, 0.043961f, -0.019722f, 0.109684f, -0.004839f, 
    0.035517f, 0.172978f, -0.124549f, 0.173322f, -0.216749f, -0.075958f, -0.014365f, 0.143609f, 0.114340f, 0.112960f, 0.235851f, 0.170229f, 
    -0.012022f, -0.025505f, -0.349074f, -0.100242f, -0.045399f, -0.003686f, 0.112478f, -0.009929f, 0.051605f, -0.150867f, -0.095370f, -0.076814f, 
    0.124551f, -0.108446f, 0.150090f, 0.115767f, 0.120371f, -0.144488f, -0.074142f, 0.059021f, 0.020058f, 0.199973f, 0.031107f, -0.267417f, 
    -0.147475f, 0.136117f, -0.215998f, 0.012398f, 0.037334f, 0.093262f, -0.121631f, 0.111080f, -0.044920f, -0.191496f, -0.211807f, -0.024389f, 
    -0.039711f, -0.103184f, -0.017139f, -0.039183f, -0.185946f, -0.003794f, -0.073746f, -0.202955f, 0.135941f, 0.053668f, -0.020102f, 0.067057f, 
    0.050478f, -0.049402f, 0.228768f, 0.007493f, -0.170519f, 0.090777f, -0.052001f, -0.007829f, 0.256801f, 0.000836f, 0.073113f, 0.036373f, 
    -0.018045f, 0.124557f, 0.039284f, 0.125649f, -0.257523f, -0.108055f, 0.201527f, -0.047446f, -0.109136f, -0.157694f, -0.028694f, 0.193173f, 
    0.217241f, 0.097770f, 0.021657f, 0.049041f, 0.082325f, -0.120062f, 0.100648f, -0.015696f, -0.107730f, 0.185050f, -0.195561f, 0.129115f, 
    0.008039f, 0.085561f, -0.151423f, 0.111585f, 0.148491f, 0.083554f, 0.000097f, -0.043378f, -0.059412f, 0.092215f, -0.024563f, -0.032601f, 
    -0.092155f, 0.105532f, 0.022684f, -0.154012f, -0.070056f, 0.084975f, -0.145226f, 0.161221f, 0.050531f, -0.170008f, -0.020019f, 0.002481f, 
    -0.103514f, 0.103521f, -0.012548f, -0.077816f, 0.031804f, -0.043551f, -0.101380f, 0.044811f, -0.136936f, 0.074214f, -0.201425f, 0.163475f, 
    -0.042451f, -0.028907f, -0.000377f, -0.007651f, -0.054065f, -0.019335f, 0.086403f, -0.058461f, -0.093106f, -0.189414f, -0.068727f, -0.184290f, 
    0.048641f, -0.270984f, -0.142889f, -0.110765f, -0.038931f, -0.154808f, 0.040081f, -0.125154f, 0.128019f, 0.185031f, 0.034402f, -0.054886f, 
    0.108212f, 0.156666f, -0.099671f, 0.008666f, 0.042276f, -0.078991f, -0.077905f, -0.028455f, -0.072024f, -0.154097f, -0.178531f, 0.069588f, 
    0.105432f, 0.165551f, 0.026150f, 0.124188f, 0.243911f, -0.246742f, 0.158114f, -0.052388f, 0.203097f, -0.112972f, 0.146693f, 0.126283f, 
    -0.012794f, -0.316442f, 0.060758f, -0.020694f, -0.023590f, 0.018137f, 0.079670f, 0.080261f, 0.139661f, -0.164412f, 0.174944f, -0.055633f, 
    0.034877f, -0.107187f, 0.006353f, 0.094465f, 0.144734f, -0.067153f, 0.176033f, -0.409429f, 0.116036f, -0.243714f, -0.362514f, -0.178450f, 
    0.098616f, 0.019439f, 0.250931f, -0.038163f, 0.168218f, 0.191078f, 0.050344f, -0.149099f, -0.063727f, -0.072386f, -0.129527f, -0.139573f, 
    -0.211207f, 0.097009f, 0.193115f, -0.107440f, 0.311348f, 0.272926f, 0.194777f, -0.172141f, -0.188313f, -0.206671f, -0.010773f, 0.161087f, 
    0.185518f, 0.163002f, 0.115986f, -0.029862f, -0.123537f, 0.100305f, -0.422177f, 0.063306f, 0.048697f, 0.233966f, -0.013005f, -0.275906f, 
    -0.112461f, -0.028148f, 0.149692f, 0.118096f, 0.128887f, 0.083086f, -0.022662f, 0.028684f, 0.113713f, -0.078409f, 0.140763f, 0.275778f, 
    0.025522f, -0.066314f, 0.115249f, 0.058709f, -0.009656f, 0.153261f, -0.061798f, 0.260481f, -0.058930f, 0.290222f, -0.095370f, 0.061192f, 
    -0.259174f, -0.294894f, -0.107730f, 0.070533f, 0.049199f, -0.069362f, 0.228231f, 0.084889f, -0.167753f, -0.167017f, 0.149077f, 0.368021f, 
    0.166807f, -0.013206f, 0.063273f, 0.052752f, 0.053028f, -0.093281f, -0.046181f, -0.049323f, -0.237746f, 0.227192f, -0.127430f, 0.043420f, 
    0.113703f, -0.128111f, -0.262169f, -0.031507f, 0.004588f, 0.074579f, 0.072371f, -0.069451f, -0.023591f, 0.083418f, 0.165982f, 0.127665f, 
    0.038933f, -0.325906f, 0.182303f, -0.096787f, 0.081455f, 0.025761f, 0.041528f, 0.030640f, -0.052231f, -0.001618f, 0.016804f, -0.097655f, 
    -0.092048f, 0.049320f, 0.061675f, 0.030538f, 0.100692f, 0.048808f, 0.128419f, -0.131553f, 0.178930f, 0.115075f, -0.062093f, 0.210736f, 
    0.224349f, -0.080248f, 0.045953f, 0.304781f, 0.164856f, 0.229390f, 0.092233f, -0.020995f, -0.060669f, -0.143939f, -0.131146f, -0.075381f, 
    -0.342669f, -0.104176f, -0.277564f, 0.000598f, 0.149225f, 0.157639f, -0.106928f, -0.068024f, -0.069003f, 0.045019f, 0.018034f, 0.233658f, 
    0.136676f, -0.070522f, 0.102964f, -0.014020f, -0.105389f, 0.098321f, -0.024667f, 0.089919f, -0.054043f, 0.054302f, 0.289616f, -0.073353f, 
    0.291595f, -0.004886f, 0.190133f, -0.097348f, 0.091943f, -0.192142f, 0.023945f, 0.226169f, 0.086158f, -0.136229f, -0.240355f, 0.143092f, 
    0.245568f, -0.193151f, 0.335464f, 0.027790f, 0.001191f, -0.065649f, 0.243179f, 0.101933f, -0.234612f, 0.142498f, -0.047643f, 0.196876f, 
    -0.189102f, 0.043249f, 0.117707f, 0.131399f, -0.093324f, -0.144272f, -0.076153f, -0.031830f, -0.066074f, -0.019185f, -0.220427f, 0.099123f, 
    0.175325f, 0.024759f, 0.174792f, -0.051683f, 0.095887f, 0.035178f, 0.209350f, -0.015667f, 0.107424f, 0.251268f, 0.180190f, 0.067988f, 
    -0.093349f, 0.018341f, 0.108647f, 0.127040f, 0.116563f, 0.118495f, -0.128933f, 0.013621f, 0.062473f, 0.095325f, 0.052863f, -0.042685f, 
    -0.025043f, 0.192816f, 0.060194f, 0.127631f, -0.049476f, 0.126478f, 0.165868f, 0.003343f, -0.087798f, 0.088860f, -0.133391f, -0.229879f, 
    0.132220f, -0.032549f, -0.046778f, -0.013300f, -0.121030f, -0.175364f, -0.331163f, 0.067956f, -0.103251f, -0.142341f, 0.240873f, -0.050521f, 
    0.133495f, -0.019809f, 0.229944f, -0.082934f, -0.249885f, -0.281846f, -0.314058f, 0.175902f, 0.063844f, 0.028934f, 0.103946f, 0.120590f, 
    0.200011f, 0.112732f, -0.025693f, -0.021134f, -0.065947f, 0.020030f, 0.058192f, -0.016008f, -0.024823f, 0.007179f, -0.096109f, -0.209664f, 
    -0.166231f, 0.194009f, -0.041762f, 0.029962f, 0.044574f, -0.163890f, 0.194497f, 0.182347f, -0.002602f, 0.051515f, -0.109779f, -0.016971f, 
    0.005448f, 0.061396f, -0.087699f, -0.293783f, -0.190586f, 0.070663f, 0.044211f, -0.000373f, 0.061295f, 0.122380f, 0.068154f, 0.078049f, 
    -0.167471f, 0.103575f, -0.351111f, -0.111734f, 0.115645f, -0.036429f, 0.093874f, -0.195166f, 0.088729f, -0.092756f, 0.093343f, -0.276213f, 
    0.070107f, -0.122647f, -0.366719f, 0.101944f, -0.061183f, -0.079840f, 0.014560f, 0.079799f, 0.050773f, -0.134180f, 0.129620f, -0.393428f, 
    0.152353f, 0.196637f, 0.023642f, -0.076762f, -0.163960f, 0.004002f, -0.245061f, 0.094062f, 0.030565f, 0.013656f, -0.024861f, -0.072938f, 
    0.199369f, 0.095007f, 0.184771f, -0.090105f, -0.003810f, 0.142717f, -0.046235f, 0.045789f, -0.278308f, -0.057772f, 0.170936f, -0.212544f, 
    -0.147978f, 0.009656f, 0.176428f, -0.043704f, -0.040771f, 0.176250f, 0.062693f, 0.131953f, 0.137730f, -0.087963f, -0.002454f, -0.155715f, 
    0.155676f, -0.106846f, -0.163425f, -0.293840f, -0.211205f, 0.052711f, 0.184585f, 0.003815f, 0.013309f, 0.185653f, -0.018156f, 0.055640f, 
    -0.111679f, -0.127518f, -0.026327f, -0.104579f, -0.042039f, 0.264340f, -0.164901f, 0.130494f, -0.068311f, 0.130198f, 0.027848f, -0.133126f, 
    0.054171f, -0.177719f, 0.072152f, -0.006105f, 0.056221f, -0.031526f, 0.017468f, 0.022850f, 0.186615f, 0.050010f, 0.021778f, -0.016159f, 
    0.141732f, 0.045716f, -0.108102f, -0.046125f, 0.079789f, 0.066011f, 0.043521f, 0.089078f, 0.069074f, 0.170769f, 0.087028f, -0.055329f, 
    -0.249023f, -0.124810f, -0.124385f, 0.071184f, 0.023732f, -0.110809f, -0.063937f, 0.030747f, -0.129227f, 0.071854f, 0.246249f, -0.095014f, 
    -0.211997f, 0.017480f, -0.006050f, 0.199602f, -0.052257f, -0.155279f, -0.223088f, -0.079546f, -0.040214f, -0.115133f, -0.276785f, 0.007825f, 
    0.125404f, 0.036420f, -0.070835f, 0.033630f, -0.121904f, -0.081041f, -0.259223f, 0.118040f, -0.016981f, -0.249734f, 0.025220f, -0.014046f, 
    -0.214288f, -0.002222f, 0.010953f, 0.038070f, 0.107299f, 0.027366f, -0.152170f, -0.088644f, -0.146413f, 0.036044f, 0.069261f, 0.355563f, 
    0.139401f, 0.056536f, -0.060990f, -0.121979f, 0.022470f, -0.072897f, 0.063979f, -0.116328f, 0.026791f, -0.069632f, 0.021513f, 0.083505f, 
    -0.058442f, 0.032725f, 0.018207f, -0.091960f, -0.001157f, -0.011323f, 0.014816f, 0.033036f, 0.007952f, -0.093673f, -0.046412f, -0.005574f, 
    0.162864f, 0.003821f, 0.175260f, 0.271851f, -0.016186f, 0.071387f, 0.160929f, 0.001676f, -0.005154f, 0.192269f, -0.032158f, 0.140010f, 
    0.089041f, 0.104264f, 0.057603f, -0.069831f, 0.124626f, 0.023051f, 0.101915f, 0.012015f, 0.039842f, 0.029278f, -0.123298f, -0.088352f, 
    0.075282f, -0.113845f, 0.152916f, 0.125215f, 0.140277f, 0.049554f, -0.019739f, 0.194725f, 0.029354f, 0.020131f, 0.145887f, 0.011098f, 
    -0.078850f, -0.125433f, -0.101879f, -0.066793f, 0.100870f, 0.018222f, 0.066305f, 0.029034f, -0.054603f, -0.053203f, -0.117710f, 0.097660f, 
    0.138027f, 0.100140f, 0.015530f, 0.045201f, -0.072099f, 0.147463f, -0.014937f, 0.111880f, -0.004046f, 0.040015f, 0.038489f, -0.213230f, 
    0.006545f, -0.095334f, 0.138304f, -0.127856f, -0.143487f, 0.153073f, 0.055824f, -0.015558f, -0.122374f, -0.079206f, -0.118302f, 0.098451f, 
    -0.070206f, 0.145515f, 0.133509f, 0.043908f, -0.101223f, 0.089878f, 0.115956f, 0.087836f, 0.040390f, -0.068314f, 0.026255f, -0.020137f, 
    -0.047811f, 0.068491f, -0.063424f, -0.020680f, -0.052935f, 0.193246f, -0.096559f, 0.140833f, 0.027213f, 0.127289f, 0.085203f, 0.079679f, 
    -0.088706f, 0.213325f, 0.092424f, 0.201242f, 0.009047f, -0.127329f, 0.026927f, 0.011302f, 0.071876f, -0.091640f, -0.074441f, -0.093184f, 
    -0.068591f, 0.139568f, 0.028697f, -0.001589f, 0.039718f, 0.052616f, -0.107046f, 0.048162f, 0.190167f, -0.065345f, 0.018827f, -0.116759f, 
    -0.123563f, -0.191665f, 0.004983f, 0.027339f, 0.015884f, -0.190566f, -0.161826f, 0.041379f, -0.018227f, -0.277621f, -0.033412f, -0.189072f, 
    -0.064608f, 0.054867f, 0.169798f, 0.038049f, -0.148451f, -0.034146f, -0.075007f, 0.090250f, 0.236174f, 0.135196f, -0.068928f, 0.024216f, 
    0.123823f, -0.008159f, 0.011476f, -0.157918f, -0.083956f, 0.088049f, 0.191212f, 0.024569f, 0.020465f, -0.320909f, -0.166552f, -0.078665f, 
    -0.178157f, 0.157783f, -0.016477f, -0.082954f, -0.041074f, -0.121814f, 0.069204f, -0.014665f, 0.006811f, 0.069750f, -0.079974f, 0.105325f, 
    0.171765f, -0.101390f, -0.030871f, -0.213277f, -0.031722f, -0.119811f, 0.120589f, -0.046355f, -0.010989f, 0.169619f, 0.103194f, -0.041583f, 
    -0.090843f, -0.074093f, -0.105637f, -0.162800f, 0.125486f, 0.109810f, -0.137289f, -0.160000f, 0.053518f, -0.034518f, 0.114877f, -0.105995f, 
    -0.135947f, 0.138928f, -0.274843f, 0.021069f, -0.212950f, -0.326802f, -0.043783f, -0.090080f, 0.123149f, -0.018002f, 0.263491f, -0.463934f, 
    0.212425f, 0.129307f, -0.117198f, 0.016495f, 0.031032f, 0.015634f, -0.344625f, 0.198626f, -0.062971f, -0.059443f, -0.088054f, -0.214068f, 
    -0.154761f, 0.078853f, 0.086027f, -0.142174f, -0.125049f, 0.211288f, -0.033380f, -0.079358f, 0.124165f, -0.074948f, -0.015804f, 0.035744f, 
    0.083205f, 0.011340f, -0.076247f, 0.091796f, -0.066058f, 0.073527f, 0.058708f, -0.003024f, 0.055478f, -0.001209f, -0.137961f, 0.054935f, 
    0.065700f, 0.124255f, -0.026814f, -0.183172f, -0.001527f, -0.080587f, 0.010324f, 0.043931f, -0.207521f, -0.397164f, -0.049000f, 0.055730f, 
    0.071286f, 0.048921f, 0.171408f, -0.135197f, -0.135398f, -0.043578f, -0.182576f, 0.127571f, -0.096382f, -0.058346f, 0.002605f, 0.131530f, 
    0.099549f, -0.078932f, 0.025365f, -0.112806f, -0.043458f, -0.046895f, 0.058352f, 0.050932f, -0.091776f, 0.061596f, -0.173194f, -0.225116f, 
    -0.016916f, -0.011770f, -0.109760f, -0.064859f, -0.068292f, -0.202741f, -0.046733f, 0.274237f, 0.055541f, 0.061800f, 0.096999f, -0.274530f, 
    -0.007053f, 0.002499f, -0.010038f, -0.098188f, -0.147378f, -0.075155f, -0.137471f, -0.010778f, 0.092928f, 0.101306f, 0.004277f, 0.057093f, 
    -0.095882f, -0.048849f, -0.150329f, 0.074320f, 0.093526f, -0.102382f, 0.137493f, 0.008236f, -0.052519f, 0.076103f, 0.158690f, -0.001320f, 
    0.035560f, -0.070558f, -0.143179f, 0.019747f, -0.020299f, -0.065752f, -0.113771f, -0.133806f, -0.002621f, 0.082888f, -0.080913f, -0.071375f, 
    0.034177f, -0.090663f, -0.018234f, -0.075945f, -0.106702f, -0.184502f, -0.118384f, -0.117202f, -0.036200f, 0.175722f, 0.053447f, 0.035009f, 
    -0.261461f, 0.152446f, 0.034253f, 0.028737f, -0.162791f, -0.019656f, 0.066986f, 0.074560f, 0.111742f, -0.192916f, -0.000898f, -0.068502f, 
    0.000429f, 0.019494f, 0.127589f, 0.051431f, 0.079218f, 0.153716f, 0.214169f, -0.098260f, 0.027420f, 0.107081f, -0.064144f, -0.030196f, 
    0.070754f, 0.046798f, 0.069910f, 0.129394f, 0.042331f, -0.220948f, -0.029107f, 0.114916f, 0.009812f, -0.030423f, -0.049890f, -0.151729f, 
    -0.035249f, 0.128175f, 0.018441f, 0.234831f, 0.130425f, 0.165180f, -0.119618f, -0.050477f, -0.050923f, 0.022881f, 0.182926f, 0.136751f, 
    -0.091012f, 0.167464f, -0.120553f, 0.134384f, 0.117390f, -0.060434f, -0.012064f, 0.202303f, -0.165287f, 0.160077f, -0.100186f, -0.032657f, 
    -0.181045f, 0.026771f, 0.075383f, -0.102025f, 0.026891f, 0.150550f, 0.040607f, 0.086592f, -0.042815f, -0.085088f, -0.020811f, -0.126277f, 
    0.247583f, 0.235555f, 0.099703f, 0.169167f, -0.010438f, 0.000093f, -0.271578f, 0.120012f, -0.088609f, -0.018528f, 0.162160f, -0.198095f, 
    0.136321f, -0.025427f, -0.038609f, 0.005578f, 0.146343f, 0.132978f, 0.263134f, 0.041673f, -0.124951f, 0.059641f, 0.045697f, 0.060327f, 
    -0.043763f, -0.002489f, 0.033024f, -0.237935f, 0.001504f, -0.074873f, -0.030910f, -0.057538f, 0.008557f, 0.244607f, -0.199074f, -0.134741f, 
    -0.023168f, 0.075110f, -0.014232f, 0.060149f, -0.125227f, 0.018557f, -0.059325f, 0.079412f, 0.025308f, 0.265210f, 0.020482f, 0.092436f, 
    -0.069419f, 0.268892f, 0.280194f, -0.002701f, 0.065007f, -0.019276f, 0.184755f, -0.224925f, 0.009811f, -0.265440f, -0.164085f, 0.116740f, 
