#include "lenet_weights.h"
// Original shape: ([6, 1, 5, 5])
const float conv1_weight[150] = {
    0.001805f, 0.334252f, 0.137459f, 0.156262f, 0.046145f, 0.155494f, -0.022012f, 0.033542f, -0.072690f, 0.024887f, -0.180672f, -0.112730f, -0.115822f, 0.042793f, 0.205690f, -0.417407f, -0.155817f, 0.011617f, 0.290457f, -0.093648f, 0.117644f, 0.029124f, 0.180505f, 0.163535f, -0.192542f, 0.093523f, -0.054164f, 0.194251f, 0.221354f, -0.449976f, -0.059702f, -0.076819f, 0.281152f, 0.343100f, -0.271279f, -0.350233f, -0.199341f, -0.051164f, 0.430055f, -0.027496f, -0.078929f, -0.286824f, -0.073901f, 0.256068f, 0.076608f, 0.130696f, -0.167662f, -0.146371f, -0.163869f, 0.059553f, -0.073696f, 0.135872f, -0.008778f, -0.056471f, -0.020559f, 0.003005f, -0.249752f, -0.494814f, -0.370546f, 0.044266f, 0.051740f, -0.127998f, -0.334294f, 0.013207f, -0.113838f, 0.294742f, 0.273809f, 0.112250f, 0.053623f, -0.043053f, -0.040075f, 0.349418f, 0.397130f, 0.299340f, -0.122462f, -0.235427f, -0.211307f, -0.289552f, 0.141142f, 0.234755f, -0.209627f, -0.126971f, -0.048434f, -0.027552f, 0.248067f, -0.341430f, -0.201954f, -0.025488f, 0.117956f, 0.159413f, -0.232568f, -0.075422f, 0.262008f, 0.283444f, 0.217051f, 0.131918f, 0.101324f, 0.190860f, 0.035079f, -0.033306f, -0.055885f, -0.265982f, -0.064778f, -0.199550f, -0.249094f, -0.045798f, -0.239854f, -0.371379f, -0.039392f, 0.048051f, 0.352337f, 0.064418f, 0.287274f, 0.198136f, -0.055546f, 0.175977f, 0.274218f, 0.056634f, 0.050317f, 0.147403f, -0.084092f, -0.027866f, 0.047931f, -0.099173f, 0.066954f, 0.158771f, 0.313004f, 0.368717f, 0.271121f, 0.119532f, 0.004078f, -0.041911f, 0.053978f, 0.311630f, 0.184074f, -0.008812f, -0.069210f, -0.248007f, -0.200344f, 0.060685f, -0.382772f, -0.331784f, -0.347970f, -0.631267f, -0.379019f, -0.021419f, -0.148002f, -0.136554f, 0.056767f, -0.057267f
};

// Original shape: ([6])
const float conv1_bias[6] = {
    -0.119258f, -0.247968f, -0.022490f, -0.010545f, 0.074954f, 0.154094f
};

// Original shape: ([16, 6, 5, 5])
const float conv2_weight[2400] = {
    -0.147672f, -0.245607f, 0.006772f, -0.154437f, 0.026117f, 0.002311f, -0.243800f, -0.097915f, -0.119581f, 0.103049f, 0.144040f, 0.069640f, 0.020183f, -0.187810f, -0.089995f, 0.106203f, 0.131405f, 0.107652f, 0.022223f, -0.158552f, 0.186127f, 0.140697f, 0.032590f, 0.083217f, -0.007600f, -0.184174f, -0.075540f, -0.024123f, -0.108386f, 0.089912f, -0.036804f, -0.112831f, -0.024808f, -0.063977f, 0.070941f, 0.067741f, 0.019480f, 0.241174f, 0.088907f, -0.045744f, -0.005314f, 0.087847f, 0.197606f, 0.121186f, -0.118649f, -0.212486f, 0.019788f, 0.022355f, 0.196371f, -0.118429f, 0.276646f, 0.045670f, -0.088865f, -0.168646f, -0.259081f, 0.139347f, 0.321717f, 0.194750f, 0.082230f, 0.001751f, -0.019367f, 0.100578f, 0.139101f, 0.110556f, -0.025843f, -0.069357f, -0.138836f, -0.050036f, -0.012104f, 0.049585f, -0.175698f, -0.327543f, -0.129627f, -0.001246f, 0.019479f, 0.037860f, -0.091638f, -0.126958f, -0.053247f, 0.026424f, -0.098676f, -0.218134f, -0.166580f, -0.106133f, -0.031260f, 0.017335f, -0.039189f, -0.174988f, -0.193230f, -0.057310f, 0.052922f, 0.136759f, 0.049021f, -0.076271f, -0.125583f, 0.137070f, 0.189399f, 0.133804f, 0.134493f, -0.182430f, 0.097029f, 0.022149f, -0.233662f, -0.251386f, -0.222627f, 0.044077f, 0.188232f, 0.183257f, -0.049522f, 0.003787f, 0.043719f, 0.168237f, 0.193291f, 0.027474f, 0.006351f, -0.013598f, -0.063638f, 0.088045f, 0.018682f, -0.015627f, 0.032997f, -0.216230f, -0.124693f, -0.073217f, -0.104080f, -0.116219f, 0.106787f, 0.193511f, 0.041611f, 0.027891f, -0.086922f, -0.236151f, -0.063258f, -0.032487f, 0.058236f, 0.081177f, -0.009000f, -0.170857f, 0.003199f, -0.004673f, -0.073136f, -0.056428f, -0.235300f, -0.048486f, -0.056433f, 0.073363f, -0.091240f, 0.051426f, -0.051889f, -0.153725f, -0.028568f, -0.025011f, -0.036733f, -0.059080f, -0.105516f, -0.075781f, -0.048780f, -0.007301f, 0.204753f, 0.091106f, 0.033221f, 0.139950f, 0.090495f, -0.055863f, -0.011201f, 0.083937f, -0.134835f, -0.045203f, 0.051683f, 0.043870f, -0.070050f, 0.020891f, 0.014159f, -0.100238f, -0.051582f, 0.005648f, 0.027021f, -0.058188f, 0.013895f, -0.096694f, -0.009806f, 0.011800f, -0.199986f, -0.063731f, -0.000362f, 0.000744f, -0.039167f, -0.136432f, -0.293744f, -0.064282f, -0.076861f, 0.000660f, -0.111167f, 0.126477f, 0.017591f, -0.039154f, 0.097183f, 0.130377f, 0.081969f, -0.082776f, 0.078281f, -0.003009f, -0.022628f, -0.133365f, 0.191202f, -0.153356f, 0.045735f, 0.024027f, 0.150151f, 0.090889f, 0.088140f, 0.092134f, 0.110092f, 0.100696f, -0.062512f, 0.069936f, -0.105413f, -0.144888f, -0.092052f, 0.113178f, -0.312173f, -0.092657f, 0.106170f, 0.174177f, 0.095795f, -0.031157f, -0.019474f, -0.122930f, -0.168336f, -0.054532f, -0.149612f, -0.174376f, -0.057012f, 0.166452f, 0.088147f, -0.002182f, 0.097685f, 0.106952f, 0.005893f, -0.146920f, 0.101642f, 0.050332f, -0.030495f, -0.220251f, -0.179883f, -0.100833f, -0.057801f, -0.159104f, -0.138266f, -0.270611f, -0.054513f, -0.034045f, -0.084602f, -0.042699f, 0.018015f, 0.007865f, -0.025569f, -0.060637f, 0.039011f, 0.223991f, -0.061176f, 0.069581f, 0.213627f, 0.094757f, 0.085267f, 0.126922f, 0.023255f, -0.155357f, -0.279138f, -0.098373f, 0.024837f, -0.285616f, -0.153856f, 0.105692f, 0.032190f, -0.050672f, 0.005818f, -0.018915f, 0.118536f, -0.020558f, 0.023235f, 0.042785f, -0.099231f, -0.002521f, -0.243514f, -0.041356f, -0.302314f, -0.297231f, -0.154974f, 0.131243f, -0.320168f, -0.180008f, 0.020194f, 0.077097f, 0.097773f, -0.031442f, -0.074417f, 0.053981f, 0.048717f, -0.024320f, -0.083102f, 0.009145f, -0.084995f, -0.050181f, 0.003561f, -0.121276f, -0.152269f, -0.200637f, -0.146489f, -0.086497f, -0.099526f, -0.384494f, -0.048068f, -0.125417f, -0.054628f, -0.118555f, -0.164164f, -0.176249f, -0.096245f, -0.078205f, 0.046988f, 0.017186f, -0.012515f, -0.058396f, -0.061537f, 0.163474f, 0.188932f, 0.127639f, -0.047370f, -0.131809f, 0.011543f, 0.076314f, -0.022365f, -0.075652f, -0.090009f, -0.187628f, -0.228039f, -0.118533f, -0.136348f, -0.128236f, -0.262428f, -0.287048f, -0.158432f, -0.070926f, 0.050317f, -0.133074f, 0.015678f, -0.047624f, -0.058822f, 0.068581f, -0.173804f, -0.215413f, -0.074046f, -0.166539f, -0.266746f, -0.278076f, -0.309148f, -0.185533f, -0.222599f, -0.235004f, -0.038964f, -0.070047f, -0.017190f, 0.112730f, 0.100372f, -0.039536f, 0.086257f, 0.046139f, 0.111221f, 0.202384f, 0.255417f, 0.153486f, 0.172744f, 0.150452f, 0.124352f, -0.032719f, 0.166762f, 0.088709f, 0.142960f, 0.094386f, -0.101283f, -0.064052f, -0.010818f, -0.135618f, -0.060073f, -0.156728f, -0.294847f, -0.143127f, -0.046125f, -0.150355f, -0.203700f, -0.091057f, -0.086927f, 0.008055f, -0.112757f, 0.191110f, 0.027265f, 0.129646f, 0.025070f, -0.045787f, -0.171340f, -0.088247f, -0.096744f, -0.090873f, -0.068065f, -0.280048f, -0.259783f, -0.160400f, -0.091565f, -0.179429f, -0.064953f, -0.193274f, 0.024518f, 0.082554f, 0.065508f, 0.079997f, -0.111322f, 0.032603f, 0.149202f, 0.213834f, 0.190607f, 0.176032f, 0.162696f, 0.128498f, 0.086846f, 0.044816f, 0.018829f, 0.003484f, -0.111764f, -0.039292f, 0.230133f, 0.124003f, 0.137250f, 0.187337f, 0.149323f, 0.148730f, 0.044008f, 0.190968f, 0.277908f, 0.174864f, -0.012233f, -0.061163f, -0.022246f, 0.126298f, 0.115667f, -0.011480f, -0.070896f, -0.001108f, 0.150349f, 0.141393f, 0.082744f, 0.140172f, -0.033636f, -0.278646f, 0.046911f, 0.058691f, 0.130097f, -0.215519f, -0.054708f, 0.123455f, 0.143485f, -0.011503f, -0.121945f, -0.157698f, 0.012547f, 0.097805f, 0.070909f, -0.085636f, -0.038953f, 0.054983f, 0.073559f, 0.057130f, -0.029804f, -0.050808f, 0.043340f, 0.025850f, -0.140614f, -0.333134f, -0.072869f, -0.106306f, 0.143180f, -0.124950f, -0.127248f, -0.070399f, 0.007746f, 0.049185f, 0.090317f, -0.107240f, -0.127586f, 0.135469f, -0.019416f, -0.016068f, -0.122981f, -0.208570f, 0.303505f, 0.068991f, 0.116621f, 0.008757f, -0.089311f, 0.092411f, -0.171755f, 0.162829f, 0.018473f, -0.186475f, -0.029282f, -0.170650f, -0.024971f, -0.193834f, -0.047865f, 0.027296f, -0.128898f, 0.027064f, 0.092636f, 0.024133f, -0.087866f, -0.328003f, 0.014613f, 0.204948f, 0.021867f, -0.065586f, -0.316827f, 0.081089f, 0.072151f, 0.156276f, -0.027664f, 0.155466f, 0.134997f, -0.011134f, -0.235941f, -0.004312f, 0.088715f, 0.061177f, -0.092460f, -0.112543f, 0.097352f, 0.192806f, 0.041049f, -0.251306f, -0.011753f, 0.118139f, 0.185064f, 0.068296f, -0.248041f, 0.038270f, 0.030671f, 0.072233f, -0.084341f, -0.126501f, 0.052499f, -0.006638f, -0.044084f, 0.042414f, 0.088590f, 0.069811f, -0.087478f, -0.047169f, -0.019365f, -0.059364f, -0.125410f, 0.007116f, -0.277098f, -0.084338f, 0.056196f, -0.038444f, -0.052331f, -0.152052f, -0.043448f, 0.091201f, 0.021657f, 0.071300f, -0.194854f, 0.029331f, 0.060011f, 0.010285f, -0.094711f, -0.287251f, -0.012769f, -0.040595f, 0.069045f, -0.012310f, -0.237463f, -0.050022f, 0.152228f, 0.091676f, -0.085074f, -0.197853f, -0.000042f, -0.062975f, -0.081958f, -0.085630f, -0.213999f, -0.098919f, -0.169674f, -0.085809f, 0.058113f, -0.043882f, -0.076434f, 0.047627f, -0.050572f, 0.108542f, -0.108236f, -0.086971f, -0.013962f, 0.070262f, -0.049621f, -0.202275f, -0.245359f, 0.012496f, 0.181179f, 0.233956f, -0.138323f, -0.176967f, -0.045332f, 0.107147f, 0.073822f, -0.087592f, -0.020137f, 0.013877f, -0.060082f, -0.041114f, 0.177163f, -0.076784f, -0.087958f, 0.049568f, -0.034578f, -0.027383f, -0.085157f, 0.066960f, 0.239079f, 0.186309f, -0.049647f, -0.168466f, -0.290194f, 0.223908f, 0.329482f, -0.025835f, 0.024759f, -0.120523f, -0.052564f, -0.016764f, -0.143437f, -0.190813f, 0.097792f, -0.088597f, 0.020958f, -0.128546f, -0.151964f, -0.046187f, -0.033170f, -0.199465f, 0.147363f, -0.158524f, -0.324365f, -0.214212f, 0.086330f, 0.157881f, -0.016071f, -0.236405f, -0.181387f, -0.118075f, 0.109073f, -0.067268f, 0.068418f, -0.076107f, -0.192184f, -0.021889f, 0.043768f, 0.002750f, -0.021003f, -0.098520f, 0.034853f, 0.161986f, 0.014718f, -0.036306f, -0.022115f, -0.030929f, -0.036206f, -0.143201f, -0.149865f, -0.221159f, 0.084503f, -0.210920f, -0.149572f, 0.059081f, 0.016507f, -0.038405f, -0.166342f, 0.008452f, 0.112929f, 0.092941f, -0.070359f, 0.041948f, 0.056659f, 0.090415f, 0.037797f, 0.029039f, 0.145828f, 0.073496f, 0.032281f, -0.039316f, -0.105179f, -0.184943f, -0.067414f, -0.118961f, 0.106076f, 0.241762f, -0.004976f, -0.155622f, -0.120136f, 0.009946f, 0.125365f, 0.065353f, -0.063692f, -0.034356f, -0.208633f, -0.129225f, 0.024410f, -0.085584f, -0.035414f, -0.145899f, 0.039927f, -0.001442f, -0.051110f, -0.067702f, -0.161406f, 0.047256f, 0.030058f, 0.168216f, -0.033109f, -0.143991f, -0.117566f, -0.113323f, 0.129759f, 0.086380f, -0.087487f, 0.109790f, -0.071035f, -0.139757f, -0.316382f, -0.094163f, 0.151860f, 0.002700f, -0.019192f, 0.063794f, 0.013734f, -0.044145f, -0.034861f, 0.062878f, 0.122643f, 0.034926f, 0.043238f, -0.239624f, -0.060826f, -0.025205f, 0.060913f, -0.131346f, -0.183645f, -0.176327f, 0.108612f, -0.032941f, -0.083056f, -0.106275f, 0.017023f, 0.152639f, -0.143008f, 0.001485f, 0.126109f, 0.081394f, -0.046953f, -0.120925f, 0.053882f, 0.184790f, -0.021381f, -0.053470f, -0.217130f, 0.026236f, -0.135704f, -0.305184f, -0.143007f, -0.083263f, 0.013176f, 0.066975f, -0.151253f, 0.014255f, 0.071456f, -0.064996f, -0.093491f, -0.238996f, 0.037371f, 0.042551f, -0.096026f, -0.172065f, -0.149134f, 0.019096f, 0.013348f, -0.195163f, -0.212701f, 0.008935f, -0.032171f, -0.023014f, -0.000654f, -0.196484f, -0.218279f, -0.146748f, 0.045921f, 0.100863f, 0.007049f, -0.118532f, -0.117609f, -0.055424f, -0.000543f, 0.071437f, 0.103607f, 0.048833f, -0.092873f, 0.039189f, 0.058501f, 0.080073f, -0.300587f, 0.059463f, 0.089646f, 0.159467f, -0.218019f, -0.056900f, 0.014506f, 0.043234f, -0.182147f, -0.132877f, 0.211730f, 0.106995f, -0.177023f, -0.253303f, -0.057135f, 0.244130f, 0.029020f, -0.136182f, -0.142322f, 0.131188f, 0.128197f, -0.078254f, -0.088735f, -0.012711f, 0.157855f, 0.163236f, -0.251368f, 0.112255f, 0.164222f, 0.139673f, 0.111953f, -0.265953f, 0.017890f, -0.235954f, -0.184152f, -0.020500f, -0.110673f, -0.019730f, 0.022881f, 0.000586f, -0.069568f, 0.010476f, -0.018978f, 0.089930f, 0.101948f, -0.068429f, -0.133207f, 0.018158f, 0.056315f, 0.022521f, -0.062074f, 0.009491f, -0.010825f, 0.029024f, -0.148021f, -0.127966f, -0.065146f, -0.015129f, -0.095344f, -0.222037f, -0.266098f, -0.239667f, 0.113231f, -0.051120f, -0.226506f, -0.582224f, -0.276499f, 0.160220f, 0.040263f, -0.283210f, -0.336942f, 0.008376f, 0.104097f, -0.011529f, -0.136410f, 0.009058f, 0.072766f, 0.002222f, -0.075979f, 0.003337f, 0.018760f, 0.082600f, -0.008433f, -0.009047f, 0.005635f, -0.064646f, -0.039662f, -0.055728f, 0.031464f, 0.006919f, -0.036009f, 0.104181f, 0.081321f, -0.105749f, 0.033745f, 0.034748f, -0.002976f, -0.061850f, 0.033865f, 0.185399f, 0.031976f, 0.112714f, -0.195571f, -0.041843f, -0.074607f, 0.040516f, -0.130282f, 0.081652f, -0.110358f, -0.050209f, -0.125116f, -0.101600f, 0.147393f, -0.172569f, -0.027829f, -0.142231f, -0.045386f, 0.001636f, 0.106364f, 0.007754f, 0.041037f, 0.102816f, 0.031951f, 0.095354f, 0.187038f, -0.090615f, -0.064868f, 0.039906f, -0.162691f, 0.004667f, -0.074132f, -0.170106f, -0.205341f, -0.194428f, 0.034568f, 0.057854f, 0.118035f, 0.131615f, 0.178949f, 0.163839f, 0.128750f, 0.228057f, 0.035290f, -0.128255f, -0.021212f, 0.105702f, 0.009146f, -0.052263f, -0.076593f, -0.074954f, 0.112960f, -0.050022f, 0.070671f, 0.020793f, 0.053270f, -0.075739f, -0.201496f, 0.178810f, -0.083434f, 0.041761f, 0.127701f, -0.041269f, -0.027759f, 0.070323f, 0.045965f, 0.019854f, -0.011564f, -0.115574f, -0.038131f, -0.179476f, -0.129409f, -0.132177f, -0.064559f, -0.224546f, -0.193636f, -0.143320f, -0.076442f, -0.112206f, -0.055584f, -0.128640f, -0.151259f, -0.183013f, -0.141834f, -0.121609f, 0.047368f, 0.035454f, -0.023391f, 0.037054f, 0.075817f, -0.010020f, 0.071796f, 0.005779f, 0.029375f, 0.163070f, 0.089965f, 0.132494f, 0.093119f, -0.070669f, -0.178498f, -0.069887f, 0.093737f, 0.150561f, -0.081824f, 0.130904f, 0.006759f, 0.127338f, 0.053050f, -0.227534f, -0.250432f, -0.223732f, -0.145714f, -0.148233f, -0.137187f, -0.033309f, -0.137999f, -0.101462f, -0.045515f, -0.110445f, 0.059431f, 0.101983f, 0.060987f, 0.069356f, -0.054276f, 0.233662f, 0.125560f, 0.112084f, 0.190049f, -0.118866f, -0.058889f, 0.066228f, 0.059828f, 0.054631f, 0.028187f, 0.045605f, 0.026562f, -0.073411f, 0.055662f, -0.044922f, 0.154115f, -0.031349f, 0.071763f, -0.001367f, -0.140503f, -0.048870f, -0.050532f, 0.001896f, 0.104810f, -0.056016f, -0.111497f, -0.140713f, 0.018363f, 0.057218f, -0.079353f, 0.015127f, 0.122140f, 0.046974f, -0.091755f, 0.117269f, 0.101421f, -0.112547f, -0.062605f, 0.016904f, 0.025554f, 0.066187f, -0.232139f, -0.025471f, 0.188892f, -0.132086f, 0.001692f, -0.182489f, -0.023232f, 0.299672f, 0.046454f, 0.078560f, 0.123869f, 0.030558f, 0.066895f, 0.088105f, 0.087257f, 0.036893f, 0.027459f, -0.159572f, -0.040668f, -0.001625f, -0.065954f, -0.279324f, -0.069097f, 0.121327f, -0.129018f, -0.035655f, -0.249866f, -0.055627f, 0.115562f, 0.102338f, 0.127923f, -0.012335f, -0.108112f, 0.064683f, 0.152168f, 0.276417f, 0.164555f, -0.053995f, -0.202812f, -0.238588f, -0.086678f, -0.046620f, -0.011606f, 0.088725f, 0.119031f, 0.070260f, 0.058715f, 0.030265f, 0.052983f, 0.050892f, 0.026177f, 0.065080f, -0.024914f, 0.006667f, -0.019646f, -0.033978f, 0.032723f, 0.073843f, 0.005081f, 0.002030f, 0.061322f, 0.173582f, 0.050295f, -0.180094f, -0.162534f, -0.155226f, -0.027887f, 0.036713f, -0.105266f, -0.042220f, -0.005412f, -0.003866f, -0.069787f, 0.063897f, -0.247241f, -0.133479f, -0.144502f, -0.185519f, 0.062975f, -0.108115f, -0.069822f, -0.007755f, -0.140024f, 0.172827f, 0.204673f, 0.226909f, 0.163552f, -0.082825f, -0.071289f, 0.124846f, 0.108283f, 0.078363f, -0.022443f, -0.024827f, -0.116769f, -0.185927f, -0.000521f, -0.016744f, 0.029251f, 0.022453f, 0.020732f, -0.154286f, -0.029628f, 0.005629f, -0.068072f, -0.049595f, -0.129522f, -0.053879f, -0.137913f, -0.080692f, -0.092825f, -0.222751f, -0.103627f, 0.129808f, 0.078591f, 0.063617f, -0.018801f, 0.006470f, -0.196722f, -0.248168f, -0.026523f, 0.018122f, 0.029194f, -0.011281f, -0.131981f, 0.001538f, -0.046974f, 0.049605f, -0.087301f, 0.057133f, -0.026420f, 0.156293f, 0.215979f, -0.046866f, -0.217520f, -0.017567f, -0.047457f, -0.077563f, 0.017966f, -0.112892f, -0.088329f, -0.068016f, -0.196758f, -0.083496f, 0.018389f, -0.012830f, 0.070792f, -0.309753f, 0.083238f, 0.169685f, 0.051928f, 0.028170f, -0.061631f, 0.044687f, 0.024134f, 0.111802f, -0.122454f, -0.049365f, -0.155956f, -0.128980f, -0.154184f, -0.303677f, -0.176679f, -0.204664f, 0.030090f, -0.181866f, 0.002576f, -0.229724f, 0.055832f, 0.111402f, 0.081187f, 0.188596f, 0.117033f, -0.023509f, -0.148621f, 0.006048f, -0.023724f, -0.123210f, -0.202539f, -0.092144f, -0.133837f, -0.181787f, -0.287731f, -0.032538f, 0.070458f, 0.058521f, 0.081299f, -0.086709f, -0.048368f, 0.035008f, -0.004700f, -0.046308f, -0.030973f, 0.066852f, -0.058331f, 0.016518f, 0.124809f, 0.083625f, -0.036124f, -0.148046f, -0.039879f, 0.095532f, -0.037096f, -0.152147f, -0.160282f, -0.094113f, -0.140221f, -0.036334f, -0.131379f, -0.075866f, -0.092166f, 0.039537f, 0.035124f, 0.043306f, -0.011350f, -0.018847f, 0.035084f, -0.027574f, -0.031664f, -0.007463f, -0.059799f, 0.078088f, 0.154989f, -0.053307f, -0.059722f, 0.113343f, 0.203234f, 0.148863f, -0.206364f, -0.093711f, -0.063736f, -0.062071f, -0.171570f, -0.160101f, 0.052178f, 0.194055f, 0.183120f, 0.072175f, -0.018943f, 0.114296f, 0.067626f, 0.120531f, 0.018753f, -0.218003f, -0.042497f, -0.095118f, -0.219184f, -0.253246f, 0.062234f, 0.088072f, 0.000478f, -0.096892f, 0.064574f, 0.064869f, 0.215408f, 0.223594f, 0.197951f, 0.150742f, -0.116921f, -0.004241f, 0.082648f, -0.030303f, -0.126599f, -0.151434f, -0.090032f, 0.003151f, 0.022513f, 0.164598f, -0.046213f, 0.045251f, -0.065116f, 0.091419f, 0.075265f, -0.011723f, 0.058371f, 0.025863f, 0.258938f, 0.013369f, -0.017138f, -0.059719f, 0.093901f, 0.086630f, -0.140288f, -0.039605f, 0.138724f, -0.119826f, -0.054853f, -0.167017f, 0.134961f, -0.052842f, -0.095469f, -0.037421f, -0.038426f, 0.106006f, 0.215464f, 0.101003f, 0.137133f, 0.077600f, 0.154166f, 0.088168f, -0.093367f, 0.156397f, 0.052080f, -0.064451f, 0.007195f, -0.030666f, -0.092234f, 0.031155f, 0.053320f, -0.018911f, -0.202542f, -0.078985f, -0.051362f, -0.141171f, -0.053685f, -0.067622f, 0.035627f, -0.178597f, -0.024151f, -0.092388f, 0.009173f, -0.044482f, -0.036131f, -0.067365f, 0.025091f, -0.010969f, -0.088898f, -0.051036f, 0.074041f, 0.057474f, 0.015277f, -0.068776f, -0.214578f, -0.036364f, -0.036966f, -0.189836f, -0.195049f, -0.177243f, -0.081520f, -0.081996f, -0.035149f, 0.065107f, -0.055474f, 0.089840f, 0.000997f, -0.106005f, -0.038884f, -0.044516f, 0.004940f, 0.056792f, 0.112429f, 0.092614f, 0.014982f, -0.031047f, 0.080739f, 0.145380f, 0.137555f, -0.104493f, -0.039589f, -0.018953f, 0.013117f, 0.033334f, -0.386843f, -0.000067f, -0.003087f, -0.021883f, -0.097277f, -0.329021f, -0.195758f, -0.137716f, 0.056405f, 0.136354f, 0.050774f, -0.040374f, 0.032763f, 0.078981f, -0.094997f, -0.067909f, 0.093893f, 0.084768f, 0.042213f, -0.036324f, -0.101740f, 0.086301f, 0.056695f, 0.061847f, -0.128116f, -0.222763f, 0.130222f, 0.008065f, -0.148421f, -0.027024f, -0.094250f, -0.109326f, -0.012433f, -0.104082f, -0.081560f, -0.163192f, -0.107867f, -0.107790f, -0.095695f, -0.277673f, -0.084502f, -0.146728f, -0.235965f, -0.209113f, -0.095705f, 0.177339f, -0.047691f, -0.046711f, 0.078792f, 0.212708f, 0.030559f, 0.037419f, 0.136425f, 0.094459f, 0.003461f, -0.075889f, -0.079955f, -0.192449f, 0.085572f, 0.076180f, -0.161283f, -0.124368f, -0.290916f, 0.038746f, 0.233464f, -0.158340f, -0.097456f, 0.002356f, 0.143792f, 0.168319f, -0.046473f, 0.060287f, 0.094324f, -0.061840f, 0.112505f, -0.039271f, 0.085681f, 0.066552f, -0.036408f, -0.000651f, 0.016690f, -0.099368f, -0.074951f, 0.274627f, 0.080208f, 0.037218f, 0.149396f, -0.353149f, 0.224958f, 0.278191f, -0.126045f, -0.040894f, -0.083194f, 0.088506f, 0.240534f, 0.084545f, -0.165851f, -0.023752f, 0.043398f, 0.129578f, 0.010255f, -0.216240f, -0.050962f, 0.075568f, 0.091378f, -0.001595f, 0.127159f, 0.151569f, -0.196107f, 0.003087f, 0.030650f, 0.148022f, 0.085618f, -0.251384f, -0.199494f, -0.022581f, -0.061583f, 0.104456f, -0.012764f, -0.176301f, -0.076469f, 0.074233f, 0.140835f, 0.005328f, -0.026064f, 0.098170f, 0.020279f, -0.038386f, -0.054874f, 0.007526f, 0.052306f, -0.070940f, 0.167382f, 0.078794f, -0.008387f, -0.220636f, 0.065990f, -0.120556f, 0.063885f, 0.088330f, -0.264470f, -0.169154f, -0.124764f, 0.013133f, 0.189201f, -0.082561f, -0.035432f, 0.066415f, 0.061704f, 0.146992f, -0.101249f, 0.114318f, 0.152364f, -0.027636f, 0.149287f, 0.060340f, 0.017725f, 0.060240f, -0.000675f, 0.104440f, 0.123796f, 0.038508f, -0.003787f, -0.080306f, -0.159928f, 0.042266f, 0.053340f, 0.064297f, -0.162143f, -0.191495f, -0.141803f, 0.042187f, 0.010830f, -0.023818f, -0.060073f, -0.012551f, -0.084622f, -0.099964f, -0.147062f, 0.048710f, -0.057294f, -0.083053f, 0.027355f, -0.136725f, -0.120053f, 0.022830f, 0.044545f, 0.024021f, -0.103255f, -0.155194f, -0.031788f, 0.123428f, -0.000610f, -0.290731f, -0.080862f, -0.059963f, 0.104825f, -0.054408f, -0.179213f, -0.012092f, -0.106254f, -0.192392f, 0.071621f, 0.035632f, 0.041714f, -0.003903f, -0.172385f, -0.073814f, 0.120361f, 0.069267f, -0.122201f, 0.036370f, -0.146524f, 0.084890f, 0.151991f, 0.104858f, -0.086863f, -0.031030f, 0.024811f, -0.000242f, -0.051766f, 0.058283f, -0.068039f, -0.042841f, 0.020807f, -0.009051f, -0.094554f, 0.013095f, 0.094000f, 0.085939f, 0.102983f, -0.299948f, 0.141581f, 0.183176f, 0.104723f, -0.008057f, -0.194563f, -0.028635f, 0.117333f, 0.161044f, 0.005011f, 0.244083f, 0.086835f, 0.012206f, 0.039820f, -0.035662f, 0.204625f, 0.300215f, 0.006434f, -0.134358f, -0.184184f, -0.151418f, 0.069021f, -0.103291f, -0.065246f, -0.161237f, 0.043333f, -0.187023f, 0.009797f, 0.150070f, 0.029622f, 0.134997f, 0.144596f, -0.114854f, -0.157072f, 0.046038f, -0.008451f, 0.065765f, 0.044550f, -0.022800f, 0.000628f, -0.012498f, 0.133973f, 0.084550f, 0.015793f, -0.096442f, -0.015417f, -0.035679f, 0.005616f, -0.232248f, -0.389171f, -0.129461f, 0.018981f, -0.050380f, -0.151273f, -0.290785f, -0.015246f, 0.037867f, -0.030322f, -0.065577f, 0.045549f, -0.016489f, -0.067260f, 0.002515f, 0.061983f, 0.098465f, 0.083527f, 0.045309f, -0.171592f, -0.089940f, 0.091663f, -0.061329f, -0.176672f, -0.218042f, -0.112551f, -0.068314f, 0.103489f, 0.024982f, -0.037278f, 0.113800f, 0.171791f, -0.043212f, 0.010276f, -0.227961f, -0.131916f, 0.029782f, 0.053287f, 0.110367f, 0.070963f, -0.094232f, 0.040136f, -0.041789f, -0.069219f, 0.104774f, 0.005371f, 0.055099f, 0.155652f, 0.079333f, 0.078978f, 0.062100f, -0.029562f, -0.024766f, 0.078288f, -0.038185f, -0.081130f, -0.138434f, -0.033817f, -0.026099f, -0.096632f, -0.105671f, -0.167219f, -0.213220f, -0.365129f, -0.309381f, -0.231963f, -0.167892f, 0.076834f, -0.030198f, -0.026775f, 0.034666f, 0.051038f, 0.038469f, 0.190582f, 0.186316f, 0.051342f, -0.037556f, -0.066277f, 0.009580f, 0.024640f, -0.005274f, 0.099350f, -0.209658f, 0.061033f, 0.119922f, -0.000261f, 0.091804f, 0.207919f, 0.265421f, 0.079196f, -0.022933f, 0.109524f, 0.231734f, 0.141284f, -0.162077f, -0.012906f, 0.069788f, -0.100331f, -0.139504f, -0.088488f, -0.049392f, -0.062954f, 0.004836f, -0.111869f, -0.128102f, -0.065250f, 0.034309f, -0.046102f, -0.228245f, -0.170640f, -0.062147f, 0.080751f, -0.130114f, 0.018980f, 0.045126f, -0.068572f, 0.297647f, -0.070608f, 0.015906f, 0.220549f, 0.010519f, 0.318628f, -0.094859f, 0.246758f, 0.305166f, -0.074104f, 0.107076f, 0.127447f, 0.111573f, -0.057880f, 0.115048f, 0.109422f, 0.199753f, 0.014899f, -0.064123f, 0.023127f, -0.198925f, -0.137298f, -0.137217f, -0.175717f, -0.039494f, -0.052753f, 0.049268f, -0.253088f, 0.053862f, 0.165631f, 0.044846f, -0.176933f, -0.126246f, 0.108312f, 0.190846f, 0.019185f, 0.048752f, 0.089336f, 0.048901f, 0.030320f, -0.015701f, -0.129271f, 0.003835f, 0.049705f, 0.015584f, 0.031301f, -0.214955f, 0.036426f, -0.064875f, 0.035651f, 0.002529f, 0.085292f, 0.186752f, -0.083010f, -0.029419f, 0.052406f, 0.199735f, 0.086378f, -0.087905f, -0.226841f, -0.033688f, -0.076516f, -0.018065f, 0.037088f, 0.061665f, 0.024960f, 0.220412f, 0.037612f, -0.056017f, 0.017483f, -0.139721f, 0.066811f, -0.205094f, -0.212567f, -0.159202f, -0.189959f, -0.167274f, -0.467358f, -0.385321f, -0.067383f, -0.130882f, -0.126211f, -0.327640f, -0.111957f, 0.044079f, -0.069090f, -0.061446f, -0.035669f, -0.015812f, -0.094975f, -0.095972f, 0.086167f, 0.024505f, -0.303026f, -0.022048f, -0.062395f, 0.232135f, -0.133705f, -0.303440f, 0.069771f, -0.135349f, -0.181058f, -0.347892f, -0.138972f, -0.047225f, 0.015702f, -0.170732f, -0.086182f, 0.081592f, -0.008878f, 0.110192f, 0.054208f, 0.146388f, 0.082984f, 0.001719f, 0.041003f, 0.177212f, -0.034398f, -0.109284f, 0.158650f, 0.125390f, 0.016737f, 0.048037f, -0.054547f, -0.076660f, -0.010179f, -0.176367f, -0.007677f, 0.069963f, -0.004724f, -0.125197f, -0.125977f, 0.039424f, -0.045567f, 0.070285f, 0.087811f, 0.095924f, -0.044380f, -0.069072f, -0.191557f, -0.099025f, 0.172665f, 0.170047f, -0.043260f, -0.093374f, -0.026726f, 0.136205f, 0.274119f, 0.096326f, 0.095060f, -0.095520f, -0.121704f, 0.238432f, 0.233873f, 0.087593f, 0.007908f, -0.144507f, -0.076824f, -0.046917f, 0.117340f, -0.136751f, -0.022751f, -0.064846f, -0.018747f, 0.020986f, 0.108269f, -0.199478f, -0.116449f, 0.057268f, 0.095937f, -0.013922f, -0.411539f, -0.194700f, 0.126313f, 0.165201f, 0.036713f, 0.034162f, -0.229749f, -0.066411f, 0.099618f, 0.270990f, -0.013616f, 0.021433f, -0.005806f, 0.143907f, 0.048727f, -0.063491f, 0.039540f, 0.088138f, -0.026326f, 0.003222f, -0.083468f, 0.130655f, 0.029924f, 0.104991f, 0.123815f, -0.034936f, 0.042120f, -0.100511f, 0.001709f, -0.046561f, -0.026318f, -0.031986f, -0.066928f, -0.263647f, -0.142955f, -0.099245f, -0.057856f, -0.182717f, -0.038558f, -0.128280f, -0.067845f, -0.013918f, 0.118377f, 0.031419f, 0.033297f, -0.095494f, -0.190261f, -0.116419f, -0.036243f, 0.017094f, -0.301086f, -0.290081f, 0.033543f, 0.047081f, 0.047300f, -0.190564f, -0.207928f, -0.083986f, 0.065112f, 0.168305f, 0.040428f, 0.017986f, 0.046908f, 0.060499f, 0.051767f, -0.106055f, -0.278104f, -0.259856f, -0.099542f, -0.165265f, -0.079204f, -0.354601f, -0.334369f, -0.276146f, -0.196187f, 0.024037f, -0.069628f, -0.122932f, -0.238981f, -0.228433f, -0.056154f, 0.132223f, 0.030204f, 0.022852f, 0.023462f, -0.106111f, -0.006544f, -0.014954f, 0.147860f, 0.064936f, 0.231907f, 0.204701f, 0.083292f, -0.006591f, 0.012949f, 0.135263f, 0.025809f, -0.038894f, 0.089569f, 0.025945f, 0.012613f, 0.009820f, -0.014875f, 0.100910f, -0.020006f, -0.113708f, 0.015587f, -0.110014f, -0.015221f, -0.066471f, -0.117734f, 0.060054f, 0.145694f, -0.043961f, -0.197759f, -0.187539f, -0.084064f, -0.142768f, -0.025295f, 0.008107f, -0.184220f, -0.077981f, -0.145868f, 0.068311f, 0.108990f, 0.082349f, 0.043692f, 0.026254f, 0.035003f, 0.114375f, 0.276322f, 0.297059f, 0.098162f, 0.049031f, 0.057232f, -0.204302f, 0.295152f, 0.070019f, -0.048088f, -0.122979f, -0.185126f, -0.158787f, 0.050094f, 0.133981f, 0.210558f, -0.178746f, -0.178534f, -0.098884f, 0.171738f, 0.116305f, -0.330579f, -0.202339f, 0.140916f, 0.053821f, 0.047670f, -0.258656f, -0.163186f, 0.171132f, 0.073607f, -0.030102f, 0.075393f, -0.174944f, -0.031440f, 0.106219f, -0.078650f, -0.055946f, 0.042813f, 0.185356f, 0.108033f, -0.051171f, -0.037875f, 0.140613f, -0.056210f, -0.015394f, -0.116301f, -0.097978f, -0.051348f, -0.124332f, -0.154660f, -0.094085f, -0.046981f, 0.050668f, -0.265218f, -0.198136f, -0.230176f, -0.077688f, 0.067971f, -0.158970f, -0.135653f, -0.307544f, 0.007599f, -0.072571f, 0.069767f, 0.041616f, 0.075690f, 0.042649f, -0.114023f, 0.075135f, 0.168816f, 0.156034f, -0.243806f, -0.207232f, 0.058042f, 0.037170f, 0.091378f, -0.293684f, -0.154534f, 0.028111f, 0.244958f, 0.034277f, -0.068569f, -0.145068f, -0.018736f, 0.105022f, -0.050718f, -0.148314f, -0.239471f, -0.133627f, 0.105388f, -0.068097f, -0.372460f, -0.198691f, 0.063429f, 0.071817f, 0.065930f, -0.151558f, -0.296685f, -0.093967f, 0.059279f, 0.133581f, 0.157006f, 0.007848f, -0.053161f, 0.102866f, 0.171870f, 0.176665f, 0.124335f, 0.069126f, 0.023990f, -0.055055f, -0.072931f, -0.039831f, 0.025945f, 0.031654f, 0.120289f, -0.013601f, 0.026220f, 0.084800f, 0.175194f, 0.011352f, -0.053699f, 0.111869f, 0.187635f, 0.035734f, -0.323414f, 0.221088f, 0.169757f, -0.106424f, -0.080496f, 0.031216f, -0.009324f, -0.176083f, -0.065228f, 0.132158f, 0.031587f, 0.047447f, 0.079705f, 0.144712f, 0.185861f, 0.162291f, -0.008724f, 0.171757f, 0.081866f, 0.187633f, 0.130936f, 0.019829f, 0.046669f, 0.082254f, 0.048686f, -0.097713f, 0.096913f, 0.000152f, -0.129289f, -0.069459f, 0.064150f, -0.120075f, -0.065406f, -0.154873f, -0.011655f, 0.081922f, 0.040495f, 0.152610f, 0.201532f, 0.091309f, 0.021486f, 0.075881f, 0.033984f, 0.048063f, 0.110246f, 0.045413f, 0.080448f, -0.039462f, -0.090552f, -0.175390f, -0.100641f, 0.176205f, 0.132280f, -0.290009f, -0.372016f, -0.010075f, 0.088320f, -0.145854f, -0.053244f, 0.124285f, 0.061554f, 0.023018f, -0.118287f, -0.158134f, -0.137768f, -0.173322f, 0.028722f, -0.030796f, -0.220906f, -0.038723f, -0.190396f, -0.085754f, 0.060969f, 0.145777f, 0.054174f, -0.162731f, -0.034686f, 0.175732f, 0.197811f, -0.037185f, -0.005690f, -0.029767f, -0.134011f, -0.269759f, 0.104966f, 0.111573f, 0.043919f, 0.044734f, 0.084051f, 0.059027f, -0.097906f, 0.012636f, 0.020182f, 0.135713f, 0.047971f, 0.019273f, 0.145904f, 0.027079f, -0.020450f, -0.106855f, -0.179586f, -0.015637f, 0.170733f, -0.146279f, -0.397302f, -0.346785f, 0.134281f, 0.003060f, -0.246705f, -0.011325f, 0.181937f, 0.144510f, -0.097327f, -0.036823f, 0.124944f, -0.104791f, -0.034018f, -0.001209f, -0.231641f, -0.208574f, -0.320134f, -0.078809f, -0.256100f, -0.411190f, -0.250679f, -0.147036f, -0.221094f, -0.196004f, -0.090582f, -0.033021f, 0.012788f, -0.009547f, 0.187478f, 0.143844f, 0.066412f, -0.077744f
};

// Original shape: ([16])
const float conv2_bias[16] = {
    0.122552f, -0.000013f, 0.082316f, 0.048941f, 0.046084f, 0.084679f, -0.097270f, -0.068277f, -0.032121f, -0.012520f, -0.004087f, -0.003515f, -0.093886f, 0.013427f, -0.120739f, 0.013093f
};

// Original shape: ([120, 256])
const float fc1_weight[30720] = {
    -0.073377f, 0.135706f, 0.003315f, 0.058942f, 0.117708f, 0.154274f, -0.008885f, -0.087308f, -0.034731f, 0.021287f, -0.066620f, 0.024461f, -0.014954f, 0.086726f, 0.017204f, 0.182103f, 0.087461f, -0.015898f, -0.062729f, -0.064676f, 0.010072f, -0.000587f, 0.150446f, 0.371740f, 0.000292f, -0.055589f, 0.058237f, -0.000241f, -0.100937f, 0.083281f, 0.057205f, 0.024573f, -0.012378f, -0.012842f, 0.023017f, -0.050811f, 0.100269f, -0.080323f, -0.101824f, 0.018461f, 0.079357f, -0.110275f, 0.075150f, 0.090800f, -0.189729f, -0.177407f, -0.040675f, -0.015275f, -0.040074f, -0.109880f, -0.004750f, -0.016709f, -0.024321f, -0.063912f, -0.083046f, 0.048938f, -0.220044f, -0.102420f, -0.075210f, -0.017028f, 0.047041f, 0.063438f, 0.044321f, -0.094581f, -0.033990f, -0.207394f, -0.214499f, 0.002748f, 0.047808f, 0.115558f, 0.007967f, -0.117391f, 0.079530f, -0.039319f, -0.016107f, -0.034439f, 0.115997f, -0.061837f, -0.097430f, 0.055596f, -0.049983f, -0.167619f, -0.083288f, -0.021366f, -0.154710f, -0.203122f, -0.076218f, -0.055150f, -0.024094f, 0.038257f, -0.003726f, 0.047402f, 0.139665f, 0.001540f, -0.083256f, 0.044096f, 0.077913f, 0.084677f, -0.038889f, 0.016220f, 0.130815f, 0.056154f, 0.105952f, 0.259566f, -0.061457f, 0.009852f, 0.180835f, 0.077193f, 0.057912f, -0.076270f, -0.078518f, 0.009423f, -0.008926f, 0.069650f, 0.162089f, -0.002643f, 0.148880f, 0.258012f, 0.103022f, 0.114306f, 0.043725f, 0.055201f, -0.037844f, 0.012303f, -0.078578f, -0.021143f, 0.064653f, -0.035528f, 0.178748f, 0.007925f, 0.096330f, -0.030230f, 0.170381f, -0.039258f, -0.022266f, 0.017005f, 0.198997f, 0.128728f, 0.108807f, 0.090706f, -0.120577f, -0.079258f, -0.033312f, -0.014670f, 0.040460f, -0.019610f, -0.008367f, 0.049628f, -0.044390f, 0.097674f, 0.191671f, 0.264524f, -0.094060f, 0.119080f, -0.079410f, -0.044930f, -0.061328f, 0.008534f, 0.057586f, 0.044966f, -0.117207f, -0.002669f, 0.063575f, 0.181574f, -0.000425f, 0.073850f, -0.074873f, -0.139593f, -0.067969f, 0.015813f, -0.027457f, -0.074335f, 0.047267f, -0.022379f, 0.033304f, -0.025326f, 0.089054f, 0.006584f, 0.061537f, 0.010306f, 0.095257f, 0.106298f, 0.105502f, 0.033593f, -0.096349f, 0.029740f, -0.040192f, -0.002247f, -0.069362f, 0.109007f, -0.026223f, 0.104632f, 0.111570f, 0.017709f, 0.034337f, -0.016945f, -0.071283f, -0.030805f, 0.068033f, -0.182143f, -0.040448f, 0.047185f, -0.023477f, 0.042234f, 0.060787f, 0.118515f, 0.049638f, 0.018291f, 0.157394f, -0.035005f, -0.079721f, -0.028859f, 0.130913f, 0.009185f, 0.104953f, -0.129620f, -0.046003f, -0.168058f, 0.037515f, -0.108438f, -0.037418f, 0.044761f, -0.023357f, -0.082945f, 0.146561f, 0.061283f, 0.015248f, -0.126521f, 0.035649f, 0.020387f, 0.202567f, 0.054633f, -0.132896f, -0.154494f, -0.018222f, 0.020503f, 0.011900f, 0.077196f, 0.004353f, -0.016879f, 0.057201f, 0.005894f, 0.073331f, 0.090317f, -0.043625f, 0.152166f, 0.163331f, 0.105494f, 0.004036f, 0.016955f, -0.018457f, 0.004868f, -0.132037f, -0.059304f, 0.115146f, 0.093632f, 0.059040f, -0.001070f, -0.019785f, -0.092256f, 0.182767f, 0.236761f, -0.008592f, -0.138885f, -0.299144f, 0.008601f, 0.000535f, -0.025708f, -0.265012f, -0.240143f, -0.041528f, 0.088970f, 0.035987f, -0.011086f, -0.040224f, -0.061960f, -0.029477f, 0.032522f, 0.126101f, 0.127882f, 0.137109f, 0.173977f, 0.121368f, -0.003683f, 0.142149f, -0.025895f, -0.003808f, -0.017263f, 0.019006f, -0.065999f, -0.042955f, -0.035341f, 0.064686f, -0.046945f, -0.035940f, -0.282150f, 0.015464f, -0.304446f, 0.080840f, -0.076364f, -0.527679f, -0.100601f, 0.091740f, -0.182360f, -0.053582f, -0.044418f, -0.094166f, -0.119267f, -0.068806f, -0.016192f, -0.043034f, 0.050084f, -0.450733f, -0.094945f, -0.013384f, 0.015271f, 0.059069f, 0.044080f, -0.060982f, 0.047987f, -0.097330f, 0.045293f, 0.048417f, 0.077892f, -0.033122f, 0.297991f, -0.095852f, -0.021695f, 0.191214f, -0.007173f, -0.023201f, -0.423279f, -0.012062f, -0.107693f, 0.052885f, 0.113890f, -0.025345f, 0.023827f, 0.105507f, 0.084916f, -0.052514f, 0.088474f, 0.058528f, 0.104016f, 0.078124f, 0.069741f, 0.004437f, -0.064546f, 0.114861f, -0.065334f, -0.091594f, 0.059830f, -0.018007f, -0.093169f, 0.023817f, 0.017982f, 0.059952f, -0.014280f, 0.037212f, 0.033032f, -0.027242f, -0.114051f, -0.030431f, 0.006613f, 0.109050f, -0.004386f, -0.036447f, -0.077902f, 0.112269f, 0.097405f, 0.063601f, -0.127281f, -0.076663f, 0.010762f, -0.163026f, 0.078999f, 0.029351f, -0.185269f, -0.103543f, -0.084645f, 0.096458f, 0.029665f, -0.057708f, 0.025869f, -0.122914f, -0.114718f, -0.027806f, 0.095558f, 0.030660f, -0.121427f, -0.129632f, -0.036801f, -0.062526f, -0.204352f, -0.063526f, 0.097125f, -0.227123f, -0.191526f, -0.037607f, -0.195960f, -0.128060f, -0.125998f, 0.050701f, 0.029700f, -0.045202f, 0.114488f, 0.075629f, 0.212705f, 0.173272f, 0.015698f, 0.030362f, 0.079235f, 0.029374f, -0.011282f, 0.023333f, -0.073196f, 0.089343f, 0.090793f, -0.034883f, 0.107828f, -0.039187f, 0.127457f, -0.123895f, -0.063954f, 0.079016f, 0.180070f, 0.020957f, -0.172331f, 0.043302f, 0.066375f, -0.011505f, 0.055169f, 0.120342f, -0.137466f, -0.129769f, -0.078517f, 0.154823f, 0.091064f, 0.117890f, -0.042356f, -0.128125f, 0.023938f, -0.099722f, -0.056714f, 0.032168f, -0.078232f, 0.026214f, -0.023805f, -0.012784f, 0.020076f, -0.150375f, 0.061109f, -0.081773f, 0.015097f, -0.078927f, 0.006750f, 0.046458f, 0.080550f, 0.037623f, -0.078567f, 0.231015f, 0.292639f, -0.088806f, -0.035378f, 0.087703f, -0.053972f, 0.138121f, 0.043581f, 0.174543f, 0.032828f, 0.071993f, 0.126382f, -0.210685f, -0.070502f, 0.053088f, -0.000107f, -0.008530f, -0.046327f, -0.007104f, -0.078836f, -0.004081f, 0.058078f, 0.059267f, 0.094947f, -0.116974f, 0.069589f, 0.084160f, 0.038137f, -0.344233f, -0.107164f, 0.006280f, -0.016752f, 0.168373f, 0.140131f, 0.011441f, -0.186267f, -0.247635f, -0.271446f, -0.014438f, -0.001697f, -0.090716f, 0.129631f, 0.095616f, -0.040562f, 0.012340f, 0.377703f, -0.063535f, -0.044461f, 0.019216f, -0.031637f, 0.090026f, 0.054134f, -0.107186f, 0.060948f, 0.044968f, -0.026756f, -0.140538f, -0.144729f, 0.047717f, 0.062278f, 0.176805f, -0.031540f, 0.066278f, -0.019618f, 0.056635f, -0.021118f, 0.041868f, 0.063266f, -0.041720f, -0.037759f, -0.155504f, -0.088239f, -0.054355f, 0.012152f, -0.043928f, -0.156297f, -0.080577f, -0.035133f, -0.099881f, -0.081930f, 0.090769f, 0.147152f, -0.043033f, 0.040070f, -0.083810f, -0.029412f, 0.013624f, -0.008678f, 0.129911f, 0.107153f, 0.010988f, -0.000550f, 0.172642f, 0.056329f, 0.052865f, 0.043886f, 0.097275f, 0.077903f, -0.058962f, -0.155896f, 0.007628f, 0.205509f, 0.268321f, -0.160565f, -0.180358f, -0.186697f, 0.029491f, -0.133976f, -0.028988f, -0.118130f, 0.028629f, -0.062907f, -0.065486f, -0.036337f, -0.036702f, -0.088258f, 0.115279f, 0.034210f, 0.357633f, 0.181147f, -0.080680f, -0.048543f, -0.084636f, 0.109996f, -0.137636f, -0.077701f, -0.136894f, 0.061048f, -0.115292f, 0.213862f, 0.043284f, -0.007708f, -0.085998f, -0.179360f, -0.274577f, -0.203349f, -0.263056f, -0.116351f, -0.112269f, -0.094840f, -0.151658f, -0.118181f, -0.188651f, 0.088527f, -0.093964f, 0.080097f, 0.003467f, -0.029582f, -0.022036f, -0.017298f, -0.125475f, -0.273249f, -0.028513f, -0.016524f, 0.048460f, -0.121846f, -0.172876f, -0.046896f, -0.112274f, 0.073254f, 0.055986f, 0.071836f, 0.136487f, 0.104504f, -0.077538f, 0.102342f, 0.004785f, 0.063610f, -0.020571f, -0.056873f, 0.004732f, -0.020904f, 0.051848f, -0.000197f, 0.025307f, 0.121459f, 0.047234f, 0.052133f, 0.055917f, 0.124851f, 0.147162f, 0.124142f, -0.076891f, -0.084983f, 0.094333f, 0.032605f, -0.118975f, -0.182943f, 0.024179f, 0.124258f, 0.073237f, -0.016237f, -0.161815f, 0.069302f, 0.135273f, 0.099580f, 0.006998f, -0.014970f, -0.173866f, -0.109391f, -0.075571f, -0.045096f, -0.072066f, -0.212113f, -0.361279f, -0.092131f, -0.145907f, -0.079365f, 0.145016f, 0.229038f, 0.055178f, 0.084050f, 0.212256f, 0.012190f, 0.100940f, 0.139778f, -0.019153f, 0.047437f, 0.058852f, 0.001067f, -0.146202f, 0.011155f, -0.054633f, -0.019898f, -0.070059f, 0.034076f, -0.024026f, -0.052225f, -0.129209f, -0.079812f, -0.065631f, 0.048117f, -0.169497f, -0.077807f, -0.010026f, -0.095062f, 0.050191f, -0.136950f, 0.024597f, 0.092883f, 0.188173f, 0.219759f, 0.158470f, 0.021980f, 0.019577f, -0.032719f, 0.134026f, -0.040586f, -0.098278f, -0.146358f, 0.053446f, 0.023963f, 0.029130f, -0.161162f, 0.026793f, 0.038315f, -0.064595f, -0.115268f, -0.139459f, 0.081796f, -0.074070f, 0.100877f, 0.064501f, -0.125203f, -0.155048f, 0.042066f, -0.073202f, -0.185651f, -0.192603f, -0.075326f, 0.125772f, 0.004454f, 0.087587f, 0.029676f, 0.046199f, 0.213206f, -0.167378f, 0.022533f, -0.002773f, -0.150934f, -0.068921f, 0.059263f, 0.010065f, -0.158491f, -0.022736f, -0.050856f, 0.080727f, 0.035587f, 0.030492f, 0.100120f, -0.111133f, 0.105713f, 0.237208f, 0.134820f, 0.001437f, 0.012148f, -0.033556f, -0.074498f, -0.062287f, -0.011364f, -0.067295f, -0.139432f, -0.062678f, -0.066383f, 0.152336f, 0.046443f, 0.060176f, -0.018165f, -0.187447f, 0.034713f, 0.037918f, 0.085377f, -0.036287f, 0.015946f, -0.050315f, -0.097622f, 0.140703f, 0.058598f, -0.086454f, -0.043814f, -0.017256f, -0.044443f, -0.013372f, 0.035802f, -0.001536f, 0.001282f, 0.001063f, 0.055057f, -0.115670f, -0.047883f, 0.082632f, 0.128731f, -0.080100f, 0.055030f, 0.010215f, -0.008420f, -0.066338f, 0.015656f, 0.108537f, 0.079367f, -0.000488f, -0.053218f, -0.107942f, -0.116573f, -0.053697f, -0.082608f, -0.100442f, -0.055181f, -0.060982f, -0.091942f, 0.025498f, -0.011601f, -0.031539f, -0.022054f, 0.043845f, -0.186894f, -0.181394f, -0.149124f, -0.088696f, 0.020007f, 0.057554f, -0.036286f, 0.009944f, -0.004758f, -0.236065f, -0.132668f, -0.130551f, -0.118505f, -0.149028f, -0.027371f, 0.203029f, -0.087610f, -0.016341f, -0.194131f, -0.120588f, -0.041760f, -0.043255f, -0.063796f, 0.002491f, -0.128209f, 0.011230f, -0.010290f, -0.078812f, -0.006883f, 0.148985f, 0.040187f, 0.019378f, -0.161480f, 0.029830f, -0.118480f, -0.051551f, -0.033357f, 0.030142f, -0.166122f, 0.033227f, -0.075953f, -0.044323f, 0.008978f, 0.050329f, 0.088763f, 0.099355f, -0.067395f, -0.030551f, 0.023039f, -0.028042f, -0.004801f, 0.048488f, 0.003964f, 0.085431f, -0.007425f, -0.016087f, -0.019317f, -0.004446f, 0.015956f, 0.134126f, -0.083267f, -0.074786f, -0.086898f, 0.035999f, 0.083730f, -0.047496f, 0.070367f, 0.052924f, -0.087664f, 0.008205f, 0.166116f, 0.018230f, -0.069302f, -0.024296f, -0.086755f, 0.046774f, 0.058317f, 0.011395f, -0.074509f, -0.060373f, -0.019943f, -0.060616f, 0.007347f, -0.033525f, -0.022347f, -0.023794f, -0.024948f, 0.117360f, 0.090021f, 0.134645f, 0.119240f, -0.009993f, -0.046958f, -0.071609f, -0.034643f, 0.097196f, 0.007802f, -0.109518f, -0.028920f, -0.003703f, -0.028350f, -0.205673f, -0.031932f, 0.044754f, 0.006359f, -0.037418f, 0.060252f, 0.004411f, -0.071759f, -0.004784f, -0.020715f, -0.060984f, 0.005095f, -0.225361f, -0.153996f, 0.008603f, 0.141418f, -0.091126f, -0.112834f, -0.024093f, 0.002091f, -0.037860f, -0.142450f, -0.095215f, 0.095735f, 0.047790f, 0.007585f, 0.062597f, -0.100144f, -0.050010f, -0.049263f, -0.075476f, 0.034260f, 0.006621f, 0.007818f, -0.099390f, -0.040038f, -0.046708f, -0.089799f, -0.062469f, -0.085647f, -0.011615f, -0.068478f, -0.039675f, 0.117479f, 0.080804f, -0.034805f, 0.054147f, -0.053904f, -0.007613f, 0.029080f, 0.033553f, -0.069657f, -0.049967f, 0.085566f, -0.056049f, -0.039567f, 0.109419f, 0.165557f, 0.050310f, -0.002095f, 0.028219f, 0.012242f, -0.156903f, -0.023804f, 0.062264f, 0.033433f, -0.006408f, -0.135459f, -0.055519f, -0.057160f, 0.027055f, -0.126273f, -0.103361f, -0.000231f, 0.153638f, 0.001689f, -0.004080f, -0.083503f, -0.126003f, -0.028760f, -0.068516f, 0.039999f, 0.031321f, -0.019396f, -0.142234f, -0.004741f, 0.061683f, -0.003993f, -0.033876f, 0.071618f, 0.035048f, 0.096355f, 0.032928f, -0.012389f, 0.075538f, 0.090266f, -0.062819f, -0.005761f, 0.168944f, 0.062705f, -0.058989f, 0.137051f, -0.052031f, -0.019588f, 0.087772f, -0.141173f, 0.039885f, 0.095888f, 0.179405f, 0.043657f, -0.030389f, -0.010490f, 0.207548f, -0.121217f, 0.078336f, 0.139494f, -0.045948f, -0.077053f, -0.117831f, -0.004706f, -0.164782f, -0.084620f, -0.093067f, -0.147445f, -0.086265f, -0.032864f, -0.012041f, -0.256649f, -0.005345f, -0.158274f, -0.301242f, -0.070027f, 0.073608f, -0.028403f, -0.046071f, 0.017127f, -0.037679f, 0.038066f, -0.140094f, -0.134007f, -0.004923f, -0.043511f, 0.078306f, 0.133448f, -0.169479f, -0.195256f, -0.150915f, 0.010492f, -0.089707f, -0.077426f, -0.081305f, -0.257717f, 0.060549f, -0.060395f, -0.240546f, 0.125608f, -0.024216f, 0.073212f, 0.024807f, -0.110494f, 0.084566f, 0.044892f, -0.057654f, -0.080510f, 0.206553f, 0.075347f, -0.252982f, -0.058445f, -0.003971f, -0.116562f, 0.094470f, 0.021234f, -0.045238f, -0.131070f, 0.066889f, 0.054647f, 0.022146f, -0.014669f, 0.086268f, 0.138099f, -0.113262f, 0.062447f, 0.215488f, -0.019767f, -0.007170f, 0.074238f, 0.170738f, -0.034077f, -0.024132f, -0.014537f, -0.319376f, -0.078425f, 0.171562f, -0.074634f, -0.006547f, 0.167989f, 0.004358f, -0.034682f, 0.097606f, 0.098250f, -0.028810f, 0.047563f, -0.019764f, 0.121610f, 0.016913f, -0.003427f, -0.047290f, 0.005379f, 0.041076f, 0.023837f, -0.022265f, -0.060925f, -0.077466f, -0.266641f, -0.127863f, -0.123924f, -0.175610f, -0.184447f, -0.084427f, -0.168113f, 0.068672f, 0.010771f, 0.135583f, 0.103324f, 0.027655f, -0.103806f, -0.041309f, 0.020580f, -0.180221f, -0.152150f, 0.022207f, -0.187404f, -0.088906f, -0.093267f, -0.047638f, -0.182376f, 0.055011f, -0.058009f, -0.014294f, 0.042033f, -0.025729f, 0.000212f, 0.064437f, -0.004332f, -0.098019f, -0.139170f, 0.049626f, -0.060152f, -0.127588f, -0.178742f, -0.090661f, -0.075433f, 0.029610f, -0.023996f, -0.179240f, -0.059739f, 0.088222f, -0.090196f, -0.148185f, -0.105167f, 0.045124f, -0.125224f, 0.038312f, 0.025663f, -0.149949f, -0.050635f, -0.062808f, 0.073574f, -0.023591f, 0.056990f, -0.159075f, -0.083110f, -0.033303f, -0.119163f, -0.014112f, -0.133653f, -0.068076f, -0.127981f, 0.074632f, -0.021200f, -0.016924f, -0.106055f, 0.058655f, -0.028919f, -0.021581f, -0.029296f, 0.002401f, -0.010488f, 0.071736f, -0.093617f, -0.091671f, 0.099071f, -0.056553f, -0.125679f, 0.042299f, 0.071914f, -0.090039f, -0.349362f, -0.090397f, -0.217157f, -0.140734f, 0.013435f, -0.015372f, -0.043976f, 0.095247f, 0.097399f, -0.126837f, 0.077713f, 0.017268f, -0.058007f, -0.120472f, -0.058371f, -0.126741f, -0.135978f, -0.046876f, 0.057195f, -0.022764f, 0.051211f, 0.204042f, 0.055116f, -0.100186f, 0.028892f, 0.135864f, 0.063578f, 0.013201f, -0.079556f, -0.048662f, -0.042905f, -0.193125f, -0.067808f, -0.166771f, -0.230034f, -0.028033f, 0.036971f, 0.221589f, 0.067954f, 0.043593f, 0.056105f, 0.192095f, -0.033663f, 0.002047f, 0.016682f, -0.158952f, -0.153402f, -0.118634f, -0.118025f, -0.109819f, -0.079368f, 0.017853f, 0.103204f, -0.096496f, -0.228960f, 0.112214f, 0.057099f, -0.111324f, 0.036970f, 0.062881f, -0.101381f, 0.098279f, 0.181794f, 0.130134f, 0.194358f, -0.055023f, 0.085237f, 0.208723f, 0.024789f, 0.023725f, -0.052427f, -0.040983f, -0.020141f, 0.078749f, -0.057083f, 0.031890f, 0.064983f, 0.214568f, 0.023064f, 0.033084f, -0.013353f, 0.066985f, 0.155683f, -0.048675f, 0.072186f, 0.001616f, -0.105401f, 0.064968f, 0.122646f, -0.058405f, -0.077734f, 0.154540f, 0.001313f, -0.018551f, 0.102914f, 0.108658f, 0.036996f, 0.049373f, 0.176509f, 0.113756f, 0.040447f, -0.163660f, -0.154237f, 0.226921f, 0.074033f, 0.069519f, 0.036495f, 0.044518f, -0.041510f, 0.070654f, 0.110927f, 0.130231f, 0.015830f, 0.113379f, 0.006734f, 0.088970f, -0.060862f, 0.263436f, 0.037123f, -0.165312f, -0.272196f, -0.049257f, 0.092613f, -0.038434f, -0.167892f, 0.023332f, -0.053881f, 0.032561f, 0.001587f, -0.047500f, 0.019751f, -0.001138f, 0.137330f, 0.320801f, 0.254008f, -0.006482f, 0.004853f, 0.154936f, -0.165840f, -0.017794f, 0.010716f, -0.095660f, -0.125106f, -0.058328f, 0.228142f, 0.095879f, 0.060128f, -0.237416f, -0.027731f, -0.002464f, 0.077131f, -0.090493f, -0.031875f, 0.002768f, 0.214954f, 0.019341f, -0.065802f, 0.134802f, 0.016916f, -0.044116f, 0.007288f, -0.058169f, 0.099122f, -0.083109f, -0.012981f, -0.066816f, -0.165626f, -0.060112f, 0.026313f, -0.071034f, -0.122676f, 0.039988f, 0.094853f, -0.018607f, 0.216756f, 0.078078f, -0.036742f, 0.092387f, 0.249814f, 0.121404f, 0.077123f, -0.041912f, -0.138549f, 0.020815f, 0.122693f, 0.080880f, 0.021098f, 0.045078f, 0.005839f, 0.042891f, 0.233182f, 0.068105f, -0.021001f, -0.063831f, -0.071924f, 0.107254f, 0.124011f, 0.051746f, -0.276652f, 0.126676f, 0.046525f, -0.007616f, -0.172230f, 0.090155f, 0.109549f, 0.062653f, 0.165841f, 0.028864f, 0.068953f, 0.082036f, 0.202897f, 0.047062f, 0.086227f, 0.086318f, 0.080506f, -0.082422f, -0.044219f, -0.023171f, -0.087124f, 0.080133f, 0.081894f, -0.013583f, 0.084349f, 0.086807f, 0.130398f, 0.004859f, 0.068027f, -0.013008f, 0.198083f, 0.195708f, 0.193608f, -0.127831f, -0.067110f, 0.099453f, 0.064404f, -0.249462f, 0.033698f, -0.010283f, -0.024443f, -0.267967f, 0.158787f, -0.109230f, -0.009943f, 0.138245f, 0.073220f, 0.051488f, -0.094612f, -0.054193f, 0.020154f, 0.064367f, -0.047159f, 0.125367f, 0.059929f, 0.106579f, 0.109002f, 0.014067f, 0.103493f, 0.000670f, -0.005820f, -0.274794f, -0.246425f, 0.020941f, 0.176644f, -0.194713f, -0.167607f, 0.058463f, 0.156433f, 0.097257f, -0.065875f, 0.050502f, -0.029260f, -0.102085f, -0.101047f, 0.074135f, 0.172871f, -0.047895f, -0.052994f, 0.056473f, 0.044480f, -0.057417f, -0.143220f, -0.073609f, 0.051312f, -0.123274f, -0.134056f, 0.120832f, 0.125871f, -0.022824f, -0.049087f, -0.035520f, 0.163425f, -0.124996f, -0.244635f, -0.168586f, 0.027651f, -0.149652f, -0.071934f, 0.081920f, -0.081550f, 0.030568f, -0.039819f, -0.001312f, 0.056063f, 0.071647f, 0.131445f, -0.010292f, -0.005443f, 0.223280f, 0.168893f, 0.014888f, 0.003986f, 0.125811f, -0.058173f, -0.103714f, -0.125765f, -0.055279f, 0.030048f, 0.020101f, -0.028702f, -0.131184f, -0.177773f, 0.037734f, -0.052437f, -0.144175f, -0.168295f, -0.035971f, -0.066342f, 0.144251f, 0.098472f, -0.021189f, 0.062274f, 0.034475f, 0.108999f, 0.117220f, -0.074845f, -0.204077f, -0.016337f, 0.003020f, -0.031190f, -0.160065f, 0.020994f, -0.080677f, -0.171523f, 0.017315f, 0.021053f, -0.009100f, -0.031839f, 0.094128f, 0.082259f, -0.100243f, -0.099739f, 0.032983f, 0.160226f, -0.093681f, -0.050166f, 0.001186f, -0.049434f, 0.086495f, 0.149707f, -0.045676f, 0.041498f, 0.154914f, 0.079212f, -0.064782f, -0.191166f, 0.019413f, 0.003653f, -0.061756f, -0.061425f, 0.031491f, -0.191763f, 0.013088f, 0.148906f, 0.083086f, 0.031306f, -0.042152f, 0.063692f, -0.049331f, -0.081495f, -0.125898f, 0.053566f, 0.027390f, -0.039755f, -0.160724f, 0.147391f, -0.019115f, -0.028698f, 0.061100f, 0.086226f, 0.061706f, 0.002609f, -0.131640f, 0.072209f, 0.117700f, 0.084063f, 0.172119f, 0.107626f, -0.049111f, 0.124671f, 0.129607f, -0.009418f, -0.070361f, 0.103939f, 0.151841f, 0.079425f, -0.100826f, 0.003654f, -0.121964f, 0.108159f, 0.149614f, 0.052193f, 0.047198f, 0.101236f, 0.176639f, -0.135073f, 0.178439f, 0.004317f, -0.147135f, -0.019049f, -0.082941f, 0.065075f, -0.006451f, 0.104205f, -0.008783f, -0.062777f, -0.004991f, 0.095551f, -0.066805f, -0.000985f, 0.043203f, -0.121932f, -0.011679f, -0.013071f, 0.019743f, 0.000427f, 0.171326f, 0.040429f, -0.001444f, 0.126454f, 0.060621f, 0.073957f, -0.136627f, -0.038427f, -0.033784f, -0.051683f, -0.026421f, 0.036376f, -0.077736f, -0.016660f, -0.077741f, 0.077974f, 0.039690f, 0.097636f, 0.094255f, 0.095543f, 0.028514f, -0.105801f, 0.028500f, 0.039971f, -0.098081f, -0.241921f, -0.057420f, 0.102150f, -0.156146f, -0.026719f, 0.004190f, -0.053858f, 0.109111f, -0.028471f, 0.018864f, 0.036240f, -0.146774f, -0.069553f, -0.045038f, -0.090601f, 0.024332f, 0.062611f, 0.084642f, 0.002536f, -0.024639f, -0.021130f, -0.085322f, 0.021971f, 0.048494f, -0.004846f, -0.029778f, -0.091574f, -0.010976f, -0.007097f, 0.041295f, 0.108012f, 0.094209f, 0.010183f, -0.084886f, -0.008273f, 0.157313f, 0.039015f, -0.113899f, -0.174016f, 0.041313f, -0.152461f, -0.095091f, 0.048039f, 0.051559f, -0.025354f, -0.074076f, 0.034198f, -0.079625f, 0.012027f, 0.062979f, 0.084682f, -0.140688f, -0.025759f, 0.128779f, -0.036106f, 0.198847f, 0.056928f, -0.034984f, -0.042172f, 0.065540f, -0.087278f, -0.049642f, -0.020987f, 0.122532f, 0.003790f, -0.053749f, -0.161710f, 0.036025f, 0.101146f, -0.070117f, -0.307880f, -0.095491f, -0.098174f, -0.033411f, -0.102892f, 0.045597f, -0.104501f, -0.065038f, -0.132804f, 0.004237f, -0.085719f, 0.052753f, -0.015793f, 0.064598f, 0.041104f, 0.028184f, -0.061754f, 0.002799f, 0.038626f, 0.077297f, -0.112183f, 0.126480f, 0.032437f, -0.181805f, -0.215368f, -0.011527f, -0.115891f, -0.016702f, -0.044484f, 0.017617f, 0.196928f, 0.009736f, -0.059446f, -0.152221f, -0.009197f, -0.163015f, -0.155051f, -0.074758f, -0.006540f, -0.082260f, 0.002246f, -0.091850f, 0.071216f, -0.064524f, -0.113398f, 0.042510f, 0.034279f, -0.002936f, 0.058811f, -0.118233f, -0.014965f, 0.069938f, 0.131433f, 0.060679f, 0.010417f, -0.062674f, -0.038024f, -0.016554f, 0.063579f, 0.057057f, 0.133617f, -0.124745f, -0.121412f, -0.055449f, 0.005913f, -0.048288f, 0.038544f, -0.075302f, -0.159898f, 0.042160f, -0.114145f, -0.048526f, -0.085556f, -0.044581f, 0.059577f, -0.028386f, -0.045622f, -0.094927f, -0.170904f, -0.022361f, 0.070549f, -0.013029f, -0.084523f, -0.106540f, -0.050878f, -0.190025f, -0.139981f, -0.084646f, -0.024794f, -0.254140f, -0.393736f, -0.101555f, -0.083060f, -0.281414f, -0.108090f, -0.098028f, -0.161652f, -0.115741f, -0.166579f, -0.162864f, 0.046133f, 0.020447f, 0.056525f, -0.046441f, 0.003823f, -0.037199f, 0.106915f, 0.075182f, 0.051794f, 0.139829f, 0.074818f, -0.030398f, -0.010482f, -0.149557f, 0.094644f, -0.122519f, -0.103101f, 0.004467f, 0.031760f, 0.146899f, 0.004977f, 0.138238f, -0.059842f, 0.036596f, -0.102507f, 0.085162f, 0.029545f, -0.085052f, 0.180508f, -0.023017f, -0.057410f, -0.157915f, -0.014474f, -0.056118f, 0.047402f, -0.063922f, -0.036429f, 0.006203f, 0.096645f, -0.033024f, -0.065546f, -0.004429f, -0.095148f, -0.056439f, -0.024443f, -0.037076f, 0.036571f, 0.129726f, 0.021701f, 0.034796f, -0.082020f, -0.104706f, 0.052425f, -0.101375f, -0.080616f, -0.035786f, -0.033905f, -0.115673f, -0.135770f, -0.223616f, -0.140852f, 0.029210f, -0.016683f, -0.040665f, 0.015976f, 0.076865f, 0.020995f, 0.018183f, 0.107938f, 0.022804f, -0.254219f, -0.008179f, 0.017785f, -0.100749f, -0.064806f, 0.041834f, -0.122774f, 0.013449f, 0.053090f, 0.054367f, -0.130974f, 0.102886f, -0.101759f, -0.053646f, -0.061492f, -0.079702f, -0.233074f, -0.128373f, 0.004521f, -0.184098f, -0.132514f, -0.073492f, -0.047179f, 0.089761f, 0.103109f, -0.029405f, -0.014732f, 0.000083f, -0.186459f, -0.023170f, -0.076519f, -0.031765f, -0.125230f, -0.076989f, -0.062484f, -0.121502f, -0.114485f, 0.030484f, 0.127383f, -0.090493f, -0.076130f, -0.023794f, -0.090034f, -0.004294f, -0.004904f, 0.002352f, -0.037424f, 0.095636f, 0.037087f, -0.074489f, -0.167158f, 0.087731f, 0.128262f, -0.083256f, 0.054338f, -0.005907f, -0.022002f, 0.070794f, -0.028185f, -0.047517f, -0.128727f, -0.030124f, 0.072643f, -0.147684f, -0.201706f, 0.124445f, -0.035475f, -0.154727f, -0.095505f, 0.078086f, 0.127698f, -0.000731f, 0.041482f, 0.054126f, 0.035520f, 0.090566f, 0.114871f, 0.079497f, 0.117672f, -0.029212f, 0.033357f, -0.019318f, -0.014899f, 0.109805f, 0.121877f, -0.064126f, -0.152005f, 0.097244f, -0.084775f, -0.085509f, 0.114846f, 0.032780f, -0.017162f, 0.060886f, 0.095947f, -0.029127f, -0.075233f, 0.039726f, -0.084000f, 0.007442f, 0.120349f, 0.131862f, 0.001702f, 0.095529f, -0.106902f, 0.071390f, 0.006990f, -0.001630f, 0.015307f, -0.064523f, -0.024230f, -0.022033f, -0.047855f, -0.011092f, 0.030691f, -0.021354f, 0.108350f, 0.009574f, -0.107210f, 0.047807f, 0.032590f, -0.009784f, -0.018357f, -0.028074f, 0.023903f, 0.102664f, -0.026634f, -0.047443f, 0.124306f, -0.152809f, 0.078847f, -0.043669f, -0.075232f, 0.182169f, 0.305168f, -0.042218f, 0.021739f, -0.057364f, -0.096218f, 0.015041f, 0.052282f, -0.022946f, -0.037513f, -0.057012f, 0.021957f, -0.013372f, -0.054058f, -0.058511f, 0.024239f, 0.016002f, 0.033956f, -0.061602f, -0.014722f, -0.013959f, 0.026488f, -0.033278f, -0.093635f, -0.002322f, 0.042967f, 0.048104f, -0.048378f, -0.029925f, -0.056246f, 0.017081f, -0.020428f, 0.009293f, -0.006239f, -0.081047f, -0.045989f, -0.027832f, -0.067207f, -0.020040f, -0.003851f, -0.072727f, -0.040914f, 0.007715f, -0.090879f, 0.000188f, 0.012875f, -0.057294f, 0.019483f, 0.012941f, -0.072795f, -0.018417f, -0.054578f, 0.051475f, -0.068784f, -0.037445f, -0.084183f, -0.071555f, 0.015035f, 0.009123f, -0.052171f, -0.076092f, 0.031438f, 0.046469f, 0.027989f, -0.038672f, -0.066742f, -0.032618f, 0.008409f, -0.033072f, 0.059008f, -0.058531f, -0.081999f, -0.081460f, -0.025256f, -0.068346f, 0.054228f, -0.011659f, 0.008944f, 0.016976f, 0.020730f, 0.011058f, 0.005931f, -0.050358f, -0.053937f, -0.043710f, -0.048692f, 0.005089f, -0.004370f, -0.044954f, -0.045242f, -0.030871f, -0.042135f, 0.037403f, 0.043552f, -0.004244f, -0.044229f, 0.003955f, 0.011529f, -0.016242f, -0.085014f, 0.001741f, 0.013176f, 0.001460f, -0.037034f, -0.018224f, 0.023823f, -0.076568f, -0.087335f, 0.043611f, -0.002255f, -0.092327f, -0.081061f, 0.014449f, -0.029725f, -0.093987f, 0.005879f, -0.039615f, 0.044106f, -0.042982f, -0.002784f, -0.046922f, -0.009446f, -0.062941f, -0.067641f, 0.007569f, -0.038741f, -0.037494f, -0.064081f, -0.062693f, -0.086479f, -0.027666f, 0.026002f, 0.022298f, 0.000522f, 0.004607f, -0.000897f, -0.033216f, -0.086803f, -0.062426f, -0.007087f, -0.060589f, 0.008178f, 0.005923f, -0.040031f, -0.056075f, 0.014761f, 0.008273f, -0.070752f, 0.009588f, -0.007233f, -0.015671f, -0.060910f, -0.068962f, -0.008318f, -0.069977f, 0.037497f, -0.058860f, 0.011934f, -0.082225f, -0.001074f, -0.025911f, -0.008999f, 0.019447f, -0.056322f, -0.054578f, -0.048639f, -0.079688f, -0.072438f, 0.044090f, -0.035010f, -0.074455f, -0.050394f, -0.062996f, -0.062268f, -0.009014f, -0.012011f, 0.019030f, 0.000692f, -0.076105f, -0.063735f, -0.043544f, -0.093563f, 0.017811f, 0.001571f, -0.058013f, -0.000544f, -0.035415f, -0.088302f, 0.029539f, -0.050433f, -0.052828f, -0.052992f, 0.030449f, 0.022132f, 0.001445f, -0.014539f, -0.023160f, 0.002958f, -0.031949f, -0.074229f, 0.040865f, -0.036626f, -0.008926f, -0.093689f, 0.019333f, 0.056868f, 0.001633f, -0.039961f, 0.041959f, 0.017952f, 0.054730f, -0.013204f, -0.058474f, 0.012204f, 0.011778f, 0.007838f, -0.054880f, -0.001410f, -0.065275f, -0.034971f, -0.063867f, 0.021163f, -0.054419f, -0.061588f, 0.017754f, 0.027560f, 0.031022f, -0.026124f, 0.029382f, -0.076564f, 0.042409f, -0.010864f, -0.002510f, 0.001233f, -0.076938f, -0.016827f, -0.017196f, -0.055842f, -0.001140f, -0.033178f, 0.017934f, 0.031673f, -0.032573f, 0.017334f, 0.012257f, -0.035532f, 0.044084f, 0.005851f, -0.088493f, -0.057385f, -0.048857f, -0.046984f, -0.058789f, -0.048462f, -0.071301f, -0.001193f, 0.013850f, 0.020037f, 0.001966f, -0.064245f, -0.027535f, -0.139415f, -0.125784f, -0.077095f, -0.030808f, 0.171525f, 0.026040f, -0.028458f, 0.040162f, 0.041197f, -0.083497f, 0.010940f, 0.013135f, 0.001002f, -0.134338f, -0.110142f, -0.047905f, -0.039536f, -0.139843f, 0.079281f, 0.073818f, 0.082781f, 0.047082f, 0.073000f, -0.030145f, 0.065281f, -0.036340f, 0.088355f, 0.077127f, -0.031168f, -0.267917f, -0.111495f, 0.059561f, 0.321101f, -0.052060f, 0.129166f, 0.142676f, 0.185397f, -0.033919f, -0.138136f, -0.036274f, 0.066907f, 0.026091f, -0.114362f, 0.002376f, -0.059869f, 0.104233f, 0.165951f, 0.149556f, -0.074511f, 0.106249f, -0.015877f, -0.036918f, -0.185366f, 0.232596f, -0.043337f, 0.074011f, -0.052575f, -0.108467f, 0.035418f, -0.048917f, 0.018463f, 0.204883f, 0.209530f, 0.277012f, 0.065101f, -0.084787f, 0.105071f, -0.130421f, -0.104472f, 0.045892f, 0.051774f, -0.220806f, 0.064580f, -0.003464f, 0.089384f, -0.007465f, -0.145985f, 0.055967f, 0.024989f, 0.076015f, 0.092998f, -0.107466f, 0.179370f, 0.172476f, -0.063125f, -0.010018f, 0.161139f, -0.008652f, -0.208016f, 0.027571f, 0.198932f, 0.019131f, 0.076369f, -0.037992f, -0.145025f, -0.230309f, -0.177501f, -0.224341f, -0.058245f, -0.081722f, 0.011515f, -0.065946f, 0.026005f, -0.013037f, -0.081552f, 0.010436f, 0.139732f, 0.200522f, 0.246104f, 0.060592f, 0.035440f, -0.114904f, 0.124311f, -0.082251f, -0.116776f, -0.085931f, 0.082607f, 0.041245f, -0.040481f, 0.061137f, 0.021789f, 0.040497f, -0.129473f, -0.043805f, 0.157783f, 0.048769f, -0.170965f, -0.191116f, -0.030120f, -0.051615f, -0.012087f, -0.085319f, -0.160093f, -0.249162f, -0.167773f, 0.039567f, -0.094689f, -0.058317f, -0.021163f, 0.026308f, -0.081333f, 0.180293f, -0.016955f, 0.102170f, -0.170122f, -0.046352f, -0.016142f, 0.042581f, -0.195401f, 0.092826f, 0.001351f, 0.029790f, 0.011986f, 0.054444f, 0.063236f, 0.024245f, 0.016270f, 0.177534f, 0.056442f, -0.053929f, -0.106289f, -0.058400f, -0.044529f, 0.036944f, -0.060455f, 0.086290f, -0.059522f, -0.088533f, 0.132218f, 0.079333f, 0.112549f, -0.047674f, -0.073209f, 0.096948f, -0.080114f, -0.109714f, 0.098814f, -0.253387f, -0.158750f, -0.095069f, 0.043409f, -0.083003f, -0.020078f, -0.112679f, -0.011819f, -0.049818f, 0.076568f, -0.000488f, -0.047583f, 0.199119f, 0.045753f, -0.059312f, -0.182855f, 0.132862f, -0.104900f, -0.011257f, 0.027051f, 0.145287f, -0.075783f, 0.058056f, 0.110392f, -0.101290f, -0.084935f, -0.165241f, -0.006403f, -0.064978f, 0.058504f, 0.011782f, -0.357446f, -0.050269f, 0.029284f, -0.195230f, -0.227828f, -0.010709f, -0.013857f, -0.005233f, 0.064381f, 0.044133f, 0.060041f, 0.171311f, 0.295405f, 0.031800f, -0.048109f, -0.112315f, -0.266978f, 0.118881f, -0.130458f, -0.163819f, -0.318689f, -0.018919f, 0.043310f, 0.134398f, 0.087232f, -0.016201f, 0.019167f, 0.105120f, 0.224100f, 0.101327f, 0.010800f, 0.077913f, -0.187485f, 0.038717f, -0.056719f, 0.017869f, -0.089694f, -0.067018f, -0.025542f, 0.009607f, 0.170361f, 0.016686f, -0.050985f, -0.133427f, -0.135858f, 0.008422f, 0.017683f, -0.001661f, -0.021758f, -0.051165f, 0.053490f, -0.046143f, -0.031375f, -0.034132f, -0.016150f, 0.043701f, -0.041177f, 0.042548f, -0.061277f, -0.044856f, 0.039124f, 0.027763f, -0.001390f, -0.040097f, -0.026143f, -0.047715f, -0.024596f, -0.066436f, -0.039254f, 0.008070f, -0.033143f, 0.017653f, -0.038231f, -0.059652f, -0.061446f, -0.001298f, -0.046125f, -0.073168f, -0.054261f, 0.038809f, -0.019328f, -0.007498f, -0.027995f, 0.040740f, -0.037197f, -0.057969f, -0.015789f, -0.065947f, -0.046015f, -0.022939f, 0.017166f, -0.058231f, -0.015884f, -0.016912f, -0.026132f, -0.053392f, -0.027372f, 0.020887f, -0.046359f, 0.028943f, -0.071685f, -0.025585f, -0.032214f, -0.055881f, -0.007572f, -0.012616f, -0.013451f, -0.019588f, -0.027569f, 0.041503f, 0.051695f, -0.013830f, 0.002889f, 0.052402f, 0.022848f, 0.057384f, -0.060939f, -0.010880f, -0.026971f, -0.003309f, -0.010164f, 0.010013f, 0.009537f, -0.010565f, -0.046148f, -0.005636f, -0.030472f, 0.029835f, 0.026407f, 0.027177f, -0.060674f, 0.016262f, -0.033637f, -0.042530f, -0.012640f, -0.052488f, 0.045376f, -0.003650f, 0.020533f, -0.066546f, 0.006981f, 0.055051f, -0.030416f, -0.021546f, -0.067104f, 0.033579f, -0.027887f, -0.036244f, -0.047812f, -0.006195f, -0.042854f, 0.031176f, 0.016010f, -0.068794f, -0.023700f, 0.021227f, -0.024994f, -0.040918f, 0.029745f, -0.038309f, -0.015990f, -0.012518f, -0.024317f, -0.041086f, -0.014059f, 0.054844f, 0.020719f, -0.062204f, -0.066039f, -0.019741f, -0.009485f, 0.023704f, -0.057047f, -0.032140f, -0.044218f, 0.014754f, -0.012625f, -0.063476f, -0.057088f, 0.008491f, -0.038337f, 0.040840f, -0.056332f, -0.041160f, -0.063326f, -0.043547f, -0.032188f, -0.003413f, -0.034421f, 0.018553f, 0.051081f, 0.024024f, 0.054811f, 0.020123f, 0.028914f, 0.014827f, 0.049745f, 0.055106f, 0.056275f, -0.003516f, 0.002874f, -0.056586f, 0.002469f, -0.005367f, 0.012083f, 0.051499f, -0.023491f, -0.049132f, 0.034953f, -0.062133f, -0.004514f, -0.054241f, -0.006166f, 0.007972f, 0.053688f, 0.004345f, 0.028046f, 0.010168f, 0.000687f, 0.042315f, 0.054955f, 0.029864f, -0.037141f, 0.009742f, -0.042310f, -0.021956f, -0.009008f, 0.047536f, -0.010700f, -0.045099f, 0.021854f, -0.009204f, 0.021909f, -0.050966f, -0.041583f, -0.075696f, -0.015403f, -0.018125f, -0.011764f, -0.023990f, -0.045753f, -0.027951f, -0.000400f, 0.046191f, -0.027809f, -0.015754f, -0.008327f, 0.014934f, 0.004092f, -0.044162f, 0.031733f, -0.053281f, 0.028481f, -0.061588f, 0.038066f, -0.026567f, -0.051717f, -0.038925f, -0.031566f, -0.037807f, -0.028389f, -0.021749f, -0.033253f, -0.009777f, 0.015600f, -0.003595f, 0.006626f, -0.044770f, -0.027431f, 0.031703f, -0.067784f, 0.004771f, -0.053716f, -0.058259f, 0.010529f, -0.033212f, 0.008876f, 0.050327f, -0.012795f, -0.058360f, 0.022954f, -0.045542f, -0.003834f, 0.036839f, 0.035614f, -0.060896f, -0.060782f, -0.066866f, -0.037715f, -0.030382f, -0.018931f, -0.059123f, 0.033264f, -0.007409f, -0.041290f, -0.035653f, 0.058694f, -0.041973f, 0.032153f, 0.027282f, 0.048720f, -0.146740f, -0.036489f, -0.002513f, -0.086662f, -0.068184f, -0.074937f, 0.215695f, 0.103871f, 0.096568f, -0.049400f, 0.084352f, 0.025408f, -0.028664f, -0.053145f, -0.006624f, -0.032688f, -0.118022f, -0.044065f, -0.026175f, -0.060947f, -0.127487f, -0.050224f, 0.048984f, -0.174533f, 0.092920f, 0.018735f, -0.015286f, 0.016594f, -0.050156f, 0.005295f, 0.132432f, 0.093715f, 0.049472f, 0.116416f, 0.119263f, 0.225438f, -0.037868f, -0.069892f, 0.036736f, 0.123003f, -0.144280f, -0.124772f, -0.111074f, 0.065679f, -0.049021f, 0.233636f, 0.017261f, -0.052015f, 0.011973f, 0.126178f, -0.012596f, -0.102189f, 0.017203f, -0.080235f, 0.073624f, -0.175556f, 0.123904f, -0.035416f, 0.144511f, -0.207753f, 0.073986f, -0.122599f, -0.206205f, -0.140953f, 0.029659f, 0.136306f, 0.219429f, -0.112167f, 0.102505f, 0.042251f, 0.032268f, -0.050455f, -0.088003f, -0.065714f, -0.087042f, 0.170595f, -0.079908f, -0.038884f, -0.047870f, -0.058597f, -0.104321f, -0.059560f, -0.112707f, -0.207918f, -0.015631f, 0.160998f, 0.053230f, -0.058473f, 0.059431f, -0.089365f, 0.004769f, -0.055191f, 0.054267f, -0.195394f, -0.261254f, 0.031537f, -0.002215f, 0.049264f, 0.031851f, 0.051387f, -0.109728f, -0.082698f, -0.020481f, -0.077542f, 0.077361f, 0.099925f, -0.042344f, 0.002874f, 0.035645f, 0.055546f, 0.073361f, 0.024548f, -0.010813f, 0.159857f, 0.046157f, 0.199735f, -0.001741f, -0.013154f, 0.092025f, 0.219590f, 0.074715f, -0.095008f, 0.001226f, 0.012795f, -0.064793f, -0.053445f, -0.075759f, 0.025429f, -0.006669f, -0.076053f, 0.084370f, 0.054283f, 0.012703f, -0.067850f, -0.033006f, -0.113574f, -0.124718f, -0.031158f, 0.124607f, 0.048633f, -0.034220f, 0.103970f, 0.120779f, 0.006684f, 0.037102f, -0.125067f, 0.064657f, -0.127334f, -0.132825f, 0.013157f, -0.111623f, -0.195571f, 0.135480f, -0.001394f, -0.071515f, 0.072668f, 0.051631f, 0.094236f, 0.110593f, -0.028753f, 0.193038f, 0.017223f, 0.082132f, -0.198116f, -0.033324f, -0.065479f, -0.075188f, -0.108465f, 0.001677f, -0.083387f, 0.000537f, -0.059351f, -0.027311f, -0.168636f, -0.124075f, -0.218398f, 0.047651f, -0.161704f, -0.014337f, -0.047713f, -0.024076f, 0.064509f, -0.004503f, 0.064127f, 0.056399f, -0.010798f, 0.089971f, 0.152735f, 0.086929f, 0.042050f, 0.037124f, 0.033743f, -0.037657f, 0.050365f, 0.004872f, -0.096603f, -0.033200f, -0.048541f, -0.025433f, -0.122224f, 0.015959f, 0.030185f, -0.194972f, 0.158315f, -0.040494f, -0.198722f, -0.285451f, -0.201161f, -0.063970f, -0.005120f, -0.012995f, 0.059285f, -0.048091f, -0.136971f, -0.155798f, -0.070708f, 0.069887f, 0.036429f, 0.026349f, 0.006344f, 0.035491f, 0.129306f, -0.012608f, 0.064217f, 0.018075f, -0.049845f, -0.223367f, -0.193908f, 0.015684f, -0.005646f, -0.239764f, -0.118431f, 0.088240f, 0.001352f, -0.079919f, 0.066386f, 0.021158f, 0.104453f, 0.047462f, -0.034262f, -0.118748f, -0.175094f, -0.124779f, -0.121831f, -0.119404f, -0.178123f, -0.054042f, -0.092963f, -0.084597f, 0.011476f, 0.199364f, 0.163244f, -0.010197f, 0.058217f, 0.093471f, 0.132663f, 0.030550f, -0.029350f, -0.064077f, -0.020831f, 0.028910f, -0.028863f, 0.028221f, -0.068237f, -0.027368f, -0.024094f, 0.040497f, 0.041157f, 0.034158f, -0.007036f, -0.049918f, 0.037914f, -0.008717f, -0.045274f, -0.032880f, 0.025886f, 0.043122f, -0.064743f, 0.003332f, 0.029772f, 0.010072f, -0.012796f, -0.028000f, 0.032540f, -0.033844f, 0.018374f, -0.038363f, 0.012643f, -0.045662f, 0.007542f, 0.005609f, -0.061812f, 0.005121f, 0.043772f, 0.049524f, -0.045486f, -0.044284f, -0.007086f, 0.027158f, -0.060783f, 0.032668f, 0.050065f, 0.017882f, -0.054945f, -0.017707f, 0.001552f, -0.055935f, -0.017883f, -0.035932f, -0.042736f, -0.028283f, -0.021207f, -0.009219f, 0.044055f, -0.035038f, 0.042987f, 0.001926f, 0.029534f, 0.038020f, 0.040629f, 0.004342f, 0.008841f, 0.023153f, -0.025052f, -0.027077f, -0.019247f, 0.030539f, 0.002812f, -0.040845f, 0.008584f, 0.028424f, -0.066771f, -0.000937f, 0.013722f, 0.005301f, 0.010733f, 0.019428f, 0.041659f, -0.002721f, -0.017108f, -0.026110f, -0.022241f, -0.062794f, -0.065698f, -0.032548f, -0.002255f, -0.020647f, 0.004334f, -0.029291f, -0.028114f, -0.059208f, 0.043386f, -0.019508f, -0.023216f, -0.032207f, -0.047023f, -0.075257f, 0.024981f, 0.033104f, 0.022644f, 0.020613f, -0.013767f, -0.006540f, -0.020248f, 0.003103f, 0.007794f, 0.000582f, 0.043711f, -0.048128f, 0.019640f, -0.011900f, 0.059290f, -0.001375f, -0.031271f, -0.041099f, 0.022580f, -0.047562f, -0.056804f, -0.070677f, 0.039283f, 0.030785f, -0.054139f, 0.041216f, 0.045969f, 0.043380f, -0.066030f, -0.039358f, 0.023473f, -0.049422f, 0.007225f, 0.051402f, -0.019520f, -0.042231f, -0.026021f, -0.001227f, -0.050647f, -0.044037f, -0.042182f, -0.012646f, -0.048586f, 0.030787f, -0.054297f, -0.021294f, -0.057203f, -0.006610f, 0.044020f, -0.026559f, -0.014653f, 0.025795f, -0.022721f, 0.034234f, 0.014560f, 0.015928f, -0.026691f, 0.037256f, 0.036053f, 0.049383f, 0.041667f, 0.019980f, 0.009420f, 0.026554f, -0.059380f, -0.017637f, 0.002410f, -0.018900f, -0.024363f, -0.040031f, 0.047343f, -0.052495f, -0.030711f, -0.019991f, 0.009904f, -0.064295f, -0.022067f, -0.027709f, -0.065837f, -0.005632f, -0.007021f, -0.016212f, -0.063633f, -0.066256f, 0.003800f, 0.025802f, -0.007776f, 0.026276f, 0.010462f, -0.022475f, -0.019716f, 0.002616f, 0.002679f, 0.003594f, 0.031654f, -0.065711f, -0.050822f, 0.048673f, -0.064907f, -0.005318f, -0.028324f, 0.028257f, -0.034061f, 0.050118f, -0.036777f, 0.008105f, -0.062750f, -0.040462f, -0.000305f, 0.021773f, -0.006748f, 0.040590f, -0.028521f, -0.063985f, 0.024387f, 0.008295f, 0.040783f, -0.037189f, -0.034314f, -0.026498f, -0.035193f, 0.017004f, -0.044973f, 0.047329f, -0.056040f, -0.032885f, -0.066096f, 0.004842f, -0.071797f, 0.018503f, -0.021176f, 0.049634f, -0.055478f, 0.011658f, 0.042470f, -0.034354f, -0.018432f, 0.044147f, -0.042735f, -0.056955f, -0.001449f, -0.048361f, -0.042913f, -0.027422f, -0.034351f, -0.050065f, -0.011599f, 0.024292f, 0.001420f, -0.010825f, -0.051277f, -0.070661f, -0.001542f, 0.024024f, -0.070025f, -0.162237f, -0.125746f, 0.067042f, 0.013532f, -0.032894f, 0.122784f, 0.137712f, 0.020897f, 0.144677f, -0.035796f, 0.014971f, -0.028821f, -0.094108f, -0.105193f, -0.162109f, -0.289524f, -0.152290f, 0.033900f, 0.198016f, 0.116226f, -0.002245f, 0.078703f, 0.143580f, -0.058622f, 0.008100f, 0.019317f, -0.033089f, 0.057341f, 0.007930f, -0.109994f, -0.218808f, -0.200889f, 0.166418f, 0.263040f, 0.080378f, -0.012183f, 0.087027f, 0.121376f, 0.036696f, 0.091545f, -0.060779f, -0.017053f, 0.002695f, -0.071711f, 0.094356f, -0.249367f, 0.072767f, 0.282855f, -0.197628f, -0.239490f, -0.072920f, -0.042994f, -0.131115f, -0.159589f, 0.077971f, 0.044056f, 0.010736f, 0.036317f, 0.069643f, 0.044421f, -0.074850f, 0.065478f, 0.119820f, 0.053620f, -0.026009f, 0.049215f, 0.045344f, 0.218825f, 0.010749f, -0.008151f, -0.051479f, -0.002311f, -0.001075f, 0.025498f, -0.140254f, 0.175008f, 0.054272f, 0.007461f, -0.111906f, -0.172783f, -0.081628f, 0.038132f, 0.029870f, -0.170409f, 0.017054f, 0.103324f, 0.071522f, -0.185974f, 0.136739f, 0.148907f, 0.064924f, 0.048645f, 0.120125f, 0.102231f, 0.049134f, 0.029666f, -0.089066f, -0.061291f, 0.117841f, 0.107554f, -0.042496f, -0.017756f, -0.031181f, -0.117249f, 0.065966f, 0.063536f, 0.048165f, -0.102022f, -0.112583f, -0.017133f, 0.049585f, 0.060116f, -0.050356f, 0.099894f, -0.038053f, 0.020308f, -0.063833f, 0.028826f, -0.001563f, -0.103458f, -0.109239f, 0.070111f, -0.083968f, -0.076486f, -0.140701f, -0.324481f, -0.022944f, 0.044997f, 0.028139f, 0.073920f, 0.047823f, 0.106421f, -0.045872f, 0.018996f, -0.035341f, 0.097185f, 0.029151f, 0.193085f, 0.063458f, 0.018772f, 0.174733f, 0.075260f, 0.060378f, 0.092291f, -0.246449f, -0.024460f, 0.142207f, 0.007565f, -0.196747f, 0.116226f, -0.014944f, 0.005727f, 0.134852f, 0.156735f, 0.002115f, -0.130896f, 0.138616f, 0.023012f, -0.193418f, -0.229229f, -0.231077f, -0.116627f, -0.080012f, -0.125611f, -0.103447f, -0.081795f, -0.075126f, -0.218313f, -0.037084f, -0.001333f, -0.055279f, -0.008605f, -0.022151f, 0.146270f, 0.051549f, 0.172739f, -0.022891f, -0.038048f, -0.087929f, 0.134273f, -0.061949f, 0.091574f, -0.089944f, 0.003115f, 0.091285f, -0.029762f, -0.201178f, -0.063986f, -0.193263f, -0.358876f, -0.282093f, -0.336562f, -0.179276f, -0.088874f, 0.008515f, -0.167269f, -0.045954f, -0.112131f, 0.129570f, -0.121184f, 0.115368f, 0.148186f, 0.156425f, -0.019322f, -0.085374f, 0.035196f, 0.209680f, 0.120893f, -0.123539f, -0.026800f, -0.116979f, -0.107166f, -0.067925f, 0.019069f, -0.110587f, -0.168951f, 0.052953f, -0.079607f, 0.053321f, 0.004065f, -0.008509f, 0.006458f, 0.026617f, 0.071716f, -0.214383f, 0.038062f, 0.002806f, -0.091932f, -0.096288f, 0.026641f, -0.068860f, 0.036656f, 0.116754f, 0.166154f, 0.062168f, 0.082227f, -0.065796f, -0.094435f, 0.098228f, 0.052324f, -0.222449f, -0.098258f, -0.001357f, -0.012814f, -0.107681f, 0.221810f, 0.022162f, -0.083728f, 0.128596f, 0.141340f, 0.073648f, -0.067299f, 0.204763f, -0.129652f, -0.335635f, -0.243733f, 0.047202f, -0.082557f, -0.026190f, 0.069582f, -0.073974f, -0.005553f, -0.206766f, -0.046131f, -0.030182f, 0.010649f, 0.009399f, -0.093400f, -0.134223f, 0.018501f, -0.027059f, -0.011956f, 0.009891f, -0.081506f, -0.106075f, -0.041289f, -0.069966f, -0.019853f, -0.145422f, -0.033009f, -0.096939f, -0.076866f, -0.064737f, -0.110153f, 0.040849f, -0.042583f, 0.019479f, 0.001981f, -0.056208f, -0.002186f, -0.030763f, -0.176283f, -0.047569f, 0.011880f, -0.024694f, -0.004806f, 0.090250f, 0.079031f, 0.118639f, 0.053654f, -0.009110f, -0.030551f, -0.083270f, -0.027269f, -0.152560f, -0.096186f, -0.057313f, -0.078480f, -0.155326f, -0.020068f, -0.035917f, 0.064104f, -0.128999f, 0.085482f, -0.002933f, 0.028258f, 0.060863f, -0.082104f, 0.093856f, 0.099724f, -0.090663f, -0.042749f, -0.070063f, -0.029223f, -0.092604f, 0.038970f, 0.038516f, -0.114393f, -0.081978f, -0.076794f, -0.010553f, 0.109214f, -0.094933f, -0.026102f, -0.165956f, -0.044820f, 0.038604f, 0.065705f, -0.012324f, 0.043299f, -0.003117f, -0.044489f, 0.019284f, -0.033822f, -0.108495f, -0.021884f, 0.180717f, -0.008436f, -0.083768f, 0.048158f, 0.017777f, -0.061706f, 0.077182f, -0.004205f, -0.061399f, -0.030268f, 0.003108f, -0.084232f, -0.151108f, -0.177954f, -0.117616f, -0.079198f, -0.106318f, -0.014193f, -0.051093f, -0.051949f, 0.036097f, 0.080727f, 0.017510f, -0.012970f, -0.064359f, -0.031809f, -0.118984f, -0.016517f, -0.020933f, -0.091309f, -0.103682f, 0.080035f, 0.010724f, -0.065544f, 0.020060f, -0.064240f, 0.060245f, 0.120609f, 0.064102f, 0.053123f, 0.027574f, -0.034755f, 0.104482f, 0.076274f, -0.020772f, -0.006564f, 0.035919f, 0.038675f, -0.072253f, -0.062996f, -0.088849f, -0.018145f, -0.091986f, -0.029535f, -0.054108f, 0.056812f, -0.094226f, 0.014514f, 0.033252f, -0.090048f, -0.090418f, -0.007922f, -0.156659f, -0.083041f, -0.025396f, 0.012298f, -0.148248f, -0.081010f, -0.074773f, -0.068521f, 0.042428f, 0.020893f, 0.032203f, -0.087181f, -0.026375f, -0.076101f, 0.059827f, -0.018575f, 0.021626f, -0.049173f, 0.059812f, -0.013386f, -0.011721f, 0.113590f, -0.091391f, 0.013835f, 0.188965f, 0.003579f, -0.041387f, -0.007734f, 0.043596f, 0.020536f, 0.010383f, -0.088502f, 0.082320f, -0.002278f, -0.112428f, -0.085740f, -0.002504f, -0.043612f, -0.014363f, 0.066896f, -0.115694f, 0.027014f, 0.051312f, 0.144464f, -0.043106f, -0.047228f, -0.029666f, 0.127765f, -0.102550f, -0.065374f, 0.047189f, -0.027027f, -0.030186f, -0.028069f, 0.104938f, -0.043442f, 0.007112f, -0.123884f, -0.047523f, -0.021688f, -0.048436f, -0.056551f, -0.070668f, -0.005794f, -0.025592f, -0.029005f, -0.091347f, -0.136918f, -0.035254f, -0.064965f, -0.102531f, -0.117594f, -0.059516f, -0.026392f, -0.099427f, -0.069560f, -0.086442f, 0.022036f, -0.107755f, -0.056186f, -0.100871f, -0.051905f, -0.114671f, -0.125923f, -0.052892f, -0.077826f, 0.019915f, -0.078544f, -0.134532f, -0.066877f, -0.024282f, -0.062507f, -0.027938f, -0.184541f, -0.105954f, -0.027393f, 0.002027f, -0.066741f, -0.050434f, 0.000454f, -0.017509f, -0.002001f, -0.099599f, -0.051030f, 0.151222f, 0.037579f, 0.018045f, 0.102586f, 0.199966f, 0.024699f, -0.034332f, 0.026774f, -0.067417f, 0.093287f, 0.085491f, -0.137930f, -0.176605f, -0.020946f, -0.091584f, 0.015766f, 0.212794f, -0.054834f, -0.305385f, -0.212106f, -0.037625f, -0.124319f, -0.099110f, -0.101719f, 0.221501f, -0.026782f, -0.216873f, -0.014981f, -0.166851f, -0.002147f, -0.026261f, 0.058989f, 0.011409f, 0.024800f, 0.051104f, 0.041986f, -0.016103f, 0.018599f, 0.064393f, 0.032849f, 0.018594f, -0.012478f, -0.060089f, -0.225408f, 0.046165f, -0.080714f, -0.203462f, -0.132504f, 0.237748f, 0.098091f, -0.111721f, -0.074675f, 0.153258f, 0.162128f, 0.101200f, -0.048684f, -0.060265f, -0.013099f, -0.199361f, -0.089569f, -0.023174f, 0.016538f, -0.192981f, 0.073578f, -0.056907f, -0.185510f, -0.142539f, -0.227013f, -0.020068f, 0.018298f, 0.143774f, 0.125552f, -0.135800f, -0.028037f, 0.165593f, 0.060396f, -0.115030f, -0.064889f, 0.104594f, -0.055712f, 0.091200f, 0.009529f, -0.321410f, -0.126505f, -0.053966f, -0.240177f, -0.177008f, -0.200115f, -0.026744f, -0.061091f, 0.049525f, 0.224004f, -0.151528f, -0.059528f, 0.050694f, -0.109349f, 0.020088f, 0.126379f, 0.080233f, -0.201020f, 0.059520f, -0.119734f, -0.103958f, -0.126335f, 0.008247f, 0.036678f, -0.073777f, -0.120475f, 0.007782f, -0.081542f, -0.019499f, 0.022273f, -0.033160f, 0.066409f, -0.080493f, 0.071227f, 0.035098f, 0.042285f, 0.033231f, -0.107182f, -0.106803f, -0.061283f, -0.060230f, -0.008935f, 0.018474f, 0.035146f, 0.068012f, 0.067623f, -0.028988f, 0.104179f, 0.044243f, -0.016762f, -0.131221f, 0.021582f, 0.027415f, -0.122051f, 0.023727f, 0.014478f, -0.007035f, -0.066732f, -0.005233f, -0.025548f, -0.161013f, -0.093931f, 0.061147f, 0.015472f, -0.255021f, -0.289185f, -0.173643f, -0.229455f, -0.230347f, -0.018064f, 0.068873f, -0.144047f, -0.156626f, 0.082113f, -0.162922f, 0.127176f, 0.112007f, -0.080486f, -0.059866f, -0.265647f, 0.006490f, -0.039555f, 0.074937f, -0.179502f, 0.107335f, -0.027937f, -0.019835f, -0.042286f, 0.151990f, 0.321032f, -0.144269f, -0.325783f, -0.015444f, 0.081646f, -0.186560f, 0.090682f, 0.148622f, 0.096663f, 0.099804f, -0.001945f, 0.143758f, -0.042476f, 0.026315f, -0.048002f, -0.115999f, 0.041638f, 0.075930f, 0.076926f, -0.089410f, -0.033721f, 0.097092f, -0.093661f, -0.307366f, -0.168925f, 0.146036f, 0.024394f, -0.179662f, -0.010177f, -0.030797f, -0.148825f, -0.149433f, -0.034098f, -0.002174f, -0.187529f, -0.134158f, 0.258045f, -0.043846f, 0.151905f, 0.124131f, 0.095973f, 0.144761f, -0.032148f, -0.057324f, 0.181539f, 0.048763f, -0.106359f, -0.078451f, 0.190362f, -0.018893f, -0.090154f, -0.105067f, 0.098470f, 0.199371f, 0.153828f, 0.184423f, 0.012385f, 0.102424f, 0.034821f, -0.259419f, -0.121163f, 0.093955f, -0.028280f, -0.412723f, -0.210674f, -0.031479f, -0.155600f, -0.112684f, 0.093272f, -0.035644f, -0.131525f, -0.074465f, -0.038486f, -0.088210f, -0.161687f, 0.051449f, -0.062963f, 0.135330f, -0.176948f, -0.029533f, 0.087183f, -0.005090f, 0.016365f, 0.127632f, 0.101493f, -0.054856f, -0.017410f, -0.005925f, -0.034742f, 0.020141f, 0.008320f, 0.013782f, -0.038743f, -0.041241f, 0.046251f, 0.021052f, -0.091509f, 0.008764f, -0.030955f, -0.013323f, -0.126269f, 0.001345f, -0.081071f, -0.025514f, -0.037209f, -0.014019f, 0.013449f, -0.081711f, -0.027161f, -0.016852f, -0.036024f, -0.000628f, -0.048682f, 0.031577f, -0.074675f, -0.068704f, 0.004404f, 0.014854f, -0.012297f, -0.078842f, -0.070097f, -0.038652f, -0.003700f, -0.099756f, -0.101388f, 0.036257f, 0.007288f, 0.029331f, -0.040605f, -0.062347f, -0.002427f, -0.025813f, 0.018642f, -0.001522f, -0.022658f, -0.094913f, -0.039040f, -0.057863f, -0.070225f, -0.010537f, -0.021081f, -0.062549f, 0.017084f, 0.006765f, 0.003895f, -0.015329f, -0.044558f, 0.009523f, -0.036228f, 0.030681f, -0.045895f, -0.061589f, 0.002224f, -0.035645f, 0.020372f, 0.031035f, 0.064017f, -0.016572f, -0.093962f, 0.046944f, 0.102353f, -0.008853f, -0.039390f, -0.123390f, -0.072533f, -0.002789f, 0.008032f, -0.069194f, -0.009263f, 0.011051f, 0.026154f, -0.041519f, 0.043168f, 0.027772f, -0.005989f, -0.060455f, -0.013828f, 0.041607f, -0.040742f, 0.021050f, -0.027657f, -0.050747f, -0.069115f, 0.023274f, -0.009867f, -0.024460f, -0.104939f, 0.018755f, 0.014455f, -0.010377f, -0.047751f, -0.048165f, -0.047872f, 0.006811f, 0.012539f, -0.042850f, -0.039827f, -0.030586f, 0.018917f, -0.088434f, 0.028784f, 0.043109f, -0.065031f, -0.017955f, -0.004573f, -0.018626f, -0.024711f, 0.007711f, -0.014254f, 0.006665f, -0.046237f, -0.024150f, -0.005561f, -0.061200f, -0.015011f, 0.002827f, -0.031058f, -0.036686f, -0.064689f, 0.037297f, -0.035594f, -0.041666f, -0.073832f, -0.067784f, -0.030952f, 0.021833f, -0.027444f, 0.026521f, 0.012308f, 0.004312f, 0.013616f, -0.038242f, -0.063441f, -0.015176f, -0.070221f, -0.075190f, -0.012504f, -0.020669f, 0.022510f, -0.043659f, -0.059623f, -0.052711f, -0.032488f, -0.011224f, -0.010623f, 0.000327f, -0.021344f, -0.012929f, -0.024344f, 0.015771f, -0.097553f, -0.019168f, -0.047611f, 0.039475f, 0.003355f, -0.019122f, -0.030158f, -0.043466f, -0.010842f, -0.084882f, -0.066437f, -0.005967f, -0.075965f, -0.049318f, -0.060134f, -0.053760f, -0.015468f, -0.043968f, -0.064937f, -0.039252f, 0.001055f, -0.008236f, -0.056149f, 0.054309f, 0.063115f, 0.055131f, 0.007496f, -0.108710f, 0.025982f, -0.008654f, -0.028242f, -0.037106f, -0.026787f, -0.018393f, -0.005972f, 0.042274f, 0.006834f, -0.063840f, 0.041841f, -0.014349f, -0.046572f, -0.050678f, -0.040532f, -0.001311f, 0.021410f, 0.017004f, 0.126267f, 0.026977f, -0.079241f, -0.026089f, 0.067382f, 0.011055f, 0.060221f, -0.029803f, 0.002993f, 0.002457f, 0.039748f, -0.096276f, -0.021529f, -0.009123f, -0.064381f, 0.012962f, 0.002542f, 0.032903f, -0.056818f, -0.014896f, 0.017680f, -0.016170f, 0.002694f, -0.084684f, -0.066445f, 0.017976f, -0.077478f, -0.102756f, -0.051267f, -0.019425f, 0.006683f, 0.017223f, -0.062401f, 0.031136f, 0.026969f, -0.033586f, 0.016748f, -0.023999f, -0.076775f, -0.008430f, -0.000628f, 0.003655f, 0.076089f, 0.015572f, -0.030758f, 0.121812f, -0.031347f, -0.044035f, -0.134480f, 0.174674f, -0.015575f, 0.051586f, 0.004313f, 0.041808f, -0.028394f, 0.045635f, -0.032631f, 0.092299f, 0.045016f, 0.076924f, -0.107707f, -0.118780f, -0.063133f, -0.000950f, 0.047002f, 0.098738f, 0.020942f, -0.104989f, -0.294824f, -0.048315f, 0.056051f, -0.149171f, -0.136198f, -0.013361f, -0.070780f, -0.010374f, 0.009150f, -0.005501f, 0.130021f, 0.140029f, 0.047451f, -0.044808f, 0.098753f, -0.011373f, 0.115316f, 0.126878f, 0.059896f, -0.052950f, 0.034015f, 0.089982f, 0.027598f, -0.002775f, 0.019115f, 0.204898f, 0.198340f, -0.007123f, -0.224018f, 0.108056f, 0.140266f, 0.081587f, -0.075104f, 0.051709f, -0.108309f, 0.032304f, 0.033859f, -0.139361f, 0.004834f, -0.117258f, 0.057396f, 0.322940f, 0.047353f, -0.024306f, -0.250594f, 0.125349f, -0.079480f, -0.193753f, 0.053681f, -0.059385f, 0.052795f, 0.069684f, 0.328790f, -0.139396f, 0.023601f, 0.006297f, -0.003438f, 0.154588f, 0.067214f, -0.077804f, -0.017162f, 0.173843f, 0.110102f, -0.138211f, -0.042556f, 0.003030f, 0.007418f, -0.089456f, 0.119469f, -0.088374f, 0.020524f, 0.123538f, 0.061997f, -0.036062f, 0.007602f, 0.095264f, 0.121636f, -0.009438f, -0.007245f, 0.046815f, 0.047138f, 0.054418f, -0.088051f, -0.069383f, -0.056120f, 0.033605f, -0.086167f, -0.104455f, -0.068237f, 0.132615f, -0.025851f, -0.034624f, 0.084619f, 0.099204f, -0.126412f, -0.070547f, -0.038483f, 0.034428f, 0.049807f, -0.043073f, 0.095775f, -0.030475f, 0.083381f, 0.064320f, 0.035077f, -0.155840f, -0.078713f, 0.127342f, 0.138319f, -0.107818f, -0.052601f, 0.084250f, 0.065613f, 0.010718f, 0.015673f, 0.023098f, -0.043363f, 0.070117f, -0.011098f, 0.032018f, 0.046433f, 0.003188f, -0.033419f, -0.080162f, 0.053366f, 0.131106f, -0.098473f, -0.246109f, -0.205936f, 0.078395f, -0.057176f, -0.164095f, -0.005557f, 0.016729f, -0.046853f, -0.005382f, 0.031668f, 0.303320f, 0.016171f, -0.224465f, -0.360547f, 0.110950f, 0.112072f, -0.098712f, -0.231343f, 0.090322f, 0.057185f, 0.112769f, 0.098996f, -0.023518f, 0.014701f, 0.072009f, -0.015166f, -0.198851f, -0.071003f, 0.067416f, 0.044155f, 0.035765f, 0.057898f, -0.006048f, -0.026929f, -0.028885f, -0.049274f, -0.011462f, 0.075895f, 0.039520f, -0.016944f, -0.020964f, -0.039049f, 0.013248f, 0.071092f, -0.103754f, -0.072139f, 0.153566f, 0.057824f, -0.054497f, 0.092862f, -0.053404f, -0.161329f, -0.150273f, 0.006346f, -0.166148f, -0.130705f, -0.044126f, 0.017082f, -0.132069f, 0.083219f, 0.109588f, 0.126924f, -0.000050f, 0.064724f, -0.028019f, 0.137201f, 0.017098f, 0.108882f, 0.001194f, 0.123101f, -0.060597f, -0.118062f, -0.177818f, -0.071886f, 0.013053f, 0.231021f, 0.163652f, 0.033801f, 0.217630f, 0.159194f, -0.048283f, 0.145331f, 0.085234f, 0.032431f, -0.061719f, -0.043781f, -0.138192f, -0.212162f, -0.042061f, -0.093515f, -0.198084f, -0.066497f, -0.215234f, -0.215752f, 0.022522f, -0.049063f, -0.202281f, -0.252360f, 0.092826f, -0.186562f, -0.089563f, 0.041449f, 0.168162f, 0.118785f, -0.045070f, 0.076204f, -0.055742f, 0.023358f, -0.073792f, -0.067354f, -0.204158f, -0.096431f, -0.004534f, 0.083926f, 0.097206f, -0.013115f, 0.066368f, 0.185343f, 0.152717f, 0.129771f, 0.109488f, 0.062591f, -0.032831f, -0.000036f, -0.030898f, 0.026554f, -0.298810f, -0.001083f, 0.121892f, 0.156925f, -0.166520f, -0.121064f, 0.079955f, -0.073114f, -0.024476f, 0.058228f, 0.027777f, 0.074315f, -0.082005f, -0.092265f, 0.043084f, -0.140600f, 0.121874f, -0.045022f, 0.039130f, 0.094303f, 0.136252f, -0.026509f, -0.100115f, 0.047183f, 0.242868f, 0.247710f, -0.020669f, 0.012174f, -0.029095f, 0.033282f, 0.012029f, -0.074794f, 0.075309f, -0.048641f, -0.074750f, 0.091138f, -0.175684f, -0.123291f, -0.077359f, -0.016886f, -0.240321f, 0.022608f, -0.086809f, -0.042098f, -0.002157f, -0.054970f, -0.115463f, 0.041721f, 0.103194f, -0.104065f, 0.016636f, -0.156040f, 0.002102f, -0.025642f, 0.045728f, -0.003428f, -0.003931f, 0.013433f, -0.055700f, -0.040202f, -0.105463f, -0.203694f, -0.023427f, -0.096877f, -0.158492f, -0.223740f, -0.064710f, -0.185177f, -0.067810f, -0.088374f, -0.020397f, -0.091957f, -0.069292f, 0.049794f, 0.148359f, 0.139475f, 0.061076f, 0.030675f, -0.045443f, -0.041377f, 0.035461f, 0.025957f, 0.030113f, 0.043762f, 0.045022f, 0.011124f, 0.096644f, -0.132658f, 0.108455f, 0.035114f, -0.132436f, -0.082024f, -0.064677f, -0.070524f, -0.029531f, -0.046633f, 0.050957f, 0.021902f, -0.022893f, 0.074858f, 0.108507f, -0.011412f, 0.023914f, -0.094869f, 0.152204f, 0.144940f, -0.010340f, -0.186469f, -0.001025f, 0.016865f, 0.032370f, 0.023201f, 0.054736f, -0.072881f, -0.048482f, -0.046885f, 0.153182f, 0.051898f, -0.043138f, -0.192153f, 0.163487f, 0.158623f, 0.075916f, -0.157329f, 0.019547f, -0.084031f, -0.072273f, 0.090359f, -0.115543f, 0.161968f, 0.082709f, 0.024506f, -0.120304f, -0.066937f, -0.029256f, -0.200842f, 0.062322f, 0.096863f, 0.083636f, 0.046229f, 0.025314f, 0.042173f, -0.052888f, -0.002929f, 0.083699f, -0.011686f, -0.004381f, -0.370867f, 0.015069f, -0.015446f, 0.054298f, -0.110944f, -0.084951f, -0.181846f, 0.134891f, 0.022283f, 0.068252f, -0.003526f, -0.028305f, 0.060741f, -0.104931f, 0.058278f, -0.011423f, -0.070415f, -0.041341f, 0.057201f, 0.005110f, -0.024080f, 0.224111f, 0.197867f, 0.092681f, 0.064809f, -0.084873f, 0.051376f, 0.049121f, -0.094419f, -0.106780f, -0.017281f, -0.046177f, -0.020578f, -0.300487f, -0.133815f, -0.077214f, 0.196782f, -0.037481f, -0.104367f, -0.086943f, 0.052052f, 0.124661f, 0.003331f, -0.026113f, 0.004416f, 0.174050f, 0.123294f, -0.129365f, -0.043124f, -0.043497f, 0.062763f, 0.015456f, -0.122666f, -0.015930f, -0.034030f, -0.238945f, -0.060115f, -0.010987f, 0.123695f, -0.045412f, 0.086254f, -0.007995f, 0.123450f, 0.118611f, 0.325408f, -0.073041f, -0.000296f, -0.017061f, -0.044778f, -0.003371f, -0.097623f, -0.116944f, -0.045108f, -0.076902f, -0.024706f, 0.145093f, 0.164914f, -0.138156f, 0.096767f, 0.032651f, 0.022421f, -0.012884f, -0.061463f, 0.070345f, 0.167847f, -0.031538f, 0.180911f, 0.238082f, 0.159375f, -0.056025f, 0.035249f, 0.050004f, -0.050566f, -0.077262f, -0.006727f, -0.002076f, 0.028664f, 0.046148f, 0.018408f, 0.031523f, -0.013993f, 0.025615f, -0.043794f, -0.066073f, -0.039840f, 0.026689f, 0.036757f, -0.000046f, -0.041664f, -0.026774f, -0.047014f, -0.019248f, 0.026184f, 0.036915f, -0.055432f, 0.054261f, -0.009045f, 0.003298f, -0.017729f, -0.002848f, -0.041546f, -0.082969f, 0.014529f, -0.033868f, 0.024293f, -0.019061f, 0.021056f, 0.005947f, -0.036545f, -0.055656f, -0.031048f, 0.016294f, -0.022798f, 0.005654f, -0.016726f, -0.025415f, -0.011688f, -0.066544f, -0.000348f, -0.062331f, -0.059373f, -0.056129f, -0.026479f, -0.000537f, -0.008209f, -0.026266f, -0.004807f, -0.081106f, 0.023652f, -0.031274f, -0.000816f, -0.029568f, -0.064981f, -0.013783f, 0.028734f, 0.018987f, -0.056967f, 0.034543f, -0.045156f, -0.026580f, 0.001598f, -0.048793f, -0.050191f, 0.010563f, -0.004424f, -0.053626f, -0.043813f, -0.038425f, -0.030714f, -0.001126f, -0.074673f, -0.039138f, 0.023065f, -0.012596f, 0.002505f, 0.036831f, -0.050784f, 0.028340f, 0.006871f, -0.000808f, -0.041114f, -0.019345f, 0.020402f, 0.038434f, -0.037404f, -0.042915f, -0.028236f, -0.030031f, 0.000444f, 0.001283f, 0.033328f, 0.011622f, 0.017402f, -0.058332f, 0.017785f, -0.086242f, 0.008762f, 0.016028f, -0.057819f, 0.001793f, -0.021461f, 0.049981f, -0.043599f, -0.040291f, -0.071709f, 0.002241f, -0.027955f, -0.013615f, -0.003302f, 0.008854f, 0.018851f, -0.033422f, 0.016904f, -0.036976f, -0.040613f, 0.038425f, 0.002871f, -0.073167f, -0.064510f, -0.042139f, -0.083959f, 0.017497f, -0.068152f, -0.003465f, 0.025485f, -0.057440f, -0.052448f, -0.023002f, -0.050241f, 0.006351f, -0.067728f, -0.024467f, 0.000383f, -0.047061f, 0.039526f, -0.030587f, 0.047114f, -0.062754f, 0.035586f, 0.022064f, -0.019443f, -0.003720f, -0.014473f, -0.030247f, -0.068727f, -0.083940f, -0.047816f, 0.037770f, 0.023605f, -0.061360f, -0.016902f, -0.041444f, 0.051492f, 0.042911f, -0.039741f, 0.015303f, 0.033698f, -0.039213f, -0.059349f, -0.036585f, -0.014414f, -0.046326f, -0.054322f, -0.049078f, 0.008085f, -0.039571f, 0.008505f, -0.060858f, 0.032643f, -0.067825f, -0.042085f, 0.003511f, 0.012794f, -0.079216f, 0.000562f, -0.034349f, -0.036326f, -0.015583f, 0.027946f, -0.061176f, 0.017174f, 0.009299f, -0.035689f, 0.043409f, 0.033536f, -0.066465f, -0.000292f, 0.022984f, -0.049067f, 0.031984f, -0.046720f, -0.060122f, 0.021355f, -0.036114f, -0.041550f, 0.017840f, 0.000170f, 0.036816f, 0.045697f, 0.052626f, -0.067012f, 0.031448f, -0.078140f, 0.039987f, -0.035938f, 0.010480f, 0.017922f, -0.033030f, -0.010407f, 0.002129f, 0.009505f, 0.006839f, -0.051760f, -0.060288f, 0.053501f, 0.049778f, -0.031592f, 0.005688f, 0.016407f, 0.016683f, -0.062344f, 0.009296f, -0.034277f, 0.022098f, 0.013374f, -0.069209f, 0.005242f, -0.062775f, 0.037678f, -0.031756f, -0.059627f, -0.000615f, -0.048039f, -0.057405f, 0.030256f, -0.047026f, -0.062119f, 0.035801f, -0.013676f, -0.052156f, -0.061689f, 0.025113f, -0.076465f, -0.037675f, 0.046112f, 0.030871f, -0.041802f, 0.027236f, -0.025384f, -0.066962f, -0.023881f, 0.025535f, 0.001483f, -0.053060f, -0.009383f, -0.003544f, -0.032022f, -0.027840f, 0.017956f, -0.105062f, 0.016513f, -0.015981f, 0.036386f, -0.015892f, -0.085973f, -0.049664f, -0.085767f, -0.023809f, -0.045305f, -0.062696f, 0.035425f, -0.044936f, -0.030958f, -0.012864f, 0.005027f, -0.010583f, 0.032402f, 0.011673f, -0.066416f, 0.029557f, 0.023906f, 0.015775f, -0.071214f, -0.051274f, 0.031684f, -0.060269f, 0.004843f, -0.070529f, -0.064993f, -0.035960f, 0.019382f, -0.045293f, -0.016088f, -0.042871f, -0.001358f, -0.016006f, -0.069097f, -0.042711f, -0.082189f, -0.050412f, 0.039652f, -0.010104f, -0.054609f, -0.040363f, 0.029530f, -0.008706f, 0.064563f, -0.036293f, -0.017210f, -0.006465f, 0.043824f, 0.030569f, 0.048187f, 0.025807f, -0.037499f, -0.027048f, 0.024841f, -0.060589f, -0.002840f, -0.006885f, -0.000254f, 0.030964f, -0.052956f, -0.018052f, 0.006616f, -0.005178f, 0.013026f, 0.012541f, 0.041872f, -0.017624f, -0.000790f, 0.023974f, 0.019387f, -0.002598f, -0.087693f, -0.036224f, 0.023695f, -0.057748f, 0.031615f, 0.038445f, 0.024269f, 0.025296f, 0.048550f, 0.022044f, -0.008720f, -0.034985f, -0.075773f, 0.003249f, -0.026358f, -0.066437f, -0.077420f, -0.028410f, -0.001603f, 0.046425f, -0.067457f, -0.011315f, 0.007035f, -0.022688f, 0.025501f, 0.007788f, -0.039596f, -0.033028f, 0.034401f, -0.003002f, 0.025345f, -0.014810f, -0.059688f, 0.022510f, 0.017870f, -0.078377f, -0.016361f, -0.010357f, -0.059736f, -0.034107f, 0.030615f, -0.074690f, -0.061262f, -0.062570f, -0.029180f, 0.030500f, -0.076341f, 0.032034f, 0.039668f, -0.075500f, 0.031108f, -0.071600f, 0.001875f, -0.050740f, -0.036725f, -0.006193f, 0.033166f, -0.036673f, -0.017194f, -0.044220f, -0.013915f, -0.030638f, -0.038478f, 0.020982f, 0.024420f, 0.003629f, -0.042269f, -0.049831f, 0.001669f, -0.017393f, -0.032940f, -0.070452f, -0.041745f, -0.048427f, 0.047855f, -0.045661f, -0.031162f, 0.037932f, 0.026282f, 0.017412f, 0.012798f, 0.053470f, 0.042564f, -0.018506f, 0.005381f, -0.034833f, 0.018345f, 0.004311f, -0.016440f, -0.056315f, -0.045660f, -0.063361f, -0.069371f, -0.018119f, -0.008634f, 0.026576f, 0.030664f, 0.016490f, 0.031872f, -0.042358f, -0.035089f, -0.077591f, 0.025639f, -0.058843f, -0.062492f, 0.033881f, -0.042187f, 0.033297f, -0.032304f, 0.018406f, 0.037875f, -0.039601f, -0.045908f, 0.015052f, -0.018558f, 0.020768f, -0.025978f, 0.028019f, 0.027940f, -0.072325f, -0.021012f, -0.071908f, -0.034683f, -0.033455f, -0.020447f, -0.045719f, -0.030636f, -0.026277f, 0.045088f, -0.003144f, -0.055670f, -0.059220f, 0.015953f, 0.006821f, 0.026500f, -0.074240f, 0.027960f, -0.020210f, -0.059785f, 0.012497f, 0.024884f, -0.023075f, -0.053630f, -0.012228f, -0.077097f, 0.017562f, -0.021623f, -0.073749f, -0.039083f, 0.022148f, -0.037433f, 0.009164f, 0.007170f, -0.039779f, -0.071622f, -0.035828f, -0.050061f, 0.004273f, -0.082171f, 0.046773f, -0.048085f, -0.056694f, -0.000401f, -0.019247f, -0.038464f, -0.007229f, -0.024278f, -0.022912f, 0.101149f, -0.102017f, -0.070156f, -0.001735f, -0.091166f, -0.136007f, -0.004496f, -0.083112f, 0.056749f, 0.069615f, 0.015651f, 0.003105f, -0.110980f, 0.000169f, 0.033379f, -0.057385f, -0.092271f, -0.075030f, 0.086262f, 0.067181f, -0.002912f, -0.088733f, 0.063936f, -0.003602f, -0.057761f, 0.044268f, 0.058385f, 0.057998f, 0.010873f, 0.051260f, 0.146037f, -0.058566f, -0.076321f, -0.153774f, -0.014612f, -0.094295f, -0.077586f, -0.006843f, -0.047893f, 0.080368f, 0.014840f, 0.002165f, 0.088146f, 0.114121f, -0.077946f, 0.114911f, 0.017316f, 0.113069f, 0.168140f, 0.118771f, 0.081064f, -0.146413f, -0.031205f, -0.026038f, 0.023823f, -0.078714f, 0.043642f, -0.119990f, 0.029571f, -0.088474f, 0.036230f, -0.007984f, 0.019018f, 0.063460f, 0.048820f, 0.061957f, 0.132543f, 0.085934f, 0.026745f, -0.182797f, -0.102395f, -0.020243f, -0.006984f, 0.012407f, -0.184176f, 0.020504f, -0.058686f, -0.005690f, 0.028843f, -0.058138f, -0.025070f, -0.056980f, 0.205720f, 0.013073f, -0.038819f, 0.055738f, 0.139380f, 0.032931f, -0.164158f, -0.005926f, 0.033954f, 0.012502f, 0.047735f, -0.001558f, 0.183689f, 0.049627f, -0.190993f, -0.295541f, -0.337778f, 0.135757f, 0.079311f, 0.091399f, 0.086577f, 0.127645f, 0.056284f, 0.125350f, 0.308442f, -0.106780f, -0.139904f, -0.013829f, 0.052650f, 0.123692f, -0.045592f, 0.006772f, -0.044152f, -0.047570f, -0.011265f, 0.153019f, 0.151507f, -0.060493f, 0.068468f, 0.018223f, 0.188879f, 0.022138f, -0.077140f, -0.058487f, 0.014574f, 0.076309f, -0.134564f, -0.316985f, -0.207642f, 0.092002f, 0.013586f, -0.131258f, -0.083339f, 0.129762f, 0.037109f, 0.132664f, 0.169634f, 0.034201f, 0.036637f, 0.008190f, 0.074651f, 0.016468f, -0.029217f, -0.069070f, 0.054270f, 0.026354f, 0.095277f, 0.045273f, -0.038913f, -0.111584f, 0.047390f, 0.075504f, -0.027168f, 0.092555f, 0.025670f, -0.027612f, 0.045490f, 0.122178f, 0.188804f, -0.007524f, 0.146883f, 0.007454f, -0.023040f, 0.071199f, 0.031256f, -0.013258f, -0.010709f, -0.016269f, 0.077071f, 0.055129f, -0.030510f, -0.000421f, 0.018913f, 0.079338f, 0.106313f, -0.064059f, -0.135418f, 0.039458f, 0.121284f, 0.163241f, -0.006906f, -0.016660f, -0.058055f, 0.087146f, 0.042650f, 0.077826f, 0.001637f, 0.032819f, 0.047815f, -0.044538f, -0.086982f, -0.062539f, -0.003221f, -0.079476f, -0.022680f, 0.024498f, -0.006420f, -0.081541f, 0.063728f, -0.024777f, 0.078858f, -0.067539f, -0.036302f, 0.093740f, 0.121185f, 0.068021f, 0.000384f, 0.019347f, -0.017251f, 0.077436f, 0.067092f, 0.068340f, 0.008012f, 0.035884f, 0.068516f, 0.034682f, -0.005824f, -0.057732f, -0.077392f, -0.162622f, 0.013275f, -0.136382f, -0.083690f, -0.073026f, 0.126784f, -0.086129f, -0.106657f, 0.157036f, -0.011936f, -0.007651f, 0.035456f, -0.051114f, 0.070095f, -0.085831f, -0.023381f, -0.043695f, -0.074544f, 0.286297f, 0.172327f, 0.121327f, -0.071720f, 0.102071f, -0.093269f, -0.017282f, -0.128163f, 0.039026f, 0.040613f, -0.064174f, -0.071240f, -0.014403f, 0.103217f, -0.086882f, 0.027198f, 0.010302f, 0.160458f, -0.006001f, 0.101361f, 0.093444f, 0.134444f, 0.056198f, -0.140768f, -0.042283f, -0.060209f, 0.011161f, -0.042976f, 0.035091f, 0.077843f, 0.087540f, 0.027745f, -0.012775f, -0.028491f, -0.029599f, -0.033809f, -0.163113f, 0.045008f, 0.017449f, 0.042570f, 0.005191f, -0.040517f, 0.100313f, -0.076736f, 0.088789f, -0.085202f, -0.033695f, -0.012669f, 0.126130f, 0.086127f, 0.168788f, 0.185582f, 0.056764f, -0.059196f, -0.082438f, 0.006585f, -0.055584f, -0.008627f, 0.023964f, 0.127680f, -0.028095f, 0.082246f, 0.119853f, 0.059606f, -0.159297f, -0.258912f, -0.136532f, -0.197135f, -0.217613f, -0.009538f, 0.065413f, -0.106292f, -0.118570f, -0.002784f, -0.067043f, -0.109436f, 0.101867f, 0.033351f, 0.082550f, -0.008276f, -0.160963f, -0.194838f, -0.199484f, -0.138775f, -0.053160f, -0.049613f, 0.026684f, 0.066029f, -0.013827f, -0.142147f, -0.073735f, -0.031517f, -0.068786f, 0.061556f, -0.121796f, -0.127593f, -0.032649f, -0.088455f, -0.193630f, -0.106762f, -0.031829f, -0.078158f, 0.022836f, 0.077978f, 0.064358f, 0.012964f, -0.039007f, 0.040866f, -0.011612f, -0.102045f, -0.039205f, -0.033246f, -0.077039f, 0.051106f, 0.128288f, 0.048118f, 0.021818f, -0.032655f, 0.051065f, -0.041615f, -0.045296f, 0.046762f, 0.062590f, -0.047222f, -0.031116f, 0.021445f, -0.013200f, 0.073389f, -0.036467f, -0.002223f, 0.071797f, 0.037233f, 0.034125f, 0.059902f, 0.058948f, -0.002926f, -0.060825f, -0.146944f, -0.076577f, 0.022446f, -0.039502f, -0.051139f, -0.059406f, 0.121958f, 0.139703f, 0.099912f, 0.152956f, 0.014340f, 0.059633f, 0.021688f, 0.059959f, 0.132525f, -0.012529f, 0.071999f, 0.069377f, 0.066199f, -0.062124f, 0.006653f, 0.024099f, 0.001980f, -0.055268f, -0.088445f, 0.011525f, -0.142739f, -0.062029f, 0.036583f, -0.018304f, 0.111694f, 0.153781f, -0.005276f, -0.066751f, -0.056162f, 0.016086f, -0.056096f, -0.026248f, -0.136864f, -0.243774f, -0.166816f, -0.098425f, -0.000081f, 0.035387f, 0.032519f, -0.159245f, 0.000066f, -0.012067f, -0.091813f, -0.129591f, -0.002543f, -0.082086f, 0.057010f, -0.060954f, -0.185261f, -0.002556f, -0.011390f, 0.159885f, 0.090675f, 0.097563f, 0.035668f, 0.092413f, 0.002420f, -0.114733f, 0.081748f, -0.041619f, -0.024156f, -0.008444f, 0.028200f, -0.133668f, 0.047241f, -0.081324f, -0.073048f, 0.008235f, 0.001814f, -0.016832f, 0.044721f, -0.032758f, -0.089562f, 0.070881f, 0.008933f, -0.045517f, -0.002840f, 0.012202f, -0.075256f, -0.029201f, -0.052632f, -0.108308f, -0.060441f, -0.087354f, -0.051804f, -0.035823f, -0.022803f, -0.048473f, -0.065754f, -0.027549f, -0.023773f, 0.116485f, -0.045455f, -0.036376f, 0.004620f, 0.086820f, 0.050813f, 0.095543f, -0.033165f, -0.061762f, -0.151034f, -0.111473f, 0.014995f, -0.006192f, -0.108487f, -0.017193f, 0.056524f, 0.070273f, -0.034729f, 0.075565f, 0.009564f, -0.098998f, 0.090245f, -0.049673f, -0.042681f, 0.014146f, 0.146888f, 0.058850f, 0.015845f, 0.114665f, 0.075080f, -0.019060f, 0.086873f, 0.149624f, 0.029418f, 0.128387f, -0.191913f, 0.044610f, -0.170105f, 0.039126f, 0.030259f, -0.011188f, 0.018012f, 0.017734f, -0.001735f, 0.013919f, -0.045397f, 0.039264f, -0.056416f, 0.014866f, -0.052592f, -0.019471f, 0.004933f, 0.016649f, -0.082837f, -0.060175f, 0.014562f, 0.039333f, 0.039990f, 0.020636f, -0.061704f, -0.032615f, 0.037788f, -0.063813f, -0.048323f, 0.034063f, -0.047388f, 0.010605f, 0.004250f, -0.041244f, -0.022656f, -0.057528f, -0.027133f, 0.037787f, 0.037031f, 0.019175f, -0.031535f, -0.063307f, -0.048893f, -0.020391f, -0.027955f, -0.049979f, 0.039745f, -0.034546f, -0.013953f, -0.015153f, -0.048823f, 0.055577f, -0.018911f, -0.070058f, -0.057744f, -0.043305f, 0.020143f, 0.032621f, -0.008861f, -0.025722f, -0.007130f, 0.046187f, -0.075765f, -0.030323f, -0.011571f, -0.077408f, -0.007660f, -0.044006f, 0.030120f, -0.005500f, 0.018192f, -0.038674f, -0.055099f, -0.065523f, 0.003785f, 0.018358f, 0.019407f, -0.036430f, -0.052774f, -0.039874f, 0.027777f, -0.040043f, 0.015800f, -0.014006f, -0.009820f, -0.002419f, -0.068205f, 0.010579f, -0.039382f, -0.023155f, 0.037570f, 0.045764f, -0.052832f, -0.063870f, 0.018984f, 0.044453f, 0.060712f, -0.013067f, -0.034037f, 0.006030f, -0.026016f, -0.006846f, -0.033500f, 0.041050f, 0.019084f, -0.075932f, -0.047989f, 0.001827f, -0.061320f, -0.068394f, 0.031555f, -0.008959f, 0.028315f, 0.022368f, -0.076091f, -0.056248f, -0.007112f, -0.014406f, 0.023139f, -0.069489f, 0.026357f, 0.000790f, -0.054162f, 0.003875f, 0.032470f, 0.035312f, -0.000411f, -0.036714f, 0.038603f, 0.033709f, -0.067489f, 0.032606f, -0.045585f, -0.007788f, -0.015985f, 0.036215f, 0.030286f, -0.020002f, 0.014474f, -0.054214f, -0.018477f, -0.064600f, -0.003965f, -0.040350f, -0.060426f, -0.054164f, -0.067154f, -0.061202f, 0.007426f, -0.069888f, -0.018129f, -0.031631f, -0.060911f, -0.000091f, -0.055695f, -0.044697f, -0.022886f, 0.036683f, 0.018506f, 0.017775f, -0.023513f, -0.029092f, 0.035994f, -0.044195f, 